<?xml version="1.0"?>
<opencv_storage>
<Classifier type_id="opencv-ml-svm">
  <svm_type>C_SVC</svm_type>
  <kernel><type>RBF</type>
    <gamma>5.0625000000000009e-001</gamma></kernel>
  <C>1.2500000000000000e+001</C>
  <term_criteria><epsilon>1.1920928955078125e-007</epsilon>
    <iterations>100000</iterations></term_criteria>
  <var_all>1000</var_all>
  <var_count>1000</var_count>
  <class_count>2</class_count>
  <class_labels type_id="opencv-matrix">
    <rows>1</rows>
    <cols>2</cols>
    <dt>i</dt>
    <data>
      0 1</data></class_labels>
  <sv_total>268</sv_total>
  <support_vectors>
    <_>
      0. 0. 0. 0. 0. 0. 0. 0. 0. 0. 0. 0. 0. 1.88679248e-002 0. 0. 0. 0.
      1.88679248e-002 0. 0. 0. 0. 0. 0. 0. 0. 0. 0. 0. 0.
      9.43396240e-003 0. 0. 0. 0. 9.43396240e-003 0. 0. 0. 0. 0.
      9.43396240e-003 9.43396240e-003 0. 9.43396240e-003 0.
      9.43396240e-003 0. 0. 0. 0. 0. 0. 0. 0. 1.88679248e-002 0. 0. 0.
      0. 0. 0. 0. 0. 0. 0. 0. 0. 0. 0. 0. 0. 0. 0. 0. 0. 0. 0. 0. 0. 0.
      0. 0. 9.43396240e-003 0. 9.43396240e-003 9.43396240e-003 0. 0.
      9.43396240e-003 0. 0. 0. 0. 0. 0. 0. 0. 0. 0. 0. 0. 0. 0. 0. 0. 0.
      9.43396240e-003 0. 0. 0. 9.43396240e-003 0. 0. 0. 9.43396240e-003
      0. 1.88679248e-002 0. 0. 0. 0. 0. 0. 0. 0. 0. 0. 0.
      9.43396240e-003 0. 0. 0. 1.88679248e-002 0. 0. 0. 0. 0. 0. 0. 0.
      0. 1.88679248e-002 0. 9.43396240e-003 0. 0. 0. 0. 0. 0. 0. 0. 0.
      0. 0. 0. 0. 0. 0. 0. 0. 0. 0. 0. 0. 0. 0. 0. 0. 0. 0. 0. 0. 0. 0.
      0. 0. 0. 0. 0. 0. 9.43396240e-003 0. 0. 0. 0. 0. 9.43396240e-003
      0. 0. 0. 0. 0. 0. 0. 0. 0. 0. 9.43396240e-003 0. 0. 0. 0. 0. 0. 0.
      0. 0. 0. 0. 0. 0. 9.43396240e-003 0. 0. 0. 0. 0. 0. 0. 0. 0. 0. 0.
      0. 0. 9.43396240e-003 9.43396240e-003 0. 0. 0. 0. 0. 0.
      9.43396240e-003 9.43396240e-003 0. 0. 0. 0. 0. 9.43396240e-003 0.
      0. 0. 0. 0. 0. 0. 0. 0. 0. 0. 0. 0. 9.43396240e-003 0. 0. 0. 0. 0.
      0. 0. 0. 0. 0. 0. 0. 0. 0. 0. 0. 0. 0. 0. 0. 0. 0. 1.88679248e-002
      0. 0. 0. 0. 1.88679248e-002 9.43396240e-003 0. 9.43396240e-003 0.
      0. 0. 9.43396240e-003 0. 0. 0. 0. 0. 0. 0. 0. 0. 0. 0. 0. 0. 0. 0.
      0. 0. 0. 0. 9.43396240e-003 9.43396240e-003 0. 0. 0. 0. 0. 0. 0.
      0. 0. 0. 0. 0. 9.43396240e-003 0. 0. 0. 0. 0. 9.43396240e-003 0.
      0. 0. 0. 0. 0. 0. 9.43396240e-003 0. 0. 0. 0. 0. 0. 0. 0. 0. 0. 0.
      0. 0. 0. 0. 0. 0. 0. 0. 0. 0. 0. 0. 9.43396240e-003 0. 0. 0. 0. 0.
      0. 0. 0. 0. 0. 0. 1.88679248e-002 0. 0. 0. 9.43396240e-003 0. 0.
      0. 0. 0. 0. 0. 1.88679248e-002 0. 0. 0. 0. 0. 0. 0. 0. 0. 0.
      9.43396240e-003 0. 0. 0. 0. 0. 0. 0. 0. 0. 0. 0. 0. 0. 0. 0. 0. 0.
      0. 0. 0. 0. 0. 0. 0. 0. 0. 0. 0. 0. 0. 0. 0. 0. 0. 0. 0. 0. 0. 0.
      0. 0. 0. 9.43396240e-003 0. 0. 0. 0. 0. 0. 0. 0. 0. 0. 0. 0. 0. 0.
      9.43396240e-003 0. 0. 0. 9.43396240e-003 1.88679248e-002 0. 0. 0.
      9.43396240e-003 0. 0. 0. 0. 0. 0. 0. 0. 1.88679248e-002 0. 0. 0.
      0. 0. 0. 0. 9.43396240e-003 0. 0. 0. 3.77358496e-002 0.
      9.43396240e-003 0. 0. 0. 0. 0. 0. 0. 0. 0. 0. 0. 0. 0. 0. 0. 0. 0.
      0. 0. 0. 0. 0. 9.43396240e-003 0. 0. 0. 0. 0. 0. 0.
      9.43396240e-003 0. 0. 0. 0. 0. 0. 0. 0. 0. 0. 9.43396240e-003 0.
      0. 0. 9.43396240e-003 0. 0. 0. 0. 1.88679248e-002 0. 0. 0. 0. 0.
      0. 0. 0. 9.43396240e-003 9.43396240e-003 0. 0. 0. 0. 0. 0. 0.
      2.83018872e-002 0. 0. 0. 0. 0. 0. 0. 0. 0. 0. 0. 9.43396240e-003
      9.43396240e-003 0. 0. 0. 0. 0. 0. 0. 0. 0. 0. 0. 0. 0. 0. 0. 0. 0.
      0. 0. 0. 0. 0. 9.43396240e-003 0. 0. 0. 0. 0. 0. 0. 0. 0. 0.
      9.43396240e-003 0. 9.43396240e-003 0. 0. 0. 0. 0. 0. 0. 0. 0. 0.
      0. 0. 0. 0. 0. 0. 0. 0. 0. 0. 0. 0. 1.88679248e-002 0. 0. 0. 0. 0.
      0. 0. 0. 0. 0. 0. 0. 0. 0. 0. 0. 0. 0. 0. 0. 0. 0. 0. 0. 0. 0. 0.
      0. 0. 9.43396240e-003 0. 0. 0. 0. 0. 0. 0. 0. 0. 0. 0. 0. 0. 0. 0.
      0. 0. 0. 0. 0. 0. 0. 0. 0. 0. 0. 9.43396240e-003 0. 0. 0. 0. 0. 0.
      0. 0. 0. 0. 0. 0. 0. 9.43396240e-003 0. 0. 0. 0. 0. 0. 0. 0. 0. 0.
      0. 0. 0. 0. 0. 0. 0. 0. 0. 0. 0. 0. 0. 0. 0. 0. 0. 0. 0. 0. 0. 0.
      0. 0. 0. 0. 0. 0. 0. 0. 0. 0. 0. 0. 0. 0. 0. 0. 0. 0. 0. 0. 0. 0.
      0. 0. 0. 0. 0. 0. 0. 0. 0. 0. 0. 0. 0. 0. 0. 0. 0. 0.
      1.88679248e-002 0. 0. 0. 0. 0. 0. 0. 0. 0. 0. 0. 0. 0. 0. 0. 0. 0.
      0. 0. 0. 9.43396240e-003 0. 0. 0. 0. 0. 0. 0. 0. 0. 0. 0. 0. 0. 0.
      0. 0. 9.43396240e-003 0. 0. 9.43396240e-003 0. 0. 0. 0. 0. 0. 0.
      0. 0. 0. 0. 0. 0. 0. 0. 0. 9.43396240e-003 0. 0. 0. 0. 0. 0. 0. 0.
      0. 0. 0. 0. 0. 0. 0. 0. 0. 0. 0. 0. 0. 0. 0. 0. 0. 0. 0. 0. 0. 0.
      9.43396240e-003 0. 0. 0. 0. 0. 0. 0. 0. 0. 0. 0. 0. 0. 0. 0. 0. 0.
      0. 0. 0. 0. 0. 0. 0. 0. 0. 0. 0. 0. 0. 0. 0. 0. 0. 9.43396240e-003
      0. 0. 0. 0. 0. 0. 0. 0. 0. 0. 0. 1.88679248e-002 0. 0. 0. 0. 0. 0.
      0. 0. 0. 0. 9.43396240e-003 0. 0. 0. 0. 0. 0. 0. 0. 0. 0. 0. 0. 0.
      9.43396240e-003 0. 0. 0. 0. 0. 0. 0. 0. 0. 1.88679248e-002 0. 0.
      0. 0. 0. 0. 9.43396240e-003 0. 0. 0. 0. 0. 0. 0. 0. 0. 0. 0. 0. 0.
      0. 0. 0. 0. 0. 0. 0. 0. 0. 0. 0. 0. 0. 0. 0. 0. 0. 0. 0. 0. 0. 0.
      0. 0. 0. 0. 0. 0. 0. 0. 0. 0. 0.</_>
    <_>
      0. 0. 0. 5.89970499e-003 0. 0. 2.94985250e-003 0. 0. 0. 0. 0. 0.
      0. 0. 2.94985250e-003 0. 0. 0. 0. 0. 0. 0. 0. 2.94985250e-003 0.
      2.94985250e-003 0. 0. 2.94985250e-003 0. 0. 0. 0. 2.94985250e-003
      2.94985250e-003 5.89970499e-003 0. 0. 2.94985250e-003 0. 0.
      2.94985250e-003 0. 0. 0. 2.94985250e-003 0. 0. 0. 0.
      2.94985250e-003 5.89970499e-003 0. 0. 0. 0. 0. 0. 0. 0.
      5.89970499e-003 5.89970499e-003 8.84955749e-003 2.94985250e-003 0.
      0. 2.94985250e-003 0. 0. 0. 0. 0. 0. 2.94985250e-003 0. 0. 0. 0.
      0. 0. 0. 2.94985250e-003 0. 0. 0. 5.89970499e-003 0. 0. 0.
      2.94985250e-003 0. 0. 0. 0. 0. 0. 2.94985250e-003 0. 0. 0. 0. 0.
      2.94985250e-003 0. 0. 5.89970499e-003 5.89970499e-003
      2.94985250e-003 2.94985250e-003 1.17994100e-002 0. 8.84955749e-003
      0. 0. 2.94985250e-003 2.94985250e-003 0. 0. 5.89970499e-003
      2.94985250e-003 0. 0. 0. 0. 0. 0. 0. 0. 0. 0. 0. 0. 0.
      1.17994100e-002 0. 0. 2.94985250e-003 0. 0. 5.89970499e-003 0. 0.
      0. 0. 0. 0. 0. 0. 0. 0. 0. 0. 0. 0. 2.94985250e-003
      2.94985250e-003 0. 0. 0. 2.94985250e-003 0. 0. 0. 0. 0. 0.
      2.94985250e-003 2.94985250e-003 0. 0. 0. 0. 0. 5.89970499e-003 0.
      0. 0. 0. 0. 0. 0. 0. 2.94985250e-003 0. 2.94985250e-003 0.
      2.94985250e-003 0. 0. 0. 0. 0. 1.17994100e-002 0. 0. 0. 0. 0. 0.
      0. 0. 2.94985250e-003 0. 2.94985250e-003 0. 5.89970499e-003
      2.94985250e-003 0. 0. 0. 8.84955749e-003 2.94985250e-003 0.
      2.94985250e-003 0. 0. 0. 0. 0. 2.94985250e-003 2.94985250e-003 0.
      0. 0. 0. 0. 2.94985250e-003 2.94985250e-003 0. 0. 0. 0. 0. 0. 0.
      0. 0. 2.94985250e-003 2.94985250e-003 0. 0. 0. 0. 0. 0. 0. 0. 0.
      2.94985250e-003 0. 0. 2.94985250e-003 0. 0. 0. 5.89970499e-003
      8.84955749e-003 0. 0. 0. 0. 0. 0. 1.17994100e-002 0.
      8.84955749e-003 2.94985250e-003 0. 5.89970499e-003 0. 0. 0. 0. 0.
      0. 0. 2.94985250e-003 0. 2.94985250e-003 0. 5.89970499e-003 0. 0.
      2.94985250e-003 0. 0. 0. 1.76991150e-002 0. 0. 0. 0. 0. 0.
      2.94985250e-003 0. 1.76991150e-002 0. 0. 0. 0. 0. 0.
      2.94985250e-003 0. 0. 2.94985250e-003 0. 0. 0. 0. 0. 0. 0. 0. 0.
      5.89970499e-003 0. 0. 0. 0. 0. 0. 0. 2.94985250e-003 0.
      2.94985250e-003 0. 2.94985250e-003 0. 0. 0. 0. 0. 0. 0.
      5.89970499e-003 0. 0. 0. 5.89970499e-003 0. 0. 0. 2.94985250e-003
      0. 0. 0. 0. 0. 0. 0. 0. 5.89970499e-003 0. 0. 0. 0. 0. 0. 0.
      2.94985250e-003 0. 2.94985250e-003 0. 0. 2.94985250e-003
      2.94985250e-003 0. 0. 0. 0. 0. 0. 0. 0. 8.84955749e-003 0. 0. 0.
      0. 0. 0. 0. 0. 0. 0. 0. 0. 0. 0. 5.89970499e-003 0. 0. 0.
      2.94985250e-003 2.94985250e-003 0. 0. 0. 0. 0. 0. 2.94985250e-003
      2.94985250e-003 0. 2.94985250e-003 0. 0. 0. 0. 0. 0. 0. 0.
      2.94985250e-003 0. 0. 0. 0. 5.89970499e-003 0. 0. 0. 0. 0. 0. 0.
      2.94985250e-003 2.94985250e-003 0. 0. 0. 2.94985250e-003
      2.94985250e-003 0. 0. 0. 0. 0. 2.94985250e-003 0. 2.94985250e-003
      0. 2.94985250e-003 0. 5.89970499e-003 0. 0. 0. 2.94985250e-003 0.
      0. 0. 2.94985250e-003 0. 0. 0. 0. 2.94985250e-003 0. 0. 0. 0. 0.
      0. 8.84955749e-003 0. 0. 0. 0. 0. 0. 0. 2.94985250e-003 0. 0. 0.
      0. 0. 0. 0. 0. 0. 0. 0. 0. 0. 0. 2.94985250e-003 0. 0. 0. 0. 0. 0.
      0. 2.94985250e-003 0. 0. 2.65486725e-002 0. 0. 0. 0. 0. 0. 0. 0.
      2.94985250e-003 0. 2.94985250e-003 2.94985250e-003 0. 0. 0.
      2.94985250e-003 0. 0. 2.94985250e-003 2.94985250e-003 0. 0. 0. 0.
      0. 0. 0. 2.94985250e-003 0. 0. 0. 0. 0. 0. 0. 5.89970499e-003 0.
      0. 0. 2.94985250e-003 2.94985250e-003 0. 0. 2.06489675e-002
      5.89970499e-003 0. 0. 0. 0. 0. 0. 0. 2.94985250e-003
      5.89970499e-003 0. 0. 0. 2.94985250e-003 0. 0. 0. 0. 0. 0. 0. 0.
      2.94985250e-003 0. 0. 0. 0. 0. 2.94985250e-003 0. 0. 0. 0. 0. 0.
      0. 2.94985250e-003 0. 2.94985250e-003 0. 0. 0. 2.94985250e-003 0.
      0. 0. 0. 0. 0. 0. 0. 0. 0. 5.89970499e-003 2.94985250e-003 0.
      2.94985250e-003 0. 0. 0. 0. 0. 0. 0. 1.76991150e-002 0. 0. 0. 0.
      0. 0. 0. 0. 0. 0. 0. 0. 0. 0. 0. 0. 0. 0. 5.89970499e-003 0.
      2.94985250e-003 0. 0. 0. 2.94985250e-003 0. 2.94985250e-003 0.
      2.94985250e-003 2.94985250e-003 2.94985250e-003 0. 0.
      5.89970499e-003 0. 0. 2.94985250e-003 0. 5.89970499e-003 0.
      2.94985250e-003 0. 2.94985250e-003 0. 0. 0. 0. 0. 0.
      2.94985250e-003 2.94985250e-003 2.94985250e-003 0. 0. 0. 0. 0.
      2.94985250e-003 0. 0. 0. 0. 0. 2.94985250e-003 2.94985250e-003 0.
      0. 0. 8.84955749e-003 0. 2.94985250e-003 0. 2.94985250e-003 0. 0.
      2.94985250e-003 0. 0. 0. 0. 0. 0. 0. 0. 2.94985250e-003 0. 0. 0.
      0. 2.94985250e-003 0. 0. 0. 0. 0. 0. 0. 0. 2.94985250e-003 0. 0.
      5.89970499e-003 0. 0. 0. 0. 0. 0. 0. 2.94985250e-003
      2.94985250e-003 0. 0. 0. 0. 0. 0. 5.89970499e-003 0. 0. 0.
      5.89970499e-003 0. 0. 0. 0. 0. 8.84955749e-003 2.94985250e-003 0.
      0. 0. 0. 0. 0. 2.94985250e-003 2.94985250e-003 2.94985250e-003 0.
      2.94985250e-003 0. 0. 0. 8.84955749e-003 0. 0. 1.17994100e-002 0.
      0. 0. 0. 5.89970499e-003 0. 2.94985250e-003 0. 0. 2.94985250e-003
      0. 0. 0. 0. 0. 0. 0. 8.84955749e-003 0. 0. 0. 0. 0. 0. 0. 0. 0. 0.
      0. 0. 0. 2.35988200e-002 0. 0. 0. 0. 0. 0. 0. 2.94985250e-003
      2.94985250e-003 0. 0. 0. 0. 0. 0. 0. 0. 2.94985250e-003 0. 0. 0.
      0. 0. 0. 0. 0. 2.94985250e-003 0. 0. 0. 0. 0. 0. 2.94985250e-003
      5.89970499e-003 8.84955749e-003 0. 0. 0. 0. 2.94985250e-003 0. 0.
      2.94985250e-003 0. 0. 0. 0. 0. 0. 0. 0. 0. 0. 0. 2.94985250e-003
      0. 0. 0. 0. 2.94985250e-003 0. 0. 0. 0. 0. 0. 0. 0. 0. 0.
      2.94985250e-003 0. 0. 2.94985250e-003 0. 0. 0. 0. 0. 0. 0. 0. 0.
      0. 0. 5.89970499e-003 0. 0. 0. 0. 0. 2.94985250e-003 0. 0. 0. 0.
      0. 0. 0. 0. 0. 5.89970499e-003 0. 0. 0. 0. 0. 0. 0. 0. 0. 0. 0. 0.
      0. 2.94985250e-003 0. 2.94985250e-003 0. 0. 0. 0. 0.
      2.94985250e-003 0. 2.94985250e-003 2.94985250e-003 0.
      2.94985250e-003 0. 0. 0. 0. 0. 0. 0. 0. 2.94985250e-003 0. 0.
      2.94985250e-003 0. 0. 0. 2.94985250e-003 1.17994100e-002 0. 0. 0.
      0. 2.94985250e-003 0. 0. 0. 0. 0. 0. 0. 2.94985250e-003 0. 0. 0.
      0. 0. 0. 0. 0. 0. 0. 0. 0. 2.94985250e-003 2.94985250e-003 0. 0.
      0. 2.94985250e-003 0. 0. 0. 0. 0. 0. 0. 2.94985250e-003 0. 0. 0.
      0. 5.89970499e-003 2.94985250e-003 0. 0. 0. 2.94985250e-003
      2.94985250e-003 1.17994100e-002 0. 0. 0. 0. 0. 0. 2.94985250e-003
      0. 2.94985250e-003 0. 0. 0.</_>
    <_>
      0. 0. 0. 8.84955749e-003 0. 0. 0. 0. 0. 0. 0. 0. 0.
      8.84955749e-003 0. 8.84955749e-003 0. 0. 0. 0. 0. 0. 0. 0. 0. 0.
      0. 0. 0. 0. 0. 0. 0. 0. 8.84955749e-003 0. 2.65486725e-002 0. 0.
      0. 0. 0. 0. 0. 0. 0. 0. 0. 0. 0. 0. 0. 0. 0. 0. 0. 1.76991150e-002
      0. 0. 0. 0. 0. 0. 0. 0. 0. 0. 0. 0. 0. 0. 0. 0. 0. 0.
      8.84955749e-003 0. 0. 0. 0. 0. 0. 0. 0. 0. 0. 0. 0. 0. 0. 0. 0. 0.
      0. 0. 0. 0. 0. 0. 0. 0. 0. 8.84955749e-003 0. 8.84955749e-003 0.
      0. 0. 8.84955749e-003 0. 8.84955749e-003 0. 0. 0. 0. 0. 0. 0. 0.
      0. 0. 0. 0. 0. 0. 0. 0. 0. 0. 0. 8.84955749e-003 0. 0. 0. 0. 0. 0.
      0. 0. 0. 0. 0. 0. 0. 0. 0. 0. 0. 0. 0. 0. 0. 0. 0. 0.
      1.76991150e-002 0. 0. 0. 0. 0. 0. 0. 0. 0. 0. 0. 0. 0. 0. 0. 0. 0.
      0. 0. 0. 0. 0. 0. 0. 0. 0. 0. 0. 8.84955749e-003 0. 0. 0. 0. 0. 0.
      0. 0. 0. 0. 0. 0. 0. 0. 0. 0. 0. 0. 0. 0. 0. 8.84955749e-003 0. 0.
      0. 0. 0. 0. 0. 0. 0. 0. 0. 0. 0. 0. 0. 0. 8.84955749e-003 0. 0. 0.
      0. 0. 0. 0. 0. 0. 0. 0. 0. 0. 0. 2.65486725e-002 0. 0.
      8.84955749e-003 0. 0. 0. 0. 0. 8.84955749e-003 0. 0. 0. 0. 0. 0.
      0. 0. 8.84955749e-003 0. 1.76991150e-002 0. 0. 0. 0. 0. 0. 0. 0.
      0. 0. 0. 8.84955749e-003 0. 0. 0. 0. 8.84955749e-003 0. 0. 0. 0.
      0. 0. 8.84955749e-003 8.84955749e-003 0. 0. 0. 0. 0. 0. 0.
      8.84955749e-003 0. 0. 0. 0. 0. 0. 0. 0. 0. 0. 8.84955749e-003 0.
      0. 0. 0. 0. 0. 0. 0. 0. 0. 0. 0. 0. 0. 0. 0. 0. 0. 0. 0. 0. 0. 0.
      0. 8.84955749e-003 0. 0. 0. 0. 0. 0. 0. 0. 0. 0. 0. 0. 0. 0. 0. 0.
      0. 8.84955749e-003 0. 8.84955749e-003 0. 0. 0. 0. 0. 0. 0. 0. 0.
      0. 0. 0. 0. 0. 0. 0. 8.84955749e-003 0. 0. 0. 0. 0. 0. 0. 0. 0. 0.
      0. 0. 8.84955749e-003 0. 0. 0. 0. 0. 0. 0. 0. 0. 0. 0. 0. 0. 0. 0.
      0. 0. 0. 0. 0. 0. 0. 0. 0. 0. 0. 0. 0. 0. 0. 0. 0. 0. 0.
      1.76991150e-002 0. 0. 0. 0. 0. 8.84955749e-003 0. 0. 0. 0.
      1.76991150e-002 0. 0. 0. 0. 0. 0. 0. 0. 0. 0. 0. 0.
      8.84955749e-003 0. 0. 0. 0. 0. 0. 8.84955749e-003 8.84955749e-003
      0. 0. 8.84955749e-003 0. 0. 0. 0. 0. 0. 0. 0. 0. 0. 0. 0. 0. 0. 0.
      0. 0. 0. 0. 0. 0. 0. 0. 0. 0. 0. 0. 0. 0. 0. 0. 0. 0. 0. 0. 0. 0.
      0. 0. 0. 0. 0. 8.84955749e-003 0. 0. 0. 0. 0. 0. 0. 0. 0. 0.
      8.84955749e-003 0. 0. 0. 0. 0. 0. 0. 0. 0. 0. 0. 0. 0. 0. 0. 0. 0.
      0. 8.84955749e-003 0. 0. 0. 0. 0. 8.84955749e-003 0. 0. 0. 0. 0.
      8.84955749e-003 0. 0. 0. 0. 2.65486725e-002 0. 0. 0. 0.
      8.84955749e-003 0. 0. 1.76991150e-002 0. 0. 0. 0. 4.42477874e-002
      0. 0. 0. 8.84955749e-003 0. 0. 0. 0. 8.84955749e-003 0. 0. 0. 0.
      0. 0. 0. 0. 0. 0. 0. 0. 0. 0. 0. 0. 0. 0. 0. 0. 0. 0.
      8.84955749e-003 0. 0. 0. 0. 0. 0. 0. 0. 0. 0. 0. 0. 0. 0. 0. 0.
      8.84955749e-003 0. 0. 0. 0. 0. 0. 0. 0. 0. 0. 0. 0. 0.
      1.76991150e-002 0. 0. 0. 0. 8.84955749e-003 0. 0. 0. 0. 0. 0. 0.
      1.76991150e-002 0. 0. 0. 0. 0. 0. 0. 0. 0. 0. 0. 0.
      8.84955749e-003 0. 0. 8.84955749e-003 0. 8.84955749e-003 0. 0. 0.
      0. 0. 8.84955749e-003 0. 0. 0. 0. 0. 0. 0. 0. 0. 0. 0. 0. 0. 0. 0.
      0. 0. 0. 0. 0. 0. 0. 0. 0. 0. 0. 0. 0. 0. 0. 0. 8.84955749e-003 0.
      0. 0. 1.76991150e-002 0. 0. 0. 0. 0. 0. 0. 0. 8.84955749e-003 0.
      0. 0. 0. 0. 0. 0. 0. 0. 0. 0. 0. 0. 0. 0. 0. 0. 0. 0. 0. 0.
      8.84955749e-003 0. 0. 0. 0. 0. 0. 0. 0. 8.84955749e-003 0. 0. 0.
      0. 0. 0. 0. 0. 0. 0. 0. 1.76991150e-002 0. 0. 0. 0. 0.
      8.84955749e-003 0. 1.76991150e-002 1.76991150e-002 0. 0. 0. 0. 0.
      0. 0. 0. 0. 8.84955749e-003 0. 0. 0. 0. 0. 0. 0. 8.84955749e-003
      0. 0. 0. 0. 0. 0. 0. 0. 0. 0. 8.84955749e-003 0. 0. 0. 0. 0. 0. 0.
      0. 0. 0. 0. 0. 0. 0. 0. 0. 0. 0. 0. 0. 0. 0. 0. 0. 0.
      8.84955749e-003 0. 0. 0. 0. 0. 0. 0. 0. 0. 0. 0. 0. 0. 0. 0. 0.
      8.84955749e-003 0. 0. 0. 0. 0. 0. 8.84955749e-003 0. 0. 0.
      8.84955749e-003 0. 0. 0. 0. 0. 0. 0. 0. 0. 8.84955749e-003 0. 0.
      0. 0. 0. 0. 0. 0. 0. 0. 0. 0. 0. 0. 0. 0. 0. 0. 0. 8.84955749e-003
      0. 0. 0. 0. 0. 0. 0. 0. 0. 8.84955749e-003 0. 0. 0. 0. 0. 0. 0. 0.
      0. 8.84955749e-003 0. 0. 0. 0. 0. 0. 0. 0. 0. 0. 0. 0. 0. 0.
      8.84955749e-003 0. 0. 0. 0. 0. 0. 0. 0. 0. 0. 0. 0. 0. 0. 0. 0. 0.
      0. 0. 0. 0. 0. 0. 0. 0. 0. 8.84955749e-003 0. 0. 0. 0. 0. 0. 0. 0.
      0. 0. 0. 0. 0. 0. 0. 0. 0. 8.84955749e-003 0. 8.84955749e-003 0.
      8.84955749e-003 0. 1.76991150e-002 0. 0. 8.84955749e-003 0. 0. 0.
      0. 0. 0. 0. 0. 0. 8.84955749e-003 0. 0. 0. 0. 0. 0. 0. 0.
      8.84955749e-003 0. 0. 0. 0. 0. 0. 0. 0. 0. 0. 0. 0. 0. 0. 0. 0. 0.
      0. 8.84955749e-003 0. 0. 0. 0. 0. 0. 0. 8.84955749e-003 0. 0. 0.
      0.</_>
    <_>
      0. 0. 0. 0. 0. 0. 0. 0. 0. 0. 0. 0. 0. 0. 0. 0. 0. 0. 0. 0. 0. 0.
      0. 0. 0. 0. 0. 0. 0. 0. 0. 0. 0. 0. 0. 0. 0. 0. 0. 0. 0. 0. 0. 0.
      0. 0. 0. 0. 0. 0. 0. 0. 0. 0. 0. 0. 0. 0. 0. 0. 0. 0. 0. 0. 0. 0.
      0. 0. 0. 0. 1.00000001e-001 0. 0. 0. 0. 0. 0. 0. 0. 0. 0. 0. 0. 0.
      0. 0. 0. 0. 0. 0. 0. 0. 0. 0. 0. 0. 0. 0. 0. 0. 0. 0. 0. 0. 0. 0.
      0. 0. 0. 0. 0. 0. 0. 0. 0. 0. 0. 0. 0. 0. 0. 0. 0. 0. 0. 0. 0. 0.
      0. 0. 0. 0. 0. 0. 0. 0. 0. 0. 0. 0. 0. 1.00000001e-001 0. 0. 0. 0.
      0. 0. 0. 0. 0. 0. 0. 0. 0. 0. 0. 0. 0. 0. 0. 0. 0. 0. 0. 0. 0. 0.
      0. 0. 0. 0. 0. 0. 0. 0. 0. 0. 0. 0. 0. 0. 0. 0. 0. 0. 0. 0. 0. 0.
      0. 1.00000001e-001 1.00000001e-001 0. 0. 0. 0. 0. 0. 0. 0. 0. 0.
      0. 0. 0. 0. 0. 0. 0. 0. 0. 0. 0. 0. 0. 0. 0. 0. 0. 0. 0. 0. 0. 0.
      0. 0. 0. 0. 0. 0. 0. 0. 0. 0. 0. 0. 0. 0. 0. 0. 0. 0. 0. 0. 0. 0.
      0. 0. 0. 0. 0. 0. 0. 0. 0. 0. 0. 0. 0. 0. 0. 0. 0. 0. 0. 0. 0. 0.
      0. 0. 0. 0. 0. 0. 0. 0. 0. 0. 0. 0. 0. 0. 0. 0. 0. 0. 0. 0. 0. 0.
      0. 0. 0. 0. 0. 0. 0. 0. 0. 0. 0. 0. 0. 0. 0. 0. 0. 0. 0. 0. 0. 0.
      0. 0. 0. 0. 0. 0. 0. 0. 0. 0. 0. 0. 0. 0. 0. 0. 0. 0. 0. 0. 0. 0.
      0. 0. 0. 0. 0. 0. 0. 0. 0. 0. 0. 0. 0. 0. 0. 0. 0. 0. 0. 0. 0. 0.
      0. 0. 0. 0. 0. 0. 0. 0. 0. 0. 0. 0. 0. 0. 0. 0. 0. 0. 0. 0. 0. 0.
      0. 0. 0. 0. 0. 0. 0. 0. 0. 0. 0. 0. 0. 0. 0. 0. 0. 0. 0. 0. 0. 0.
      0. 0. 0. 0. 0. 0. 0. 0. 0. 0. 0. 0. 0. 0. 0. 0. 0. 0. 0. 0. 0. 0.
      0. 0. 0. 0. 0. 0. 0. 0. 0. 0. 0. 0. 0. 0. 0. 0. 0. 0. 0. 0. 0. 0.
      0. 0. 0. 0. 0. 0. 0. 0. 0. 0. 0. 0. 1.00000001e-001 0. 0. 0. 0. 0.
      0. 0. 0. 0. 0. 0. 0. 0. 0. 0. 0. 0. 0. 0. 0. 0. 0. 0. 0. 0. 0. 0.
      0. 0. 0. 0. 0. 0. 0. 0. 0. 0. 0. 0. 0. 0. 0. 0. 0. 0. 0. 0. 0. 0.
      0. 0. 0. 0. 0. 0. 0. 0. 0. 0. 0. 0. 0. 0. 0. 0. 0. 0. 0. 0. 0. 0.
      0. 0. 0. 0. 0. 0. 0. 0. 0. 0. 0. 0. 0. 0. 0. 0. 0. 0. 0. 0. 0. 0.
      0. 0. 0. 0. 0. 0. 0. 0. 0. 0. 0. 0. 0. 0. 0. 0. 0. 0. 0. 0. 0. 0.
      0. 0. 0. 0. 0. 0. 0. 0. 0. 0. 0. 0. 0. 0. 0. 0. 0. 0. 0. 0. 0. 0.
      0. 0. 0. 0. 1.00000001e-001 0. 0. 0. 0. 0. 0. 0. 0. 0. 0. 0. 0. 0.
      0. 0. 0. 0. 0. 0. 0. 0. 0. 0. 0. 0. 0. 0. 0. 0. 0. 0. 0. 0. 0. 0.
      0. 0. 0. 0. 0. 0. 0. 0. 0. 0. 0. 0. 0. 0. 0. 0. 0. 0. 0. 0. 0. 0.
      0. 0. 0. 0. 0. 0. 0. 0. 0. 0. 0. 0. 0. 0. 0. 0. 0. 0. 0. 0. 0. 0.
      0. 0. 0. 0. 0. 0. 0. 0. 0. 0. 0. 0. 0. 0. 0. 0. 0. 0. 0. 0. 0. 0.
      0. 0. 0. 0. 0. 0. 0. 0. 0. 0. 0. 0. 0. 0. 0. 0. 0. 0. 0. 0. 0.
      1.00000001e-001 0. 0. 0. 0. 0. 0. 0. 0. 0. 0. 0. 0. 0. 0. 0. 0. 0.
      0. 0. 0. 0. 0. 0. 0. 0. 0. 0. 0. 0. 0. 0. 0. 0. 0. 0. 0. 0. 0. 0.
      0. 0. 0. 0. 0. 0. 0. 0. 0. 0. 0. 0. 0. 0. 0. 0. 0. 0. 0. 0. 0. 0.
      0. 0. 0. 0. 0. 0. 0. 0. 0. 0. 0. 0. 0. 0. 0. 0. 2.00000003e-001 0.
      0. 0. 0. 0. 0. 0. 0. 0. 0. 0. 0. 0. 0. 0. 0. 0. 0. 0. 0. 0. 0. 0.
      0. 0. 1.00000001e-001 0. 0. 0. 0. 0. 0. 0. 0. 0. 0. 0. 0. 0. 0. 0.
      0. 0. 0. 0. 0. 0. 0. 0. 0. 0. 0. 0. 0. 0. 0. 0. 0. 0. 0. 0. 0. 0.
      0. 0. 0. 0. 0. 0. 0. 0. 0. 0. 0. 0. 0. 0. 0. 0. 0. 0. 0. 0. 0. 0.
      0. 0. 0. 0. 0. 0. 0. 0. 0. 0. 0. 0. 0. 0. 0. 0. 0. 0. 0. 0. 0. 0.
      0. 0. 0. 0. 0. 0. 0. 0. 0. 0. 0. 0. 0. 0. 0. 0. 0. 0. 0. 0. 0. 0.
      0. 0. 0. 0. 0. 0. 0. 0. 0. 0. 0. 0. 0. 0. 0. 0. 0. 0. 0. 0. 0. 0.
      0. 0. 0. 0. 0. 0. 0. 0. 0. 0. 0. 0. 0. 0. 0. 0. 0. 0. 0. 0. 0. 0.
      0. 0. 0. 0. 0. 0. 0. 0. 0. 0. 0. 0. 0. 0. 0. 0. 0. 0. 0. 0. 0. 0.
      0. 0. 0. 0.</_>
    <_>
      0. 0. 0. 0. 0. 0. 0. 0. 0. 0. 0. 0. 0. 0. 0. 0. 0. 0. 0. 0. 0. 0.
      0. 0. 0. 0. 0. 0. 0. 0. 0. 0. 0. 0. 0. 0. 0. 0. 0. 0. 0.
      2.00000018e-001 0. 0. 0. 0. 0. 0. 0. 0. 0. 0. 0. 0. 0. 0. 0. 0. 0.
      0. 0. 0. 0. 0. 0. 0. 0. 0. 0. 0. 0. 0. 0. 0. 0. 0. 0. 0. 0. 0. 0.
      0. 0. 0. 1.33333340e-001 0. 0. 0. 0. 0. 0. 0. 0. 0. 0. 0. 0. 0. 0.
      0. 0. 0. 0. 0. 0. 0. 0. 0. 0. 0. 0. 0. 0. 0. 0. 0. 0. 0. 0. 0. 0.
      0. 0. 0. 0. 0. 0. 0. 0. 0. 0. 0. 0. 0. 0. 6.66666701e-002 0. 0. 0.
      0. 0. 0. 0. 0. 0. 0. 0. 0. 0. 0. 0. 0. 0. 0. 0. 0. 0. 0. 0. 0. 0.
      0. 0. 0. 0. 0. 0. 0. 0. 0. 0. 0. 6.66666701e-002 0. 0. 0. 0. 0. 0.
      0. 0. 0. 0. 0. 0. 0. 0. 0. 0. 0. 0. 0. 0. 0. 0. 0. 0. 0. 0. 0. 0.
      0. 0. 0. 0. 0. 0. 0. 0. 0. 0. 0. 0. 0. 0. 0. 0. 0. 0. 0. 0. 0. 0.
      0. 0. 0. 0. 0. 0. 0. 0. 0. 0. 0. 0. 0. 0. 0. 0. 0. 0. 0. 0. 0. 0.
      0. 0. 0. 1.33333340e-001 0. 0. 0. 0. 0. 0. 0. 0. 0. 0. 0. 0. 0. 0.
      0. 0. 0. 0. 0. 0. 0. 0. 0. 0. 0. 0. 0. 0. 0. 0. 0. 0. 0. 0. 0. 0.
      0. 0. 0. 0. 6.66666701e-002 0. 0. 0. 0. 0. 0. 0. 0. 0. 0. 0. 0. 0.
      0. 0. 0. 0. 0. 0. 0. 0. 0. 0. 0. 0. 0. 0. 0. 0. 0. 0. 0. 0. 0. 0.
      0. 0. 0. 0. 0. 0. 0. 0. 0. 0. 0. 0. 0. 0. 0. 0. 0. 0. 0. 0.
      6.66666701e-002 0. 0. 0. 0. 0. 0. 0. 0. 0. 0. 0. 0. 0. 0. 0. 0. 0.
      0. 0. 0. 0. 0. 0. 0. 0. 0. 0. 0. 0. 0. 0. 0. 0. 0. 0. 0. 0. 0. 0.
      0. 0. 0. 0. 0. 0. 0. 0. 0. 0. 0. 0. 0. 0. 0. 0. 0. 0. 0. 0. 0. 0.
      0. 0. 0. 0. 0. 0. 0. 0. 0. 0. 0. 0. 0. 0. 0. 0. 0. 0. 0. 0. 0. 0.
      0. 0. 0. 0. 0. 0. 0. 0. 0. 0. 0. 0. 0. 0. 0. 0. 0. 0. 0. 0. 0. 0.
      0. 0. 0. 0. 0. 0. 0. 0. 0. 0. 0. 0. 0. 0. 0. 0. 0. 0. 0. 0. 0. 0.
      0. 0. 0. 0. 0. 0. 0. 0. 0. 0. 0. 0. 0. 6.66666701e-002 0. 0. 0. 0.
      0. 0. 0. 0. 0. 0. 0. 0. 0. 0. 0. 0. 0. 0. 0. 0. 0. 0. 0. 0. 0. 0.
      0. 0. 0. 0. 0. 0. 0. 0. 0. 0. 0. 0. 0. 0. 0. 0. 0. 0. 0. 0. 0. 0.
      0. 0. 0. 0. 0. 0. 0. 0. 6.66666701e-002 0. 0. 0. 0. 0. 0. 0. 0. 0.
      0. 0. 0. 0. 0. 0. 0. 0. 0. 0. 0. 0. 0. 0. 0. 0. 0. 0. 0. 0. 0. 0.
      0. 0. 0. 0. 0. 0. 0. 0. 0. 0. 0. 0. 0. 0. 0. 0. 0. 0. 0. 0. 0. 0.
      0. 0. 0. 0. 0. 0. 0. 0. 0. 0. 0. 0. 0. 0. 0. 0. 0. 0. 0. 0. 0. 0.
      0. 0. 0. 0. 0. 0. 0. 0. 0. 0. 0. 0. 0. 0. 0. 0. 0. 0. 0. 0. 0. 0.
      0. 0. 0. 0. 0. 0. 0. 0. 0. 0. 0. 0. 0. 0. 0. 0. 0. 0. 0. 0. 0. 0.
      0. 0. 0. 0. 0. 0. 0. 0. 0. 0. 0. 0. 0. 0. 0. 0. 0. 0. 0. 0. 0. 0.
      0. 0. 0. 0. 0. 0. 0. 0. 0. 0. 0. 0. 0. 0. 0. 0. 0. 0. 0. 0. 0. 0.
      0. 0. 0. 0. 0. 0. 0. 0. 0. 0. 0. 0. 0. 0. 0. 0. 0. 0. 0. 0. 0. 0.
      0. 0. 0. 0. 0. 0. 0. 0. 0. 0. 0. 0. 0. 0. 0. 0. 0. 0.
      6.66666701e-002 0. 0. 0. 0. 0. 0. 0. 0. 0. 0. 0. 0. 0. 0. 0. 0. 0.
      0. 0. 0. 0. 0. 0. 0. 0. 0. 0. 0. 0. 0. 0. 0. 0. 0. 0. 0. 0. 0. 0.
      0. 0. 0. 0. 0. 0. 0. 0. 0. 0. 0. 0. 0. 0. 0. 0. 0. 0. 0. 0. 0. 0.
      0. 0. 0. 0. 0. 0. 0. 6.66666701e-002 0. 0. 0. 0. 0. 0. 0. 0. 0. 0.
      0. 0. 0. 0. 0. 0. 0. 0. 0. 0. 0. 0. 0. 0. 0. 0. 0. 0. 0. 0. 0. 0.
      0. 0. 0. 0. 0. 0. 0. 0. 0. 0. 0. 0. 0. 0. 0. 0. 0. 0. 0. 0. 0. 0.
      0. 0. 0. 0. 0. 0. 0. 0. 0. 0. 0. 0. 0. 0. 0. 0. 0. 0. 0. 0. 0. 0.
      0. 0. 0. 0. 0. 0. 0. 0. 0. 0. 0. 0. 0. 0. 0. 0. 0. 0. 0. 0. 0. 0.
      0. 0. 0. 0. 0. 0. 0. 0. 0. 0. 0. 0. 0. 0. 0. 0. 0. 0. 0. 0. 0. 0.
      0. 0. 0. 0. 0. 0. 0. 0. 0. 0. 0. 0. 0. 0. 0. 0. 0. 0. 0. 0. 0. 0.
      0. 0. 0. 0. 0. 0. 0. 0. 0. 0. 0. 0. 0. 0. 0. 0. 0. 0. 0. 0. 0. 0.
      0. 0. 0. 0. 0. 0. 0. 0. 0. 0. 0. 0. 0. 0. 0. 0. 0. 0. 0.</_>
    <_>
      0. 0. 0. 6.17283955e-003 0. 0. 3.08641978e-003 0. 0. 0. 0. 0. 0.
      6.17283955e-003 0. 0. 0. 0. 1.54320989e-002 0. 0. 6.17283955e-003
      3.08641978e-003 3.08641978e-003 0. 0. 0. 0. 0. 3.08641978e-003 0.
      3.08641978e-003 0. 0. 0. 0. 0. 0. 0. 3.08641978e-003 0. 0. 0. 0.
      3.08641978e-003 0. 0. 0. 6.17283955e-003 3.08641978e-003 0.
      3.08641978e-003 0. 0. 0. 0. 0. 3.08641978e-003 0. 3.08641978e-003
      3.08641978e-003 0. 0. 0. 0. 0. 0. 0. 0. 0. 0. 0. 0. 0. 0. 0. 0. 0.
      0. 0. 0. 0. 0. 9.25925933e-003 6.17283955e-003 0. 0. 0. 0.
      3.08641978e-003 3.08641978e-003 0. 0. 0. 0. 0. 3.08641978e-003 0.
      0. 0. 0. 0. 0. 3.08641978e-003 0. 3.08641978e-003 0.
      3.08641978e-003 3.08641978e-003 3.08641978e-003 0. 3.08641978e-003
      3.08641978e-003 0. 0. 0. 0. 0. 3.08641978e-003 1.23456791e-002
      3.08641978e-003 0. 0. 0. 0. 0. 0. 0. 0. 0. 0. 0. 0. 0. 0. 0.
      3.08641978e-003 0. 0. 0. 0. 6.17283955e-003 0. 0. 3.08641978e-003
      0. 0. 0. 0. 0. 3.08641978e-003 0. 0. 6.17283955e-003 0. 0. 0. 0.
      0. 0. 0. 0. 0. 0. 0. 0. 1.23456791e-002 6.17283955e-003
      3.08641978e-003 3.08641978e-003 9.25925933e-003 0. 0. 0. 0. 0. 0.
      0. 0. 0. 0. 0. 3.08641978e-003 0. 0. 3.08641978e-003
      9.25925933e-003 0. 6.17283955e-003 0. 0. 0. 0. 0. 0.
      3.08641978e-003 0. 0. 0. 0. 0. 0. 0. 0. 0. 0. 0. 0.
      3.08641978e-003 0. 0. 0. 0. 0. 1.23456791e-002 0. 3.08641978e-003
      0. 0. 3.08641978e-003 0. 0. 3.08641978e-003 0. 0. 0. 0. 0.
      1.23456791e-002 0. 3.08641978e-003 0. 0. 6.17283955e-003 0. 0. 0.
      0. 0. 6.17283955e-003 0. 0. 0. 0. 0. 0. 0. 0. 3.08641978e-003 0.
      0. 0. 2.46913582e-002 0. 0. 3.08641978e-003 0. 0. 0. 0.
      3.08641978e-003 0. 0. 0. 6.17283955e-003 0. 0. 0. 0.
      1.23456791e-002 0. 0. 0. 0. 0. 0. 0. 0. 0. 0. 0. 3.08641978e-003
      0. 3.08641978e-003 0. 9.25925933e-003 9.25925933e-003 0.
      6.17283955e-003 0. 0. 0. 0. 0. 0. 0. 0. 3.08641978e-003 0. 0.
      3.08641978e-003 0. 3.08641978e-003 3.08641978e-003 0.
      3.08641978e-003 0. 0. 0. 3.08641978e-003 0. 0. 0. 0. 0.
      6.17283955e-003 0. 0. 0. 0. 0. 0. 0. 0. 0. 0. 0. 0. 0. 0. 0. 0. 0.
      0. 0. 0. 3.08641978e-003 6.17283955e-003 0. 6.17283955e-003 0.
      3.08641978e-003 0. 0. 0. 0. 0. 0. 0. 0. 0. 0. 0. 3.08641978e-003
      9.25925933e-003 9.25925933e-003 0. 0. 0. 0. 3.08641978e-003 0.
      6.17283955e-003 0. 0. 0. 0. 0. 0. 0. 0. 9.25925933e-003 0. 0. 0.
      0. 3.08641978e-003 0. 0. 0. 0. 0. 0. 6.17283955e-003 0. 0. 0. 0.
      0. 0. 0. 0. 1.23456791e-002 0. 0. 0. 0. 3.08641978e-003 0. 0. 0.
      0. 0. 0. 0. 0. 0. 3.08641978e-003 0. 0. 6.17283955e-003 0. 0. 0.
      0. 0. 0. 3.08641978e-003 0. 6.17283955e-003 0. 1.23456791e-002 0.
      0. 0. 0. 0. 0. 0. 0. 0. 0. 0. 0. 0. 0. 0. 0. 0. 3.08641978e-003
      6.17283955e-003 3.08641978e-003 0. 6.17283955e-003 0. 0. 0. 0. 0.
      0. 3.08641978e-003 3.08641978e-003 6.17283955e-003 9.25925933e-003
      0. 3.08641978e-003 0. 0. 0. 0. 0. 0. 0. 3.08641978e-003 0.
      3.08641978e-003 0. 3.08641978e-003 0. 0. 3.08641978e-003 0. 0. 0.
      0. 6.17283955e-003 0. 0. 0. 0. 6.17283955e-003 6.17283955e-003 0.
      0. 0. 0. 3.08641978e-003 0. 0. 0. 6.17283955e-003 0.
      1.23456791e-002 0. 0. 0. 0. 3.08641978e-003 0. 0. 0.
      6.17283955e-003 3.08641978e-003 0. 0. 0. 3.08641978e-003 0. 0. 0.
      0. 0. 3.08641978e-003 3.08641978e-003 0. 0. 0. 0. 3.08641978e-003
      0. 0. 0. 0. 0. 0. 0. 0. 0. 0. 3.08641978e-003 0. 0. 0. 0. 0. 0. 0.
      3.08641978e-003 0. 3.08641978e-003 0. 0. 3.08641978e-003
      3.08641978e-003 0. 0. 0. 0. 0. 0. 0. 0. 0. 3.08641978e-003 0.
      3.08641978e-003 0. 0. 3.08641978e-003 0. 0. 0. 0. 0. 0. 0. 0. 0.
      0. 0. 0. 0. 0. 0. 0. 3.08641978e-003 0. 3.08641978e-003 0. 0. 0.
      0. 0. 0. 0. 0. 0. 0. 0. 0. 0. 0. 0. 3.08641978e-003 0. 0. 0. 0. 0.
      0. 0. 0. 6.17283955e-003 3.08641978e-003 0. 0. 0. 0. 0. 0.
      3.08641978e-003 0. 6.17283955e-003 0. 0. 0. 3.08641978e-003 0. 0.
      0. 0. 3.08641978e-003 3.08641978e-003 1.85185187e-002 0. 0.
      3.08641978e-003 0. 3.08641978e-003 0. 0. 3.08641978e-003 0. 0. 0.
      0. 0. 6.17283955e-003 0. 3.08641978e-003 0. 0. 0. 3.08641978e-003
      0. 0. 0. 0. 0. 0. 0. 0. 0. 6.17283955e-003 3.08641978e-003 0. 0.
      0. 0. 0. 0. 0. 3.08641978e-003 0. 0. 0. 0. 0. 0. 0. 0. 0. 0. 0. 0.
      0. 0. 0. 0. 0. 0. 0. 0. 3.08641978e-003 0. 0. 9.25925933e-003 0.
      0. 0. 0. 0. 0. 0. 0. 0. 0. 0. 0. 0. 0. 0. 3.08641978e-003 0. 0. 0.
      0. 0. 0. 0. 0. 0. 0. 6.17283955e-003 0. 0. 0. 0. 0.
      3.08641978e-003 0. 0. 6.17283955e-003 0. 0. 0. 0. 0. 0. 0. 0. 0.
      0. 0. 0. 0. 0. 0. 0. 9.25925933e-003 0. 0. 0. 0. 0. 0. 0. 0. 0. 0.
      3.08641978e-003 0. 0. 6.17283955e-003 3.08641978e-003 0. 0. 0. 0.
      0. 0. 0. 0. 0. 0. 3.08641978e-003 0. 3.08641978e-002
      3.08641978e-003 0. 3.08641978e-003 3.08641978e-003 0. 0.
      3.08641978e-003 0. 0. 0. 0. 0. 0. 0. 0. 0. 0. 0. 0. 0. 0.
      6.17283955e-003 0. 0. 0. 0. 0. 0. 0. 0. 0. 0. 0. 0. 0. 0. 0. 0. 0.
      0. 0. 0. 3.08641978e-003 0. 6.17283955e-003 0. 0. 3.08641978e-003
      3.08641978e-003 0. 0. 0. 0. 0. 0. 3.08641978e-003 0.
      9.25925933e-003 0. 0. 0. 0. 0. 0. 0. 0. 0. 0. 0. 0. 0. 0. 0. 0. 0.
      0. 0. 0. 0. 0. 0. 0. 9.25925933e-003 0. 3.08641978e-003 0. 0. 0.
      6.17283955e-003 0. 0. 3.08641978e-003 0. 3.08641978e-003 0. 0. 0.
      0. 0. 0. 0. 0. 0. 0. 3.08641978e-003 0. 0. 3.08641978e-003 0. 0.
      0. 0. 0. 0. 0. 3.08641978e-003 0. 0. 0. 0. 0. 0. 0. 0. 0. 0. 0. 0.
      3.08641978e-003 0. 3.08641978e-003 0. 3.08641978e-003
      3.08641978e-003 0. 0. 0. 3.08641978e-003 0. 0. 0. 0.
      3.08641978e-003 0. 0. 0. 3.08641978e-003 0. 0. 0. 0. 0. 0. 0.
      3.08641978e-003 0. 0. 0. 0. 0. 0. 6.17283955e-003 0. 0. 0. 0. 0.
      6.17283955e-003 3.08641978e-003 0. 0. 0. 3.08641978e-003 0.
      3.08641978e-003 3.08641978e-003 0. 3.08641978e-003 0. 0.
      6.17283955e-003 0. 0. 0. 0. 0. 0. 0. 0. 3.08641978e-003 0. 0. 0.
      0. 0. 3.08641978e-003 0. 0. 6.17283955e-003 0. 0. 0. 0. 0. 0. 0.
      0. 0. 0. 0. 0. 0. 3.08641978e-003 1.23456791e-002 0. 0. 0.
      3.08641978e-003 0. 0. 0. 0. 0. 0. 0. 0. 1.23456791e-002 0. 0. 0.
      0. 0.</_>
    <_>
      0. 0. 0. 0. 0. 0. 0. 0. 0. 1.35135138e-002 0. 0. 0. 0. 0. 0. 0. 0.
      2.70270277e-002 0. 0. 0. 0. 0. 0. 0. 0. 1.35135138e-002 0. 0. 0.
      0. 0. 0. 0. 0. 0. 0. 0. 1.35135138e-002 0. 0. 0. 0. 0. 0.
      2.70270277e-002 0. 0. 0. 0. 0. 0. 0. 0. 0. 0. 0. 0. 0. 0. 0.
      1.35135138e-002 0. 1.35135138e-002 0. 0. 0. 0. 0. 0. 0. 0.
      1.35135138e-002 0. 0. 0. 0. 0. 0. 0. 0. 0. 0. 0. 0. 0. 0. 0. 0. 0.
      0. 0. 0. 0. 0. 0. 0. 0. 0. 0. 0. 0. 0. 0. 0. 0. 0. 0. 0. 0. 0.
      1.35135138e-002 0. 0. 0. 0. 0. 0. 1.35135138e-002 1.35135138e-002
      0. 0. 0. 1.35135138e-002 0. 0. 0. 0. 0. 0. 0. 0. 0. 0. 0. 0. 0. 0.
      0. 0. 0. 2.70270277e-002 0. 0. 0. 0. 0. 0. 0. 0. 0. 0. 0. 0. 0. 0.
      0. 0. 0. 0. 0. 0. 0. 0. 0. 0. 4.05405425e-002 0. 0. 0. 0. 0. 0. 0.
      0. 0. 0. 2.70270277e-002 0. 1.35135138e-002 0. 0. 0. 0. 0. 0. 0.
      0. 0. 0. 0. 0. 0. 0. 0. 0. 0. 0. 0. 0. 0. 0. 0. 0. 0. 0. 0. 0. 0.
      0. 0. 0. 0. 1.35135138e-002 0. 0. 0. 0. 0. 0. 0. 1.35135138e-002
      0. 0. 0. 0. 0. 0. 1.35135138e-002 0. 0. 0. 0. 0. 0. 0. 0. 0. 0. 0.
      0. 0. 0. 0. 0. 0. 0. 0. 0. 0. 0. 0. 0. 0. 0. 0. 0. 0. 0. 0. 0. 0.
      0. 5.40540554e-002 0. 0. 0. 0. 0. 0. 0. 0. 0. 0. 0. 0. 0. 0. 0. 0.
      0. 0. 0. 0. 0. 2.70270277e-002 0. 0. 0. 0. 0. 2.70270277e-002
      1.35135138e-002 0. 0. 0. 0. 0. 0. 0. 0. 0. 1.35135138e-002 0. 0.
      0. 0. 0. 0. 0. 0. 0. 0. 0. 0. 0. 1.35135138e-002 1.35135138e-002
      0. 0. 0. 0. 0. 0. 1.35135138e-002 0. 0. 0. 0. 0. 0. 0. 0. 0.
      1.35135138e-002 0. 0. 0. 0. 0. 0. 0. 0. 0. 0. 0. 0. 0.
      1.35135138e-002 0. 0. 0. 0. 4.05405425e-002 0. 0. 1.35135138e-002
      0. 1.35135138e-002 0. 0. 0. 0. 0. 0. 0. 0. 0. 0. 0. 0. 0. 0. 0. 0.
      0. 0. 0. 0. 0. 0. 0. 1.35135138e-002 0. 0. 1.35135138e-002 0.
      1.35135138e-002 0. 0. 0. 0. 0. 0. 0. 0. 0. 0. 0. 0. 0. 0. 0. 0. 0.
      0. 0. 0. 0. 0. 0. 0. 0. 0. 0. 0. 0. 0. 0. 0. 0. 0. 0. 0. 0. 0. 0.
      0. 0. 0. 0. 0. 0. 0. 0. 0. 0. 0. 0. 0. 0. 0. 1.35135138e-002 0. 0.
      0. 0. 0. 0. 0. 0. 0. 0. 0. 0. 0. 0. 0. 0. 0. 0. 0. 0. 0. 0. 0. 0.
      0. 0. 0. 0. 0. 0. 0. 0. 0. 0. 0. 0. 0. 0. 0. 0. 0. 0. 0. 0. 0. 0.
      0. 0. 0. 2.70270277e-002 1.35135138e-002 0. 0. 0. 0. 0. 0. 0. 0.
      0. 0. 0. 0. 0. 0. 0. 0. 0. 0. 0. 0. 0. 0. 0. 1.35135138e-002 0. 0.
      0. 0. 0. 0. 0. 0. 0. 0. 0. 0. 0. 0. 0. 0. 0. 0. 0. 0. 0. 0. 0. 0.
      0. 0. 0. 0. 0. 0. 0. 0. 0. 0. 0. 0. 0. 0. 0. 0. 0. 0. 0. 0. 0. 0.
      0. 0. 0. 0. 0. 0. 0. 0. 0. 0. 0. 0. 0. 0. 0. 0. 0. 0. 0. 0. 0. 0.
      0. 0. 0. 0. 0. 0. 0. 0. 0. 0. 0. 0. 0. 0. 0. 2.70270277e-002 0. 0.
      0. 0. 1.35135138e-002 0. 0. 0. 0. 0. 0. 0. 0. 0. 0. 0. 0. 0. 0. 0.
      0. 0. 0. 0. 0. 1.35135138e-002 0. 0. 0. 0. 0. 0. 0. 0. 0. 0. 0. 0.
      0. 0. 0. 0. 0. 0. 0. 0. 0. 0. 1.35135138e-002 0. 0. 0. 0. 0. 0. 0.
      0. 0. 0. 0. 0. 0. 0. 0. 0. 0. 0. 0. 0. 0. 0. 0. 0. 0. 0. 0. 0. 0.
      0. 0. 0. 0. 0. 1.35135138e-002 0. 0. 0. 0. 0. 0. 0. 0. 0. 0. 0. 0.
      0. 0. 0. 0. 0. 0. 0. 4.05405425e-002 0. 0. 0. 0. 0. 0. 0. 0. 0. 0.
      0. 0. 0. 0. 0. 0. 0. 0. 0. 0. 0. 0. 0. 0. 0. 0. 1.35135138e-002 0.
      0. 0. 0. 0. 1.35135138e-002 0. 0. 0. 0. 0. 0. 0. 0. 0. 0. 0. 0. 0.
      0. 0. 0. 0. 0. 0. 0. 0. 0. 0. 0. 0. 0. 0. 0. 0. 0. 0. 0. 0. 0. 0.
      0. 0. 0. 0. 0. 0. 0. 0. 0. 0. 0. 0. 0. 0. 0. 0. 0. 0. 0.
      1.35135138e-002 0. 0. 0. 0. 0. 0. 0. 0. 0. 0. 0. 0. 0. 0. 0. 0. 0.
      0. 1.35135138e-002 0. 0. 1.35135138e-002 0. 0. 0. 0. 0. 0. 0. 0.
      0. 0. 0. 0. 0. 0. 0. 0. 0. 0. 0. 0. 0. 0. 0. 0. 0. 0. 0. 0. 0. 0.
      0. 0. 0. 0. 0. 0. 0. 0. 0. 0. 0. 0. 0. 0. 0. 0. 0. 0. 0. 0. 0. 0.
      0. 0. 0. 0. 0. 0. 0. 0. 0. 0. 0. 0. 0. 0. 0. 0. 0. 1.35135138e-002
      0. 0. 0. 0. 0. 0. 0. 0. 0. 0. 0. 0. 0. 0. 0. 0. 0. 0. 0. 0. 0. 0.
      0. 0. 0. 0. 0. 0. 0. 0. 0. 0. 0. 0. 0. 0. 0. 0. 0. 0. 0. 0. 0. 0.
      0. 0. 0. 0. 0. 2.70270277e-002 0. 0. 0. 0. 0. 0. 0. 0. 0. 0. 0. 0.
      0. 0. 0. 0. 0. 0. 0. 0. 0. 0. 1.35135138e-002 1.35135138e-002 0.
      0. 0. 0. 0. 0. 0. 1.35135138e-002 0. 0. 0. 0. 0. 0. 0. 0. 0. 0. 0.
      0. 1.35135138e-002 0. 0. 0. 0. 0. 0. 0. 0. 0. 0. 0. 0. 0. 0. 0. 0.
      0. 0.</_>
    <_>
      0. 0. 0. 0. 0. 0. 0. 0. 0. 0. 0. 0. 0. 0. 0. 0. 0. 0. 0. 0. 0. 0.
      0. 0. 0. 0. 0. 0. 0. 0. 0. 0. 1.85185187e-002 0. 0. 0. 0. 0. 0. 0.
      0. 0. 0. 0. 0. 0. 0. 0. 0. 0. 0. 0. 0. 0. 0. 0. 0. 0. 0. 0. 0. 0.
      0. 0. 0. 0. 0. 0. 0. 0. 0. 0. 0. 0. 0. 0. 1.85185187e-002 0. 0. 0.
      0. 0. 0. 0. 0. 0. 0. 1.85185187e-002 0. 0. 0. 0. 0. 0. 0. 0. 0. 0.
      0. 0. 0. 0. 0. 0. 0. 0. 0. 0. 0. 0. 0. 0. 0. 0. 0. 1.85185187e-002
      0. 0. 0. 0. 0. 0. 0. 0. 0. 0. 0. 0. 0. 0. 0. 0. 0. 0. 0. 0. 0. 0.
      0. 0. 0. 0. 0. 0. 0. 0. 0. 0. 0. 0. 0. 0. 0. 2.40740746e-001 0. 0.
      0. 0. 0. 0. 0. 0. 0. 0. 0. 0. 0. 0. 0. 0. 0. 0. 0. 0. 0.
      1.85185187e-002 0. 0. 1.85185187e-002 0. 0. 0. 1.85185187e-002 0.
      0. 0. 0. 0. 0. 0. 0. 0. 0. 0. 0. 0. 0. 0. 0. 0. 0. 0. 0. 0. 0. 0.
      0. 0. 0. 0. 0. 1.85185187e-002 0. 0. 0. 0. 0. 0. 0. 0. 0. 0. 0. 0.
      0. 0. 0. 0. 1.85185187e-002 0. 0. 0. 0. 0. 0. 0. 0. 0. 0. 0. 0. 0.
      0. 0. 0. 0. 0. 0. 0. 0. 0. 0. 0. 0. 0. 0. 0. 0. 0. 0. 0. 0. 0. 0.
      0. 0. 0. 0. 0. 0. 0. 0. 0. 0. 0. 0. 0. 0. 0. 0. 0. 0. 0. 0. 0.
      1.85185187e-002 0. 0. 0. 0. 0. 0. 0. 0. 0. 0. 0. 0. 0. 0. 0. 0. 0.
      0. 0. 0. 0. 0. 0. 0. 0. 0. 0. 0. 0. 0. 0. 0. 0. 0. 0. 0. 0. 0. 0.
      0. 0. 0. 0. 0. 0. 0. 0. 0. 0. 0. 0. 0. 1.85185187e-002 0. 0.
      9.25925970e-002 0. 0. 0. 0. 0. 1.85185187e-002 0. 0. 0. 0. 0. 0.
      0. 0. 0. 0. 0. 0. 0. 0. 0. 0. 0. 0. 0. 0. 0. 0. 0. 0. 0. 0. 0. 0.
      0. 0. 0. 0. 0. 0. 0. 0. 0. 0. 0. 0. 0. 0. 0. 0. 0. 0. 0. 0. 0. 0.
      0. 0. 0. 1.85185187e-002 0. 0. 0. 0. 0. 0. 0. 0. 0. 0. 0. 0. 0. 0.
      0. 0. 0. 0. 0. 0. 0. 0. 0. 0. 0. 0. 0. 0. 0. 0. 0. 0. 0. 0. 0. 0.
      0. 0. 0. 0. 0. 0. 0. 0. 0. 1.85185187e-002 0. 0. 0. 0. 0. 0. 0. 0.
      0. 0. 0. 0. 0. 0. 0. 0. 0. 0. 0. 0. 0. 0. 0. 0. 0. 0. 0. 0. 0. 0.
      0. 0. 0. 0. 0. 0. 0. 0. 0. 0. 0. 0. 0. 0. 0. 0. 0. 0. 0. 0. 0. 0.
      0. 0. 0. 0. 0. 0. 0. 0. 0. 0. 0. 0. 0. 0. 0. 0. 0. 0. 0. 0. 0. 0.
      0. 0. 0. 0. 0. 0. 0. 0. 0. 0. 0. 0. 0. 0. 0. 0. 0. 0. 0. 0. 0. 0.
      0. 9.25925970e-002 0. 0. 0. 0. 1.85185187e-002 0. 0. 0. 0. 0. 0.
      0. 0. 0. 0. 0. 0. 0. 0. 1.85185187e-002 0. 0. 0. 0. 0. 0. 0. 0. 0.
      0. 0. 0. 0. 0. 0. 0. 0. 0. 0. 0. 0. 0. 0. 0. 0. 0. 0. 0. 0. 0. 0.
      0. 0. 0. 0. 0. 0. 0. 0. 0. 0. 0. 0. 0. 0. 0. 0. 0. 0. 0. 0. 0. 0.
      0. 0. 0. 0. 0. 1.85185187e-002 0. 0. 1.85185187e-002 0. 0. 0. 0.
      0. 0. 0. 0. 0. 0. 0. 0. 0. 0. 0. 0. 0. 0. 0. 0. 0. 0. 0. 0. 0. 0.
      0. 0. 0. 0. 0. 0. 0. 0. 0. 0. 0. 0. 0. 0. 0. 0. 0. 0. 0. 0. 0. 0.
      0. 0. 0. 0. 0. 0. 0. 0. 0. 0. 3.70370373e-002 0. 0. 0. 0. 0. 0. 0.
      0. 0. 0. 0. 0. 0. 1.85185187e-002 0. 0. 0. 0. 0. 0.
      1.85185187e-002 0. 0. 0. 0. 0. 0. 0. 0. 1.85185187e-002 0. 0. 0.
      0. 0. 0. 0. 0. 0. 0. 0. 0. 0. 0. 0. 0. 0. 0. 0. 0. 0.
      1.85185187e-002 0. 0. 0. 0. 0. 0. 0. 0. 0. 0. 0. 0. 0. 0. 0. 0. 0.
      0. 0. 0. 0. 0. 0. 0. 0. 0. 0. 0. 0. 0. 0. 0. 0. 0. 0. 0. 0. 0. 0.
      0. 0. 0. 0. 0. 0. 0. 0. 0. 0. 0. 0. 0. 0. 0. 0. 0. 0. 0. 0. 0.
      1.85185187e-002 0. 0. 0. 0. 0. 0. 0. 0. 0. 0. 0. 0. 0. 0. 0. 0. 0.
      0. 0. 0. 0. 0. 0. 0. 0. 0. 3.70370373e-002 0. 0. 0. 0. 0. 0. 0. 0.
      0. 0. 1.85185187e-002 0. 0. 0. 0. 0. 0. 0. 0. 0. 0. 0. 0. 0. 0. 0.
      0. 0. 0. 0. 0. 0. 0. 0. 1.85185187e-002 0. 0. 0. 0. 0. 0. 0. 0. 0.
      0. 0. 0. 0. 0. 0. 0. 0. 0. 0. 0. 0. 0. 0. 0. 0. 0. 0. 0. 0. 0. 0.
      0. 0. 0. 0. 0. 0. 0. 1.85185187e-002 0. 0. 0. 0. 0. 0. 0. 0. 0. 0.
      0. 0. 0. 0. 0. 0. 0. 0. 0. 0. 0. 0. 0. 0. 0. 0. 0. 0. 0. 0. 0. 0.
      0. 0. 0. 0. 0. 0. 0. 0. 0. 0. 0. 0. 0. 0. 0. 0. 0. 0. 0. 0. 0. 0.
      0. 0. 0. 0. 0. 0. 0. 0. 0. 0. 0. 0. 0. 1.85185187e-002 0. 0. 0. 0.
      0. 0. 0. 0. 0. 0. 0. 0. 0. 0. 0. 0. 0. 0. 0. 0. 0. 0. 0. 0. 0. 0.
      0. 0. 0. 0. 0.</_>
    <_>
      0. 0. 0. 0. 0. 0. 0. 0. 0. 0. 1.28205130e-002 0. 0. 0. 0. 0. 0. 0.
      0. 0. 0. 0. 0. 0. 0. 1.28205130e-002 0. 0. 0. 0. 0. 0. 0. 0. 0. 0.
      1.28205130e-002 0. 0. 0. 0. 0. 0. 0. 0. 0. 0. 0. 0. 0. 0. 0. 0. 0.
      0. 0. 0. 0. 0. 0. 0. 0. 0. 0. 0. 0. 0. 0. 0. 2.56410260e-002 0. 0.
      0. 0. 0. 0. 0. 0. 1.28205130e-002 0. 0. 0. 1.28205130e-002 0. 0.
      0. 0. 0. 0. 0. 0. 0. 1.28205130e-002 0. 0. 0. 0. 0. 0. 0. 0. 0. 0.
      0. 0. 0. 0. 0. 0. 0. 0. 0. 0. 0. 0. 0. 0. 0. 0. 0. 0. 0. 0. 0. 0.
      0. 0. 0. 0. 0. 0. 0. 0. 0. 0. 0. 0. 0. 0. 0. 0. 0. 0. 0. 0. 0. 0.
      0. 0. 0. 0. 0. 0. 0. 0. 0. 0. 0. 0. 0. 0. 0. 0. 0. 0. 0. 0. 0. 0.
      0. 0. 0. 0. 0. 0. 0. 1.28205130e-002 0. 0. 0. 0. 0. 0. 0. 0. 0. 0.
      0. 0. 0. 0. 0. 0. 0. 0. 0. 0. 0. 0. 0. 0. 0. 0. 0. 0. 0. 0. 0. 0.
      0. 0. 1.28205130e-002 0. 0. 0. 0. 0. 0. 0. 0. 0. 0. 0. 0. 0.
      1.28205130e-002 0. 0. 0. 0. 0. 0. 0. 0. 0. 0. 0. 0. 0. 0. 0. 0. 0.
      3.84615399e-002 0. 0. 0. 0. 0. 0. 0. 0. 0. 0. 0. 0. 0. 0. 0.
      1.28205130e-002 0. 0. 0. 0. 0. 0. 0. 0. 0. 0. 0. 0. 0. 0. 0. 0.
      1.28205130e-002 0. 0. 0. 0. 0. 0. 0. 0. 0. 0. 0. 0. 0. 0. 0. 0. 0.
      0. 3.84615399e-002 0. 0. 0. 0. 0. 0. 0. 0. 0. 0. 0. 0. 0. 0. 0. 0.
      0. 0. 0. 0. 5.12820520e-002 0. 0. 0. 0. 0. 0. 0. 0. 0. 0. 0.
      1.28205130e-002 0. 0. 0. 1.28205130e-002 0. 0. 0. 0. 0. 0.
      3.84615399e-002 0. 0. 0. 0. 1.28205130e-002 0. 0. 3.84615399e-002
      0. 0. 0. 0. 0. 0. 0. 0. 0. 0. 0. 0. 0. 0. 0. 0. 0. 0. 0. 0. 0. 0.
      0. 0. 0. 0. 0. 0. 0. 0. 0. 0. 0. 0. 0. 0. 0. 0. 0. 0. 0. 0. 0. 0.
      0. 0. 0. 0. 0. 1.28205130e-002 0. 0. 0. 0. 0. 0. 0. 0. 0. 0. 0. 0.
      0. 0. 0. 0. 0. 1.28205130e-002 0. 0. 0. 0. 0. 0. 7.69230798e-002
      0. 0. 2.56410260e-002 0. 0. 0. 3.84615399e-002 0. 0. 0. 0. 0. 0.
      0. 0. 0. 0. 0. 0. 0. 0. 0. 0. 0. 0. 0. 0. 0. 0. 0. 0. 0. 0. 0. 0.
      0. 0. 1.28205130e-002 0. 0. 0. 0. 0. 0. 0. 0. 0. 0. 0. 0. 0. 0. 0.
      0. 0. 0. 0. 0. 0. 0. 0. 0. 0. 0. 0. 0. 0. 0. 1.28205130e-002 0.
      1.28205130e-002 0. 0. 0. 0. 0. 0. 0. 0. 0. 0. 0. 0. 0. 0. 0. 0. 0.
      0. 0. 0. 0. 0. 0. 1.28205130e-002 0. 0. 0. 0. 0. 0. 0. 0. 0. 0. 0.
      0. 0. 0. 0. 0. 0. 0. 0. 1.28205130e-002 0. 0. 0. 0. 0. 0. 0. 0.
      1.28205130e-002 1.28205130e-002 0. 0. 0. 0. 0. 0. 0. 0.
      1.28205130e-002 0. 0. 0. 0. 0. 0. 0. 2.56410260e-002 0. 0.
      1.28205130e-002 0. 0. 0. 0. 0. 0. 0. 0. 0. 0. 0. 0. 0. 0. 0. 0. 0.
      0. 0. 0. 0. 0. 0. 0. 0. 0. 0. 0. 0. 0. 0. 0. 0. 0. 1.28205130e-002
      0. 0. 0. 0. 0. 0. 0. 0. 0. 0. 0. 0. 0. 0. 0. 0. 0. 0. 0. 0. 0.
      1.28205130e-002 0. 0. 0. 0. 0. 0. 0. 0. 0. 0. 0. 0. 0. 0. 0. 0. 0.
      0. 0. 0. 0. 0. 0. 0. 0. 0. 0. 0. 0. 0. 0. 0. 1.28205130e-002 0. 0.
      0. 0. 0. 0. 0. 0. 0. 0. 0. 0. 0. 0. 0. 0. 0. 0. 0. 0.
      3.84615399e-002 0. 2.56410260e-002 0. 0. 0. 0. 0. 0. 0. 0. 0. 0.
      0. 0. 0. 2.56410260e-002 0. 0. 0. 0. 0. 0. 0. 0. 0. 0. 0. 0.
      3.84615399e-002 0. 0. 0. 0. 0. 0. 0. 0. 0. 0. 0. 1.28205130e-002
      0. 0. 0. 0. 0. 0. 0. 0. 0. 0. 0. 0. 0. 1.28205130e-002 0. 0. 0. 0.
      0. 0. 0. 0. 0. 0. 0. 0. 0. 0. 1.28205130e-002 0. 0. 0. 0. 0. 0. 0.
      0. 0. 0. 0. 0. 0. 0. 0. 0. 0. 0. 0. 0. 0. 0. 0. 0. 0. 0. 0. 0. 0.
      0. 0. 0. 0. 0. 0. 0. 0. 0. 0. 0. 0. 0. 0. 0. 0. 0. 0. 0. 0. 0. 0.
      2.56410260e-002 0. 0. 0. 0. 0. 0. 0. 0. 0. 0. 0. 0. 0. 0. 0. 0. 0.
      0. 0. 0. 0. 0. 0. 0. 0. 0. 0. 0. 0. 0. 0. 0. 0. 0. 1.28205130e-002
      0. 0. 0. 0. 0. 0. 0. 0. 0. 0. 0. 0. 0. 0. 0. 0. 0. 0. 0. 0. 0. 0.
      0. 0. 0. 0. 0. 0. 0. 0. 0. 0. 0. 0. 0. 0. 0. 0. 0. 0. 0. 0. 0. 0.
      0. 0. 0. 0. 0. 0. 0. 0. 0. 0. 0. 0. 0. 0. 0. 0. 0. 0. 0. 0. 0. 0.
      0. 0. 0. 0. 0. 0. 0. 0. 0. 1.28205130e-002 0. 0. 0. 0. 0. 0. 0. 0.
      0. 0. 0. 0. 0. 0. 0. 0. 0. 0. 0. 0. 0. 0. 0. 0. 0. 0. 0. 0. 0. 0.
      0. 0. 1.28205130e-002 0. 0. 0. 0. 0. 0. 0. 0. 0. 0. 0. 0. 0. 0. 0.
      0. 0. 0. 0. 1.28205130e-002 0. 0. 0. 0. 0. 0. 0. 0. 0. 0. 0. 0. 0.
      0. 0. 0. 0. 0. 0. 0. 0. 0. 0. 0. 0. 0. 0. 0. 0. 0. 0. 0. 0. 0. 0.</_>
    <_>
      0. 0. 0. 8.40336177e-003 0. 0. 0. 0. 0. 4.20168089e-003 0. 0. 0.
      0. 4.20168089e-003 0. 0. 0. 1.26050431e-002 0. 0. 0. 0. 0. 0. 0.
      4.20168089e-003 0. 0. 0. 0. 1.26050431e-002 0. 4.20168089e-003 0.
      0. 0. 4.20168089e-003 0. 0. 0. 0. 0. 0. 0. 0. 0. 0. 0. 0. 0.
      4.20168089e-003 0. 0. 0. 0. 0. 0. 4.20168089e-003 0.
      4.20168089e-003 4.20168089e-003 4.20168089e-003 0. 0. 0. 0. 0. 0.
      0. 8.40336177e-003 0. 0. 0. 0. 0. 0. 0. 0. 0. 0. 0. 0.
      1.26050431e-002 4.20168089e-003 0. 0. 0. 0. 0. 0. 0.
      4.20168089e-003 0. 0. 0. 0. 4.20168089e-003 0. 0. 0. 0. 0. 0. 0.
      0. 0. 0. 4.20168089e-003 0. 0. 4.20168089e-003 0. 0. 0.
      8.40336177e-003 0. 0. 0. 1.68067235e-002 0. 8.40336177e-003 0. 0.
      0. 0. 0. 0. 0. 0. 0. 0. 0. 0. 1.68067235e-002 4.20168089e-003 0.
      4.20168089e-003 4.20168089e-003 4.20168089e-003 0. 0.
      8.40336177e-003 0. 0. 0. 0. 0. 0. 0. 0. 0. 0. 0. 0. 0. 0.
      4.20168089e-003 0. 8.40336177e-003 0. 0. 0. 0. 0. 4.20168089e-003
      0. 0. 0. 0. 0. 0. 4.20168089e-003 0. 0. 0. 0. 0. 0. 0. 0. 0. 0. 0.
      0. 0. 4.20168089e-003 4.20168089e-003 0. 0. 4.20168089e-003 0. 0.
      0. 0. 0. 0. 0. 2.10084040e-002 0. 0. 0. 0. 0. 0. 0. 0. 0. 0. 0. 0.
      0. 0. 0. 8.40336177e-003 0. 0. 4.20168089e-003 0. 0.
      4.20168089e-003 0. 0. 4.20168089e-003 0. 0. 0. 0. 4.20168089e-003
      8.40336177e-003 0. 0. 0. 0. 0. 0. 0. 0. 0. 8.40336177e-003 0. 0.
      0. 8.40336177e-003 0. 0. 4.20168089e-003 0. 8.40336177e-003
      1.26050431e-002 0. 0. 0. 0. 0. 8.40336177e-003 0. 1.26050431e-002
      0. 0. 0. 0. 0. 0. 8.40336177e-003 0. 0. 0. 0. 0. 0. 0. 0.
      4.20168089e-003 0. 0. 0. 0. 0. 4.20168089e-003 0. 0. 0. 0. 0. 0.
      4.20168089e-003 0. 4.20168089e-003 8.40336177e-003 0. 0. 0. 0. 0.
      0. 0. 1.26050431e-002 0. 0. 0. 0. 0. 0. 0. 4.20168089e-003 0. 0.
      0. 4.20168089e-003 0. 0. 0. 0. 0. 0. 0. 4.20168089e-003
      8.40336177e-003 0. 0. 0. 0. 0. 0. 0. 0. 4.20168089e-003 0. 0. 0.
      0. 0. 0. 0. 0. 0. 4.20168089e-003 0. 0. 0. 0. 0. 0. 0. 0. 0.
      8.40336177e-003 0. 4.20168089e-003 4.20168089e-003 0. 0. 0.
      4.20168089e-003 0. 0. 0. 0. 0. 0. 0. 0. 0. 0. 0. 0. 0. 0. 0. 0. 0.
      0. 0. 0. 0. 0. 0. 4.20168089e-003 0. 0. 0. 0. 0. 0. 0.
      8.40336177e-003 0. 0. 0. 0. 0. 0. 0. 0. 0. 0. 0. 0. 0. 0. 0. 0. 0.
      0. 4.20168089e-003 0. 8.40336177e-003 0. 0. 0. 0. 0. 0. 0.
      2.10084040e-002 0. 0. 0. 4.20168089e-003 0. 0. 0. 0.
      4.20168089e-003 0. 0. 0. 0. 0. 4.20168089e-003 0. 0. 0. 0. 0.
      4.20168089e-003 0. 0. 0. 8.40336177e-003 0. 0. 0. 0. 0. 0. 0. 0.
      0. 0. 4.20168089e-003 4.20168089e-003 0. 0. 4.20168089e-003 0.
      4.20168089e-003 0. 0. 4.20168089e-003 4.20168089e-003 0. 0. 0.
      4.20168089e-003 0. 4.20168089e-003 0. 4.20168089e-003 0.
      4.20168089e-003 0. 0. 0. 4.20168089e-003 0. 0. 4.20168089e-003 0.
      0. 0. 0. 0. 4.20168089e-003 0. 0. 0. 4.20168089e-003 0. 0. 0.
      8.40336177e-003 0. 0. 0. 0. 1.26050431e-002 0. 4.20168089e-003 0.
      1.26050431e-002 0. 0. 0. 0. 4.20168089e-003 8.40336177e-003 0. 0.
      0. 0. 0. 0. 0. 0. 0. 0. 0. 0. 0. 0. 0. 0. 0. 0. 0. 0. 0. 0. 0. 0.
      0. 0. 0. 0. 0. 4.20168089e-003 0. 0. 0. 0. 4.20168089e-003 0. 0.
      0. 0. 0. 0. 0. 0. 0. 0. 0. 0. 1.26050431e-002 0. 0. 0. 0. 0. 0. 0.
      8.40336177e-003 0. 0. 0. 0. 4.20168089e-003 0. 0. 0. 0. 0. 0. 0.
      0. 0. 0. 0. 0. 0. 0. 8.40336177e-003 0. 0. 0. 4.20168089e-003 0.
      0. 0. 0. 0. 8.40336177e-003 4.20168089e-003 0. 0. 0. 0. 0. 0. 0.
      1.26050431e-002 0. 0. 4.20168089e-003 0. 0. 0. 8.40336177e-003
      4.20168089e-003 0. 0. 0. 0. 0. 0. 0. 0. 0. 0. 1.26050431e-002 0.
      0. 0. 0. 0. 0. 0. 0. 0. 0. 0. 0. 0. 0. 8.40336177e-003 0. 0. 0. 0.
      4.20168089e-003 0. 0. 0. 0. 0. 0. 0. 0. 0. 0. 0. 4.20168089e-003
      0. 0. 0. 0. 0. 0. 0. 4.20168089e-003 0. 0. 0. 0. 4.20168089e-003
      0. 0. 0. 0. 0. 0. 0. 0. 0. 4.20168089e-003 0. 0. 0. 0. 0. 0.
      4.20168089e-003 0. 0. 1.26050431e-002 0. 0. 0. 0. 0. 0. 0. 0.
      4.20168089e-003 0. 0. 0. 0. 8.40336177e-003 0. 0. 0.
      4.20168089e-003 0. 0. 0. 0. 0. 0. 0. 0. 0. 0. 0. 0. 0. 0. 0. 0. 0.
      4.20168089e-003 0. 0. 0. 0. 0. 8.40336177e-003 0. 0. 0.
      4.20168089e-003 0. 0. 0. 0. 0. 0. 0. 8.40336177e-003 0.
      4.20168089e-003 4.20168089e-003 0. 0. 0. 0. 0. 0. 4.20168089e-003
      0. 0. 0. 0. 0. 0. 0. 0. 0. 0. 0. 0. 0. 0. 0. 0. 0. 0. 0. 0. 0. 0.
      0. 0. 0. 0. 0. 0. 0. 0. 0. 0. 0. 0. 0. 0. 0. 0. 2.52100863e-002 0.
      0. 0. 0. 0. 0. 0. 0. 0. 0. 0. 0. 0. 0. 0. 0. 0. 0. 0. 0.
      4.20168089e-003 0. 4.20168089e-003 0. 0. 0. 0. 0. 4.20168089e-003
      0. 0. 4.20168089e-003 0. 8.40336177e-003 0. 1.68067235e-002 0. 0.
      0. 0. 0. 0. 0. 0. 4.20168089e-003 0. 0. 0. 0. 0. 0. 0. 0. 0. 0. 0.
      0. 4.20168089e-003 0. 0. 4.20168089e-003 0. 4.20168089e-003 0. 0.
      0. 0. 0. 0. 0. 0. 4.20168089e-003 0. 0. 0. 0. 0. 0.
      4.20168089e-003 0. 0. 0. 0. 0. 0. 0. 0. 0. 0. 0. 0. 0. 0. 0. 0. 0.
      0. 0. 0. 0. 0. 0. 0. 0. 0. 0. 0. 0. 0. 0. 4.20168089e-003 0. 0. 0.
      0. 0. 0. 0. 0. 0. 0. 0. 0. 0. 0. 0. 0. 0. 0. 0. 0. 0. 0. 0. 0. 0.
      0. 4.20168089e-003 0. 0. 0. 8.40336177e-003 0. 0. 0. 0. 0. 0. 0.
      4.20168089e-003 0. 0. 0. 0. 0. 0. 0. 0. 0. 0. 0. 0.
      4.20168089e-003 0. 0. 0. 0. 4.20168089e-003 0. 4.20168089e-003 0.
      0. 0. 0. 4.20168089e-003 0. 4.20168089e-003 0. 4.20168089e-003 0.
      0. 0. 0. 4.20168089e-003 0. 0. 0. 0. 0. 1.26050431e-002
      4.20168089e-003 1.68067235e-002 0. 0. 0. 0. 0. 0. 0. 0. 0. 0. 0.
      0. 0. 0. 0. 0. 0. 0.</_>
    <_>
      0. 0. 0. 0. 0. 0. 0. 0. 0. 0. 0. 0. 0. 0. 0. 0. 0. 0. 0. 0. 0. 0.
      0. 0. 0. 0. 0. 0. 0. 0. 0. 0. 0. 0. 0. 3.33333351e-002 0. 0. 0. 0.
      0. 0. 0. 0. 0. 0. 0. 0. 0. 0. 0. 0. 0. 0. 0. 0. 3.33333351e-002 0.
      0. 0. 0. 0. 0. 0. 0. 0. 0. 0. 0. 0. 0. 0. 0. 0. 0. 0. 0. 0. 0. 0.
      0. 0. 0. 0. 0. 0. 0. 0. 0. 0. 0. 0. 0. 0. 0. 0. 0. 0. 0. 0. 0. 0.
      0. 0. 0. 0. 0. 3.33333351e-002 0. 0. 0. 0. 0. 0. 0.
      6.66666701e-002 0. 0. 0. 0. 0. 0. 0. 0. 0. 0. 0. 0. 0. 0. 0. 0. 0.
      0. 0. 0. 0. 0. 0. 0. 0. 0. 0. 0. 0. 0. 3.33333351e-002 0. 0. 0. 0.
      0. 0. 0. 0. 0. 3.33333351e-002 0. 0. 0. 0. 0. 0. 0. 0. 0. 0. 0. 0.
      0. 0. 0. 0. 0. 0. 0. 0. 0. 0. 0. 3.33333351e-002 0. 0. 0. 0. 0. 0.
      0. 0. 0. 0. 0. 0. 0. 0. 0. 0. 0. 0. 0. 0. 0. 0. 0. 3.33333351e-002
      0. 0. 0. 0. 0. 0. 0. 0. 0. 0. 0. 0. 0. 0. 0. 0. 0. 0. 0. 0. 0. 0.
      0. 0. 0. 0. 0. 0. 0. 0. 0. 0. 0. 0. 0. 0. 0. 0. 0. 0. 0. 0. 0. 0.
      0. 0. 0. 0. 0. 0. 0. 3.33333351e-002 0. 0. 0. 0. 0. 0. 0. 0. 0. 0.
      0. 0. 0. 0. 0. 0. 0. 0. 0. 0. 0. 0. 0. 0. 0. 3.33333351e-002 0. 0.
      0. 0. 0. 0. 0. 0. 0. 0. 0. 0. 0. 0. 0. 0. 0. 0. 0. 0. 0. 0. 0. 0.
      0. 0. 0. 0. 0. 0. 0. 0. 0. 0. 3.33333351e-002 0. 0. 0. 0. 0. 0. 0.
      0. 0. 0. 0. 0. 0. 0. 0. 0. 0. 0. 0. 0. 0. 0. 0. 0. 0. 0. 0. 0. 0.
      3.33333351e-002 0. 0. 0. 0. 0. 0. 0. 0. 0. 0. 0. 0. 0. 0. 0. 0. 0.
      0. 0. 0. 0. 0. 0. 0. 0. 0. 0. 0. 0. 0. 0. 0. 0. 0. 0. 0. 0. 0. 0.
      0. 0. 0. 0. 0. 0. 0. 0. 0. 0. 0. 0. 0. 0. 0. 0. 0. 3.33333351e-002
      0. 0. 0. 0. 0. 0. 0. 0. 0. 0. 0. 0. 0. 0. 0. 0. 0. 0. 0. 0. 0. 0.
      0. 0. 0. 0. 0. 0. 0. 0. 0. 0. 0. 0. 0. 0. 0. 0. 0. 0. 0. 0. 0. 0.
      0. 0. 0. 0. 0. 0. 0. 0. 0. 0. 0. 0. 0. 0. 0. 0. 0. 0. 0. 0. 0. 0.
      0. 0. 0. 0. 0. 0. 0. 0. 0. 0. 0. 0. 0. 0. 0. 0. 0. 0.
      3.33333351e-002 0. 0. 0. 0. 0. 0. 0. 0. 0. 0. 0. 0. 0. 0. 0. 0. 0.
      0. 0. 0. 0. 0. 0. 0. 0. 0. 0. 1.33333340e-001 0. 0. 0. 0.
      6.66666701e-002 0. 0. 0. 0. 0. 0. 0. 0. 0. 0. 0. 0. 0.
      3.33333351e-002 0. 0. 0. 0. 0. 0. 0. 0. 0. 0. 0. 0. 0. 0. 0. 0. 0.
      0. 0. 0. 0. 0. 0. 0. 0. 0. 0. 0. 0. 0. 0. 0. 0. 0. 0. 0. 0. 0. 0.
      0. 0. 6.66666701e-002 0. 0. 0. 0. 0. 0. 0. 0. 0. 0. 0. 0. 0. 0. 0.
      0. 0. 0. 0. 0. 0. 0. 0. 0. 0. 0. 0. 0. 0. 0. 0. 0. 0. 0. 0. 0. 0.
      0. 0. 0. 0. 0. 0. 0. 0. 0. 0. 0. 0. 0. 0. 0. 0. 0. 0. 0. 0. 0. 0.
      0. 0. 0. 0. 0. 0. 0. 0. 0. 0. 0. 0. 0. 0. 0. 0. 0. 0. 0. 0. 0. 0.
      0. 0. 0. 0. 0. 0. 0. 0. 0. 0. 0. 0. 0. 0. 0. 0. 0. 0. 0. 0. 0. 0.
      0. 0. 0. 0. 0. 0. 3.33333351e-002 0. 0. 0. 0. 0. 0. 0. 0. 0. 0. 0.
      0. 0. 0. 0. 0. 0. 0. 0. 0. 0. 0. 0. 0. 0. 0. 0. 0. 0. 0. 0. 0. 0.
      0. 0. 0. 0. 0. 0. 0. 0. 0. 0. 0. 0. 0. 0. 0. 0. 0. 0. 0. 0. 0. 0.
      0. 0. 0. 0. 3.33333351e-002 0. 0. 0. 0. 0. 0. 0. 0. 0. 0. 0. 0. 0.
      0. 0. 0. 0. 0. 0. 0. 0. 0. 0. 0. 0. 0. 0. 0. 0. 0. 0. 0. 0. 0. 0.
      0. 0. 0. 0. 0. 0. 0. 0. 0. 0. 0. 0. 0. 0. 0. 0. 0. 0. 0. 0. 0. 0.
      0. 0. 0. 0. 0. 0. 0. 0. 0. 0. 0. 0. 0. 0. 0. 3.33333351e-002 0. 0.
      0. 0. 0. 0. 0. 0. 0. 0. 0. 0. 0. 0. 0. 0. 0. 0. 0. 0. 0.
      3.33333351e-002 0. 0. 0. 0. 0. 0. 0. 0. 0. 0. 0. 0. 0. 0. 0. 0. 0.
      0. 0. 0. 0. 0. 0. 0. 0. 0. 0. 0. 0. 0. 0. 0. 0. 0. 0. 0. 0. 0. 0.
      0. 0. 0. 0. 0. 0. 0. 0. 0. 0. 0. 0. 0. 0. 0. 0. 0. 0. 0. 0. 0. 0.
      0. 0. 0. 0. 0. 3.33333351e-002 0. 0. 0. 0. 0. 0. 0. 0. 0. 0. 0. 0.
      0. 0. 0. 0. 0. 0. 0. 0. 0. 0. 0. 0. 0. 0. 0. 0. 0. 0. 0. 0. 0. 0.
      0. 0. 0. 0. 0. 0. 0. 0. 0. 0. 0. 0. 0. 0. 0. 0. 0. 0. 0. 0. 0. 0.
      3.33333351e-002 0. 0. 0. 0. 0. 0. 0. 0. 0. 0. 0. 0. 0. 0. 0. 0. 0.
      0. 0. 0. 0. 0. 0. 0. 0. 0. 0. 0. 0. 0. 0. 0.</_>
    <_>
      0. 0. 0. 0. 0. 0. 0. 0. 0. 0. 0. 0. 0. 0. 0. 0. 7.57575780e-003 0.
      0. 0. 0. 0. 0. 0. 0. 0. 0. 0. 0. 0. 0. 0. 0. 7.57575780e-003 0. 0.
      0. 0. 0. 0. 0. 0. 0. 0. 0. 0. 1.51515156e-002 0. 0. 0. 0. 0.
      7.57575780e-003 0. 0. 0. 0. 0. 0. 0. 0. 0. 0. 0. 0. 0. 0. 0. 0. 0.
      0. 0. 0. 7.57575780e-003 0. 0. 0. 0. 0. 0. 0. 0. 0. 0. 0. 0. 0. 0.
      0. 0. 0. 0. 0. 0. 0. 0. 0. 0. 0. 0. 0. 0. 0. 0. 0. 0. 0. 0.
      7.57575780e-003 0. 0. 0. 7.57575780e-003 0. 0. 0. 0. 0.
      2.27272734e-002 0. 3.03030312e-002 7.57575780e-003 0. 0. 0. 0. 0.
      0. 0. 0. 0. 0. 0. 0. 0. 0. 0. 0. 0. 0. 0. 0. 0. 0. 0. 0. 0. 0. 0.
      0. 0. 7.57575780e-003 0. 0. 0. 7.57575780e-003 7.57575780e-003 0.
      0. 0. 0. 0. 0. 0. 7.57575780e-003 0. 0. 0. 7.57575780e-003 0. 0.
      0. 0. 0. 0. 0. 0. 0. 0. 0. 2.27272734e-002 0. 0. 0. 0. 0. 0. 0. 0.
      0. 0. 0. 7.57575780e-003 0. 0. 0. 0. 0. 0. 0. 0. 0.
      7.57575780e-003 0. 0. 0. 0. 0. 2.27272734e-002 0. 0. 0.
      7.57575780e-003 0. 0. 3.03030312e-002 0. 0. 0. 0. 0. 0. 0. 0. 0.
      7.57575780e-003 0. 0. 0. 0. 0. 0. 0. 0. 0. 0. 0. 0. 0. 0. 0. 0. 0.
      0. 0. 0. 0. 0. 0. 7.57575780e-003 7.57575780e-003 0. 0. 0. 0. 0.
      7.57575780e-003 0. 7.57575780e-003 0. 0. 0. 0. 0. 0. 0. 0. 0. 0.
      0. 0. 7.57575780e-003 0. 0. 0. 0. 0. 0. 0. 0. 0. 7.57575780e-003
      0. 7.57575780e-003 0. 0. 0. 0. 1.51515156e-002 0. 0. 0. 0. 0. 0.
      7.57575780e-003 0. 0. 0. 0. 0. 0. 0. 0. 0. 0. 0. 0. 0. 0. 0. 0. 0.
      0. 7.57575780e-003 0. 7.57575780e-003 0. 0. 0. 0. 0. 0. 0. 0. 0.
      0. 0. 0. 0. 0. 0. 2.27272734e-002 7.57575780e-003 0. 0. 0. 0. 0.
      0. 0. 0. 0. 1.51515156e-002 0. 0. 0. 0. 0. 0. 0. 0.
      7.57575780e-003 0. 0. 0. 0. 0. 0. 0. 0. 0. 0. 0. 0. 0. 0. 0. 0. 0.
      0. 0. 0. 0. 0. 0. 0. 0. 0. 0. 0. 0. 0. 0. 0. 0. 0. 0. 0. 0. 0. 0.
      0. 7.57575780e-003 0. 0. 0. 0. 0. 0. 0. 0. 0. 0. 0. 0. 0. 0. 0. 0.
      0. 0. 0. 0. 0. 0. 0. 0. 0. 0. 0. 0. 0. 7.57575780e-003 0. 0. 0. 0.
      7.57575780e-003 0. 0. 7.57575780e-003 7.57575780e-003 0. 0. 0. 0.
      0. 0. 0. 0. 0. 0. 0. 0. 0. 0. 0. 7.57575780e-003 7.57575780e-003
      0. 7.57575780e-003 0. 0. 0. 0. 0. 0. 1.51515156e-002 0. 0. 0. 0.
      0. 0. 0. 0. 0. 0. 0. 0. 0. 0. 0. 0. 0. 0. 0. 0. 0. 0. 0. 0. 0. 0.
      0. 0. 0. 0. 0. 0. 0. 0. 0. 1.51515156e-002 0. 0. 0. 0. 0. 0. 0. 0.
      0. 0. 0. 0. 0. 0. 0. 0. 0. 0. 0. 0. 0. 0. 0. 0. 0. 3.78787890e-002
      0. 0. 0. 0. 0. 0. 0. 0. 0. 0. 0. 0. 0. 0. 0. 7.57575780e-003 0. 0.
      0. 0. 0. 0. 0. 0. 7.57575780e-003 0. 0. 0. 0. 0. 0. 0. 0. 0. 0. 0.
      0. 1.51515156e-002 7.57575780e-003 0. 0. 0. 0. 0. 0. 0. 0. 0.
      7.57575780e-003 0. 0. 0. 0. 7.57575780e-003 0. 0. 0. 0. 0.
      1.51515156e-002 0. 0. 0. 0. 0. 0. 0. 7.57575780e-003 0. 0. 0. 0.
      0. 0. 0. 0. 0. 0. 7.57575780e-003 0. 0. 0. 0. 0. 0. 0. 0. 0. 0.
      7.57575780e-003 0. 7.57575780e-003 0. 0. 1.51515156e-002 0. 0. 0.
      0. 0. 0. 0. 0. 0. 0. 0. 0. 0. 0. 0. 0. 0. 0. 0. 0. 0. 0. 0. 0. 0.
      0. 0. 0. 0. 0. 7.57575780e-003 0. 0. 7.57575780e-003 0. 0. 0. 0.
      0. 0. 0. 7.57575780e-003 0. 1.51515156e-002 0. 7.57575780e-003 0.
      0. 0. 0. 0. 0. 0. 0. 0. 0. 0. 0. 0. 0. 0. 0. 0. 0. 7.57575780e-003
      0. 0. 0. 0. 0. 0. 0. 0. 0. 0. 0. 0. 0. 1.51515156e-002 0. 0.
      7.57575780e-003 0. 0. 0. 0. 0. 0. 0. 0. 0. 0. 0. 0. 0. 0. 0. 0.
      7.57575780e-003 0. 1.51515156e-002 0. 0. 0. 0. 0. 0. 0. 0. 0. 0.
      0. 0. 0. 0. 0. 0. 0. 0. 0. 0. 0. 0. 0. 0. 0. 0. 0. 0. 0.
      7.57575780e-003 0. 0. 0. 0. 0. 0. 0. 7.57575780e-003 0. 0.
      7.57575780e-003 0. 0. 0. 0. 0. 0. 0. 0. 0. 0. 0. 0. 0. 0. 0. 0.
      7.57575780e-003 0. 0. 0. 0. 0. 0. 0. 0. 0. 0. 0. 0. 0. 0. 0. 0. 0.
      0. 0. 0. 0. 0. 0. 0. 0. 0. 0. 0. 0. 0. 0. 0. 0. 0. 0. 0. 0. 0. 0.
      0. 7.57575780e-003 0. 0. 0. 0. 0. 0. 0. 0. 0. 7.57575780e-003 0.
      0. 0. 0. 0. 0. 0. 0. 0. 7.57575780e-003 0. 0. 0. 0. 0. 0. 0. 0. 0.
      0. 0. 0. 0. 0. 0. 0. 0. 0. 7.57575780e-003 0. 0. 0. 0. 0. 0. 0. 0.
      0. 0. 0. 0. 0. 0. 0. 0. 0. 0. 0. 0. 0. 7.57575780e-003 0. 0. 0.
      2.27272734e-002 0. 0. 0. 0. 0. 0. 0. 0. 0. 2.27272734e-002 0.
      7.57575780e-003 2.27272734e-002 0. 0. 0. 0. 0. 0. 0. 0. 0. 0. 0.
      0. 0. 0. 0. 0. 0. 0. 0. 0. 0. 0. 0. 0. 0. 0. 0. 0. 0. 0. 0.
      7.57575780e-003 0. 0. 0. 0. 0. 0. 0. 0. 0. 0. 7.57575780e-003 0.
      0. 0. 0. 0. 0. 0. 0. 7.57575780e-003 0. 0. 0. 0. 0. 0. 0. 0.
      7.57575780e-003 0. 0. 0. 0. 7.57575780e-003 0. 0. 0. 0.
      2.27272734e-002 0. 0. 0. 0. 0. 0. 0. 0. 0. 0. 0. 0. 0.
      1.51515156e-002 0. 0. 0. 0. 0. 0. 0. 0. 1.51515156e-002 0. 0. 0.
      7.57575780e-003 0. 7.57575780e-003 0. 0. 0. 0. 0. 0.</_>
    <_>
      0. 0. 0. 3.27868853e-003 3.27868853e-003 0. 1.31147541e-002 0. 0.
      0. 0. 0. 6.55737706e-003 6.55737706e-003 0. 0. 0. 0. 0.
      3.27868853e-003 0. 3.27868853e-003 0. 0. 0. 0. 0. 0. 0. 0. 0.
      6.55737706e-003 0. 3.27868853e-003 0. 0. 9.83606558e-003
      3.27868853e-003 0. 3.27868853e-003 0. 3.27868853e-003
      3.27868853e-003 6.55737706e-003 0. 0. 6.55737706e-003 0.
      3.27868853e-003 0. 0. 0. 9.83606558e-003 3.27868853e-003 0.
      3.27868853e-003 0. 0. 0. 3.27868853e-003 6.55737706e-003 0. 0. 0.
      0. 0. 0. 0. 6.55737706e-003 0. 0. 0. 0. 3.27868853e-003
      3.27868853e-003 0. 0. 0. 3.27868853e-003 6.55737706e-003 0. 0. 0.
      6.55737706e-003 0. 0. 0. 0. 0. 0. 0. 3.27868853e-003 0. 0. 0.
      3.27868853e-003 0. 0. 0. 3.27868853e-003 0. 0. 9.83606558e-003 0.
      0. 0. 0. 0. 0. 0. 0. 3.27868853e-003 3.27868853e-003 0. 0.
      3.27868853e-003 0. 0. 9.83606558e-003 3.27868853e-003 0.
      6.55737706e-003 0. 0. 0. 2.29508206e-002 0. 0. 0. 0.
      6.55737706e-003 0. 3.27868853e-003 0. 0. 0. 0. 0. 0. 0. 0.
      6.55737706e-003 3.27868853e-003 0. 6.55737706e-003 0. 0. 0. 0.
      3.27868853e-003 0. 0. 0. 0. 0. 0. 0. 0. 3.27868853e-003 0. 0. 0.
      0. 0. 0. 0. 0. 0. 3.27868853e-003 3.27868853e-003 0.
      3.27868853e-003 0. 3.27868853e-003 3.27868853e-003 0.
      6.55737706e-003 0. 0. 0. 0. 0. 0. 0. 0. 0. 0. 0. 0. 0.
      6.55737706e-003 0. 0. 0. 0. 0. 0. 0. 0. 0. 3.27868853e-003 0.
      3.27868853e-003 0. 0. 3.27868853e-003 0. 3.27868853e-003
      3.27868853e-003 0. 0. 0. 6.55737706e-003 0. 6.55737706e-003
      6.55737706e-003 0. 0. 0. 0. 0. 0. 0. 3.27868853e-003 0. 0. 0.
      3.27868853e-003 3.27868853e-003 3.27868853e-003 0. 0. 0. 0. 0. 0.
      0. 0. 0. 6.55737706e-003 0. 0. 0. 0. 0. 0. 0. 0. 0. 0. 0. 0. 0. 0.
      0. 0. 3.27868853e-003 2.29508206e-002 0. 0. 0. 0. 0. 0. 0.
      3.27868853e-003 0. 6.55737706e-003 0. 0. 0. 0. 0. 0. 0. 0. 0. 0.
      0. 3.27868853e-003 0. 0. 0. 3.27868853e-003 0. 3.27868853e-003 0.
      0. 9.83606558e-003 0. 0. 0. 0. 0. 0. 0. 0. 3.27868853e-003 0. 0.
      0. 0. 0. 6.55737706e-003 0. 0. 0. 3.27868853e-003 0. 0. 0.
      3.27868853e-003 0. 0. 0. 6.55737706e-003 0. 0. 3.27868853e-003 0.
      0. 0. 0. 0. 0. 3.27868853e-003 0. 3.27868853e-003 6.55737706e-003
      0. 3.27868853e-003 0. 3.27868853e-003 0. 0. 0. 0. 0. 0. 0. 0. 0.
      3.27868853e-003 0. 6.55737706e-003 0. 0. 3.27868853e-003 0.
      3.27868853e-003 0. 0. 0. 0. 3.27868853e-003 0. 0. 0. 0. 0. 0. 0.
      0. 0. 0. 0. 0. 0. 3.27868853e-003 0. 0. 0. 0. 3.27868853e-003 0.
      0. 0. 3.27868853e-003 0. 0. 0. 0. 0. 0. 0. 0. 0. 0. 0.
      3.27868853e-003 0. 0. 0. 3.27868853e-003 0. 0. 0. 0. 0. 0. 0. 0.
      0. 0. 0. 0. 0. 3.27868853e-003 0. 3.27868853e-003 6.55737706e-003
      0. 0. 0. 3.27868853e-003 6.55737706e-003 0. 0. 0. 0. 0. 0. 0.
      3.27868853e-003 0. 0. 0. 0. 6.55737706e-003 0. 0. 0. 0. 0. 0. 0.
      0. 3.27868853e-003 0. 6.55737706e-003 0. 0. 0. 3.27868853e-003 0.
      0. 0. 0. 0. 0. 0. 0. 3.27868853e-003 6.55737706e-003 0. 0. 0. 0.
      0. 3.27868853e-003 0. 0. 0. 0. 0. 0. 0. 0. 0. 0. 0. 0. 0. 0.
      3.27868853e-003 0. 0. 0. 0. 0. 0. 0. 0. 0. 0. 0. 0. 0. 0. 0. 0. 0.
      0. 0. 0. 3.27868853e-003 3.27868853e-003 0. 0. 0. 0.
      6.55737706e-003 0. 3.27868853e-003 0. 0. 0. 3.27868853e-003 0. 0.
      3.27868853e-003 0. 0. 0. 0. 0. 0. 0. 0. 0. 0. 0. 0.
      3.27868853e-003 0. 0. 0. 0. 0. 6.55737706e-003 0. 0. 0.
      3.27868853e-003 3.27868853e-003 3.27868853e-003 0. 6.55737706e-003
      0. 0. 0. 1.31147541e-002 0. 0. 0. 3.27868853e-003 0. 0. 0. 0. 0.
      0. 0. 0. 0. 6.55737706e-003 3.27868853e-003 6.55737706e-003 0. 0.
      0. 0. 0. 0. 0. 0. 0. 0. 0. 0. 0. 0. 0. 0. 6.55737706e-003 0. 0. 0.
      0. 0. 0. 0. 3.27868853e-003 0. 0. 0. 0. 0. 3.27868853e-003 0. 0.
      0. 3.27868853e-003 0. 0. 0. 6.55737706e-003 0. 0. 3.27868853e-003
      0. 0. 3.27868853e-003 0. 0. 3.27868853e-003 3.27868853e-003 0. 0.
      0. 6.55737706e-003 3.27868853e-003 0. 0. 3.27868853e-003 0. 0. 0.
      0. 0. 0. 0. 0. 0. 0. 0. 0. 0. 0. 0. 0. 3.27868853e-003 0. 0. 0. 0.
      0. 0. 0. 9.83606558e-003 0. 6.55737706e-003 3.27868853e-003 0.
      3.27868853e-003 0. 3.27868853e-003 0. 3.27868853e-003 0. 0. 0. 0.
      0. 0. 0. 0. 0. 0. 9.83606558e-003 0. 9.83606558e-003 0.
      6.55737706e-003 0. 0. 0. 0. 0. 0. 0. 0. 0. 0. 0. 0. 0. 0.
      6.55737706e-003 0. 3.27868853e-003 0. 0. 0. 0. 0. 6.55737706e-003
      0. 3.27868853e-003 0. 0. 6.55737706e-003 0. 0. 0. 0.
      3.27868853e-003 0. 0. 3.27868853e-003 0. 0. 6.55737706e-003 0. 0.
      0. 3.27868853e-003 0. 0. 0. 6.55737706e-003 0. 0. 0. 0. 0. 0. 0.
      0. 0. 3.27868853e-003 3.27868853e-003 3.27868853e-003 0. 0. 0. 0.
      0. 9.83606558e-003 0. 3.27868853e-003 0. 0. 6.55737706e-003 0. 0.
      0. 0. 0. 3.27868853e-003 0. 0. 0. 0. 3.27868853e-003 0. 0. 0. 0.
      0. 3.27868853e-003 0. 3.27868853e-003 0. 0. 0. 0. 0. 0. 0. 0. 0.
      0. 0. 0. 0. 0. 0. 3.27868853e-003 0. 0. 0. 0. 0. 1.31147541e-002
      0. 0. 0. 0. 0. 0. 3.27868853e-003 0. 0. 0. 0. 0. 0.
      3.27868853e-003 3.27868853e-003 3.27868853e-003 0. 0. 0. 0. 0. 0.
      3.27868853e-003 0. 0. 0. 0. 0. 0. 0. 0. 0. 0. 3.27868853e-003 0.
      0. 0. 0. 0. 0. 0. 3.27868853e-003 0. 0. 3.27868853e-003 0. 0. 0.
      0. 3.27868853e-003 0. 0. 0. 0. 0. 0. 0. 0. 0. 0. 0.
      3.27868853e-003 0. 0. 0. 3.27868853e-003 0. 0. 0. 0. 0. 0.
      3.27868853e-003 0. 0. 0. 0. 0. 0. 0. 3.27868853e-003
      2.29508206e-002 0. 0. 0. 0. 0. 3.27868853e-003 0. 3.27868853e-003
      0. 0. 0. 0. 0. 0. 3.27868853e-003 0. 0. 0. 0. 0. 0. 0. 0. 0. 0. 0.
      0. 0. 0. 3.27868853e-003 0. 0. 0. 0. 0. 0. 0. 0. 3.27868853e-003
      0. 0. 0. 0. 0. 0. 0. 0. 0. 0. 3.27868853e-003 0. 0. 0.
      3.27868853e-003 6.55737706e-003 0. 0. 0. 3.27868853e-003 0. 0. 0.
      3.27868853e-003 3.27868853e-003 0. 0. 3.27868853e-003
      3.27868853e-003 0. 0. 0. 0. 0. 0. 9.83606558e-003 0. 0. 0. 0. 0.
      0. 0. 0. 0. 0. 0. 3.27868853e-003 0. 0. 0. 0. 0. 0. 0. 0.
      3.27868853e-003 0. 0. 0. 0. 0. 0. 0. 0. 0. 0. 3.27868853e-003 0.
      0. 0. 3.27868853e-003 3.27868853e-003 0. 0. 0. 0. 0.
      3.27868853e-003 0. 0. 0. 3.27868853e-003 0. 0. 3.27868853e-003 0.
      0. 3.27868853e-003 3.27868853e-003 3.27868853e-003 0. 0. 0. 0.
      3.27868853e-003 3.27868853e-003 0. 0. 3.27868853e-003 0. 0. 0. 0.</_>
    <_>
      0. 0. 0. 0. 0. 0. 7.37100746e-003 7.37100746e-003 0. 0. 0. 0.
      2.45700241e-003 2.45700241e-003 0. 0. 0. 0. 0. 2.45700241e-003
      2.45700241e-003 0. 0. 2.45700241e-003 0. 0. 2.45700241e-003 0. 0.
      0. 0. 0. 4.91400482e-003 4.91400482e-003 0. 2.45700241e-003 0.
      4.91400482e-003 0. 0. 2.45700241e-003 0. 0. 0. 0. 0.
      2.45700241e-003 0. 0. 0. 0. 2.45700241e-003 0. 2.45700241e-003 0.
      0. 0. 0. 0. 0. 0. 7.37100746e-003 4.91400482e-003 4.91400482e-003
      0. 0. 2.45700241e-003 0. 4.91400482e-003 7.37100746e-003
      2.45700241e-003 0. 0. 0. 2.45700241e-003 0. 0. 0. 0. 0. 0. 0.
      2.45700241e-003 2.45700241e-003 4.91400482e-003 4.91400482e-003 0.
      0. 4.91400482e-003 2.45700241e-003 0. 4.91400482e-003
      2.45700241e-003 2.45700241e-003 2.45700241e-003 0. 0. 0.
      2.45700241e-003 0. 0. 0. 9.82800964e-003 0. 0. 0. 0.
      9.82800964e-003 0. 0. 0. 7.37100746e-003 0. 0. 0. 0.
      4.91400482e-003 0. 0. 2.45700241e-003 2.45700241e-003 0. 0. 0. 0.
      1.22850118e-002 0. 0. 0. 0. 0. 0. 0. 2.45700241e-003 0. 0. 0. 0.
      2.45700241e-003 0. 0. 0. 4.91400482e-003 0. 2.45700241e-003 0. 0.
      0. 7.37100746e-003 0. 2.45700241e-003 0. 0. 2.45700241e-003 0. 0.
      1.22850118e-002 2.45700241e-003 0. 0. 0. 0. 2.45700241e-003 0.
      2.45700241e-003 0. 0. 2.45700241e-003 0. 0. 7.37100746e-003
      9.82800964e-003 2.45700241e-003 0. 0. 0. 1.47420149e-002 0. 0. 0.
      2.45700241e-003 0. 2.45700241e-003 0. 2.45700241e-003 0.
      2.45700241e-003 4.91400482e-003 0. 0. 9.82800964e-003 0. 0. 0. 0.
      0. 2.45700241e-003 0. 0. 0. 0. 0. 1.22850118e-002 0. 0. 0. 0.
      4.91400482e-003 0. 0. 0. 0. 0. 2.45700241e-003 0. 0. 0.
      4.91400482e-003 0. 0. 0. 0. 0. 0. 0. 2.45700241e-003 0. 0.
      7.37100746e-003 0. 0. 0. 0. 0. 0. 0. 0. 0. 0. 2.45700241e-003
      4.91400482e-003 0. 0. 7.37100746e-003 0. 0. 0. 0. 0. 0. 0. 0. 0.
      0. 0. 0. 0. 0. 0. 0. 2.45700241e-003 2.45700241e-003
      4.91400482e-003 0. 4.91400482e-003 0. 0. 0. 0. 0. 2.45700241e-003
      2.45700241e-003 0. 4.91400482e-003 2.45700241e-003 0. 0. 0. 0.
      4.91400482e-003 9.82800964e-003 0. 0. 0. 0. 4.91400482e-003 0. 0.
      0. 0. 0. 2.45700241e-003 0. 2.45700241e-003 0. 0. 0. 0. 0. 0. 0.
      0. 2.45700241e-003 0. 0. 0. 0. 0. 0. 0. 0. 4.91400482e-003 0. 0.
      0. 0. 0. 2.45700241e-003 0. 0. 0. 0. 0. 0. 0. 4.91400482e-003 0.
      2.45700241e-003 2.45700241e-003 2.45700241e-003 0. 0. 0. 0. 0. 0.
      2.45700241e-003 0. 0. 0. 0. 0. 4.91400482e-003 0. 2.45700241e-003
      0. 0. 0. 0. 0. 0. 0. 0. 0. 0. 9.82800964e-003 0. 0. 0. 0. 0. 0.
      2.45700241e-003 0. 0. 0. 0. 0. 2.45700241e-003 2.45700241e-003 0.
      0. 4.91400482e-003 0. 0. 0. 2.45700241e-003 0. 0. 0. 0. 0. 0.
      2.70270258e-002 0. 0. 0. 0. 4.91400482e-003 2.45700241e-003 0. 0.
      4.91400482e-003 0. 0. 0. 7.37100746e-003 4.91400482e-003 0. 0. 0.
      0. 0. 0. 0. 0. 0. 4.91400482e-003 0. 0. 9.82800964e-003 0. 0. 0.
      2.45700241e-003 0. 0. 0. 0. 0. 0. 0. 0. 0. 0. 0. 0. 0. 0. 0. 0. 0.
      0. 0. 0. 2.45700241e-003 2.45700241e-003 0. 0. 0. 0.
      4.91400482e-003 0. 0. 2.45700241e-003 2.45700241e-003 0. 0. 0. 0.
      0. 4.91400482e-003 2.45700241e-003 2.45700241e-003 0. 0.
      2.45700241e-003 7.37100746e-003 0. 0. 0. 0. 0. 2.45700241e-003 0.
      0. 0. 0. 0. 2.45700241e-003 0. 0. 0. 2.45700241e-003
      2.45700241e-003 2.45700241e-003 0. 0. 0. 0. 0. 0. 0. 0. 0. 0. 0.
      0. 0. 0. 4.91400482e-003 0. 0. 0. 0. 0. 0. 2.45700241e-003
      2.45700241e-003 0. 0. 0. 0. 0. 0. 0. 0. 0. 0. 0. 0.
      2.45700241e-003 2.45700241e-003 0. 0. 0. 4.91400482e-003 0. 0. 0.
      1.22850118e-002 2.45700241e-003 0. 0. 0. 4.91400482e-003 0. 0. 0.
      0. 0. 0. 0. 0. 0. 0. 0. 0. 0. 0. 0. 1.47420149e-002 0. 0. 0. 0.
      4.91400482e-003 0. 0. 0. 0. 0. 0. 0. 0. 0. 0. 2.45700241e-003 0.
      2.45700241e-003 0. 0. 0. 2.45700241e-003 0. 0. 0. 2.45700241e-003
      0. 2.45700241e-003 0. 0. 0. 0. 0. 0. 0. 2.45700241e-003
      2.45700241e-003 0. 0. 0. 0. 0. 2.45700241e-003 0. 0.
      2.45700241e-003 0. 0. 0. 0. 2.45700241e-003 0. 2.45700241e-003
      2.45700241e-003 0. 0. 0. 0. 0. 0. 0. 0. 0. 0. 0. 0. 0. 0.
      2.45700241e-003 0. 2.45700241e-003 2.45700241e-003 0. 0.
      2.45700241e-003 2.45700241e-003 0. 2.45700241e-003 2.45700241e-003
      4.91400482e-003 0. 0. 0. 0. 0. 0. 0. 0. 0. 7.37100746e-003 0.
      2.45700241e-003 0. 2.45700241e-003 2.45700241e-003 2.45700241e-003
      0. 0. 9.82800964e-003 0. 0. 2.45700241e-003 0. 0. 0. 0. 0. 0. 0.
      0. 0. 2.45700241e-003 0. 0. 2.45700241e-003 0. 4.91400482e-003 0.
      2.45700241e-003 0. 2.45700241e-003 0. 0. 0. 0. 2.45700241e-003 0.
      0. 2.45700241e-003 2.45700241e-003 0. 0. 0. 0. 0. 2.45700241e-003
      4.91400482e-003 0. 0. 2.45700241e-003 0. 2.45700241e-003 0. 0. 0.
      0. 9.82800964e-003 0. 0. 0. 0. 0. 0. 7.37100746e-003 0. 0. 0. 0.
      2.45700241e-003 4.91400482e-003 0. 0. 0. 0. 0. 1.22850118e-002 0.
      0. 0. 0. 0. 0. 0. 0. 2.45700241e-003 0. 0. 2.45700241e-003 0. 0.
      2.45700241e-003 0. 0. 0. 0. 0. 2.45700241e-003 0. 2.70270258e-002
      0. 0. 2.45700241e-003 0. 0. 2.45700241e-003 2.45700241e-003 0. 0.
      0. 0. 0. 0. 0. 0. 0. 0. 0. 0. 0. 0. 0. 0. 0. 0. 0. 2.45700241e-003
      0. 0. 0. 0. 0. 0. 0. 0. 0. 9.82800964e-003 2.45700241e-003
      2.45700241e-003 4.91400482e-003 0. 0. 0. 7.37100746e-003
      1.22850118e-002 0. 0. 0. 0. 0. 0. 0. 0. 2.45700241e-003 0. 0. 0.
      0. 0. 0. 0. 0. 0. 0. 0. 0. 0. 0. 0. 2.45700241e-003 0.
      2.45700241e-003 0. 0. 0. 0. 0. 0. 0. 0. 0. 0. 2.45700241e-003 0.
      0. 9.82800964e-003 0. 2.45700241e-003 0. 0. 2.45700241e-003 0. 0.
      2.45700241e-003 0. 9.82800964e-003 0. 0. 0. 0. 0. 0.
      2.45700241e-003 2.45700241e-003 0. 0. 0. 0. 0. 0. 0. 0. 0. 0. 0.
      0. 0. 2.45700241e-003 0. 4.91400482e-003 0. 2.45700241e-003 0. 0.
      4.91400482e-003 0. 0. 0. 0. 0. 2.45700241e-003 4.91400482e-003 0.
      0. 0. 2.45700241e-003 0. 0. 0. 2.45700241e-003 0. 0.
      2.45700241e-003 0. 0. 0. 0. 0. 0. 0. 0. 0. 0. 0. 0. 0. 0. 0. 0. 0.
      0. 2.45700241e-003 0. 2.45700241e-003 0. 0. 0. 0. 2.45700241e-003
      0. 0. 0. 0. 2.45700241e-003 0. 0. 0. 0. 0. 2.45700241e-003 0. 0.
      0. 0. 0. 0. 0. 0. 0. 0. 0. 0. 0. 0. 0. 0. 2.45700241e-003
      1.47420149e-002 0. 0. 1.47420149e-002 0. 0. 0. 0. 0. 0.
      2.45700241e-003 2.45700241e-003 0. 0. 0. 0. 2.45700241e-003 0. 0.
      0. 2.45700241e-003 0. 0. 0. 2.45700241e-003 0. 0. 0. 0.
      2.45700241e-003 0. 0. 0. 2.45700241e-003 0. 0. 0. 0. 0. 0. 0. 0.
      0. 0. 0. 0. 0. 0. 0. 0. 0. 0. 7.37100746e-003 0. 0. 0. 0. 0. 0. 0.
      0. 2.45700241e-003 0. 0. 0. 0. 0. 0. 0. 0. 0. 0.</_>
    <_>
      0. 4.14937781e-003 0. 0. 0. 0. 8.29875562e-003 0. 0. 0. 0. 0.
      1.24481339e-002 0. 0. 0. 0. 1.65975112e-002 4.14937781e-003 0.
      4.14937781e-003 4.14937781e-003 0. 0. 0. 0. 0. 0. 0.
      4.14937781e-003 4.14937781e-003 0. 4.14937781e-003 0. 0. 0.
      2.48962678e-002 0. 0. 0. 0. 4.14937781e-003 8.29875562e-003 0. 0.
      0. 4.14937781e-003 0. 4.14937781e-003 0. 0. 8.29875562e-003 0.
      8.29875562e-003 4.14937781e-003 0. 0. 0. 8.29875562e-003 0.
      4.14937781e-003 0. 0. 0. 0. 0. 0. 0. 0. 4.14937781e-003
      4.14937781e-003 0. 0. 0. 0. 0. 0. 4.14937781e-003 0. 0. 0. 0. 0.
      4.14937781e-003 0. 1.24481339e-002 0. 0. 0. 8.29875562e-003 0. 0.
      0. 0. 4.14937781e-003 0. 0. 0. 0. 0. 0. 0. 0. 1.65975112e-002
      4.14937781e-003 0. 0. 0. 0. 0. 0. 0. 4.14937781e-003 0. 0.
      4.14937781e-003 0. 4.14937781e-003 8.29875562e-003 4.14937781e-003
      4.14937781e-003 0. 0. 4.14937781e-003 8.29875562e-003 0. 0. 0. 0.
      0. 0. 0. 0. 4.14937781e-003 0. 0. 0. 0. 0. 0. 0. 0. 0. 0. 0. 0. 0.
      0. 0. 0. 0. 0. 4.14937781e-003 0. 0. 2.90456451e-002
      8.29875562e-003 0. 0. 0. 0. 8.29875562e-003 0. 0. 4.14937781e-003
      0. 0. 8.29875562e-003 0. 0. 4.14937781e-003 4.14937781e-003 0. 0.
      0. 0. 0. 0. 0. 0. 4.14937781e-003 0. 0. 0. 0. 0. 0. 0. 0. 0. 0. 0.
      0. 0. 0. 0. 0. 0. 0. 0. 0. 0. 0. 0. 0. 0. 0. 4.14937781e-003
      4.14937781e-003 0. 0. 4.14937781e-003 0. 0. 0. 0. 0. 0. 0.
      4.14937781e-003 4.14937781e-003 0. 0. 0. 0. 0. 4.14937781e-003 0.
      0. 0. 0. 0. 0. 0. 0. 0. 0. 0. 0. 4.14937781e-003 0. 0. 0. 0.
      4.14937781e-003 0. 0. 0. 0. 0. 0. 0. 0. 0. 0. 0. 0. 0. 0.
      4.14937781e-003 0. 0. 0. 0. 0. 0. 0. 0. 0. 4.14937781e-003
      4.14937781e-003 0. 0. 0. 4.14937781e-003 0. 0. 0. 0. 0. 0. 0. 0.
      0. 0. 0. 0. 0. 4.14937781e-003 0. 0. 0. 0. 0. 0. 8.29875562e-003
      8.29875562e-003 0. 0. 0. 0. 0. 4.14937781e-003 0. 0. 0. 0.
      4.14937781e-003 0. 4.14937781e-003 0. 0. 0. 0. 0. 0. 0. 0.
      4.14937781e-003 0. 0. 0. 0. 0. 0. 0. 0. 0. 0. 0. 0. 0. 0. 0. 0. 0.
      0. 0. 0. 0. 0. 0. 0. 0. 8.29875562e-003 0. 0. 1.65975112e-002 0.
      4.14937781e-003 0. 0. 0. 0. 0. 0. 0. 4.14937781e-003 0. 0. 0. 0.
      0. 0. 0. 0. 0. 0. 0. 0. 0. 0. 0. 0. 0. 4.14937781e-003 0. 0. 0. 0.
      0. 0. 0. 0. 0. 0. 0. 4.14937781e-003 0. 0. 0. 0. 0.
      4.14937781e-003 0. 0. 4.14937781e-003 0. 0. 0. 0. 4.14937781e-003
      0. 0. 0. 0. 0. 4.14937781e-003 0. 0. 0. 0. 4.14937781e-003 0. 0.
      1.65975112e-002 0. 0. 4.14937781e-003 0. 0. 0. 0. 0. 0. 0. 0. 0.
      0. 4.14937781e-003 4.14937781e-003 0. 0. 0. 0. 1.65975112e-002 0.
      0. 0. 0. 0. 0. 4.14937781e-003 0. 4.14937781e-003 0. 0. 0. 0. 0.
      0. 0. 0. 0. 0. 0. 0. 0. 0. 0. 0. 0. 0. 0. 0. 0. 0. 0. 0. 0. 0. 0.
      0. 4.14937781e-003 0. 0. 0. 0. 0. 0. 0. 0. 4.14937781e-003 0. 0.
      0. 0. 0. 4.14937781e-003 4.14937781e-003 0. 0. 0. 0.
      4.14937781e-003 0. 0. 0. 0. 0. 0. 4.14937781e-003 0. 0. 0. 0. 0.
      0. 0. 0. 0. 0. 0. 0. 0. 0. 8.29875562e-003 4.14937781e-003 0. 0.
      0. 0. 8.29875562e-003 0. 0. 0. 4.14937781e-003 0. 0. 0. 0. 0. 0.
      4.14937781e-003 0. 0. 4.14937781e-003 1.24481339e-002 0. 0. 0. 0.
      4.14937781e-003 4.14937781e-003 0. 1.65975112e-002 4.14937781e-003
      0. 0. 0. 4.14937781e-003 4.14937781e-003 0. 0. 4.14937781e-003 0.
      4.14937781e-003 0. 0. 4.14937781e-003 0. 0. 0. 0. 0.
      8.29875562e-003 0. 0. 0. 0. 0. 0. 0. 0. 0. 0. 0. 0.
      8.29875562e-003 0. 0. 0. 0. 0. 0. 0. 0. 0. 0. 0. 0. 0. 0. 0. 0. 0.
      4.14937781e-003 0. 0. 8.29875562e-003 0. 0. 0. 0. 0. 0. 0. 0. 0.
      4.14937781e-003 1.65975112e-002 0. 0. 0. 0. 0. 0. 0. 0. 0. 0.
      4.14937781e-003 0. 0. 0. 0. 4.14937781e-003 0. 0. 0. 0. 0. 0. 0.
      0. 0. 0. 0. 0. 8.29875562e-003 0. 0. 0. 4.14937781e-003
      4.14937781e-003 0. 0. 0. 0. 1.24481339e-002 0. 0. 0. 0. 0. 0. 0.
      0. 0. 0. 0. 0. 0. 0. 0. 0. 0. 0. 0. 0. 0. 0. 0. 0. 4.14937781e-003
      0. 0. 0. 1.24481339e-002 0. 4.14937781e-003 0. 0. 0. 0.
      8.29875562e-003 8.29875562e-003 0. 0. 0. 0. 0. 0. 0.
      4.14937781e-003 0. 0. 4.14937781e-003 0. 0. 4.14937781e-003 0. 0.
      0. 0. 0. 0. 1.24481339e-002 0. 0. 0. 0. 0. 0. 0. 0. 0. 0. 0. 0.
      4.14937781e-003 0. 0. 4.14937781e-003 0. 0. 0. 0. 8.29875562e-003
      0. 0. 0. 0. 4.14937781e-003 0. 0. 0. 0. 8.29875562e-003 0. 0. 0.
      0. 0. 0. 0. 0. 0. 0. 0. 0. 0. 0. 0. 4.14937781e-003 0. 0.
      8.29875562e-003 0. 0. 0. 8.29875562e-003 4.14937781e-003 0. 0. 0.
      0. 0. 0. 0. 0. 0. 4.14937781e-003 0. 8.29875562e-003 0. 0. 0. 0.
      0. 0. 0. 0. 0. 4.14937781e-003 0. 0. 0. 0. 0. 0. 0. 0. 0. 0. 0. 0.
      0. 0. 0. 4.14937781e-003 0. 0. 0. 0. 4.14937781e-003 0. 0. 0. 0.
      4.14937781e-003 0. 0. 0. 0. 0. 0. 0. 0. 0. 0. 4.14937781e-003 0.
      0. 0. 0. 4.14937781e-003 0. 0. 0. 0. 0. 0. 0. 0. 0. 0. 0. 0. 0.
      4.14937781e-003 0. 0. 0. 0. 0. 0. 0. 0. 0. 0. 0. 0. 0. 0. 0. 0. 0.
      0. 0. 0. 0. 0. 0. 0. 0. 0. 0. 0. 0. 0. 4.14937781e-003 0. 0.
      4.14937781e-003 0. 0. 0. 0. 0. 4.14937781e-003 0. 4.14937781e-003
      4.14937781e-003 0. 4.14937781e-003 0. 0. 0. 0. 0. 0.
      4.14937781e-003 0. 0. 0. 0. 0. 0. 0. 0. 0. 0. 0. 0. 0.
      8.29875562e-003 0. 0. 4.14937781e-003 0. 8.29875562e-003 0. 0. 0.
      0. 0. 4.14937781e-003 0. 0. 0. 0. 0. 0. 0. 0. 0. 0.
      4.14937781e-003 0. 0. 0. 0. 0. 0. 0. 4.14937781e-003 0. 0. 0. 0.
      0. 0. 0. 8.29875562e-003 0. 0. 0. 0. 8.29875562e-003
      4.14937781e-003 0. 0. 0. 0. 0. 0. 0. 0. 0. 4.14937781e-003 0. 0.
      0. 8.29875562e-003 0. 0. 0. 0. 0. 0. 0. 0. 0. 0. 0. 0. 0. 0. 0.
      4.14937781e-003 4.14937781e-003 0. 0. 0. 0. 0. 0. 0. 0. 0. 0. 0.
      0. 0. 0. 0. 0. 0. 0.</_>
    <_>
      0. 0. 0. 0. 0. 0. 0. 0. 0. 0. 0. 0. 0. 0. 0. 0. 0. 1.53846154e-002
      0. 0. 0. 0. 0. 0. 0. 0. 0. 0. 0. 1.53846154e-002 0. 0. 0. 0. 0. 0.
      1.53846154e-002 0. 0. 0. 0. 0. 0. 0. 0. 0. 0. 0. 0. 0. 0. 0. 0. 0.
      0. 0. 0. 0. 0. 0. 0. 0. 1.53846154e-002 0. 0. 0. 0. 0. 0. 0. 0. 0.
      0. 0. 0. 0. 0. 0. 0. 0. 0. 0. 0. 1.53846154e-002 0. 0. 0. 0. 0. 0.
      0. 0. 0. 0. 0. 0. 0. 0. 0. 0. 0. 0. 0. 0. 0. 0. 0. 0. 0. 0. 0. 0.
      0. 0. 0. 0. 0. 0. 0. 0. 0. 0. 0. 0. 0. 0. 0. 0. 0. 0. 0. 0. 0. 0.
      0. 0. 0. 0. 0. 0. 0. 1.53846154e-002 0. 0. 0. 0. 0. 0. 0. 0. 0. 0.
      0. 0. 0. 0. 0. 0. 0. 0. 0. 0. 0. 0. 1.53846154e-002 0. 0. 0. 0. 0.
      0. 0. 0. 0. 0. 0. 0. 0. 0. 0. 0. 0. 0. 0. 0. 0. 0. 0. 0. 0. 0. 0.
      0. 0. 0. 0. 0. 0. 0. 1.53846154e-002 0. 0. 0. 0. 0. 0. 0. 0. 0. 0.
      0. 0. 0. 0. 0. 0. 0. 0. 0. 0. 0. 1.53846154e-002 0. 0. 0. 0. 0. 0.
      0. 0. 0. 0. 0. 0. 0. 0. 0. 0. 0. 0. 0. 1.53846154e-002 0. 0. 0. 0.
      1.53846154e-002 0. 0. 0. 0. 0. 0. 0. 0. 0. 0. 0. 0. 0. 0. 0. 0. 0.
      0. 0. 0. 0. 0. 0. 0. 0. 0. 0. 0. 0. 0. 0. 0. 0. 0. 0. 0. 0. 0. 0.
      0. 1.53846154e-002 0. 0. 0. 0. 0. 0. 0. 0. 0. 0. 0. 0. 0. 0. 0. 0.
      0. 0. 0. 0. 0. 0. 0. 0. 0. 0. 0. 0. 1.53846154e-002 0. 0. 0. 0. 0.
      0. 0. 0. 0. 0. 0. 0. 0. 0. 0. 0. 0. 0. 0. 0. 0. 0. 1.53846154e-002
      0. 0. 0. 0. 0. 0. 0. 0. 0. 0. 0. 0. 0. 0. 1.53846154e-002 0. 0. 0.
      0. 0. 0. 0. 0. 0. 0. 0. 0. 0. 0. 0. 0. 0. 0. 0. 1.53846154e-002 0.
      0. 0. 0. 0. 0. 0. 0. 1.53846154e-002 0. 0. 0. 0. 0. 0. 0. 0. 0. 0.
      0. 0. 0. 0. 0. 0. 0. 0. 0. 0. 0. 0. 0. 3.07692308e-002 0. 0. 0. 0.
      0. 0. 0. 0. 0. 0. 0. 0. 0. 0. 0. 0. 0. 0. 0. 0. 0. 0. 0. 0. 0. 0.
      0. 1.53846154e-002 0. 0. 0. 0. 0. 0. 0. 3.07692308e-002 0. 0. 0.
      1.53846154e-002 1.53846154e-002 0. 0. 0. 0. 0. 0. 0. 0. 0. 0. 0.
      0. 0. 0. 1.53846154e-002 0. 0. 0. 0. 0. 0. 0. 0. 0. 0. 0. 0. 0.
      1.53846154e-002 1.53846154e-002 0. 0. 0. 0. 0. 0. 0.
      1.53846154e-002 0. 0. 0. 1.53846154e-002 0. 0. 0. 0. 0. 0. 0. 0.
      0. 0. 1.53846154e-002 0. 0. 0. 0. 0. 0. 0. 0. 0. 0. 0. 0. 0. 0. 0.
      0. 0. 0. 0. 0. 0. 0. 0. 0. 0. 0. 0. 0. 0. 0. 0. 0. 0. 0.
      1.53846154e-002 0. 0. 0. 0. 0. 0. 0. 0. 0. 0. 0. 0. 0. 0. 0. 0.
      1.53846154e-002 0. 0. 0. 0. 0. 0. 0. 0. 0. 0. 0. 1.53846154e-002
      0. 0. 0. 0. 0. 0. 0. 0. 0. 0. 0. 0. 0. 0. 0. 0. 0. 0. 0. 0. 0. 0.
      0. 0. 0. 0. 0. 0. 0. 0. 0. 0. 0. 0. 0. 0. 0. 0. 0. 0. 0. 0. 0.
      7.69230798e-002 1.53846154e-002 0. 0. 0. 0. 0. 0. 0. 0. 0. 0. 0.
      0. 0. 0. 0. 0. 0. 0. 0. 0. 0. 0. 0. 0. 0. 1.53846154e-002 0. 0. 0.
      0. 0. 0. 0. 0. 0. 0. 0. 0. 0. 0. 0. 0. 0. 0. 0. 0. 0. 0. 0. 0. 0.
      0. 0. 0. 0. 0. 0. 0. 0. 0. 0. 0. 0. 0. 0. 0. 0. 0. 0. 0. 0. 0. 0.
      0. 0. 0. 0. 0. 0. 0. 0. 0. 0. 3.07692308e-002 0. 0. 0. 0. 0. 0. 0.
      0. 1.53846154e-002 0. 0. 0. 0. 0. 0. 0. 0. 0. 0. 0. 0. 0. 0. 0.
      1.53846154e-002 0. 0. 0. 0. 0. 0. 0. 0. 0. 0. 0. 0. 0. 0. 0. 0. 0.
      0. 0. 0. 0. 0. 1.53846154e-002 0. 0. 0. 0. 3.07692308e-002 0. 0.
      1.53846154e-002 0. 0. 0. 0. 0. 0. 0. 0. 0. 0. 0. 1.53846154e-002
      0. 0. 0. 0. 0. 0. 0. 0. 0. 0. 0. 0. 3.07692308e-002 0. 0. 0. 0. 0.
      0. 0. 0. 0. 0. 0. 0. 0. 1.53846154e-002 0. 0. 0. 0. 0. 0. 0. 0. 0.
      0. 0. 0. 0. 0. 0. 0. 0. 0. 0. 0. 0. 0. 1.53846154e-002 0. 0. 0. 0.
      0. 0. 0. 0. 0. 0. 0. 0. 0. 0. 0. 1.53846154e-002 0. 0. 0. 0. 0. 0.
      0. 0. 0. 0. 0. 0. 0. 0. 0. 0. 0. 0. 0. 0. 0. 0. 0. 0. 0. 0. 0.
      3.07692308e-002 0. 0. 0. 0. 0. 0. 0. 0. 0. 0. 0. 0. 0. 0. 0. 0. 0.
      0. 0. 0. 0. 0. 0. 0. 0. 0. 0. 0. 3.07692308e-002 0. 0. 0. 0. 0. 0.
      0. 0. 0. 0. 0. 0. 0. 0. 0. 0. 0. 0. 0. 0. 0. 0. 0. 0. 0. 0. 0. 0.
      0. 0. 0. 0. 0. 0. 0. 0. 1.53846154e-002 4.61538471e-002 0. 0. 0.
      0. 0. 0. 0. 0. 0. 0. 0. 0. 0. 0. 0. 0. 0. 0. 0. 0. 0. 0. 0. 0. 0.
      0. 0. 0. 0. 0. 0. 0. 0. 0. 0. 0. 0. 0. 0. 0. 0. 0. 0. 0. 0. 0. 0.
      0. 0. 0. 0. 3.07692308e-002 0. 0. 0. 0. 0. 0. 0. 0. 0. 0. 0. 0. 0.
      0. 0. 0. 0. 0. 0. 0. 0. 0. 1.53846154e-002 0.</_>
    <_>
      0. 0. 0. 0. 0. 0. 0. 8.69565178e-003 0. 0. 0. 0. 0. 0. 0. 0. 0. 0.
      8.69565178e-003 0. 0. 0. 0. 0. 0. 0. 0. 0. 0. 0. 0. 0. 0. 0. 0.
      1.73913036e-002 0. 0. 1.73913036e-002 0. 0. 0. 0. 0. 0. 0.
      8.69565178e-003 0. 0. 0. 0. 0. 0. 0. 0. 0. 0. 0. 8.69565178e-003
      0. 8.69565178e-003 0. 0. 0. 0. 0. 0. 0. 0. 0. 8.69565178e-003 0.
      0. 0. 0. 0. 8.69565178e-003 0. 8.69565178e-003 0. 0. 0. 0. 0. 0.
      0. 0. 0. 0. 0. 0. 1.73913036e-002 0. 0. 0. 0. 0. 8.69565178e-003
      0. 0. 0. 0. 0. 8.69565178e-003 0. 0. 0. 8.69565178e-003
      1.73913036e-002 0. 0. 0. 0. 0. 0. 8.69565178e-003 0. 0. 0. 0.
      2.60869563e-002 0. 0. 0. 0. 8.69565178e-003 0. 0. 0. 0. 0. 0. 0.
      0. 0. 0. 0. 0. 8.69565178e-003 1.73913036e-002 8.69565178e-003 0.
      0. 0. 8.69565178e-003 0. 0. 0. 0. 0. 0. 0. 0. 0. 0. 0. 0. 0. 0. 0.
      0. 0. 8.69565178e-003 0. 0. 0. 0. 8.69565178e-003 0. 0. 0. 0. 0.
      0. 1.73913036e-002 0. 0. 0. 0. 0. 0. 0. 0. 0. 0. 0. 0. 0. 0. 0. 0.
      0. 0. 0. 0. 0. 0. 0. 0. 0. 0. 0. 0. 0. 0. 0. 0. 0. 0. 0. 0. 0. 0.
      0. 0. 0. 0. 0. 0. 0. 0. 0. 0. 0. 0. 0. 0. 0. 0. 0. 0. 0. 0. 0. 0.
      0. 0. 0. 0. 0. 0. 0. 0. 0. 0. 0. 0. 0. 0. 0. 0. 0. 8.69565178e-003
      0. 0. 0. 0. 0. 0. 8.69565178e-003 0. 0. 0. 0. 0. 0. 0. 0. 0. 0. 0.
      0. 0. 0. 0. 0. 0. 0. 0. 0. 0. 2.60869563e-002 1.73913036e-002 0.
      0. 0. 8.69565178e-003 0. 1.73913036e-002 0. 0. 0. 0.
      8.69565178e-003 0. 0. 0. 8.69565178e-003 0. 0. 0. 0. 0. 0. 0. 0.
      0. 0. 0. 0. 0. 0. 0. 0. 0. 0. 0. 0. 0. 0. 0. 0. 0. 0. 0. 0. 0. 0.
      0. 0. 0. 0. 0. 0. 0. 0. 0. 0. 8.69565178e-003 0. 0. 0. 0. 0.
      8.69565178e-003 0. 0. 8.69565178e-003 0. 0. 0. 0. 0. 0. 0. 0. 0.
      0. 0. 0. 0. 0. 0. 0. 0. 0. 0. 0. 0. 0. 0. 0. 0. 0. 0. 0. 0. 0. 0.
      0. 8.69565178e-003 0. 0. 2.60869563e-002 0. 0. 0. 0. 0. 0. 0. 0.
      0. 0. 0. 0. 0. 0. 0. 0. 0. 0. 0. 0. 0. 0. 0. 0. 0. 0. 0. 0. 0. 0.
      0. 0. 0. 0. 0. 0. 0. 0. 0. 0. 0. 0. 0. 0. 0. 0. 8.69565178e-003 0.
      0. 0. 1.73913036e-002 8.69565178e-003 0. 0. 0. 0. 0.
      8.69565178e-003 0. 0. 0. 0. 0. 0. 0. 0. 0. 0. 0. 0. 0. 0. 0. 0. 0.
      0. 0. 0. 0. 0. 0. 0. 0. 0. 0. 0. 0. 0. 0. 0. 0. 1.73913036e-002 0.
      0. 0. 0. 0. 0. 0. 0. 0. 0. 8.69565178e-003 0. 0. 1.73913036e-002
      0. 0. 0. 8.69565178e-003 0. 0. 0. 0. 0. 0. 0. 0. 0. 0. 0. 0. 0. 0.
      0. 0. 0. 0. 0. 0. 0. 0. 0. 0. 0. 0. 0. 0. 0. 0. 0. 0. 0.
      8.69565178e-003 0. 0. 0. 0. 0. 0. 0. 0. 8.69565178e-003 0. 0. 0.
      0. 0. 0. 0. 0. 0. 0. 0. 0. 0. 8.69565178e-003 0. 0. 0. 0. 0. 0. 0.
      0. 0. 0. 0. 0. 0. 0. 0. 0. 0. 0. 0. 0. 0. 0. 0. 0. 0. 0. 0. 0. 0.
      0. 0. 0. 0. 8.69565178e-003 0. 0. 0. 0. 0. 0. 8.69565178e-003 0.
      8.69565178e-003 0. 0. 0. 0. 0. 8.69565178e-003 0. 0. 0. 0. 0. 0.
      0. 2.60869563e-002 0. 0. 8.69565178e-003 0. 0. 0. 0. 0. 0. 0.
      8.69565178e-003 0. 0. 0. 0. 0. 0. 0. 0. 0. 0. 0. 0. 0. 0. 0. 0. 0.
      0. 0. 0. 0. 0. 0. 8.69565178e-003 8.69565178e-003 0. 0. 0. 0. 0.
      0. 0. 0. 0. 0. 0. 0. 0. 0. 0. 0. 0. 0. 0. 0. 0. 0. 0. 0. 0. 0. 0.
      0. 0. 0. 0. 0. 0. 0. 0. 0. 0. 0. 0. 0. 0. 0. 0. 0. 0. 0. 0. 0. 0.
      0. 1.73913036e-002 1.73913036e-002 0. 0. 0. 0. 0. 0. 0.
      8.69565178e-003 0. 0. 0. 0. 0. 0. 0. 0. 0. 0. 0. 0.
      1.73913036e-002 0. 0. 0. 0. 0. 0. 0. 0. 0. 0. 0. 0. 0. 0. 0. 0. 0.
      0. 0. 0. 0. 0. 8.69565178e-003 0. 0. 0. 0. 0. 0. 0. 0. 0. 0. 0. 0.
      0. 0. 0. 0. 0. 0. 0. 0. 0. 0. 0. 0. 8.69565178e-003 0. 0. 0. 0. 0.
      0. 0. 0. 0. 0. 0. 0. 0. 0. 0. 0. 8.69565178e-003 0. 0. 0. 0. 0. 0.
      0. 2.60869563e-002 0. 0. 0. 0. 0. 0. 0. 0. 0. 8.69565178e-003 0.
      0. 0. 0. 0. 0. 0. 0. 0. 0. 8.69565178e-003 0. 8.69565178e-003 0.
      0. 0. 8.69565178e-003 0. 0. 0. 0. 0. 0. 0. 0. 0. 0. 0. 0. 0. 0. 0.
      0. 0. 0. 0. 1.73913036e-002 8.69565178e-003 0. 0. 0. 0. 0.
      8.69565178e-003 0. 0. 0. 8.69565178e-003 0. 0. 0. 0. 0. 0. 0. 0.
      8.69565178e-003 0. 0. 0. 0. 0. 0. 0. 0. 0. 0. 0. 0. 0. 0.
      8.69565178e-003 0. 0. 0. 0. 0. 0. 0. 0. 1.73913036e-002 0. 0. 0.
      0. 8.69565178e-003 0. 0. 0. 0. 0. 0. 0. 0. 0. 0. 0. 0.
      8.69565178e-003 0. 0. 0. 0. 0. 0. 0. 0. 0. 0. 0. 0. 0. 0. 0. 0. 0.
      0. 0. 0. 0. 0. 0. 0. 0. 0. 0. 0. 0. 8.69565178e-003 0. 0. 0. 0. 0.
      0. 0. 8.69565178e-003 0. 0. 0. 8.69565178e-003 0. 0. 0.
      1.73913036e-002 0. 0. 0. 8.69565178e-003 0. 0. 0. 0. 0. 0. 0. 0.
      0. 0. 0. 0. 0. 0. 0. 0. 0. 0. 0. 0. 0. 1.73913036e-002 0. 0. 0. 0.
      0. 0. 0. 0. 0. 0. 0. 0. 0. 0. 0. 0. 8.69565178e-003 0. 0. 0. 0. 0.
      0. 0. 0. 0. 0. 0. 8.69565178e-003</_>
    <_>
      0. 0. 0. 0. 0. 0. 0. 0. 0. 0. 0. 0. 0. 0. 0. 0. 0. 0.
      3.33333351e-002 0. 0. 0. 0. 0. 0. 0. 0. 0. 0. 0. 3.33333351e-002
      0. 0. 0. 0. 0. 0. 0. 0. 0. 0. 0. 0. 0. 0. 0. 0. 0. 0. 0. 0. 0. 0.
      0. 0. 0. 0. 0. 0. 0. 0. 0. 0. 0. 3.33333351e-002 0. 0. 0. 0. 0. 0.
      0. 0. 0. 0. 0. 0. 0. 0. 0. 0. 0. 0. 0. 0. 0. 0. 0. 0. 0. 0. 0. 0.
      0. 0. 0. 0. 0. 0. 0. 0. 0. 0. 0. 0. 3.33333351e-002 0.
      3.33333351e-002 0. 0. 0. 0. 3.33333351e-002 0. 0. 0. 0. 0. 0. 0.
      0. 0. 0. 0. 0. 6.66666701e-002 0. 0. 0. 0. 0. 0. 0. 0. 0. 0. 0. 0.
      0. 0. 0. 0. 0. 0. 0. 0. 3.33333351e-002 0. 3.33333351e-002 0. 0.
      0. 0. 0. 0. 0. 0. 0. 0. 0. 0. 0. 0. 0. 0. 0. 0. 0. 0. 0. 0. 0. 0.
      0. 3.33333351e-002 0. 3.33333351e-002 0. 0. 0. 0. 0. 0. 0. 0. 0.
      0. 0. 0. 0. 0. 0. 0. 0. 0. 0. 0. 0. 0. 0. 0. 0. 0. 0. 0. 0. 0. 0.
      0. 0. 0. 0. 0. 0. 0. 0. 0. 0. 0. 0. 0. 0. 0. 0. 0. 0. 0. 0. 0. 0.
      0. 0. 0. 0. 0. 0. 0. 0. 0. 0. 0. 0. 0. 0. 0. 0. 3.33333351e-002 0.
      0. 0. 0. 0. 0. 0. 0. 0. 0. 0. 0. 0. 0. 0. 0. 0. 0. 0. 0. 0. 0. 0.
      0. 0. 0. 0. 0. 0. 0. 0. 0. 0. 0. 0. 0. 0. 0. 0. 0. 0. 0. 0. 0. 0.
      0. 0. 0. 0. 0. 0. 0. 0. 0. 0. 0. 0. 0. 0. 0. 0. 0. 0. 0. 0. 0. 0.
      0. 0. 0. 0. 0. 0. 0. 0. 0. 0. 0. 0. 0. 0. 6.66666701e-002 0. 0. 0.
      0. 0. 0. 0. 0. 0. 3.33333351e-002 0. 0. 3.33333351e-002 0. 0. 0.
      0. 0. 0. 0. 0. 0. 0. 0. 0. 0. 0. 0. 0. 0. 0. 0. 0. 0. 0. 0. 0. 0.
      0. 0. 0. 0. 0. 0. 0. 0. 0. 0. 0. 0. 0. 0. 0. 0. 0. 0. 0. 0. 0. 0.
      0. 0. 0. 0. 0. 0. 0. 0. 0. 0. 0. 0. 0. 0. 0. 0. 0. 0. 0. 0. 0. 0.
      0. 0. 0. 0. 0. 0. 0. 0. 0. 0. 0. 0. 0. 0. 0. 0. 0. 0. 0. 0. 0. 0.
      0. 0. 0. 0. 0. 0. 0. 0. 0. 0. 0. 0. 0. 0. 0. 0. 0. 0. 0. 0. 0. 0.
      0. 0. 0. 0. 0. 0. 0. 0. 0. 0. 0. 0. 0. 0. 0. 0. 0. 0. 0. 0. 0. 0.
      0. 0. 0. 0. 0. 0. 0. 0. 0. 3.33333351e-002 0. 0. 0. 0. 0.
      3.33333351e-002 3.33333351e-002 0. 0. 0. 3.33333351e-002 0. 0. 0.
      0. 0. 0. 0. 0. 0. 0. 0. 0. 0. 0. 0. 0. 0. 0. 0. 0. 0. 0. 0. 0. 0.
      0. 0. 0. 0. 0. 0. 0. 0. 0. 0. 0. 0. 0. 0. 0. 0. 0. 0. 0. 0. 0. 0.
      0. 0. 0. 0. 0. 0. 0. 0. 0. 0. 3.33333351e-002 0. 0. 0. 0. 0. 0. 0.
      0. 0. 0. 0. 0. 0. 0. 0. 0. 0. 0. 0. 0. 0. 0. 0. 0. 0. 0. 0. 0. 0.
      0. 0. 0. 0. 0. 0. 0. 0. 0. 0. 0. 0. 0. 0. 0. 0. 0. 0. 0. 0. 0. 0.
      0. 0. 0. 3.33333351e-002 0. 0. 0. 0. 0. 0. 0. 0. 0. 0. 0. 0. 0. 0.
      0. 0. 0. 0. 0. 0. 0. 0. 0. 0. 0. 0. 0. 0. 3.33333351e-002 0. 0. 0.
      0. 0. 0. 0. 0. 0. 0. 0. 0. 0. 0. 0. 0. 0. 0. 0. 0. 0. 0.
      3.33333351e-002 0. 0. 0. 0. 0. 0. 0. 0. 0. 0. 0. 0. 0. 0. 0. 0. 0.
      0. 0. 0. 0. 0. 3.33333351e-002 0. 0. 0. 0. 0. 0. 0. 0. 0. 0. 0. 0.
      0. 0. 0. 0. 0. 0. 0. 0. 0. 0. 0. 0. 0. 0. 0. 0. 0. 0.
      3.33333351e-002 0. 0. 0. 0. 0. 0. 0. 0. 0. 0. 0. 0. 0. 0. 0. 0. 0.
      0. 0. 0. 0. 0. 0. 0. 0. 0. 0. 0. 0. 0. 0. 0. 0. 0. 0. 0. 0. 0. 0.
      0. 0. 0. 0. 0. 0. 0. 0. 0. 0. 0. 0. 0. 0. 0. 0. 0. 0. 0. 0. 0. 0.
      0. 0. 0. 0. 0. 0. 0. 0. 0. 0. 0. 0. 0. 0. 0. 0. 0. 0. 0. 0. 0. 0.
      0. 0. 0. 0. 0. 0. 0. 0. 0. 0. 0. 0. 0. 0. 0. 0. 0. 0.
      3.33333351e-002 0. 0. 0. 0. 0. 0. 0. 0. 0. 0. 0. 0. 0. 0. 0. 0. 0.
      0. 0. 0. 0. 0. 0. 0. 0. 0. 0. 0. 0. 0. 0. 0. 0. 0. 0. 0. 0. 0. 0.
      0. 0. 0. 0. 0. 0. 0. 0. 0. 0. 0. 0. 0. 0. 0. 0. 0. 0. 0. 0. 0. 0.
      0. 0. 0. 0. 0. 0. 0. 0. 0. 0. 0. 0. 0. 0. 0. 0. 0. 0. 0. 0. 0. 0.
      0. 0. 0. 0. 0. 0. 0. 0. 0. 0. 0. 0. 0. 0. 0. 0. 0. 0. 0. 0. 0.
      3.33333351e-002 0. 0. 0. 0. 0. 0. 0. 0. 0. 0. 0. 0. 0. 0. 0. 0. 0.
      0. 0. 0. 0. 0. 0. 0. 0. 0. 0. 0. 0. 0. 0. 0. 0. 0. 0. 0. 0. 0. 0.
      0. 0. 0. 0. 0. 0. 0. 3.33333351e-002 0. 0. 0. 0. 0. 0. 0. 0. 0. 0.
      0. 0. 0. 0. 0. 0. 0. 0. 0. 0. 0. 0. 0. 0. 0. 0. 0. 0. 0.</_>
    <_>
      0. 0. 0. 0. 0. 0. 0. 0. 0. 0. 0. 0. 0. 0. 0. 0. 0. 3.44827585e-002
      0. 0. 0. 0. 0. 0. 0. 0. 0. 0. 0. 0. 0. 0. 0. 0. 0. 0. 0. 0. 0. 0.
      0. 0. 0. 0. 0. 0. 0. 0. 0. 0. 0. 0. 0. 0. 0. 0. 0. 0. 0. 0. 0. 0.
      0. 0. 0. 0. 0. 0. 0. 0. 0. 0. 0. 0. 0. 0. 0. 0. 0. 0. 0. 0. 0. 0.
      0. 0. 0. 0. 0. 0. 0. 0. 0. 0. 0. 0. 0. 0. 0. 0. 0. 0. 0. 0. 0. 0.
      0. 6.89655170e-002 0. 0. 0. 0. 0. 0. 0. 0. 0. 0. 0. 0. 0. 0. 0. 0.
      0. 3.44827585e-002 0. 0. 0. 0. 0. 0. 0. 0. 0. 0. 0. 0. 0. 0. 0. 0.
      0. 0. 0. 0. 0. 0. 0. 0. 0. 0. 0. 3.44827585e-002 0. 0. 0. 0. 0. 0.
      0. 0. 0. 0. 0. 0. 0. 3.44827585e-002 0. 0. 3.44827585e-002 0. 0.
      0. 0. 0. 0. 0. 0. 0. 0. 0. 0. 0. 0. 0. 0. 0. 0. 0. 0. 0. 0. 0. 0.
      0. 0. 0. 0. 0. 0. 0. 0. 0. 0. 0. 0. 3.44827585e-002 0. 0. 0. 0. 0.
      0. 0. 0. 0. 0. 0. 0. 0. 0. 0. 3.44827585e-002 0. 0. 0. 0. 0. 0. 0.
      0. 0. 0. 0. 0. 0. 0. 0. 0. 0. 0. 0. 0. 0. 0. 0. 0. 0. 0. 0. 0. 0.
      0. 0. 0. 0. 0. 0. 0. 0. 0. 0. 0. 0. 0. 0. 0. 0. 0. 0. 0. 0.
      3.44827585e-002 0. 0. 0. 0. 0. 6.89655170e-002 3.44827585e-002 0.
      3.44827585e-002 0. 0. 0. 0. 0. 0. 0. 0. 0. 0. 0. 0. 0. 0. 0. 0. 0.
      0. 0. 3.44827585e-002 0. 0. 0. 0. 0. 0. 0. 0. 0. 0. 0. 0. 0.
      6.89655170e-002 0. 0. 0. 0. 0. 0. 0. 0. 0. 0. 0. 0. 0. 0. 0. 0. 0.
      0. 0. 0. 0. 0. 0. 0. 0. 0. 0. 3.44827585e-002 0. 0.
      3.44827585e-002 0. 0. 0. 0. 0. 0. 0. 0. 0. 0. 0. 0. 0. 0. 0. 0. 0.
      3.44827585e-002 0. 0. 0. 0. 0. 0. 0. 0. 0. 0. 0. 0. 0. 0. 0. 0. 0.
      0. 0. 0. 0. 0. 0. 0. 0. 0. 0. 0. 0. 0. 0. 0. 0. 0. 0. 0. 0. 0. 0.
      0. 0. 0. 0. 0. 0. 0. 0. 0. 0. 0. 0. 0. 0. 0. 0. 0. 0. 0. 0. 0. 0.
      0. 0. 0. 0. 0. 0. 0. 0. 0. 0. 0. 0. 0. 0. 0. 0. 0. 0. 0. 0.
      3.44827585e-002 0. 0. 0. 0. 0. 0. 0. 0. 0. 0. 0. 0. 0. 0. 0. 0. 0.
      0. 0. 0. 0. 0. 0. 0. 0. 0. 0. 0. 0. 0. 0. 0. 0. 0. 3.44827585e-002
      0. 0. 0. 0. 0. 0. 0. 0. 0. 0. 0. 0. 0. 0. 0. 0. 0. 0. 0. 0. 0. 0.
      0. 0. 0. 0. 0. 0. 0. 0. 0. 0. 0. 0. 0. 0. 0. 0. 0. 0. 0. 0. 0. 0.
      0. 0. 0. 0. 0. 0. 0. 0. 0. 0. 0. 0. 0. 0. 0. 0. 3.44827585e-002 0.
      0. 0. 0. 0. 0. 0. 0. 0. 0. 0. 0. 0. 0. 0. 0. 0. 0. 0. 0. 0. 0. 0.
      0. 0. 0. 0. 0. 0. 0. 0. 0. 0. 0. 0. 0. 0. 0. 0. 0. 0. 0. 0. 0. 0.
      0. 0. 0. 0. 0. 0. 0. 0. 0. 0. 0. 0. 0. 0. 0. 0. 0. 0. 0. 0. 0. 0.
      0. 0. 0. 0. 0. 0. 0. 0. 0. 0. 0. 0. 0. 0. 0. 0. 0. 0. 0. 0. 0. 0.
      0. 0. 0. 0. 0. 0. 0. 0. 0. 0. 0. 0. 0. 0. 0. 0. 0. 0. 0. 0. 0. 0.
      0. 0. 0. 0. 0. 0. 3.44827585e-002 0. 0. 0. 0. 0. 0. 0. 0. 0. 0. 0.
      0. 0. 0. 0. 0. 0. 0. 0. 0. 0. 0. 0. 0. 0. 0. 6.89655170e-002 0. 0.
      0. 0. 0. 0. 0. 0. 0. 0. 0. 0. 0. 0. 0. 0. 0. 0. 0. 0. 0. 0. 0. 0.
      0. 0. 0. 0. 0. 0. 0. 0. 0. 0. 0. 0. 0. 0. 0. 0. 0. 0. 0. 0. 0. 0.
      0. 0. 0. 0. 0. 0. 0. 0. 0. 0. 0. 0. 0. 3.44827585e-002 0. 0. 0. 0.
      0. 0. 0. 0. 0. 0. 0. 0. 0. 0. 0. 0. 0. 0. 0. 0. 0. 0. 0. 0. 0. 0.
      0. 0. 0. 0. 0. 0. 0. 0. 0. 0. 0. 0. 0. 0. 0. 0. 0. 0. 0. 0. 0. 0.
      0. 0. 0. 0. 0. 0. 0. 0. 0. 0. 0. 0. 0. 0. 0. 0. 0. 0. 0. 0. 0. 0.
      0. 0. 0. 0. 0. 0. 0. 0. 0. 0. 0. 0. 0. 0. 0. 0. 0. 0. 0. 0. 0. 0.
      0. 0. 0. 0. 0. 0. 0. 0. 0. 0. 0. 0. 0. 0. 0. 0. 0. 0. 0. 0. 0. 0.
      0. 0. 0. 0. 0. 0. 0. 0. 0. 0. 0. 0. 0. 0. 0. 0. 0. 0. 0. 0. 0. 0.
      0. 0. 0. 0. 0. 0. 0. 0. 0. 0. 0. 0. 0. 0. 0. 0. 0. 0. 0. 0. 0. 0.
      0. 0. 0. 0. 0. 0. 0. 0. 0. 0. 0. 0. 0. 0. 0. 0. 3.44827585e-002 0.
      0. 0. 0. 0. 0. 0. 0. 0. 0. 0. 0. 0. 0. 0. 0. 0. 3.44827585e-002 0.
      0. 0. 0. 0. 0. 0. 0. 0. 0. 0. 0. 0. 0. 0. 0. 0. 0. 0. 0. 0. 0. 0.
      0. 0. 0. 0. 0. 0. 0. 0. 0. 0. 0. 0. 0. 0. 0. 0. 0. 0. 0. 0. 0. 0.
      0. 0. 0. 0. 0. 0. 0. 0. 0. 0. 0. 0. 0.</_>
    <_>
      0. 0. 0. 0. 0. 0. 0. 0. 0. 0. 0. 0. 0. 0. 0. 0. 0. 0. 0. 0. 0. 0.
      0. 0. 0. 0. 0. 0. 0. 0. 0. 0. 0. 0. 0. 0. 0. 0. 0. 0. 0. 0.
      1.69491526e-002 0. 0. 0. 0. 0. 0. 0. 0. 0. 0. 0. 0. 0. 0. 0. 0. 0.
      1.69491526e-002 0. 0. 0. 0. 0. 0. 0. 0. 0. 0. 0. 0. 0. 0. 0. 0. 0.
      0. 0. 0. 0. 0. 0. 0. 0. 0. 0. 0. 0. 0. 0. 0. 0. 0. 0. 0. 0. 0. 0.
      0. 0. 0. 0. 0. 0. 0. 1.69491526e-002 0. 0. 0. 0. 0. 0.
      1.69491526e-002 1.69491526e-002 0. 0. 0. 0. 0. 0. 0. 0. 0.
      1.86440676e-001 0. 0. 0. 0. 0. 0. 0. 0. 0. 0. 0. 0. 0. 0. 0. 0. 0.
      0. 0. 0. 0. 0. 0. 0. 0. 0. 0. 0. 0. 0. 0. 0. 0. 1.69491526e-002 0.
      0. 0. 0. 0. 0. 0. 0. 0. 0. 0. 0. 0. 0. 0. 0. 0. 0. 0. 0. 0. 0. 0.
      0. 0. 0. 1.69491526e-002 0. 0. 0. 0. 0. 0. 0. 0. 0. 0. 0.
      3.38983051e-002 0. 0. 0. 0. 0. 0. 0. 0. 0. 0. 0. 0. 0. 0. 0. 0.
      1.69491526e-002 0. 0. 0. 0. 0. 0. 0. 0. 0. 0. 0. 0. 0. 0. 0. 0. 0.
      0. 0. 0. 0. 0. 0. 0. 0. 0. 0. 0. 0. 0. 0. 3.38983051e-002 0. 0. 0.
      0. 0. 0. 1.69491526e-002 0. 0. 0. 0. 0. 0. 0. 0. 0.
      1.69491526e-002 0. 0. 0. 0. 0. 0. 0. 0. 0. 0. 0. 0. 0. 0. 0. 0. 0.
      0. 0. 0. 0. 0. 0. 0. 0. 0. 0. 0. 0. 0. 3.38983051e-002 0. 0. 0. 0.
      0. 0. 0. 0. 0. 0. 0. 0. 0. 0. 0. 0. 0. 0. 0. 0. 0. 0. 0. 0. 0. 0.
      0. 0. 0. 1.69491526e-002 0. 0. 1.69491526e-002 0. 0. 0. 0. 0. 0.
      0. 0. 0. 0. 0. 0. 0. 0. 1.69491526e-002 0. 0. 0. 1.69491526e-002
      0. 0. 0. 0. 0. 0. 0. 0. 0. 0. 0. 0. 0. 0. 0. 0. 0. 0. 0. 0. 0. 0.
      0. 0. 0. 0. 0. 0. 0. 0. 0. 0. 0. 0. 0. 0. 0. 0. 0. 0. 0. 0. 0. 0.
      0. 0. 0. 0. 0. 0. 0. 0. 0. 0. 0. 0. 0. 0. 0. 0. 0. 0. 0. 0. 0. 0.
      0. 0. 0. 0. 0. 0. 0. 0. 0. 0. 0. 0. 0. 0. 0. 1.69491526e-002 0. 0.
      0. 0. 0. 0. 0. 0. 0. 0. 0. 0. 0. 0. 0. 0. 0. 0. 0. 0. 0. 0. 0. 0.
      0. 0. 0. 0. 0. 0. 0. 0. 0. 0. 0. 0. 0. 0. 0. 1.69491526e-002 0. 0.
      0. 0. 0. 0. 0. 0. 0. 0. 0. 0. 0. 0. 0. 0. 0. 0. 0. 1.69491526e-002
      0. 0. 0. 0. 0. 0. 0. 0. 0. 0. 0. 0. 0. 0. 0. 0. 0. 0.
      1.69491526e-002 0. 0. 0. 0. 0. 0. 0. 0. 0. 0. 0. 3.38983051e-002
      0. 0. 0. 0. 0. 0. 0. 0. 0. 0. 0. 0. 0. 0. 0. 0. 0. 0. 0. 0. 0. 0.
      1.69491526e-002 0. 0. 0. 1.69491526e-002 0. 0. 1.69491526e-002 0.
      0. 0. 0. 0. 0. 0. 0. 0. 0. 0. 0. 0. 0. 0. 0. 0. 0. 0. 0. 0. 0. 0.
      0. 0. 0. 0. 0. 0. 0. 0. 0. 0. 0. 0. 0. 0. 0. 0. 0. 0. 0. 0. 0. 0.
      0. 0. 0. 0. 0. 0. 0. 0. 0. 0. 0. 1.69491526e-002 0. 0. 0. 0. 0.
      1.69491526e-002 0. 0. 0. 0. 0. 0. 0. 0. 0. 0. 0. 0. 0. 0. 0. 0. 0.
      0. 0. 0. 0. 0. 1.69491526e-002 0. 0. 0. 0. 0. 0. 0. 0. 0. 0. 0. 0.
      0. 0. 0. 0. 0. 0. 0. 0. 0. 0. 0. 0. 0. 0. 0. 0. 0. 0. 0. 0. 0. 0.
      0. 0. 0. 0. 0. 0. 0. 0. 0. 0. 0. 0. 0. 0. 0. 0. 0. 0. 0. 0. 0. 0.
      0. 0. 0. 0. 0. 0. 0. 0. 0. 0. 0. 0. 0. 0. 0. 0. 0. 0. 0. 0. 0. 0.
      0. 0. 0. 0. 0. 0. 0. 1.69491526e-002 1.69491526e-002 0. 0. 0. 0.
      1.69491526e-002 0. 0. 0. 0. 0. 0. 0. 0. 0. 0. 0. 0. 0. 0. 0. 0. 0.
      0. 0. 0. 0. 0. 1.69491526e-002 0. 0. 0. 0. 0. 0. 0. 0. 0. 0. 0.
      1.69491526e-002 0. 0. 0. 0. 0. 0. 0. 0. 0. 0. 0. 0. 0. 0. 0. 0. 0.
      0. 0. 0. 0. 0. 0. 0. 0. 0. 0. 0. 0. 0. 0. 1.69491526e-002 0. 0. 0.
      1.69491526e-002 0. 0. 0. 0. 0. 0. 0. 0. 0. 0. 0. 0. 0.
      1.69491526e-002 0. 0. 0. 0. 0. 1.69491526e-002 0. 0. 0.
      1.69491526e-002 0. 0. 0. 0. 0. 0. 0. 0. 0. 0. 0. 0. 0. 0. 0. 0. 0.
      0. 0. 0. 0. 0. 0. 0. 0. 0. 0. 0. 0. 1.69491526e-002 0. 0.
      1.69491526e-002 0. 0. 0. 0. 0. 0. 0. 0. 0. 0. 0. 0. 0. 0. 0. 0. 0.
      0. 0. 0. 0. 0. 0. 0. 0. 0. 0. 0. 1.69491526e-002 0. 0. 0. 0. 0. 0.
      0. 0. 0. 0. 0. 0. 0. 0. 0. 0. 0. 0. 0. 0. 0. 0. 0. 0. 0. 0. 0. 0.
      0. 0. 0. 0. 0. 0. 0. 0. 0. 0. 0. 0. 0. 0. 0. 0. 1.69491526e-002 0.
      0. 0. 0. 0. 0. 0. 0. 0. 0. 0. 0. 0. 0. 0. 0. 0. 0. 0. 0. 0. 0. 0.
      1.69491526e-002 0. 0. 0. 0. 0. 0. 0. 0. 0. 0. 0. 0. 0.
      1.69491526e-002 0. 0. 0. 0. 0. 0. 0. 0. 0. 0. 0. 0. 0. 0. 0. 0. 0.
      0. 0. 0. 0. 0. 0. 0. 0. 0. 0. 0. 0. 0. 0.</_>
    <_>
      0. 0. 0. 6.36942685e-003 0. 0. 0. 0. 0. 0. 0. 0. 0. 0. 0. 0. 0. 0.
      0. 6.36942685e-003 0. 0. 0. 0. 0. 0. 0. 0. 0. 0. 0. 0. 0. 0. 0. 0.
      0. 0. 0. 0. 0. 0. 0. 0. 0. 0. 1.27388537e-002 0. 0. 0. 0. 0. 0. 0.
      0. 0. 6.36942685e-003 0. 0. 0. 6.36942685e-003 6.36942685e-003 0.
      0. 0. 0. 0. 6.36942685e-003 0. 0. 6.36942685e-003 0. 0. 0. 0. 0.
      1.27388537e-002 0. 1.91082805e-002 6.36942685e-003 0. 0. 0.
      6.36942685e-003 0. 0. 0. 0. 0. 0. 0. 0. 0. 0. 0. 0. 0. 0.
      6.36942685e-003 0. 0. 0. 0. 0. 1.27388537e-002 0. 0.
      6.36942685e-003 6.36942685e-003 0. 0. 6.36942685e-003
      6.36942685e-003 6.36942685e-003 0. 0. 0. 0. 0. 0. 0. 0. 0. 0. 0.
      6.36942685e-003 0. 0. 0. 0. 1.27388537e-002 0. 0. 0.
      6.36942685e-003 0. 0. 0. 0. 6.36942685e-003 0. 0. 0. 0. 0. 0. 0.
      6.36942685e-003 6.36942685e-003 0. 0. 0. 6.36942685e-003
      6.36942685e-003 6.36942685e-003 0. 0. 0. 0. 0. 0. 0. 0. 0. 0. 0.
      0. 0. 0. 0. 0. 0. 0. 0. 0. 0. 0. 0. 0. 0. 0. 0. 0. 0. 0. 0. 0. 0.
      6.36942685e-003 0. 0. 0. 0. 0. 0. 0. 0. 0. 0. 0. 0. 0. 0. 0. 0. 0.
      0. 0. 0. 0. 0. 6.36942685e-003 0. 0. 0. 0. 0. 0. 0. 0. 0. 0. 0. 0.
      0. 0. 0. 0. 0. 6.36942685e-003 0. 0. 0. 0. 0. 0. 0. 0. 0.
      6.36942685e-003 1.27388537e-002 0. 0. 0. 0. 0. 6.36942685e-003 0.
      0. 1.27388537e-002 0. 0. 0. 0. 0. 0. 0. 6.36942685e-003 0. 0. 0.
      0. 1.27388537e-002 0. 0. 6.36942685e-003 0. 0. 0. 0.
      6.36942685e-003 6.36942685e-003 0. 0. 0. 0. 0. 0. 0. 0. 0. 0.
      6.36942685e-003 0. 6.36942685e-003 0. 0. 0. 1.27388537e-002 0. 0.
      0. 0. 0. 0. 0. 0. 0. 0. 6.36942685e-003 0. 0. 0. 0. 0. 0. 0.
      6.36942685e-003 0. 0. 0. 0. 0. 0. 0. 0. 1.27388537e-002 0. 0. 0.
      0. 0. 6.36942685e-003 0. 0. 0. 0. 0. 0. 0. 0. 0. 0. 0. 0. 0. 0. 0.
      0. 0. 0. 0. 0. 0. 6.36942685e-003 0. 0. 0. 0. 0. 0.
      6.36942685e-003 0. 0. 0. 0. 0. 0. 0. 0. 6.36942685e-003 0.
      6.36942685e-003 0. 0. 0. 0. 0. 0. 0. 0. 0. 0. 0. 0. 0. 0. 0. 0. 0.
      0. 0. 0. 0. 0. 0. 0. 0. 0. 0. 0. 0. 6.36942685e-003
      6.36942685e-003 0. 0. 6.36942685e-003 0. 0. 0. 0. 0. 0. 0. 0. 0.
      0. 0. 0. 0. 6.36942685e-003 0. 0. 0. 0. 1.27388537e-002 0. 0. 0.
      0. 0. 6.36942685e-003 0. 6.36942685e-003 6.36942685e-003 0. 0. 0.
      0. 6.36942685e-003 0. 0. 0. 0. 6.36942685e-003 1.27388537e-002 0.
      0. 0. 0. 1.27388537e-002 0. 0. 6.36942685e-003 0. 0.
      6.36942685e-003 0. 0. 0. 0. 0. 0. 0. 0. 0. 0. 6.36942685e-003 0.
      1.27388537e-002 0. 0. 6.36942685e-003 0. 0. 6.36942685e-003 0. 0.
      6.36942685e-003 0. 0. 0. 0. 0. 0. 0. 0. 0. 0. 0. 0. 0. 0. 0. 0. 0.
      6.36942685e-003 0. 6.36942685e-003 6.36942685e-003 6.36942685e-003
      0. 1.27388537e-002 1.91082805e-002 0. 0. 0. 0. 0. 0. 0.
      1.27388537e-002 0. 0. 0. 0. 0. 0. 0. 0. 0. 0. 0. 0. 0.
      6.36942685e-003 0. 0. 0. 0. 0. 0. 0. 0. 0. 0. 0. 0. 0. 0. 0. 0. 0.
      0. 0. 6.36942685e-003 0. 0. 6.36942685e-003 0. 0. 0. 0. 0. 0. 0.
      6.36942685e-003 6.36942685e-003 0. 0. 6.36942685e-003 0.
      6.36942685e-003 0. 0. 6.36942685e-003 0. 0. 0. 0. 0. 0. 0.
      6.36942685e-003 0. 0. 0. 0. 0. 0. 0. 0. 0. 0. 0. 0. 0.
      1.27388537e-002 0. 0. 0. 0. 0. 6.36942685e-003 0. 0. 0. 0. 0.
      6.36942685e-003 0. 0. 0. 0. 0. 0. 0. 0. 0. 6.36942685e-003 0. 0.
      0. 0. 0. 0. 0. 6.36942685e-003 0. 6.36942685e-003 1.27388537e-002
      0. 1.27388537e-002 0. 0. 0. 0. 0. 0. 0. 0. 0. 0. 0. 0. 0. 0. 0. 0.
      0. 6.36942685e-003 0. 0. 0. 0. 0. 0. 0. 0. 1.27388537e-002 0. 0.
      0. 0. 0. 0. 0. 0. 0. 0. 0. 0. 6.36942685e-003 0. 0. 0. 0. 0. 0. 0.
      0. 0. 0. 0. 0. 0. 0. 0. 0. 0. 0. 0. 0. 0. 0. 0. 0. 0. 0.
      6.36942685e-003 0. 6.36942685e-003 0. 0. 0. 0. 0. 0.
      6.36942685e-003 0. 0. 0. 0. 0. 0. 0. 6.36942685e-003 0. 0. 0. 0.
      6.36942685e-003 0. 0. 0. 0. 0. 0. 0. 0. 0. 0. 0. 0. 0. 0.
      6.36942685e-003 0. 0. 0. 0. 6.36942685e-003 0. 0. 0. 0. 0. 0. 0.
      0. 6.36942685e-003 0. 0. 0. 0. 0. 0. 0. 0. 0. 0. 0. 0.
      6.36942685e-003 0. 0. 0. 0. 0. 0. 0. 0. 0. 0. 0. 0. 0. 0. 0. 0. 0.
      0. 0. 0. 0. 0. 0. 0. 0. 0. 0. 0. 0. 0. 6.36942685e-003
      6.36942685e-003 0. 0. 0. 0. 0. 0. 0. 0. 0. 0. 0. 0. 0.
      1.27388537e-002 0. 6.36942685e-003 0. 0. 0. 0. 0. 0. 0.
      1.27388537e-002 0. 0. 0. 0. 0. 0. 0. 0. 0. 0. 6.36942685e-003 0.
      0. 6.36942685e-003 0. 0. 6.36942685e-003 0. 0. 0. 0. 0.
      6.36942685e-003 0. 0. 0. 0. 0. 0. 0. 0. 0. 0. 0. 0. 0. 0. 0. 0. 0.
      0. 0. 0. 0. 0. 0. 0. 0. 0. 0. 0. 0. 0. 0. 0. 0. 1.27388537e-002 0.
      0. 0. 0. 0. 0. 0. 0. 0. 0. 0. 0. 0. 0. 0. 0. 0. 0. 0. 0. 0. 0. 0.
      0. 0. 0. 0. 0. 0. 0. 0. 0. 0. 0. 0. 6.36942685e-003 0. 0. 0. 0. 0.
      0. 0. 0. 0. 0. 0. 0. 0. 0. 0. 0. 0. 0. 0. 0. 0. 0. 0. 0. 0. 0. 0.
      0. 6.36942685e-003 0. 0. 0. 0. 0. 6.36942685e-003 6.36942685e-003
      0. 0. 0. 0. 0. 0. 0. 0. 0. 0. 6.36942685e-003 6.36942685e-003 0.
      0. 0. 0. 6.36942685e-003 0. 0. 0. 0. 0. 0. 1.91082805e-002 0. 0.
      0. 0. 0. 0. 6.36942685e-003 6.36942685e-003 0. 0. 6.36942685e-003
      0. 0. 0. 0. 0. 0. 0. 0. 0. 0. 0. 0. 0. 0. 0. 0. 6.36942685e-003 0.
      0. 0. 0. 0. 0. 6.36942685e-003 0. 0. 0. 0. 0. 0. 0. 0. 0. 0. 0. 0.</_>
    <_>
      0. 0. 0. 4.78468882e-003 0. 0. 0. 4.78468882e-003 0.
      4.78468882e-003 0. 0. 1.91387553e-002 0. 0. 4.78468882e-003 0. 0.
      0. 0. 0. 3.82775106e-002 0. 0. 0. 0. 0. 0. 0. 4.78468882e-003 0.
      0. 0. 0. 0. 9.56937764e-003 0. 0. 0. 0. 0. 0. 4.78468882e-003 0.
      0. 0. 4.78468882e-003 0. 4.78468882e-003 0. 4.78468882e-003 0. 0.
      0. 0. 0. 0. 0. 0. 0. 0. 9.56937764e-003 0. 0. 4.78468882e-003 0.
      0. 0. 4.78468882e-003 0. 0. 0. 9.56937764e-003 0. 0. 0. 0. 0.
      4.78468882e-003 0. 0. 0. 1.43540669e-002 9.56937764e-003 0. 0. 0.
      4.78468882e-003 0. 4.78468882e-003 0. 4.78468882e-003 0. 0. 0. 0.
      0. 0. 4.78468882e-003 0. 0. 0. 0. 0. 0. 0. 0. 0. 0.
      4.78468882e-003 0. 0. 0. 0. 0. 0. 0. 4.78468882e-003 0. 0. 0. 0.
      0. 0. 0. 0. 4.78468882e-003 0. 0. 0. 0. 0. 0. 0. 0. 0. 0. 0. 0. 0.
      0. 4.78468882e-003 4.78468882e-003 0. 4.78468882e-003 0. 0. 0.
      4.78468882e-003 0. 0. 0. 0. 0. 4.78468882e-003 0. 0. 0. 0.
      4.78468882e-003 0. 0. 0. 0. 0. 0. 1.43540669e-002 3.82775106e-002
      0. 0. 0. 0. 0. 0. 0. 0. 0. 0. 0. 0. 4.78468882e-003 0. 0. 0. 0.
      4.78468882e-003 9.56937764e-003 0. 0. 0. 0. 0. 0. 0. 0. 0. 0. 0.
      4.78468882e-003 0. 0. 0. 0. 0. 0. 0. 0. 0. 0. 0. 0. 0. 0. 0.
      4.78468882e-003 4.78468882e-003 0. 0. 0. 0. 0. 0. 0. 0. 0. 0. 0.
      4.78468882e-003 0. 0. 0. 0. 0. 0. 0. 0. 0. 4.78468882e-003 0. 0.
      0. 0. 0. 0. 0. 0. 0. 0. 0. 0. 0. 0. 0. 0. 0. 0. 0. 0.
      4.78468882e-003 9.56937764e-003 0. 0. 0. 0. 0. 0. 0. 0. 0. 0. 0.
      4.78468882e-003 0. 0. 0. 0. 0. 0. 0. 0. 0. 1.91387553e-002
      4.78468882e-003 0. 0. 0. 0. 0. 0. 0. 0. 0. 0. 0. 0. 0. 0. 0. 0. 0.
