<?xml version="1.0"?>
<opencv_storage>
<Classifier type_id="opencv-ml-svm">
  <svm_type>C_SVC</svm_type>
  <kernel><type>RBF</type>
    <gamma>5.0625000000000009e-001</gamma></kernel>
  <C>6.2500000000000000e+001</C>
  <term_criteria><epsilon>1.1920928955078125e-007</epsilon>
    <iterations>100000</iterations></term_criteria>
  <var_all>1000</var_all>
  <var_count>1000</var_count>
  <class_count>2</class_count>
  <class_labels type_id="opencv-matrix">
    <rows>1</rows>
    <cols>2</cols>
    <dt>i</dt>
    <data>
      0 1</data></class_labels>
  <sv_total>286</sv_total>
  <support_vectors>
    <_>
      0. 0. 0. 0. 0. 0. 0. 0. 0. 0. 0. 0. 0. 0. 0. 0. 0. 0. 0. 0. 0. 0.
      0. 0. 0. 0. 0. 0. 0. 8.84955749e-003 0. 0. 0. 0. 0. 0.
      8.84955749e-003 0. 0. 0. 0. 0. 0. 0. 0. 0. 0. 0. 0.
      8.84955749e-003 0. 0. 0. 0. 0. 0. 8.84955749e-003 8.84955749e-003
      0. 0. 0. 8.84955749e-003 0. 0. 0. 0. 0. 8.84955749e-003 0. 0. 0.
      0. 0. 0. 0. 0. 0. 0. 0. 0. 0. 1.76991150e-002 0. 0.
      8.84955749e-003 8.84955749e-003 0. 0. 0. 0. 0. 8.84955749e-003 0.
      0. 0. 0. 0. 0. 0. 0. 0. 0. 0. 0. 0. 0. 0. 0. 0. 0. 0.
      8.84955749e-003 0. 0. 0. 0. 0. 0. 0. 0. 0. 0. 0. 0. 0. 0. 0.
      8.84955749e-003 8.84955749e-003 0. 0. 0. 0. 0. 0. 8.84955749e-003
      8.84955749e-003 0. 0. 0. 8.84955749e-003 0. 0. 0. 0. 0. 0. 0. 0.
      0. 0. 0. 0. 0. 8.84955749e-003 0. 0. 0. 0. 0. 0. 0. 0. 0. 0. 0. 0.
      0. 0. 0. 0. 0. 0. 0. 0. 0. 0. 0. 0. 8.84955749e-003 0. 0. 0. 0. 0.
      0. 0. 0. 0. 0. 8.84955749e-003 0. 0. 0. 0. 0. 0. 0. 0. 0. 0. 0. 0.
      0. 0. 0. 8.84955749e-003 8.84955749e-003 0. 0. 0. 8.84955749e-003
      1.76991150e-002 0. 0. 0. 0. 0. 0. 0. 0. 0. 0. 0. 0. 0.
      1.76991150e-002 0. 0. 0. 8.84955749e-003 0. 0. 0. 0. 0. 0. 0. 0.
      0. 0. 0. 0. 0. 0. 0. 0. 0. 0. 0. 0. 0. 0. 0. 0. 0. 0. 0.
      8.84955749e-003 0. 0. 0. 0. 0. 0. 8.84955749e-003 0. 0. 0. 0. 0.
      0. 0. 0. 0. 0. 0. 8.84955749e-003 0. 0. 0. 0. 0. 0. 0. 0. 0. 0.
      1.76991150e-002 0. 0. 8.84955749e-003 0. 0. 0. 0. 0. 0. 0. 0. 0.
      8.84955749e-003 1.76991150e-002 0. 0. 0. 0. 0. 0. 0. 0. 0. 0. 0.
      0. 8.84955749e-003 8.84955749e-003 0. 8.84955749e-003 0.
      1.76991150e-002 0. 0. 0. 0. 8.84955749e-003 0. 0. 0.
      1.76991150e-002 0. 0. 8.84955749e-003 0. 0. 0. 0. 0. 0. 0. 0. 0.
      0. 0. 0. 0. 0. 0. 0. 0. 0. 0. 0. 0. 0. 0. 0. 0. 8.84955749e-003
      8.84955749e-003 0. 0. 0. 0. 8.84955749e-003 8.84955749e-003 0. 0.
      0. 0. 0. 0. 0. 0. 0. 0. 0. 8.84955749e-003 0. 8.84955749e-003
      8.84955749e-003 8.84955749e-003 0. 0. 0. 0. 0. 0. 0. 0.
      8.84955749e-003 0. 0. 8.84955749e-003 0. 0. 8.84955749e-003 0. 0.
      0. 0. 0. 0. 0. 0. 0. 0. 0. 0. 0. 0. 0. 0. 0. 0. 0. 8.84955749e-003
      0. 8.84955749e-003 0. 0. 8.84955749e-003 0. 0. 0. 0. 0. 0. 0. 0.
      0. 8.84955749e-003 0. 0. 0. 0. 0. 0. 0. 0. 0. 0. 0. 0. 0. 0. 0. 0.
      0. 0. 0. 0. 0. 0. 0. 0. 0. 0. 0. 0. 0. 8.84955749e-003 0. 0. 0.
      8.84955749e-003 8.84955749e-003 0. 0. 0. 0. 0. 0. 0. 0. 0. 0. 0.
      8.84955749e-003 0. 0. 0. 0. 0. 0. 0. 0. 0. 0. 0. 0. 0. 0. 0. 0. 0.
      0. 0. 0. 0. 0. 0. 0. 0. 0. 0. 0. 0. 0. 0. 0. 0. 0. 0. 0. 0. 0. 0.
      0. 0. 0. 0. 0. 0. 0. 0. 0. 0. 0. 0. 0. 8.84955749e-003 0. 0. 0. 0.
      0. 0. 8.84955749e-003 0. 0. 0. 0. 0. 0. 8.84955749e-003 0. 0. 0.
      0. 0. 0. 0. 0. 0. 0. 0. 0. 0. 0. 0. 0. 0. 0. 0. 8.84955749e-003 0.
      0. 0. 0. 8.84955749e-003 0. 0. 0. 0. 0. 0. 0. 0. 0. 0.
      1.76991150e-002 0. 0. 8.84955749e-003 0. 0. 0. 0. 0. 0.
      8.84955749e-003 0. 0. 0. 8.84955749e-003 0. 0. 0. 0. 0. 0. 0. 0.
      8.84955749e-003 0. 0. 0. 0. 0. 0. 0. 0. 0. 0. 2.65486725e-002
      8.84955749e-003 8.84955749e-003 0. 0. 8.84955749e-003 0.
      8.84955749e-003 0. 0. 0. 0. 0. 0. 0. 0. 0. 0. 0. 0. 0. 0. 0. 0. 0.
      0. 0. 0. 0. 0. 0. 0. 8.84955749e-003 0. 0. 0. 0. 0.
      8.84955749e-003 0. 0. 0. 0. 0. 0. 8.84955749e-003 0. 0. 0. 0. 0.
      0. 0. 0. 0. 0. 0. 0. 0. 0. 0. 0. 0. 0. 0. 0. 0. 0. 0. 0. 0. 0. 0.
      0. 8.84955749e-003 1.76991150e-002 0. 0. 0. 0. 0. 0. 0. 0. 0. 0.
      0. 0. 0. 0. 0. 0. 0. 0. 0. 1.76991150e-002 0. 0. 0. 0. 0. 0. 0. 0.
      0. 0. 0. 0. 8.84955749e-003 0. 0. 0. 0. 0. 0. 0. 0. 0. 0. 0. 0. 0.
      0. 0. 0. 0. 0. 0. 0. 0. 0. 0. 0. 0. 0. 0. 0. 0. 0. 0. 0. 0. 0. 0.
      0. 0. 0. 0. 0. 0. 0. 0. 0. 0. 8.84955749e-003 0. 0. 0. 0. 0. 0. 0.
      0. 0. 0. 0. 0. 0. 0. 0. 0. 0. 0. 0. 0. 0. 0. 0. 0. 0. 0. 0. 0. 0.
      0. 8.84955749e-003 0. 0. 0. 0. 0. 0. 0. 0. 0. 0. 0.
      8.84955749e-003 0. 0. 0. 0. 0. 0. 0. 0. 0. 0. 0. 8.84955749e-003
      0. 0. 0. 8.84955749e-003 8.84955749e-003 0. 0. 0. 0. 0.
      8.84955749e-003 0. 0. 0. 0. 0. 0. 0. 0. 0. 0. 0. 0. 0. 0. 0. 0. 0.
      0. 0. 0. 0. 0. 0. 8.84955749e-003 0. 0. 0. 0. 0. 0. 0. 0. 0. 0. 0.
      0. 8.84955749e-003 0. 0. 0. 0. 0. 0. 0. 2.65486725e-002 0. 0. 0.
      8.84955749e-003 0. 0. 0. 0. 0. 0. 0. 0. 0. 0. 0. 8.84955749e-003
      0. 0. 0. 0. 0. 0. 0. 0. 0. 0. 0. 0. 0. 0. 0. 0. 0. 0. 0. 0. 0. 0.
      0. 0. 0. 0. 0. 0. 0. 0. 0. 0. 0. 0. 0. 0. 0. 0. 0. 0. 0. 0. 0. 0.
      0. 8.84955749e-003 0. 0. 8.84955749e-003 1.76991150e-002 0. 0. 0.
      0. 0. 0. 0. 8.84955749e-003 0. 0. 0. 0. 0. 0. 0. 0. 0. 0. 0. 0. 0.
      0. 0. 0. 0. 0. 0. 0. 0. 0. 0. 0. 0. 0. 0. 0. 0. 0. 0. 0. 0. 0. 0.
      8.84955749e-003 0. 0. 0. 0. 0. 0. 0. 0. 0.</_>
    <_>
      0. 2.14132760e-003 0. 0. 0. 0. 0. 0. 2.14132760e-003 0. 0. 0.
      2.14132760e-003 0. 0. 0. 0. 0. 2.14132760e-003 0. 0. 0.
      2.14132760e-003 2.14132760e-003 4.28265519e-003 2.14132760e-003 0.
      4.28265519e-003 2.14132760e-003 2.14132760e-003 0. 4.28265519e-003
      0. 0. 0. 0. 0. 2.14132760e-003 0. 0. 0. 2.14132760e-003 0.
      6.42398279e-003 0. 0. 2.14132760e-003 4.28265519e-003 0.
      4.28265519e-003 0. 0. 0. 2.14132760e-003 6.42398279e-003 0.
      6.42398279e-003 2.14132760e-003 0. 0. 0. 2.14132760e-003 0. 0. 0.
      0. 2.14132760e-003 0. 2.14132760e-003 4.28265519e-003 0. 0.
      2.14132760e-003 8.56531039e-003 4.28265519e-003 0. 0. 0. 0.
      2.14132760e-003 2.14132760e-003 2.14132760e-003 4.28265519e-003 0.
      2.14132760e-003 6.42398279e-003 0. 0. 2.14132760e-003 0. 0. 0. 0.
      0. 6.42398279e-003 2.14132760e-003 0. 0. 2.14132760e-003 0. 0. 0.
      0. 0. 0. 0. 0. 0. 0. 0. 0. 0. 0. 0. 0. 0. 0. 0. 0. 2.14132760e-003
      0. 2.14132760e-003 4.28265519e-003 0. 0. 0. 2.14132760e-003
      4.28265519e-003 0. 2.14132760e-003 2.14132760e-003 0. 0. 0. 0.
      2.14132760e-003 2.14132760e-003 0. 0. 0. 0. 2.14132760e-003
      2.14132760e-003 0. 2.14132760e-003 0. 4.28265519e-003 0. 0. 0. 0.
      2.14132760e-003 4.28265519e-003 0. 0. 0. 0. 0. 2.14132760e-003 0.
      2.14132760e-003 0. 0. 2.14132760e-003 0. 2.14132760e-003 0. 0. 0.
      2.14132760e-003 0. 0. 0. 2.14132760e-003 0. 0. 4.28265519e-003 0.
      0. 0. 0. 4.28265519e-003 2.14132760e-003 0. 0. 0. 0. 0. 0. 0.
      2.14132760e-003 0. 0. 0. 0. 0. 4.28265519e-003 4.28265519e-003 0.
      0. 4.28265519e-003 0. 0. 0. 0. 0. 2.14132760e-003 0.
      2.14132760e-003 4.28265519e-003 0. 6.42398279e-003 6.42398279e-003
      2.14132760e-003 0. 0. 0. 0. 4.28265519e-003 0. 2.14132760e-003
      2.14132760e-003 0. 2.14132760e-003 0. 2.14132760e-003 0.
      2.14132760e-003 2.14132760e-003 0. 4.28265519e-003 0.
      4.28265519e-003 0. 2.14132760e-003 2.14132760e-003 0. 0.
      4.28265519e-003 2.14132760e-003 0. 6.42398279e-003 0.
      2.14132760e-003 0. 6.42398279e-003 0. 0. 0. 0. 2.14132760e-003
      2.14132760e-003 0. 0. 0. 2.14132760e-003 0. 0. 0. 0. 0. 0. 0. 0.
      0. 4.28265519e-003 4.28265519e-003 0. 0. 0. 0. 2.14132760e-003
      4.28265519e-003 0. 4.28265519e-003 0. 2.14132760e-003 0. 0. 0.
      6.42398279e-003 0. 0. 0. 0. 4.28265519e-003 2.14132760e-003 0.
      2.14132760e-003 0. 0. 4.28265519e-003 4.28265519e-003 0. 0. 0.
      2.14132760e-003 6.42398279e-003 0. 0. 0. 0. 4.28265519e-003 0. 0.
      0. 0. 2.14132760e-003 0. 2.14132760e-003 2.14132760e-003
      2.14132760e-003 0. 0. 0. 0. 2.14132760e-003 0. 4.28265519e-003 0.
      0. 2.14132760e-003 4.28265519e-003 0. 2.14132760e-003
      2.14132760e-003 0. 0. 0. 0. 2.14132760e-003 4.28265519e-003
      2.14132760e-003 0. 0. 0. 0. 4.28265519e-003 0. 2.14132760e-003 0.
      0. 0. 6.42398279e-003 0. 0. 6.42398279e-003 6.42398279e-003
      2.14132760e-003 0. 0. 0. 0. 0. 4.28265519e-003 0. 0. 0. 0.
      4.28265519e-003 4.28265519e-003 0. 2.14132760e-003 2.14132760e-003
      2.14132760e-003 0. 0. 0. 6.42398279e-003 2.14132760e-003
      2.14132760e-003 2.14132760e-003 2.14132760e-003 0. 0. 0. 0.
      4.28265519e-003 0. 0. 0. 4.28265519e-003 4.28265519e-003 0. 0. 0.
      0. 0. 0. 2.14132760e-003 6.42398279e-003 0. 2.14132760e-003
      4.28265519e-003 2.14132760e-003 0. 2.14132760e-003 2.14132760e-003
      0. 0. 0. 0. 0. 0. 0. 0. 0. 0. 0. 0. 0. 0. 2.14132760e-003 0. 0. 0.
      0. 0. 2.14132760e-003 0. 0. 4.28265519e-003 0. 2.14132760e-003 0.
      0. 2.14132760e-003 0. 0. 0. 2.14132760e-003 4.28265519e-003 0. 0.
      0. 0. 2.14132760e-003 2.14132760e-003 0. 2.14132760e-003 0. 0. 0.
      4.28265519e-003 2.14132760e-003 2.14132760e-003 2.14132760e-003
      4.28265519e-003 0. 4.28265519e-003 0. 0. 0. 0. 6.42398279e-003 0.
      2.14132760e-003 0. 0. 0. 2.14132760e-003 2.14132760e-003 0. 0.
      2.14132760e-003 2.14132760e-003 0. 0. 4.28265519e-003 0. 0. 0.
      2.14132760e-003 0. 2.14132760e-003 0. 0. 2.14132760e-003
      2.14132760e-003 6.42398279e-003 2.14132760e-003 0. 0.
      2.14132760e-003 4.28265519e-003 2.14132760e-003 0. 0. 0. 0.
      2.14132760e-003 0. 0. 0. 0. 0. 0. 0. 0. 4.28265519e-003
      4.28265519e-003 0. 0. 0. 2.14132760e-003 0. 0. 0. 2.14132760e-003
      0. 0. 0. 0. 0. 0. 0. 0. 0. 0. 0. 0. 0. 0. 4.28265519e-003 0.
      2.14132760e-003 0. 2.14132760e-003 2.14132760e-003 0. 0.
      4.28265519e-003 0. 0. 0. 0. 0. 2.14132760e-003 0. 2.14132760e-003
      4.28265519e-003 2.14132760e-003 2.14132760e-003 0. 0. 0.
      2.14132760e-003 2.14132760e-003 0. 0. 0. 0. 0. 2.14132760e-003
      2.14132760e-003 0. 6.42398279e-003 0. 0. 0. 0. 0. 2.14132760e-003
      0. 0. 2.14132760e-003 0. 0. 0. 0. 0. 0. 0. 2.14132760e-003
      4.28265519e-003 0. 0. 4.28265519e-003 0. 0. 0. 0. 0.
      4.28265519e-003 0. 2.14132760e-003 0. 0. 0. 2.14132760e-003 0.
      2.14132760e-003 0. 6.42398279e-003 2.14132760e-003 6.42398279e-003
      0. 0. 0. 2.14132760e-003 1.07066380e-002 0. 0. 0. 0. 0. 0. 0.
      4.28265519e-003 4.28265519e-003 0. 0. 0. 0. 0. 4.28265519e-003 0.
      0. 0. 0. 2.14132760e-003 0. 2.14132760e-003 0. 0. 4.28265519e-003
      4.28265519e-003 0. 0. 0. 0. 2.14132760e-003 0. 0. 0.
      2.14132760e-003 0. 2.14132760e-003 0. 0. 2.14132760e-003 0. 0. 0.
      2.14132760e-003 0. 4.28265519e-003 0. 0. 0. 2.14132760e-003 0. 0.
      2.14132760e-003 0. 2.14132760e-003 0. 0. 0. 0. 0. 2.14132760e-003
      0. 0. 0. 0. 4.28265519e-003 0. 0. 0. 2.14132760e-003
      4.28265519e-003 0. 0. 0. 4.28265519e-003 0. 2.14132760e-003 0. 0.
      0. 0. 2.14132760e-003 0. 0. 0. 0. 0. 0. 2.14132760e-003
      2.14132760e-003 2.14132760e-003 0. 0. 0. 0. 2.14132760e-003 0. 0.
      2.14132760e-003 4.28265519e-003 2.14132760e-003 0. 2.14132760e-003
      0. 0. 0. 4.28265519e-003 0. 0. 0. 0. 0. 0. 0. 4.28265519e-003 0.
      4.28265519e-003 4.28265519e-003 0. 0. 0. 2.14132760e-003 0. 0.
      2.14132760e-003 0. 0. 0. 0. 0. 0. 2.14132760e-003 0. 0.
      4.28265519e-003 0. 0. 0. 0. 4.28265519e-003 4.28265519e-003 0. 0.
      6.42398279e-003 0. 0. 0. 0. 0. 0. 0. 0. 0. 0. 0. 0. 0. 0.
      2.14132760e-003 4.28265519e-003 0. 0. 2.14132760e-003 0. 0. 0. 0.
      0. 0. 0. 0. 2.14132760e-003 0. 0. 2.14132760e-003 2.14132760e-003
      0. 2.14132760e-003 0. 2.14132760e-003 0. 2.14132760e-003 0. 0. 0.
      0. 0. 0. 2.14132760e-003 0. 0. 0. 0. 0. 0. 0. 0. 0.
      6.42398279e-003 0. 0. 0. 2.14132760e-003 0. 0. 2.14132760e-003
      2.14132760e-003 0. 0. 4.28265519e-003 0. 0. 0. 0. 4.28265519e-003
      2.14132760e-003 0. 2.14132760e-003 0. 0. 0. 2.14132760e-003
      2.14132760e-003 2.14132760e-003 0. 0. 0. 1.28479656e-002 0. 0.
      4.28265519e-003 0. 0. 4.28265519e-003 0. 0. 0. 6.42398279e-003
      2.14132760e-003 0. 0. 0. 0. 4.28265519e-003 0. 0. 0.
      2.14132760e-003 0. 0. 0. 0. 0. 2.14132760e-003 0. 2.14132760e-003
      0. 0. 0. 0. 0. 0. 0. 0. 2.14132760e-003 2.14132760e-003 0. 0. 0.
      0. 0. 0. 0. 0. 0. 0. 0. 0. 0. 0. 2.14132760e-003 2.14132760e-003
      2.14132760e-003 4.28265519e-003 0. 0. 2.14132760e-003 0. 0.
      2.14132760e-003 0. 0. 0. 0. 0. 4.28265519e-003 2.14132760e-003 0.
      0. 4.28265519e-003 0. 0. 0. 0. 0. 0. 0. 0. 0. 0. 2.14132760e-003
      0. 0. 0. 0. 0. 4.28265519e-003 0. 2.14132760e-003 0.
      2.14132760e-003 0. 0. 0. 0. 2.14132760e-003 0. 0. 0. 0. 0. 0.
      2.14132760e-003 0. 0. 0. 0. 0. 0. 0. 0. 0. 2.14132760e-003 0. 0.
      2.14132760e-003 0. 0. 0. 0. 6.42398279e-003 0. 0. 2.14132760e-003
      0. 0. 2.14132760e-003 0. 0. 0. 2.14132760e-003 4.28265519e-003 0.
      0. 0. 0. 0. 0. 4.28265519e-003 0. 0. 0. 2.14132760e-003
      6.42398279e-003 0. 2.14132760e-003 0. 0. 0. 0. 0. 0. 0. 0.
      2.14132760e-003 2.14132760e-003 0. 2.14132760e-003 2.14132760e-003
      0. 0. 2.14132760e-003 0. 0. 0. 0. 0. 0. 0.</_>
    <_>
      0. 4.78468882e-003 0. 0. 0. 0. 0. 4.78468882e-003 0. 0. 0. 0.
      4.78468882e-003 0. 0. 0. 0. 0. 0. 0. 0. 0. 0. 4.78468882e-003 0.
      0. 0. 0. 4.78468882e-003 0. 4.78468882e-003 4.78468882e-003 0. 0.
      0. 0. 0. 0. 0. 0. 0. 0. 0. 0. 0. 4.78468882e-003 0. 0. 0.
      9.56937764e-003 0. 0. 0. 0. 0. 0. 4.78468882e-003 4.78468882e-003
      0. 0. 4.78468882e-003 1.91387553e-002 0. 0. 0. 0. 0. 0.
      9.56937764e-003 4.78468882e-003 0. 0. 4.78468882e-003 0. 0. 0. 0.
      4.78468882e-003 0. 0. 0. 9.56937764e-003 0. 0. 0. 0. 0. 0. 0. 0.
      0. 0. 4.78468882e-003 0. 0. 4.78468882e-003 0. 0. 0. 0. 0. 0. 0.
      0. 0. 4.78468882e-003 0. 0. 4.78468882e-003 0. 0. 0. 0. 0. 0. 0.
      0. 0. 0. 0. 0. 0. 0. 0. 0. 0. 4.78468882e-003 4.78468882e-003 0.
      0. 0. 0. 0. 0. 0. 0. 0. 0. 0. 0. 0. 4.78468882e-003 0.
      4.78468882e-003 0. 0. 0. 0. 4.78468882e-003 0. 0. 0. 0.
      4.78468882e-003 0. 0. 0. 0. 0. 0. 0. 0. 0. 0. 0. 4.78468882e-003
      0. 0. 0. 0. 0. 0. 0. 0. 0. 0. 4.78468882e-003 0. 4.78468882e-003
      0. 0. 0. 0. 0. 0. 0. 0. 0. 0. 0. 0. 4.78468882e-003 0. 0. 0. 0. 0.
      0. 0. 0. 0. 4.78468882e-003 0. 0. 0. 0. 0. 0. 0. 4.78468882e-003
      0. 0. 4.78468882e-003 4.78468882e-003 0. 0. 0. 0. 0. 0. 0. 0. 0.
      0. 0. 0. 0. 4.78468882e-003 0. 0. 1.91387553e-002 0. 0. 0.
      4.78468882e-003 4.78468882e-003 0. 4.78468882e-003 0. 0. 0.
      4.78468882e-003 0. 0. 0. 4.78468882e-003 0. 0. 0. 0. 0.
      4.78468882e-003 0. 0. 0. 0. 0. 4.78468882e-003 0. 4.78468882e-003
      0. 0. 0. 0. 0. 0. 0. 0. 0. 0. 0. 0. 0. 0. 0. 0. 0. 4.78468882e-003
      0. 0. 4.78468882e-003 4.78468882e-003 0. 0. 0. 0. 0. 0. 0. 0. 0.
      1.43540669e-002 0. 0. 0. 0. 0. 0. 0. 0. 0. 0. 0. 2.39234436e-002
      0. 0. 0. 4.78468882e-003 9.56937764e-003 0. 0. 4.78468882e-003 0.
      4.78468882e-003 4.78468882e-003 0. 0. 0. 0. 0. 0. 0. 0. 0. 0. 0.
      0. 4.78468882e-003 0. 4.78468882e-003 0. 0. 4.78468882e-003 0. 0.
      0. 9.56937764e-003 0. 0. 0. 1.43540669e-002 0. 0. 0.
      1.91387553e-002 0. 0. 0. 0. 0. 0. 0. 0. 0. 0. 4.78468882e-003 0.
      0. 0. 0. 0. 0. 4.78468882e-003 0. 0. 0. 0. 0. 0. 0.
      4.78468882e-003 9.56937764e-003 0. 0. 0. 0. 0. 4.78468882e-003
      4.78468882e-003 0. 0. 4.78468882e-003 4.78468882e-003 0. 0.
      9.56937764e-003 0. 0. 0. 0. 9.56937764e-003 0. 0. 0. 0.
      4.78468882e-003 0. 0. 0. 0. 0. 4.78468882e-003 4.78468882e-003 0.
      0. 0. 0. 0. 0. 0. 0. 0. 0. 0. 0. 0. 0. 0. 0. 0. 0. 0. 0. 0. 0.
      4.78468882e-003 0. 0. 0. 0. 0. 4.78468882e-003 9.56937764e-003 0.
      4.78468882e-003 0. 0. 0. 0. 9.56937764e-003 0. 0. 0. 0. 0. 0. 0.
      0. 0. 0. 0. 0. 0. 0. 0. 0. 0. 9.56937764e-003 0. 0.
      4.78468882e-003 0. 4.78468882e-003 0. 0. 0. 4.78468882e-003 0. 0.
      0. 0. 0. 9.56937764e-003 4.78468882e-003 0. 0. 0. 4.78468882e-003
      4.78468882e-003 0. 9.56937764e-003 0. 0. 0. 0. 0. 0. 0. 0. 0. 0.
      0. 0. 0. 0. 0. 0. 0. 0. 0. 0. 0. 0. 0. 0. 4.78468882e-003 0. 0. 0.
      0. 0. 0. 0. 0. 0. 4.78468882e-003 0. 0. 0. 0. 4.78468882e-003 0.
      0. 0. 0. 0. 0. 4.78468882e-003 0. 0. 0. 0. 0. 0. 0. 0. 0. 0. 0. 0.
      4.78468882e-003 4.78468882e-003 0. 0. 0. 0. 0. 0. 0. 0. 0. 0. 0.
      0. 0. 0. 4.78468882e-003 0. 0. 4.78468882e-003 0. 0.
      4.78468882e-003 0. 4.78468882e-003 4.78468882e-003 0. 0. 0. 0. 0.
      0. 0. 0. 0. 0. 0. 0. 0. 0. 0. 0. 9.56937764e-003 0. 0. 0. 0. 0. 0.
      0. 0. 0. 0. 0. 4.78468882e-003 0. 0. 0. 0. 0. 0. 0. 0.
      4.78468882e-003 4.78468882e-003 0. 0. 0. 4.78468882e-003 0. 0. 0.
      0. 0. 0. 0. 9.56937764e-003 0. 0. 0. 0. 0. 0. 0. 0. 0.
      4.78468882e-003 0. 4.78468882e-003 0. 0. 0. 0. 0. 0. 0. 0. 0. 0.
      0. 0. 0. 0. 0. 0. 4.78468882e-003 0. 0. 0. 0. 0. 0. 0.
      4.78468882e-003 0. 4.78468882e-003 0. 0. 0. 0. 4.78468882e-003 0.
      0. 0. 4.78468882e-003 0. 0. 0. 0. 0. 0. 0. 0. 4.78468882e-003 0.
      0. 0. 0. 0. 0. 0. 4.78468882e-003 0. 0. 4.78468882e-003 0. 0. 0.
      0. 9.56937764e-003 0. 0. 0. 0. 0. 0. 0. 0. 0. 0. 0. 0. 0. 0. 0.
      9.56937764e-003 0. 4.78468882e-003 0. 0. 4.78468882e-003 0.
      4.78468882e-003 0. 0. 0. 0. 9.56937764e-003 0. 0. 0. 0. 0. 0. 0.
      0. 0. 0. 0. 0. 0. 0. 0. 0. 0. 9.56937764e-003 0. 4.78468882e-003
      0. 4.78468882e-003 0. 4.78468882e-003 0. 0. 0. 0. 0. 0.
      9.56937764e-003 0. 0. 0. 9.56937764e-003 0. 0. 0. 0.
      4.78468882e-003 0. 0. 4.78468882e-003 0. 0. 4.78468882e-003 0. 0.
      0. 0. 0. 0. 0. 0. 0. 0. 0. 1.43540669e-002 0. 0. 4.78468882e-003
      0. 0. 4.78468882e-003 4.78468882e-003 4.78468882e-003 0.
      4.78468882e-003 0. 0. 0. 0. 0. 0. 4.78468882e-003 0. 0. 0. 0.
      4.78468882e-003 0. 0. 0. 0. 0. 0. 0. 0. 4.78468882e-003
      4.78468882e-003 0. 0. 9.56937764e-003 4.78468882e-003
      4.78468882e-003 0. 0. 0. 0. 0. 0. 0. 0. 0. 0. 0. 0. 0.
      4.78468882e-003 0. 0. 4.78468882e-003 0. 0. 0. 0. 0. 0. 0. 0.
      4.78468882e-003 0. 0. 0. 0. 0. 4.78468882e-003 0. 0. 0. 0.
      4.78468882e-003 0. 0. 0. 0. 9.56937764e-003 0. 4.78468882e-003 0.
      0. 0. 0. 0. 0. 0. 4.78468882e-003 0. 4.78468882e-003 0. 0. 0. 0.
      0. 0. 0. 0. 0. 4.78468882e-003 0. 0. 0. 0. 0. 0. 0. 0. 0.
      4.78468882e-003 4.78468882e-003 0. 0. 0. 0. 0. 0. 0. 0. 0. 0. 0.
      0. 0. 0. 0. 0. 0. 0. 0. 0. 0. 0. 0. 0. 0. 0. 0. 0. 0. 0. 0. 0. 0.
      0. 0. 0. 0. 0. 0. 0. 0. 0. 0. 0. 0. 0. 0. 0. 9.56937764e-003 0. 0.
      0. 0. 0. 4.78468882e-003 4.78468882e-003 0. 0. 0. 0. 0. 0. 0. 0.
      0. 0. 1.43540669e-002 0. 0. 0. 0. 4.78468882e-003 0. 0. 0. 0. 0.
      0. 0. 0. 0. 0. 0. 0. 0. 0. 0. 0. 0. 4.78468882e-003 0. 0. 0. 0. 0.
      0. 0. 4.78468882e-003 0. 0. 0. 0. 0. 0. 0. 0. 0. 0. 0. 0. 0.
      4.78468882e-003</_>
    <_>
      0. 0. 0. 0. 0. 0. 0. 7.19424477e-003 0. 0. 0. 7.19424477e-003
      7.19424477e-003 0. 0. 0. 0. 0. 0. 0. 7.19424477e-003 0. 0.
      7.19424477e-003 7.19424477e-003 0. 7.19424477e-003 0. 0.
      7.19424477e-003 7.19424477e-003 0. 0. 0. 0. 0. 0. 0. 0.
      7.19424477e-003 0. 7.19424477e-003 0. 0. 0. 0. 0. 0. 0. 0. 0. 0.
      0. 0. 0. 0. 0. 0. 0. 0. 7.19424477e-003 7.19424477e-003 0. 0.
      7.19424477e-003 0. 0. 0. 7.19424477e-003 0. 0. 0. 0.
      7.19424477e-003 0. 0. 7.19424477e-003 0. 0. 7.19424477e-003 0.
      1.43884895e-002 7.19424477e-003 0. 0. 2.15827338e-002 0. 0. 0. 0.
      0. 0. 0. 0. 0. 0. 0. 0. 0. 0. 0. 0. 0. 0. 0. 0. 7.19424477e-003 0.
      0. 0. 0. 7.19424477e-003 7.19424477e-003 0. 0. 0. 0. 0. 0. 0. 0.
      0. 0. 0. 0. 0. 0. 0. 0. 0. 7.19424477e-003 0. 0. 0. 0. 0.
      7.19424477e-003 0. 0. 0. 7.19424477e-003 0. 0. 0. 7.19424477e-003
      0. 0. 0. 0. 0. 0. 0. 0. 0. 0. 0. 0. 0. 7.19424477e-003
      7.19424477e-003 0. 0. 0. 0. 0. 0. 0. 0. 0. 0. 7.19424477e-003 0.
      0. 7.19424477e-003 0. 0. 7.19424477e-003 1.43884895e-002 0. 0. 0.
      0. 0. 0. 0. 0. 0. 0. 0. 0. 7.19424477e-003 7.19424477e-003 0.
      7.19424477e-003 0. 0. 7.19424477e-003 0. 0. 0. 7.19424477e-003
      7.19424477e-003 0. 0. 0. 0. 0. 0. 0. 0. 0. 2.15827338e-002 0. 0.
      0. 0. 0. 0. 0. 0. 0. 0. 0. 0. 0. 0. 0. 0. 0. 0. 0. 0. 0. 0. 0. 0.
      0. 0. 0. 0. 0. 7.19424477e-003 0. 0. 7.19424477e-003 0.
      7.19424477e-003 0. 0. 0. 0. 0. 0. 0. 0. 0. 7.19424477e-003 0. 0.
      0. 0. 1.43884895e-002 0. 0. 0. 0. 0. 0. 0. 0. 0. 7.19424477e-003
      0. 0. 0. 0. 0. 0. 7.19424477e-003 0. 0. 0. 0. 7.19424477e-003 0.
      7.19424477e-003 0. 0. 0. 0. 0. 0. 0. 0. 0. 0. 0. 7.19424477e-003
      0. 0. 0. 0. 1.43884895e-002 7.19424477e-003 0. 0. 0. 0.
      7.19424477e-003 1.43884895e-002 7.19424477e-003 0. 0. 0. 0. 0. 0.
      0. 0. 0. 0. 0. 0. 7.19424477e-003 0. 0. 0. 0. 0. 7.19424477e-003
      7.19424477e-003 0. 7.19424477e-003 0. 0. 0. 0. 0. 0. 0. 0. 0. 0.
      0. 0. 0. 0. 0. 7.19424477e-003 0. 0. 0. 0. 0. 0. 0. 0. 0. 0. 0. 0.
      0. 0. 0. 0. 0. 0. 0. 0. 0. 0. 0. 0. 0. 0. 0. 0. 0. 0. 0. 0. 0. 0.
      0. 7.19424477e-003 0. 7.19424477e-003 0. 0. 7.19424477e-003 0. 0.
      0. 0. 0. 0. 0. 0. 0. 0. 0. 0. 0. 0. 0. 0. 0. 0. 0. 0. 0. 0.
      7.19424477e-003 0. 0. 0. 0. 0. 0. 0. 7.19424477e-003 0. 0. 0. 0.
      0. 0. 0. 0. 0. 0. 0. 7.19424477e-003 0. 0. 0. 0. 0. 0. 0. 0. 0. 0.
      0. 7.19424477e-003 0. 0. 0. 0. 0. 0. 0. 0. 0. 0. 0. 0. 0. 0. 0. 0.
      0. 0. 7.19424477e-003 0. 0. 0. 0. 0. 0. 0. 0. 7.19424477e-003 0.
      0. 0. 0. 0. 0. 0. 0. 0. 0. 0. 7.19424477e-003 0. 0. 0. 0. 0. 0. 0.
      0. 0. 0. 0. 7.19424477e-003 0. 0. 0. 0. 0. 0. 7.19424477e-003
      7.19424477e-003 0. 0. 0. 7.19424477e-003 0. 7.19424477e-003 0. 0.
      0. 0. 0. 0. 0. 0. 0. 0. 0. 0. 7.19424477e-003 0. 0. 0. 0. 0. 0. 0.
      0. 0. 0. 0. 0. 0. 0. 0. 0. 0. 0. 0. 0. 0. 0. 0. 0. 0. 0. 0.
      7.19424477e-003 0. 0. 0. 0. 0. 0. 0. 0. 0. 0. 0. 0.
      7.19424477e-003 0. 0. 0. 0. 0. 0. 0. 0. 0. 0. 0. 0. 0. 0. 0. 0. 0.
      0. 0. 0. 0. 0. 0. 0. 0. 7.19424477e-003 0. 0. 7.19424477e-003 0.
      7.19424477e-003 0. 0. 0. 0. 7.19424477e-003 0. 0. 0. 0. 0. 0.
      7.19424477e-003 7.19424477e-003 0. 0. 0. 0. 0. 0. 0.
      7.19424477e-003 0. 0. 0. 0. 0. 0. 0. 0. 0. 2.15827338e-002 0. 0.
      0. 0. 0. 0. 0. 0. 0. 0. 0. 0. 0. 0. 0. 0. 0. 7.19424477e-003 0. 0.
      0. 0. 0. 0. 0. 0. 0. 0. 1.43884895e-002 0. 0. 0. 0. 0. 0. 0. 0. 0.
      0. 0. 0. 0. 0. 0. 0. 0. 0. 0. 0. 0. 0. 0. 0. 0. 0. 0. 0. 0. 0. 0.
      0. 0. 7.19424477e-003 0. 0. 0. 7.19424477e-003 0. 0. 0. 0.
      7.19424477e-003 0. 0. 0. 7.19424477e-003 0. 0. 0. 0. 0. 0. 0. 0.
      0. 0. 0. 0. 0. 0. 0. 0. 0. 0. 0. 0. 0. 0. 7.19424477e-003 0. 0. 0.
      0. 0. 0. 0. 0. 0. 7.19424477e-003 7.19424477e-003 0. 0. 0. 0. 0.
      0. 0. 0. 0. 0. 0. 0. 0. 0. 0. 0. 0. 0. 0. 0. 0. 0. 0.
      1.43884895e-002 0. 0. 0. 0. 0. 0. 0. 0. 7.19424477e-003
      7.19424477e-003 0. 0. 0. 0. 7.19424477e-003 7.19424477e-003 0. 0.
      0. 7.19424477e-003 0. 0. 0. 0. 7.19424477e-003 0. 0. 0.
      1.43884895e-002 0. 0. 0. 0. 0. 0. 0. 0. 0. 7.19424477e-003 0. 0.
      0. 0. 0. 0. 0. 0. 0. 0. 0. 0. 0. 0. 0. 1.43884895e-002 0. 0.
      7.19424477e-003 0. 7.19424477e-003 0. 0. 0. 0. 7.19424477e-003 0.
      0. 0. 0. 0. 7.19424477e-003 0. 0. 0. 0. 0. 0. 0. 0. 0.
      7.19424477e-003 0. 0. 1.43884895e-002 0. 0. 0. 1.43884895e-002 0.
      0. 0. 0. 0. 0. 0. 0. 0. 0. 7.19424477e-003 0. 0. 0. 0. 0. 0. 0. 0.
      0. 0. 0. 0. 0. 0. 0. 0. 0. 0. 0. 0. 0. 0. 0. 0. 0. 0. 0. 0. 0. 0.
      0. 0. 0. 0. 0. 0. 0. 0. 0. 0. 0. 0. 0. 0. 0. 0. 0. 0. 0. 0. 0. 0.
      0. 0. 0. 7.19424477e-003 7.19424477e-003 7.19424477e-003 0. 0. 0.
      0. 0. 0. 0. 0. 0. 0. 7.19424477e-003 0. 0. 0. 0. 0. 0.
      7.19424477e-003 0. 0. 0. 0. 0. 0. 7.19424477e-003 0. 0. 0. 0. 0.
      0. 0. 0. 0. 0. 0. 0. 0. 0. 0. 0. 0. 0. 0. 0. 7.19424477e-003 0. 0.
      0. 0. 0. 0. 0. 0. 0. 0. 0. 0. 0. 0. 0. 0. 0. 0. 0. 0. 0. 0. 0. 0.
      0. 0. 0. 0. 7.19424477e-003 0. 0. 0. 0. 0. 0. 0.</_>
    <_>
      4.46428591e-003 0. 4.46428591e-003 0. 0. 0. 0. 0. 0. 0. 0. 0. 0.
      0. 0. 0. 0. 0. 4.46428591e-003 0. 4.46428591e-003 0. 0. 0. 0. 0.
      4.46428591e-003 0. 0. 4.46428591e-003 0. 0. 4.46428591e-003 0. 0.
      0. 4.46428591e-003 4.46428591e-003 4.46428591e-003 8.92857183e-003
      0. 4.46428591e-003 0. 1.33928582e-002 0. 4.46428591e-003 0. 0. 0.
      8.92857183e-003 4.46428591e-003 0. 0. 4.46428591e-003 0. 0. 0. 0.
      0. 0. 0. 0. 0. 0. 0. 8.92857183e-003 0. 0. 0. 2.67857164e-002 0.
      0. 0. 4.46428591e-003 0. 0. 4.46428591e-003 4.46428591e-003 0. 0.
      0. 4.46428591e-003 0. 0. 0. 0. 0. 0. 4.46428591e-003 0. 0. 0. 0.
      0. 0. 0. 0. 0. 0. 0. 0. 4.46428591e-003 0. 8.92857183e-003 0.
      4.46428591e-003 0. 0. 4.46428591e-003 0. 0. 4.46428591e-003 0. 0.
      0. 0. 0. 0. 0. 0. 0. 0. 0. 0. 0. 0. 0. 0. 8.92857183e-003 0. 0. 0.
      0. 0. 0. 0. 4.46428591e-003 4.46428591e-003 0. 0. 0. 0. 0. 0.
      8.92857183e-003 4.46428591e-003 0. 0. 0. 4.46428591e-003 0. 0.
      4.46428591e-003 0. 0. 0. 8.92857183e-003 0. 0. 0. 0. 0. 0. 0. 0.
      0. 0. 4.46428591e-003 0. 4.46428591e-003 4.46428591e-003 0. 0. 0.
      0. 4.46428591e-003 0. 4.46428591e-003 0. 0. 0. 0. 0. 0.
      4.46428591e-003 0. 0. 0. 0. 0. 4.46428591e-003 0. 0. 0. 0. 0. 0.
      0. 4.46428591e-003 4.46428591e-003 0. 0. 0. 0. 0. 0. 0. 0.
      4.46428591e-003 0. 0. 4.46428591e-003 0. 0. 0. 0. 0. 0. 0.
      4.46428591e-003 4.46428591e-003 0. 0. 0. 0. 0. 1.33928582e-002 0.
      1.33928582e-002 0. 1.33928582e-002 0. 0. 0. 0. 0. 0. 0. 0. 0. 0.
      4.46428591e-003 0. 0. 0. 0. 0. 0. 0. 0. 4.46428591e-003
      4.46428591e-003 2.23214291e-002 0. 0. 0. 0. 4.46428591e-003
      4.46428591e-003 0. 0. 0. 0. 4.46428591e-003 0. 0. 0. 0. 0. 0. 0.
      0. 0. 0. 0. 0. 0. 0. 0. 0. 0. 0. 0. 0. 0. 4.46428591e-003 0. 0.
      4.46428591e-003 0. 0. 8.92857183e-003 0. 0. 0. 0. 0.
      4.46428591e-003 0. 0. 0. 0. 0. 4.46428591e-003 0. 0. 0. 0. 0.
      4.46428591e-003 0. 0. 0. 0. 0. 0. 8.92857183e-003 0.
      4.46428591e-003 0. 0. 0. 0. 0. 0. 4.46428591e-003 0. 0. 0. 0. 0.
      0. 0. 0. 0. 0. 0. 4.46428591e-003 0. 8.92857183e-003 0. 0. 0.
      4.46428591e-003 4.46428591e-003 0. 0. 0. 4.46428591e-003 0. 0. 0.
      0. 0. 4.46428591e-003 0. 0. 0. 0. 0. 4.46428591e-003
      8.92857183e-003 0. 0. 0. 4.46428591e-003 0. 0. 0. 0. 0.
      4.46428591e-003 0. 0. 0. 0. 0. 0. 0. 0. 0. 0. 4.46428591e-003 0.
      0. 0. 0. 0. 0. 0. 0. 0. 0. 4.46428591e-003 0. 4.46428591e-003
      1.78571437e-002 0. 0. 0. 0. 0. 0. 0. 0. 0. 0. 0. 0. 0. 0. 0. 0. 0.
      0. 0. 0. 0. 0. 0. 0. 4.46428591e-003 0. 4.46428591e-003 0. 0. 0.
      0. 0. 0. 8.92857183e-003 0. 4.46428591e-003 4.46428591e-003 0.
      4.46428591e-003 0. 0. 0. 0. 0. 0. 0. 0. 1.33928582e-002
      4.46428591e-003 0. 0. 0. 4.46428591e-003 0. 0. 4.46428591e-003
      4.46428591e-003 4.46428591e-003 0. 0. 4.46428591e-003 0.
      4.46428591e-003 4.46428591e-003 0. 0. 0. 0. 0. 4.46428591e-003 0.
      0. 0. 0. 0. 1.33928582e-002 0. 8.92857183e-003 0. 0. 0. 0. 0.
      4.46428591e-003 0. 0. 0. 4.46428591e-003 0. 0. 0. 0. 0. 0.
      4.46428591e-003 0. 4.46428591e-003 0. 0. 0. 0. 0. 4.46428591e-003
      4.46428591e-003 0. 0. 0. 4.46428591e-003 0. 0. 8.92857183e-003 0.
      0. 4.46428591e-003 0. 0. 0. 0. 0. 0. 0. 4.46428591e-003 0. 0. 0.
      0. 4.46428591e-003 1.33928582e-002 0. 0. 0. 0. 0. 0. 0. 0. 0. 0.
      0. 0. 0. 0. 0. 0. 0. 0. 0. 0. 0. 0. 0. 4.46428591e-003 0. 0. 0. 0.
      0. 0. 0. 0. 0. 0. 4.46428591e-003 0. 0. 0. 0. 0. 0. 0. 0. 0. 0. 0.
      0. 4.46428591e-003 0. 0. 0. 0. 0. 0. 0. 4.46428591e-003
      4.46428591e-003 0. 0. 0. 4.46428591e-003 0. 4.46428591e-003 0. 0.
      4.46428591e-003 0. 0. 4.46428591e-003 0. 4.46428591e-003 0. 0. 0.
      0. 4.46428591e-003 0. 0. 0. 0. 0. 0. 0. 0. 4.46428591e-003 0. 0.
      0. 0. 0. 0. 0. 0. 0. 0. 0. 4.46428591e-003 4.46428591e-003 0. 0.
      0. 0. 0. 0. 0. 0. 0. 0. 0. 0. 0. 0. 0. 4.46428591e-003 0.
      4.46428591e-003 0. 0. 0. 0. 0. 8.92857183e-003 0. 0. 0. 0. 0. 0.
      0. 0. 0. 0. 0. 0. 0. 0. 0. 0. 4.46428591e-003 0. 0. 0. 0.
      4.46428591e-003 0. 4.46428591e-003 0. 0. 0. 0. 0. 0. 0. 0. 0. 0.
      0. 0. 0. 0. 0. 0. 0. 0. 0. 4.46428591e-003 4.46428591e-003 0. 0.
      0. 0. 0. 0. 4.46428591e-003 4.46428591e-003 0. 0. 0. 0. 0.
      1.33928582e-002 0. 0. 4.46428591e-003 0. 4.46428591e-003 0.
      8.92857183e-003 0. 0. 0. 0. 4.46428591e-003 0. 0. 0. 0. 0.
      4.46428591e-003 0. 0. 0. 0. 0. 0. 0. 0. 0. 0. 0. 4.46428591e-003
      4.46428591e-003 0. 0. 0. 0. 1.33928582e-002 0. 0. 4.46428591e-003
      0. 0. 0. 0. 0. 0. 0. 0. 0. 0. 0. 0. 0. 0. 0. 0. 0. 0. 0. 0. 0.
      4.46428591e-003 0. 0. 0. 0. 0. 0. 0. 0. 4.46428591e-003 0. 0.
      8.92857183e-003 0. 0. 0. 0. 0. 0. 0. 0. 0. 4.46428591e-003
      4.46428591e-003 0. 0. 0. 4.46428591e-003 0. 0. 0. 0. 0.
      4.46428591e-003 0. 0. 0. 0. 0. 0. 0. 0. 0. 0. 0. 0. 0. 0. 0. 0. 0.
      0. 0. 0. 0. 0. 0. 0. 0. 0. 0. 0. 0. 0. 0. 0. 0. 0. 0. 0. 0. 0.
      4.46428591e-003 4.46428591e-003 0. 0. 0. 0. 0. 0. 0. 0. 0.
      4.46428591e-003 0. 0. 0. 0. 8.92857183e-003 4.46428591e-003 0. 0.
      0. 0. 4.46428591e-003 0. 0. 0. 0. 0. 0. 0. 0. 0. 0. 0. 0. 0. 0. 0.
      0. 0. 0. 0. 0. 0. 0. 0. 0. 0. 4.46428591e-003 4.46428591e-003 0.
      0. 4.46428591e-003 0. 0. 0. 0. 0. 4.46428591e-003 0. 0. 0. 0. 0.
      0. 0. 0. 0. 0. 0. 0. 0. 0. 0. 0. 0. 0. 0. 0. 0. 0. 0. 0. 0. 0. 0.
      0. 0. 0. 0. 0. 0. 0. 0. 0. 0. 0. 0. 0. 0. 0. 0. 0. 0. 0.
      4.46428591e-003 0. 0. 0. 4.46428591e-003 0. 0. 0. 0. 0. 0. 0. 0.
      0. 8.92857183e-003 0. 0. 8.92857183e-003 0. 0. 0. 0.
      4.46428591e-003 0. 0. 0. 4.46428591e-003 0. 0. 0. 0.
      4.46428591e-003 0. 0. 0. 0. 0. 0. 0. 0. 0. 0. 4.46428591e-003 0.
      0. 0. 8.92857183e-003 0. 0. 0. 0. 0. 0. 0. 0. 0. 0.</_>
    <_>
      0. 1.66666672e-001 0. 0. 0. 0. 0. 0. 0. 0. 0. 0. 0. 0. 0. 0. 0.
      1.66666672e-001 0. 0. 0. 0. 0. 0. 0. 0. 0. 0. 0. 0. 0. 0. 0. 0. 0.
      0. 0. 0. 0. 0. 0. 0. 0. 0. 0. 0. 0. 0. 0. 0. 0. 0. 0. 0. 0. 0. 0.
      0. 0. 0. 0. 0. 0. 0. 0. 0. 0. 0. 0. 0. 0. 0. 0. 0. 0. 0. 0. 0. 0.
      0. 0. 0. 0. 0. 0. 0. 0. 0. 0. 0. 0. 0. 0. 0. 0. 0. 0. 0. 0. 0. 0.
      0. 0. 0. 0. 0. 0. 0. 0. 0. 0. 0. 0. 0. 0. 0. 0. 0. 0. 0. 0. 0. 0.
      0. 0. 0. 0. 0. 0. 0. 0. 0. 0. 0. 0. 0. 0. 0. 0. 0. 0. 0. 0. 0. 0.
      0. 0. 0. 0. 0. 0. 0. 0. 0. 0. 0. 0. 0. 0. 0. 0. 0. 0. 0. 0. 0. 0.
      0. 0. 0. 0. 0. 0. 0. 0. 0. 0. 0. 0. 0. 0. 0. 0. 0. 0. 0. 0. 0. 0.
      0. 0. 0. 0. 0. 0. 0. 0. 0. 0. 0. 0. 0. 0. 0. 0. 0. 0. 0. 0. 0. 0.
      0. 0. 0. 0. 0. 0. 0. 0. 0. 0. 0. 0. 0. 0. 0. 0. 0. 0. 0. 0. 0. 0.
      0. 0. 0. 0. 0. 0. 0. 0. 0. 0. 0. 0. 0. 0. 0. 0. 0. 0. 0. 0. 0. 0.
      0. 0. 0. 0. 0. 0. 0. 0. 0. 0. 1.66666672e-001 0. 0. 0. 0. 0. 0. 0.
      0. 0. 0. 0. 0. 0. 0. 0. 0. 0. 0. 0. 0. 0. 0. 0. 0. 0. 0. 0. 0. 0.
      0. 0. 0. 0. 0. 0. 0. 0. 0. 0. 0. 0. 0. 0. 0. 0. 0. 0. 0. 0. 0. 0.
      0. 0. 0. 0. 0. 0. 0. 0. 0. 0. 0. 0. 0. 0. 0. 0. 0. 0. 0. 0. 0. 0.
      0. 0. 0. 0. 0. 0. 0. 0. 0. 0. 0. 0. 0. 0. 0. 0. 0. 0. 0. 0. 0. 0.
      0. 0. 0. 0. 0. 0. 0. 0. 0. 0. 0. 0. 0. 0. 0. 0. 0. 0. 0. 0. 0. 0.
      0. 0. 0. 0. 0. 0. 0. 0. 0. 0. 0. 0. 0. 0. 0. 0. 0. 0. 0. 0. 0. 0.
      0. 0. 0. 0. 0. 0. 0. 0. 0. 0. 0. 0. 0. 0. 0. 0. 0. 0. 0. 0. 0. 0.
      0. 0. 0. 0. 0. 0. 0. 0. 0. 0. 0. 0. 0. 0. 0. 0. 0. 1.66666672e-001
      0. 0. 0. 0. 0. 0. 0. 0. 0. 0. 0. 0. 0. 0. 0. 0. 0. 0. 0. 0. 0. 0.
      0. 0. 0. 0. 0. 0. 0. 0. 0. 0. 0. 0. 0. 0. 0. 0. 0. 0. 0. 0. 0. 0.
      0. 0. 0. 0. 0. 0. 0. 0. 0. 0. 0. 0. 0. 0. 0. 0. 0. 0. 0. 0. 0. 0.
      0. 0. 0. 0. 0. 0. 0. 0. 0. 0. 0. 0. 0. 0. 0. 0. 0. 0. 0. 0. 0. 0.
      0. 0. 0. 0. 0. 0. 0. 0. 0. 0. 0. 0. 0. 0. 0. 0. 0. 0. 0. 0. 0. 0.
      0. 0. 0. 0. 0. 0. 0. 0. 0. 0. 0. 0. 0. 0. 0. 0. 0. 0. 0. 0. 0. 0.
      0. 0. 0. 0. 0. 0. 0. 0. 1.66666672e-001 0. 0. 0. 0. 0. 0. 0. 0. 0.
      0. 0. 0. 0. 0. 0. 0. 0. 0. 0. 0. 0. 0. 0. 0. 0. 0. 0. 0. 0. 0. 0.
      0. 0. 0. 0. 0. 0. 0. 0. 0. 0. 0. 0. 0. 0. 0. 0. 0. 0. 0. 0. 0. 0.
      0. 0. 0. 0. 0. 0. 0. 0. 0. 0. 0. 0. 0. 0. 0. 0. 0. 0. 0. 0. 0. 0.
      0. 0. 0. 0. 0. 0. 0. 0. 0. 0. 0. 0. 0. 0. 0. 0. 0. 0. 0. 0. 0. 0.
      0. 0. 0. 0. 0. 0. 0. 0. 0. 0. 0. 0. 0. 0. 0. 0. 0. 0. 0. 0. 0. 0.
      0. 0. 0. 0. 0. 0. 0. 0. 0. 0. 0. 0. 0. 0. 0. 0. 0. 0. 0. 0. 0. 0.
      0. 0. 0. 0. 0. 0. 0. 0. 0. 0. 0. 0. 0. 0. 0. 0. 0. 0. 0. 0. 0. 0.
      0. 0. 0. 0. 0. 0. 0. 0. 0. 0. 0. 0. 0. 0. 0. 0. 0. 0. 0. 0. 0. 0.
      0. 0. 0. 0. 0. 0. 0. 0. 0. 0. 0. 0. 0. 0. 0. 0. 0. 0. 0. 0. 0. 0.
      0. 0. 0. 0. 0. 0. 0. 0. 0. 0. 0. 0. 0. 0. 0. 0. 0. 0. 0. 0. 0. 0.
      0. 0. 0. 0. 0. 0. 0. 0. 0. 0. 0. 0. 0. 0. 0. 0. 0. 0. 0. 0. 0. 0.
      0. 0. 0. 0. 0. 0. 0. 0. 0. 0. 0. 0. 0. 0. 0. 0. 0. 0. 0. 0. 0. 0.
      0. 0. 0. 0. 0. 0. 0. 0. 0. 0. 0. 0. 0. 0. 0. 0. 0. 0. 0. 0. 0. 0.
      0. 0. 0. 0. 0. 0. 0. 0. 0. 0. 0. 0. 0. 0. 0. 0. 0. 0. 0. 0. 0. 0.
      0. 0. 0. 0. 0. 0. 0. 0. 0. 0. 0. 0. 0. 0. 0. 0. 0. 0. 0. 0. 0. 0.
      0. 0. 0. 0. 0. 0. 0. 0. 0. 0. 0. 0. 0. 0. 0. 0. 0. 0. 0. 0. 0. 0.
      0. 0. 0. 0. 0. 0. 0. 0. 0. 0. 0. 0. 0. 0. 0. 0. 0. 0. 0. 0. 0. 0.
      0. 0. 0. 0. 0. 0. 0. 1.66666672e-001 0. 0. 0. 0. 0. 0. 0. 0. 0. 0.
      0. 0. 0. 0. 0. 0. 0. 0. 0. 0. 0. 0. 0.</_>
    <_>
      0. 0. 0. 0. 0. 0. 0. 0. 0. 6.57894742e-003 0. 6.57894742e-003 0.
      0. 0. 0. 0. 0. 0. 0. 6.57894742e-003 0. 0. 0. 0. 0. 0.
      6.57894742e-003 0. 0. 6.57894742e-003 0. 0. 0. 0. 0. 0. 0. 0. 0.
      0. 0. 0. 0. 0. 0. 0. 0. 6.57894742e-003 0. 0. 0. 0. 0. 0. 0. 0. 0.
      0. 0. 0. 0. 0. 0. 0. 0. 0. 0. 1.31578948e-002 3.28947380e-002 0.
      0. 0. 0. 0. 0. 6.57894742e-003 6.57894742e-003 6.57894742e-003 0.
      0. 0. 6.57894742e-003 0. 0. 0. 0. 0. 0. 0. 6.57894742e-003 0. 0.
      0. 6.57894742e-003 0. 0. 0. 0. 0. 0. 0. 0. 6.57894742e-003
      6.57894742e-003 0. 0. 0. 0. 0. 0. 6.57894742e-003 0.
      6.57894742e-003 0. 0. 0. 0. 0. 0. 0. 0. 0. 0. 0. 0. 0.
      6.57894742e-003 0. 0. 0. 0. 0. 0. 0. 3.28947380e-002 0. 0. 0. 0.
      0. 0. 0. 0. 0. 0. 0. 0. 0. 0. 0. 6.57894742e-003 0. 0. 0. 0.
      6.57894742e-003 0. 0. 0. 0. 0. 0. 0. 0. 0. 0. 6.57894742e-003 0.
      0. 0. 0. 0. 0. 6.57894742e-003 0. 0. 0. 0. 0. 0. 6.57894742e-003
      0. 0. 0. 0. 0. 0. 0. 0. 0. 0. 0. 0. 0. 0. 0. 6.57894742e-003 0. 0.
      0. 0. 0. 0. 0. 0. 6.57894742e-003 0. 0. 0. 0. 1.97368413e-002 0.
      6.57894742e-003 0. 0. 0. 0. 0. 0. 0. 0. 0. 6.57894742e-003 0. 0.
      1.31578948e-002 0. 6.57894742e-003 0. 0. 0. 0. 0. 0. 0. 0. 0. 0.
      0. 0. 6.57894742e-003 0. 0. 0. 6.57894742e-003 0. 0. 0. 0. 0. 0.
      6.57894742e-003 6.57894742e-003 0. 6.57894742e-003 6.57894742e-003
      0. 0. 0. 0. 0. 0. 0. 0. 0. 0. 0. 0. 0. 0. 0. 0. 0. 0. 0. 0. 0. 0.
      0. 0. 0. 0. 0. 0. 0. 0. 0. 0. 0. 0. 0. 0. 0. 0. 0. 0.
      6.57894742e-003 0. 6.57894742e-003 0. 0. 1.31578948e-002
      1.97368413e-002 0. 0. 0. 0. 0. 0. 0. 0. 0. 0. 0. 0.
      1.31578948e-002 0. 0. 0. 0. 0. 6.57894742e-003 0. 0. 0. 0. 0. 0.
      0. 0. 0. 0. 0. 0. 0. 0. 6.57894742e-003 0. 0. 0. 0. 0. 0. 0. 0. 0.
      6.57894742e-003 0. 0. 0. 0. 0. 0. 6.57894742e-003 0. 0. 0. 0. 0.
      0. 0. 6.57894742e-003 0. 0. 6.57894742e-003 0. 0. 0. 0. 0. 0.
      6.57894742e-003 0. 0. 0. 0. 6.57894742e-003 0. 0. 0. 0. 0. 0. 0.
      0. 0. 0. 0. 0. 0. 0. 0. 6.57894742e-003 0. 0. 6.57894742e-003 0.
      0. 6.57894742e-003 0. 0. 0. 0. 0. 0. 6.57894742e-003 0. 0. 0. 0.
      0. 6.57894742e-003 0. 0. 0. 0. 0. 0. 0. 0. 0. 0. 0. 0. 0. 0. 0. 0.
      0. 0. 1.31578948e-002 0. 0. 0. 0. 0. 0. 0. 0. 0. 0. 0. 0. 0. 0. 0.
      0. 0. 0. 0. 6.57894742e-003 0. 0. 0. 0. 0. 0. 0. 0. 0. 0.
      1.31578948e-002 6.57894742e-003 0. 0. 6.57894742e-003 0. 0. 0.
      6.57894742e-003 1.31578948e-002 0. 0. 0. 0. 0. 0. 0. 0.
      6.57894742e-003 0. 0. 0. 0. 0. 0. 0. 0. 0. 0. 0. 0. 0. 0. 0. 0. 0.
      0. 0. 0. 0. 0. 0. 0. 0. 0. 0. 0. 0. 0. 0. 0. 0. 6.57894742e-003 0.
      0. 0. 0. 0. 0. 0. 0. 0. 0. 0. 0. 0. 0. 0. 0. 0. 0. 0. 0. 0. 0. 0.
      0. 6.57894742e-003 0. 0. 0. 0. 0. 0. 0. 0. 0. 0. 0. 0. 0. 0. 0. 0.
      1.31578948e-002 0. 0. 0. 0. 0. 0. 0. 0. 6.57894742e-003 0. 0. 0.
      1.31578948e-002 0. 0. 0. 0. 0. 0. 0. 0. 0. 0. 0. 0.
      6.57894742e-003 0. 0. 0. 0. 0. 0. 0. 0. 0. 0. 0. 0.
      1.97368413e-002 0. 0. 0. 0. 0. 0. 0. 0. 0. 0. 0. 0. 0. 0. 0. 0. 0.
      0. 0. 6.57894742e-003 6.57894742e-003 0. 0. 0. 0. 6.57894742e-003
      0. 0. 0. 0. 6.57894742e-003 0. 0. 0. 0. 0. 0. 6.57894742e-003 0.
      0. 0. 0. 0. 0. 0. 0. 0. 0. 0. 0. 0. 0. 0. 0. 0. 0. 0. 0. 0. 0. 0.
      0. 0. 6.57894742e-003 0. 0. 0. 0. 0. 0. 0. 0. 0. 0. 0. 0. 0. 0. 0.
      0. 0. 6.57894742e-003 0. 0. 0. 0. 0. 0. 0. 0. 0. 0. 0. 0. 0. 0. 0.
      0. 0. 0. 0. 0. 0. 0. 0. 0. 0. 0. 0. 0. 0. 0. 6.57894742e-003 0.
      1.31578948e-002 0. 0. 0. 0. 0. 0. 0. 0. 0. 0. 0. 0. 0.
      1.97368413e-002 0. 0. 0. 0. 6.57894742e-003 0. 0. 1.97368413e-002
      0. 0. 0. 0. 0. 0. 0. 0. 6.57894742e-003 6.57894742e-003 0. 0.
      6.57894742e-003 0. 0. 0. 0. 0. 0. 0. 0. 0. 0. 0. 0. 0. 0.
      6.57894742e-003 0. 0. 0. 0. 0. 0. 0. 0. 0. 0. 0. 0. 0. 0. 0. 0. 0.
      0. 0. 0. 0. 0. 6.57894742e-003 0. 0. 0. 0. 0. 0. 0. 0. 0. 0. 0. 0.
      0. 0. 0. 0. 0. 0. 0. 0. 0. 0. 0. 3.28947380e-002 0. 0.
      6.57894742e-003 0. 0. 0. 6.57894742e-003 0. 0. 0. 0. 0. 0.
      1.31578948e-002 0. 0. 0. 6.57894742e-003 0. 0. 0. 0.
      6.57894742e-003 0. 0. 0. 1.31578948e-002 0. 6.57894742e-003 0. 0.
      0. 0. 0. 0. 0. 0. 0. 0. 0. 6.57894742e-003 0. 0. 0. 0. 0. 0.
      1.31578948e-002 0. 0. 0. 6.57894742e-003 6.57894742e-003 0. 0. 0.
      0. 6.57894742e-003 0. 0. 0. 0. 0. 0. 0. 6.57894742e-003 0. 0.
      1.31578948e-002 0. 0. 0. 1.31578948e-002 0. 0. 0. 0. 0. 0. 0. 0.
      0. 0. 0. 0. 0. 0. 0. 0. 6.57894742e-003 0. 0. 0. 0. 0. 0. 0. 0. 0.
      0. 0. 0. 0. 0. 0. 0. 0. 0. 0. 6.57894742e-003 0. 0. 0. 0. 0. 0. 0.
      0. 0. 0. 0. 0. 0. 0. 6.57894742e-003 0. 0. 0. 0. 0. 0. 0. 0. 0.
      6.57894742e-003 0. 0. 0. 0. 0. 6.57894742e-003 0. 0.
      6.57894742e-003 0. 0. 6.57894742e-003 0. 0. 0. 0. 0.
      6.57894742e-003 0. 0. 0. 0. 0. 0. 0. 0. 0. 0. 6.57894742e-003 0.
      0. 0. 0. 0. 0. 0. 0. 0. 0. 6.57894742e-003 0. 0. 0. 0. 0. 0. 0. 0.
      0. 0. 0. 0. 0. 0. 6.57894742e-003 0. 0.</_>
    <_>
      0. 0. 8.19672085e-003 0. 0. 0. 0. 0. 0. 8.19672085e-003 0.
      8.19672085e-003 8.19672085e-003 0. 0. 0. 0. 0. 0. 0. 0. 0. 0.
      8.19672085e-003 0. 0. 0. 0. 0. 0. 8.19672085e-003 0. 0. 0. 0. 0.
      0. 0. 0. 0. 0. 0. 0. 0. 0. 0. 0. 0. 0. 8.19672085e-003 0. 0. 0. 0.
      0. 0. 0. 0. 0. 0. 0. 1.63934417e-002 0. 0. 0. 0. 0. 0. 0.
      8.19672085e-003 8.19672085e-003 0. 0. 8.19672085e-003 0. 0.
      1.63934417e-002 0. 0. 0. 0. 0. 0. 8.19672085e-003 8.19672085e-003
      0. 0. 0. 0. 0. 0. 0. 0. 8.19672085e-003 0. 0. 0. 0. 0. 0. 0. 0. 0.
      0. 0. 0. 0. 0. 0. 0. 0. 0. 0. 0. 8.19672085e-003 0. 0. 0.
      8.19672085e-003 0. 0. 0. 0. 0. 0. 0. 0. 8.19672085e-003 0. 0. 0.
      0. 0. 0. 0. 0. 0. 0. 0. 0. 1.63934417e-002 0. 0. 0. 0. 0.
      8.19672085e-003 0. 8.19672085e-003 8.19672085e-003 0. 0.
      8.19672085e-003 8.19672085e-003 0. 0. 0. 0. 0. 1.63934417e-002 0.
      0. 0. 0. 0. 0. 0. 0. 0. 0. 0. 0. 0. 0. 0. 0. 0. 0. 0. 0. 0. 0.
      8.19672085e-003 8.19672085e-003 0. 0. 0. 0. 0. 0. 0. 0. 0. 0. 0.
      0. 1.63934417e-002 0. 0. 0. 8.19672085e-003 0. 0. 0.
      8.19672085e-003 8.19672085e-003 0. 0. 8.19672085e-003 0.
      8.19672085e-003 1.63934417e-002 0. 0. 0. 0. 0. 0. 0. 0.
      2.45901626e-002 0. 0. 0. 0. 0. 8.19672085e-003 0. 8.19672085e-003
      0. 0. 0. 8.19672085e-003 0. 0. 0. 0. 0. 8.19672085e-003
      8.19672085e-003 0. 0. 0. 0. 0. 8.19672085e-003 0. 0. 0. 0.
      8.19672085e-003 0. 8.19672085e-003 0. 0. 0. 0. 0. 0. 0. 0. 0. 0.
      0. 0. 0. 0. 1.63934417e-002 0. 0. 0. 0. 0. 0. 8.19672085e-003 0.
      0. 0. 0. 0. 0. 0. 0. 0. 0. 0. 0. 0. 0. 0. 8.19672085e-003
      8.19672085e-003 0. 0. 0. 0. 0. 0. 0. 0. 0. 0. 8.19672085e-003 0.
      0. 0. 0. 0. 0. 0. 0. 8.19672085e-003 0. 0. 8.19672085e-003 0.
      8.19672085e-003 0. 0. 0. 0. 0. 8.19672085e-003 0. 0. 0. 0. 0. 0.
      0. 0. 0. 8.19672085e-003 0. 0. 0. 8.19672085e-003 0. 0. 0. 0. 0.
      0. 0. 8.19672085e-003 8.19672085e-003 0. 8.19672085e-003 0. 0. 0.
      0. 0. 0. 0. 0. 0. 0. 0. 0. 0. 0. 0. 0. 0. 0. 0. 0. 0. 0. 0. 0.
      8.19672085e-003 0. 0. 0. 0. 0. 0. 0. 0. 0. 8.19672085e-003 0. 0.
      0. 0. 0. 0. 0. 0. 0. 8.19672085e-003 0. 0. 0. 0. 0. 0. 0.
      8.19672085e-003 0. 0. 0. 0. 0. 0. 0. 0. 0. 0. 8.19672085e-003
      8.19672085e-003 8.19672085e-003 0. 0. 0. 0. 0. 0. 0. 0. 0. 0. 0.
      0. 0. 0. 0. 0. 0. 0. 8.19672085e-003 0. 0. 0. 0. 0. 0.
      8.19672085e-003 0. 0. 0. 0. 0. 0. 0. 0. 0. 0. 0. 0. 0. 0. 0. 0. 0.
      8.19672085e-003 0. 0. 0. 0. 0. 0. 0. 0. 8.19672085e-003 0. 0. 0.
      0. 0. 8.19672085e-003 0. 0. 8.19672085e-003 0. 0. 0.
      8.19672085e-003 0. 0. 0. 0. 1.63934417e-002 0. 0. 0. 0. 0. 0. 0.
      0. 0. 0. 8.19672085e-003 0. 0. 0. 0. 8.19672085e-003 0. 0. 0.
      8.19672085e-003 0. 0. 0. 8.19672085e-003 0. 8.19672085e-003
      8.19672085e-003 0. 0. 0. 0. 0. 0. 0. 0. 0. 0. 0. 8.19672085e-003
      0. 0. 0. 0. 0. 0. 0. 0. 0. 0. 0. 0. 0. 0. 0. 0. 0. 0. 0. 0. 0. 0.
      0. 0. 0. 0. 0. 0. 0. 0. 0. 0. 0. 0. 0. 0. 0. 0. 0. 0. 0.
      8.19672085e-003 0. 0. 0. 0. 0. 0. 0. 0. 0. 0. 0. 0. 0. 0. 0. 0. 0.
      0. 0. 1.63934417e-002 0. 0. 0. 0. 0. 0. 0. 8.19672085e-003 0. 0.
      0. 0. 0. 0. 0. 0. 0. 0. 0. 0. 0. 0. 0. 0. 0. 0. 0. 0. 0. 0. 0. 0.
      0. 0. 0. 8.19672085e-003 0. 0. 0. 8.19672085e-003 0. 0. 0. 0. 0.
      0. 0. 0. 0. 0. 0. 0. 0. 0. 0. 0. 0. 0. 0. 0. 0. 8.19672085e-003 0.
      0. 0. 0. 0. 0. 0. 0. 0. 8.19672085e-003 0. 0. 0. 8.19672085e-003
      0. 0. 0. 0. 0. 0. 0. 0. 0. 0. 0. 0. 0. 0. 0. 0. 0. 0. 0. 0. 0. 0.
      0. 0. 0. 0. 0. 0. 0. 8.19672085e-003 0. 0. 0. 0. 0. 0. 0.
      8.19672085e-003 0. 0. 0. 0. 0. 0. 0. 0. 0. 0. 0. 0.
      8.19672085e-003 0. 0. 0. 0. 0. 0. 0. 0. 0. 0. 0. 0. 0. 0. 0. 0. 0.
      0. 0. 0. 0. 0. 0. 0. 0. 0. 0. 8.19672085e-003 2.45901626e-002 0.
      0. 0. 0. 0. 0. 0. 0. 0. 0. 0. 0. 0. 0. 0. 0. 0. 0. 0. 0. 0. 0.
      8.19672085e-003 0. 8.19672085e-003 0. 0. 0. 0. 0. 0. 0. 0.
      8.19672085e-003 8.19672085e-003 0. 0. 0. 0. 0. 0. 0. 0. 0. 0. 0.
      0. 0. 0. 0. 0. 0. 0. 0. 0. 0. 0. 0. 0. 0. 0. 0. 0. 0. 0.
      8.19672085e-003 0. 0. 8.19672085e-003 0. 0. 0. 0. 8.19672085e-003
      0. 0. 0. 0. 0. 0. 0. 0. 0. 0. 0. 8.19672085e-003 0. 0. 0. 0. 0. 0.
      0. 0. 0. 0. 8.19672085e-003 0. 0. 0. 0. 0. 0. 0. 0. 0. 0. 0. 0. 0.
      0. 0. 0. 0. 0. 0. 0. 0. 0. 0. 0. 0. 8.19672085e-003 0. 0. 0. 0. 0.
      0. 0. 0. 0. 0. 0. 0. 0. 0. 0. 0. 0. 0. 0. 0. 0. 0. 0. 0. 0. 0. 0.
      8.19672085e-003 0. 0. 0. 8.19672085e-003 0. 0. 0. 0. 0. 0. 0. 0.
      0. 0. 0. 0. 0. 0. 0. 0. 0. 0. 0. 0. 0. 0. 8.19672085e-003 0. 0. 0.
      0. 0. 0. 0. 0. 0. 0. 0. 0. 0. 0. 0. 0. 0. 0. 0. 0. 0. 0. 0. 0. 0.
      0. 0. 0. 0. 0. 0. 0. 0. 0. 0. 0. 8.19672085e-003 0. 0. 0. 0.
      8.19672085e-003 0. 0. 0. 0. 0. 0. 0. 8.19672085e-003 0. 0. 0. 0.
      0. 0. 0. 0. 0. 0. 0. 0. 0. 0. 0. 0. 0. 0. 0. 8.19672085e-003 0. 0.
      0. 0. 0. 0. 0. 0. 0. 0.</_>
    <_>
      0. 6.32911408e-003 0. 0. 0. 0. 6.32911408e-003 0. 0.
      1.26582282e-002 0. 0. 0. 0. 6.32911408e-003 6.32911408e-003 0.
      6.32911408e-003 0. 0. 0. 0. 6.32911408e-003 0. 0. 6.32911408e-003
      0. 0. 6.32911408e-003 0. 0. 0. 0. 0. 0. 0. 1.26582282e-002
      6.32911408e-003 0. 0. 0. 0. 0. 1.26582282e-002 0. 0. 0.
      6.32911408e-003 0. 6.32911408e-003 0. 0. 0. 0. 6.32911408e-003 0.
      0. 0. 0. 0. 0. 6.32911408e-003 0. 0. 0. 0. 0. 0. 0.
      1.26582282e-002 0. 0. 0. 6.32911408e-003 0. 0. 0. 1.26582282e-002
      0. 0. 0. 0. 0. 0. 0. 1.89873427e-002 6.32911408e-003
      6.32911408e-003 0. 0. 0. 0. 0. 0. 0. 0. 0. 0. 0. 0. 0. 0. 0.
      6.32911408e-003 0. 0. 0. 6.32911408e-003 0. 0. 0. 0. 0. 0. 0. 0.
      0. 0. 0. 0. 0. 0. 0. 0. 6.32911408e-003 0. 0. 0. 1.26582282e-002
      0. 0. 0. 0. 0. 0. 0. 6.32911408e-003 0. 0. 0. 0. 0. 0. 0. 0. 0. 0.
      0. 6.32911408e-003 0. 0. 1.26582282e-002 0. 0. 0. 0. 0. 0. 0. 0.
      0. 0. 0. 0. 0. 6.32911408e-003 0. 0. 0. 0. 0. 0. 6.32911408e-003
      1.26582282e-002 0. 0. 0. 6.32911408e-003 6.32911408e-003 0. 0. 0.
      0. 0. 0. 0. 0. 0. 0. 0. 6.32911408e-003 0. 0. 6.32911408e-003 0.
      0. 6.32911408e-003 0. 0. 0. 1.89873427e-002 0. 6.32911408e-003 0.
      0. 0. 0. 0. 0. 0. 0. 0. 0. 0. 0. 0. 0. 0. 6.32911408e-003 0.
      6.32911408e-003 0. 0. 0. 0. 0. 0. 0. 0. 6.32911408e-003 0. 0. 0.
      0. 0. 0. 0. 0. 1.26582282e-002 0. 0. 0. 0. 6.32911408e-003
      6.32911408e-003 0. 0. 0. 0. 0. 0. 0. 6.32911408e-003 0. 0. 0. 0.
      0. 6.32911408e-003 0. 0. 0. 0. 0. 0. 6.32911408e-003 0. 0. 0. 0.
      0. 0. 0. 0. 0. 0. 0. 6.32911408e-003 0. 0. 0. 0. 0. 0. 0. 0.
      6.32911408e-003 0. 0. 0. 0. 6.32911408e-003 6.32911408e-003 0. 0.
      0. 0. 0. 0. 0. 0. 0. 6.32911408e-003 6.32911408e-003 0. 0. 0. 0.
      0. 0. 0. 0. 6.32911408e-003 0. 0. 0. 6.32911408e-003 0. 0. 0.
      6.32911408e-003 0. 0. 0. 0. 0. 0. 0. 0. 6.32911408e-003 0. 0. 0.
      0. 0. 0. 0. 0. 0. 6.32911408e-003 0. 0. 0. 0. 6.32911408e-003
      6.32911408e-003 0. 0. 0. 0. 0. 0. 0. 0. 0. 0. 0. 0. 0. 0. 0. 0.
      6.32911408e-003 0. 0. 0. 0. 0. 0. 0. 0. 0. 0. 0. 0. 0. 0. 0. 0. 0.
      0. 0. 1.26582282e-002 0. 0. 6.32911408e-003 0. 0. 0. 0. 0.
      6.32911408e-003 0. 1.89873427e-002 0. 0. 0. 0. 0. 0. 0. 0. 0. 0.
      0. 0. 0. 0. 0. 6.32911408e-003 0. 6.32911408e-003 6.32911408e-003
      0. 0. 0. 0. 0. 0. 0. 0. 6.32911408e-003 0. 0. 0. 0. 0. 0. 0. 0. 0.
      0. 6.32911408e-003 0. 0. 1.26582282e-002 0. 0. 0. 0. 0. 0. 0. 0.
      0. 0. 0. 6.32911408e-003 0. 0. 0. 0. 6.32911408e-003 0. 0. 0. 0.
      0. 0. 0. 0. 1.26582282e-002 0. 0. 0. 0. 0. 0. 0. 0. 0. 0. 0. 0. 0.
      0. 0. 0. 0. 0. 0. 0. 0. 0. 0. 0. 0. 0. 0. 0. 0. 0. 0. 0. 0. 0. 0.
      0. 0. 0. 6.32911408e-003 6.32911408e-003 0. 6.32911408e-003 0. 0.
      0. 0. 6.32911408e-003 0. 0. 0. 0. 0. 0. 0. 0. 0. 0. 0. 0. 0. 0. 0.
      0. 0. 0. 0. 0. 0. 0. 0. 0. 0. 0. 0. 0. 0. 0. 0. 0. 0. 0. 0.
      6.32911408e-003 0. 0. 0. 0. 0. 0. 0. 0. 0. 0. 0. 0. 0. 0. 0. 0. 0.
      0. 0. 0. 6.32911408e-003 0. 0. 0. 0. 0. 0. 0. 6.32911408e-003 0.
      0. 0. 0. 0. 0. 0. 0. 0. 0. 0. 0. 0. 0. 1.26582282e-002 0.
      6.32911408e-003 0. 0. 0. 6.32911408e-003 0. 0. 0. 0. 0. 0. 0. 0.
      0. 0. 0. 0. 0. 0. 6.32911408e-003 0. 0. 0. 0. 0. 0.
      6.32911408e-003 0. 0. 0. 0. 6.32911408e-003 6.32911408e-003 0. 0.
      0. 6.32911408e-003 6.32911408e-003 0. 0. 0. 0. 0. 0.
      6.32911408e-003 0. 0. 6.32911408e-003 0. 6.32911408e-003 0. 0.
      6.32911408e-003 0. 0. 0. 0. 6.32911408e-003 0. 0. 0. 0. 0. 0. 0.
      0. 0. 0. 0. 0. 0. 0. 0. 0. 0. 0. 0. 0. 0. 6.32911408e-003 0. 0. 0.
      0. 0. 0. 0. 0. 0. 0. 0. 0. 0. 0. 0. 0. 0. 0. 0. 0. 6.32911408e-003
      6.32911408e-003 0. 0. 0. 0. 0. 0. 0. 6.32911408e-003 0. 0. 0. 0.
      0. 0. 0. 0. 6.32911408e-003 0. 0. 6.32911408e-003 0. 0. 0. 0. 0.
      6.32911408e-003 1.26582282e-002 0. 0. 0. 0. 0. 0. 0. 0. 0. 0. 0.
      0. 0. 0. 0. 6.32911408e-003 6.32911408e-003 6.32911408e-003 0. 0.
      0. 0. 0. 0. 0. 6.32911408e-003 1.26582282e-002 0. 0.
      6.32911408e-003 0. 0. 0. 0. 6.32911408e-003 0. 6.32911408e-003 0.
      6.32911408e-003 0. 0. 0. 0. 6.32911408e-003 0. 0. 0. 0. 0. 0. 0.
      0. 0. 0. 0. 0. 0. 0. 0. 0. 0. 0. 0. 0. 0. 0. 6.32911408e-003 0. 0.
      0. 0. 0. 0. 6.32911408e-003 0. 0. 0. 0. 0. 0. 1.26582282e-002 0.
      0. 0. 0. 0. 0. 0. 0. 0. 0. 1.89873427e-002 0. 0. 0. 0. 0. 0. 0. 0.
      0. 0. 0. 0. 0. 0. 0. 0. 0. 0. 0. 0. 0. 0. 0. 0. 0. 0. 0. 0. 0. 0.
      6.32911408e-003 0. 0. 0. 0. 0. 0. 0. 0. 0. 0. 0. 0. 0. 0. 0. 0. 0.
      0. 0. 0. 0. 0. 6.32911408e-003 0. 0. 0. 0. 0. 0. 0. 0. 0. 0. 0. 0.
      0. 0. 6.32911408e-003 0. 0. 0. 0. 0. 6.32911408e-003 0.
      6.32911408e-003 6.32911408e-003 0. 0. 0. 0. 0. 0. 0. 0. 0. 0. 0.
      0. 0. 0. 0. 0. 6.32911408e-003 0. 0. 0. 0. 0. 0. 0. 0. 0. 0. 0. 0.
      0. 0. 0. 0. 0. 0. 0. 0. 0. 0. 0. 6.32911408e-003 0. 0. 0. 0. 0. 0.
      6.32911408e-003 0. 0. 6.32911408e-003 0. 0. 6.32911408e-003 0. 0.
      0. 6.32911408e-003 0. 0. 0. 0. 0. 0. 0. 0. 0. 0. 0. 0. 0. 0.
      6.32911408e-003 6.32911408e-003 6.32911408e-003 0. 0. 0. 0. 0. 0.
      0. 0. 0. 0. 0. 0. 0. 0. 0. 0. 0. 0. 0. 0. 0. 0. 0. 0. 0. 0. 0. 0.
      0. 0. 0. 0. 0. 0. 0. 6.32911408e-003</_>
    <_>
      1.66389346e-003 1.66389346e-003 3.32778692e-003 0. 0. 0. 0.
      1.66389346e-003 0. 1.66389346e-003 0. 0. 0. 0. 0. 3.32778692e-003
      1.66389346e-003 0. 0. 0. 0. 0. 0. 0. 3.32778692e-003 0. 0.
      3.32778692e-003 0. 1.66389346e-003 0. 0. 1.66389346e-003 0. 0. 0.
      1.49750412e-002 0. 1.66389346e-003 0. 0. 0. 0. 4.99168038e-003 0.
      0. 0. 1.66389346e-003 0. 1.66389346e-003 1.66389346e-003 0. 0. 0.
      0. 0. 1.66389346e-003 1.66389346e-003 0. 0. 0. 1.33111477e-002
      1.66389346e-003 1.66389346e-003 0. 0. 0. 0. 1.66389346e-003
      6.65557384e-003 0. 1.66389346e-003 1.66389346e-003 0. 0. 0.
      1.66389346e-003 1.66389346e-003 1.16472542e-002 0. 0.
      6.65557384e-003 3.32778692e-003 0. 8.31946731e-003 0. 0. 0.
      6.65557384e-003 0. 6.65557384e-003 0. 0. 1.66389346e-003
      1.66389346e-003 0. 1.66389346e-003 0. 0. 1.66389346e-003 0. 0. 0.
      0. 0. 0. 0. 1.66389346e-003 3.32778692e-003 0. 0. 4.99168038e-003
      0. 1.66389346e-003 3.32778692e-003 0. 0. 6.65557384e-003 0.
      3.32778692e-003 0. 0. 3.32778692e-003 0. 0. 0. 0. 0.
      4.99168038e-003 0. 3.32778692e-003 0. 0. 0. 0. 0. 1.66389346e-003
      1.66389346e-003 0. 4.99168038e-003 0. 0. 0. 0. 1.66389346e-003 0.
      1.66389346e-003 0. 1.66389346e-003 0. 3.32778692e-003 0.
      1.33111477e-002 6.65557384e-003 0. 8.31946731e-003 4.99168038e-003
      0. 0. 0. 0. 0. 1.66389346e-003 1.66389346e-003 0. 1.66389346e-003
      0. 4.99168038e-003 0. 0. 0. 0. 0. 8.31946731e-003 0. 0.
      4.99168038e-003 0. 1.66389346e-003 0. 0. 0. 0. 0. 1.66389346e-003
      0. 0. 0. 0. 0. 0. 0. 0. 0. 0. 0. 0. 1.66389346e-003 0.
      1.66389346e-003 1.66389346e-003 0. 3.32778692e-003 0. 0. 0. 0. 0.
      0. 0. 4.99168038e-003 0. 0. 0. 0. 0. 0. 0. 0. 1.66389346e-003
      3.32778692e-003 0. 0. 0. 0. 0. 8.31946731e-003 4.99168038e-003
      6.65557384e-003 0. 3.32778692e-003 0. 0. 0. 0. 1.66389346e-003 0.
      3.32778692e-003 6.65557384e-003 0. 0. 1.66389346e-003
      1.66389346e-003 0. 0. 1.16472542e-002 3.32778692e-003 0. 0. 0. 0.
      0. 0. 0. 0. 0. 0. 0. 1.66389346e-003 0. 3.32778692e-003 0. 0.
      3.32778692e-003 1.66389346e-003 0. 0. 1.66389346e-003
      1.66389346e-003 0. 0. 1.66389346e-003 0. 0. 0. 0. 0.
      1.66389346e-003 0. 3.32778692e-003 1.66389346e-003 1.66389346e-003
      0. 0. 0. 4.99168038e-003 0. 0. 0. 0. 1.66389346e-003
      1.66389346e-003 1.66389346e-003 1.66389346e-003 0. 0. 0. 0.
      1.66389346e-003 1.66389346e-003 0. 0. 6.65557384e-003
      1.49750412e-002 0. 1.66389346e-003 0. 0. 1.66389346e-003 0.
      3.32778692e-003 1.66389346e-003 0. 0. 0. 0. 3.32778692e-003 0. 0.
      0. 0. 1.66389346e-003 0. 0. 0. 0. 0. 1.66389346e-003 0.
      9.98336077e-003 1.66389346e-003 1.66389346e-003 4.99168038e-003 0.
      0. 0. 1.66389346e-003 4.99168038e-003 0. 3.32778692e-003
      1.66389346e-003 0. 1.66389346e-003 0. 1.66389346e-003
      1.66389346e-003 0. 1.66389346e-003 1.66389346e-003 0. 0. 0. 0.
      1.66389346e-003 0. 1.66389346e-003 0. 1.66389346e-002 0. 0. 0.
      1.66389346e-003 0. 0. 0. 1.66389346e-003 0. 0. 0. 0. 0. 0. 0.
      1.66389346e-003 0. 0. 0. 0. 1.66389346e-003 0. 0. 0. 0. 0.
      1.66389346e-003 0. 1.66389346e-003 0. 0. 0. 1.33111477e-002
      1.66389346e-003 1.66389346e-003 0. 0. 3.32778692e-003
      6.65557384e-003 0. 0. 0. 0. 0. 0. 0. 0. 0. 0. 0. 0. 0. 0.
      1.66389346e-003 6.65557384e-003 0. 0. 0. 1.66389346e-003 0. 0. 0.
      0. 0. 4.99168038e-003 3.32778692e-003 4.99168038e-003 0.
      8.31946731e-003 0. 0. 0. 0. 0. 0. 0. 0. 0. 0. 0. 0.
      1.66389346e-003 0. 0. 1.66389346e-003 3.32778692e-003
      1.66389346e-003 1.16472542e-002 0. 3.32778692e-003 0.
      1.66389346e-003 0. 0. 0. 0. 1.66389346e-003 0. 0. 0. 0. 0.
      6.65557384e-003 0. 4.99168038e-003 0. 1.66389346e-003 0.
      4.99168038e-003 0. 6.65557384e-003 0. 0. 0. 1.16472542e-002
      3.32778692e-003 0. 0. 1.66389346e-003 3.32778692e-003 0. 0. 0. 0.
      0. 3.32778692e-003 0. 1.66389346e-003 0. 1.66389346e-003
      1.66389346e-003 0. 8.31946731e-003 0. 0. 0. 0. 1.66389346e-003 0.
      0. 0. 1.66389346e-003 4.99168038e-003 0. 3.32778692e-003 0. 0. 0.
      9.98336077e-003 0. 1.66389346e-003 0. 0. 0. 0. 0. 0. 0. 0. 0. 0.
      0. 0. 0. 0. 0. 1.66389346e-003 0. 0. 0. 1.66389346e-003 0. 0.
      6.65557384e-003 0. 0. 0. 0. 0. 1.66389346e-003 0. 1.66389346e-003
      0. 0. 0. 0. 0. 1.66389346e-003 1.66389346e-003 0. 0. 0. 0. 0. 0.
      0. 1.66389346e-003 1.66389346e-003 0. 0. 0. 3.32778692e-003 0. 0.
      0. 3.32778692e-003 0. 1.66389346e-003 0. 0. 0. 1.66389346e-003 0.
      8.31946731e-003 0. 0. 0. 0. 0. 4.99168038e-003 0. 4.99168038e-003
      1.66389346e-003 0. 1.66389346e-003 0. 1.66389346e-003
      1.66389346e-003 0. 0. 0. 0. 0. 0. 0. 0. 0. 1.66389346e-003 0. 0.
      0. 1.66389346e-003 9.98336077e-003 0. 0. 0. 0. 1.66389346e-003 0.
      0. 0. 0. 0. 4.99168038e-003 0. 0. 0. 0. 6.65557384e-003 0. 0. 0.
      0. 0. 3.32778692e-003 1.66389346e-003 0. 0. 0. 1.66389346e-003 0.
      0. 0. 0. 1.66389346e-003 0. 0. 0. 0. 0. 1.66389346e-003 0.
      1.66389346e-003 1.66389346e-003 0. 0. 0. 0. 0. 1.66389346e-003 0.
      1.66389346e-003 3.32778692e-003 4.99168038e-003 0. 6.65557384e-003
      0. 0. 0. 1.66389346e-003 0. 0. 1.66389346e-003 1.66389346e-003 0.
      0. 0. 3.32778692e-003 1.66389346e-003 1.66389346e-003 0. 0. 0. 0.
      1.66389346e-003 3.32778692e-003 1.66389346e-003 1.66389346e-003 0.
      1.66389346e-003 0. 0. 0. 0. 3.32778692e-003 0. 0. 1.66389346e-003
      0. 0. 0. 1.66389346e-003 0. 1.66389346e-003 3.32778692e-003 0. 0.
      0. 1.66389346e-003 0. 0. 0. 1.66389346e-003 0. 1.66389346e-003 0.
      0. 1.66389346e-003 0. 0. 0. 1.66389346e-003 0. 0. 3.32778692e-003
      0. 0. 0. 0. 1.66389346e-003 1.66389346e-003 0. 0. 0. 0. 0. 0. 0.
      0. 0. 0. 0. 0. 0. 0. 0. 1.66389346e-003 0. 0. 0. 0. 0. 0.
      4.99168038e-003 0. 0. 0. 0. 0. 0. 0. 1.66389346e-003 0. 0. 0. 0.
      0. 3.32778692e-003 0. 0. 0. 0. 1.66389346e-003 0. 1.66389346e-003
      0. 4.99168038e-003 1.66389346e-003 0. 4.99168038e-003 0.
      1.66389346e-003 0. 0. 0. 0. 0. 0. 1.66389346e-003 0. 0. 0.
      3.32778692e-003 0. 1.66389346e-003 0. 0. 0. 0. 0. 1.66389346e-003
      0. 0. 0. 0. 0. 0. 3.32778692e-003 0. 0. 3.32778692e-003
      1.66389346e-003 0. 0. 0. 0. 0. 3.32778692e-003 3.32778692e-003 0.
      0. 0. 1.49750412e-002 1.66389346e-003 0. 0. 0. 0. 0. 0. 0. 0.
      1.66389346e-003 6.65557384e-003 0. 0. 3.32778692e-003
      1.66389346e-003 0. 0. 1.66389346e-003 1.66389346e-003
      1.66389346e-003 4.99168038e-003 1.66389346e-003 0. 0. 0. 0. 0.
      1.66389346e-003 0. 0. 0. 0. 0. 1.66389346e-003 0. 0. 0.
      1.66389346e-003 0. 1.66389346e-003 0. 0. 0. 0. 1.66389346e-003
      3.32778692e-003 1.66389346e-003 0. 1.66389346e-003 3.32778692e-003
      0. 0. 0. 0. 0. 1.66389346e-003 0. 1.66389346e-003 0. 0. 0.
      4.99168038e-003 3.32778692e-003 0. 0. 1.66389346e-003
      1.66389346e-003 0. 1.66389346e-003 0. 4.99168038e-003
      4.99168038e-003 0. 1.66389346e-003 0. 0. 0. 0. 0. 0. 0. 0.
      1.66389346e-003 0. 0. 1.66389346e-003 0. 3.32778692e-003 0.
      3.32778692e-003 0. 0. 0. 0. 0. 0. 0. 0. 0. 0. 0. 0. 0. 0. 0. 0. 0.
      0. 0. 0. 0. 0. 0. 0. 0. 0. 0. 1.66389346e-003 0. 0. 0.
      6.65557384e-003 0. 0. 0. 1.66389346e-003 0. 0. 0. 0. 0. 0. 0.
      3.32778692e-003 1.66389346e-003 0. 0. 8.31946731e-003 0. 0.
      1.66389346e-003 0. 0. 1.66389346e-003 0. 1.66389346e-003 0. 0. 0.
      0. 0. 4.99168038e-003 0. 0. 0. 0. 0. 0. 1.66389346e-003
      3.32778692e-003 0. 0. 0. 1.66389346e-003 1.66389346e-003 0.
      3.32778692e-003 0. 0. 0. 0. 0. 0. 0. 0. 0. 0. 0. 1.66389346e-003
      4.99168038e-003 0. 0. 0. 3.32778692e-003 0. 0. 0. 0. 0.</_>
    <_>
      0. 4.38596494e-003 0. 0. 4.38596494e-003 0. 4.38596494e-003
      4.38596494e-003 0. 0. 0. 0. 0. 0. 0. 0. 0. 0. 0. 0. 0. 0. 0. 0. 0.
      0. 0. 0. 0. 0. 0. 0. 0. 0. 0. 0. 0. 4.38596494e-003 0. 0. 0. 0.
      4.38596494e-003 0. 0. 0. 0. 4.38596494e-003 0. 0. 0. 0. 0. 0.
      4.38596494e-003 0. 0. 0. 0. 0. 0. 0. 4.38596494e-003 0. 0. 0. 0.
      0. 0. 0. 4.38596494e-003 0. 4.38596494e-003 8.77192989e-003
      4.38596494e-003 0. 4.38596494e-003 4.38596494e-003 0. 0. 0.
      4.38596494e-003 0. 0. 4.38596494e-003 1.31578948e-002 0. 0. 0. 0.
      0. 0. 8.77192989e-003 0. 0. 0. 0. 0. 0. 0. 0. 0. 8.77192989e-003
      0. 0. 0. 0. 0. 0. 0. 0. 4.38596494e-003 0. 0. 0. 0. 0. 0. 0. 0. 0.
      0. 4.38596494e-003 0. 0. 0. 0. 0. 0. 0. 0. 4.38596494e-003 0. 0.
      0. 0. 0. 8.77192989e-003 0. 4.38596494e-003 0. 0. 0. 0. 0.
      8.77192989e-003 4.38596494e-003 0. 1.75438598e-002 0. 0. 0. 0. 0.
      0. 0. 4.38596494e-003 0. 0. 4.38596494e-003 8.77192989e-003 0. 0.
      0. 4.38596494e-003 4.38596494e-003 0. 0. 4.38596494e-003 0. 0. 0.
      4.38596494e-003 4.38596494e-003 0. 0. 0. 0. 4.38596494e-003 0. 0.
      0. 4.38596494e-003 0. 0. 4.38596494e-003 0. 0. 0. 0. 0. 0. 0. 0.
      0. 4.38596494e-003 0. 0. 4.38596494e-003 0. 8.77192989e-003
      4.38596494e-003 0. 4.38596494e-003 0. 0. 4.38596494e-003 0.
      4.38596494e-003 4.38596494e-003 4.38596494e-003 4.38596494e-003 0.
      8.77192989e-003 0. 0. 0. 0. 0. 0. 0. 0. 0. 0. 0. 0.
      4.38596494e-003 4.38596494e-003 0. 0. 4.38596494e-003 0. 0. 0.
      4.38596494e-003 0. 0. 0. 4.38596494e-003 0. 0. 0. 0. 0. 0. 0. 0.
      0. 0. 0. 0. 4.38596494e-003 0. 0. 0. 0. 0. 0. 0. 0. 0. 0.
      4.38596494e-003 0. 0. 0. 0. 0. 4.38596494e-003 0. 4.38596494e-003
      0. 0. 0. 0. 0. 4.38596494e-003 0. 0. 0. 0. 0. 0. 0. 0. 0. 0. 0. 0.
      0. 4.38596494e-003 1.31578948e-002 0. 4.38596494e-003 0. 0. 0. 0.
      0. 0. 0. 0. 0. 0. 0. 0. 0. 0. 0. 0. 0. 0. 4.38596494e-003 0. 0. 0.
      4.38596494e-003 0. 4.38596494e-003 0. 4.38596494e-003 0. 0. 0. 0.
      0. 0. 0. 0. 0. 4.38596494e-003 8.77192989e-003 0. 0. 0. 0. 0.
      4.38596494e-003 0. 4.38596494e-003 0. 0. 4.38596494e-003 0. 0. 0.
      0. 0. 0. 0. 0. 0. 4.38596494e-003 0. 0. 0. 4.38596494e-003 0. 0.
      0. 0. 1.75438598e-002 0. 0. 0. 0. 0. 4.38596494e-003
      4.38596494e-003 0. 8.77192989e-003 0. 0. 0. 0. 0. 0.
      4.38596494e-003 0. 8.77192989e-003 0. 4.38596494e-003
      1.31578948e-002 4.38596494e-003 4.38596494e-003 4.38596494e-003 0.
      0. 0. 0. 0. 4.38596494e-003 0. 4.38596494e-003 0. 4.38596494e-003
      4.38596494e-003 0. 0. 4.38596494e-003 0. 0. 4.38596494e-003 0. 0.
      0. 0. 0. 0. 0. 0. 8.77192989e-003 0. 0. 0. 0. 0. 4.38596494e-003
      0. 0. 4.38596494e-003 4.38596494e-003 0. 0. 0. 0. 0. 0. 0. 0. 0.
      0. 0. 0. 0. 0. 0. 4.38596494e-003 0. 4.38596494e-003 0.
      4.38596494e-003 4.38596494e-003 0. 0. 0. 0. 0. 0. 0. 0. 0. 0. 0.
      0. 0. 4.38596494e-003 0. 0. 0. 0. 0. 4.38596494e-003 0. 0. 0. 0.
      0. 0. 0. 0. 0. 0. 4.38596494e-003 0. 0. 0. 0. 0. 0. 0. 0. 0. 0. 0.
      4.38596494e-003 0. 0. 0. 0. 0. 0. 0. 0. 0. 4.38596494e-003 0. 0.
      0. 0. 0. 8.77192989e-003 8.77192989e-003 0. 0. 4.38596494e-003 0.
      0. 0. 4.38596494e-003 4.38596494e-003 0. 0. 0. 4.38596494e-003 0.
      4.38596494e-003 0. 0. 0. 4.38596494e-003 0. 8.77192989e-003 0. 0.
      0. 0. 0. 0. 0. 0. 0. 0. 0. 0. 0. 0. 0. 0. 0. 0. 0. 0. 0. 0. 0. 0.
      0. 0. 0. 0. 0. 0. 0. 4.38596494e-003 0. 4.38596494e-003 0. 0. 0.
      0. 0. 0. 0. 0. 4.38596494e-003 0. 0. 0. 0. 0. 0. 4.38596494e-003
      0. 4.38596494e-003 0. 0. 0. 0. 4.38596494e-003 0. 4.38596494e-003
      0. 0. 0. 4.38596494e-003 0. 0. 4.38596494e-003 0. 0.
      4.38596494e-003 0. 0. 4.38596494e-003 0. 4.38596494e-003 0. 0. 0.
      8.77192989e-003 0. 0. 4.38596494e-003 0. 0. 0. 0. 0. 0. 0.
      1.31578948e-002 0. 0. 0. 4.38596494e-003 0. 0. 0. 0.
      4.38596494e-003 4.38596494e-003 0. 0. 0. 0. 0. 0. 0. 0. 0. 0. 0.
      0. 0. 0. 0. 0. 0. 4.38596494e-003 1.31578948e-002 0. 0. 0. 0. 0.
      4.38596494e-003 4.38596494e-003 0. 0. 0. 0. 0. 0. 0. 0. 0. 0.
      4.38596494e-003 0. 0. 0. 0. 0. 0. 0. 4.38596494e-003 0. 0. 0.
      4.38596494e-003 0. 0. 0. 0. 0. 0. 0. 0. 0. 0. 0. 4.38596494e-003
      0. 0. 0. 0. 0. 0. 0. 0. 4.38596494e-003 0. 0. 0. 0. 0. 0.
      4.38596494e-003 0. 4.38596494e-003 0. 4.38596494e-003 0. 0.
      4.38596494e-003 0. 0. 4.38596494e-003 0. 0. 0. 0. 0. 0. 0. 0. 0.
      0. 0. 0. 0. 0. 0. 0. 0. 0. 0. 0. 0. 0. 0. 0. 0. 4.38596494e-003
      8.77192989e-003 0. 0. 4.38596494e-003 0. 4.38596494e-003
      4.38596494e-003 4.38596494e-003 0. 0. 0. 0. 0. 0. 0. 0. 0. 0. 0.
      0. 4.38596494e-003 0. 0. 0. 0. 0. 0. 4.38596494e-003 0. 0. 0. 0.
      0. 0. 0. 0. 0. 4.38596494e-003 0. 0. 0. 0. 0. 0. 0. 0. 0. 0.
      4.38596494e-003 0. 0. 0. 0. 0. 0. 0. 0. 0. 4.38596494e-003 0. 0.
      0. 0. 0. 8.77192989e-003 0. 0. 0. 4.38596494e-003 0. 0. 0. 0. 0.
      0. 8.77192989e-003 0. 0. 0. 4.38596494e-003 0. 0. 0. 0. 0. 0.
      4.38596494e-003 0. 0. 4.38596494e-003 0. 0. 0. 0. 0. 0.
      8.77192989e-003 0. 0. 4.38596494e-003 0. 0. 0. 0. 0. 0. 0. 0. 0.
      0. 0. 0. 0. 0. 0. 0. 0. 0. 4.38596494e-003 8.77192989e-003
      4.38596494e-003 4.38596494e-003 0. 0. 0. 0. 0. 0. 0. 0.
      4.38596494e-003 8.77192989e-003 0. 0. 0. 0. 0. 0. 0. 0. 0. 0. 0.
      0. 0. 0. 0. 0. 0. 0. 0. 0. 0. 0. 0. 0. 0. 0. 0. 0. 0. 0. 0.
      4.38596494e-003 0. 0. 0. 0. 0. 0. 0. 0. 0. 0. 0. 4.38596494e-003
      0. 0. 0. 0. 0. 0. 0. 0. 0. 0. 0. 0. 0. 0. 0. 0. 0. 0. 0. 0. 0. 0.
      0. 4.38596494e-003 0. 0. 0. 0. 0. 0. 0. 4.38596494e-003 0. 0. 0.
      4.38596494e-003 0. 0. 0. 0. 0. 0. 4.38596494e-003 0. 0. 0.
      4.38596494e-003 4.38596494e-003 0. 4.38596494e-003 0.
      4.38596494e-003 0. 0. 0. 0. 0. 0. 8.77192989e-003 0.
      4.38596494e-003 0. 0. 0. 0. 0. 4.38596494e-003 0. 0. 0. 0. 0. 0.
      0. 0. 4.38596494e-003 0. 0. 1.31578948e-002 4.38596494e-003 0. 0.
      0. 0. 0. 0. 0. 4.38596494e-003 0.</_>
    <_>
      0. 0. 0. 0. 0. 0. 0. 1.53846154e-002 0. 0. 0. 0. 0. 0. 0. 0. 0. 0.
      0. 0. 0. 0. 0. 1.53846154e-002 0. 0. 0. 0. 0. 0. 0. 0. 0. 0. 0. 0.
      3.07692308e-002 0. 1.53846154e-002 0. 0. 0. 0. 0. 0. 0. 0. 0. 0.
      0. 0. 0. 0. 0. 0. 0. 0. 0. 0. 0. 0. 0. 0. 0. 0. 0. 0. 0. 0. 0. 0.
      0. 0. 0. 0. 0. 1.53846154e-002 0. 0. 0. 0. 0. 0. 0. 0.
      1.53846154e-002 0. 1.53846154e-002 0. 0. 0. 0. 0. 0. 0.
      1.53846154e-002 0. 0. 0. 0. 0. 0. 0. 0. 0. 1.53846154e-002 0. 0.
      0. 0. 0. 1.53846154e-002 0. 0. 0. 0. 0. 0. 0. 0. 0. 0. 0. 0. 0. 0.
      0. 1.53846154e-002 0. 0. 0. 0. 0. 0. 0. 0. 0. 0. 0. 0. 0. 0. 0. 0.
      0. 0. 0. 0. 0. 0. 0. 0. 0. 0. 0. 0. 3.07692308e-002 0. 0. 0. 0. 0.
      0. 0. 0. 1.53846154e-002 0. 0. 0. 0. 0. 0. 0. 1.53846154e-002 0.
      0. 0. 0. 0. 0. 0. 0. 0. 0. 0. 0. 0. 0. 0. 0. 0. 0. 0. 0. 0. 0. 0.
      0. 0. 0. 0. 0. 0. 0. 0. 0. 0. 0. 0. 0. 0. 0. 1.53846154e-002 0.
      1.53846154e-002 0. 0. 0. 0. 0. 0. 0. 0. 0. 0. 0. 0. 0. 0. 0.
      4.61538471e-002 0. 0. 0. 0. 0. 0. 0. 0. 0. 0. 0. 0. 0. 0.
      1.53846154e-002 0. 0. 0. 0. 1.53846154e-002 0. 0. 0. 0. 0. 0. 0.
      0. 0. 0. 0. 0. 0. 0. 0. 0. 0. 0. 0. 0. 0. 0. 0. 0. 0. 0. 0. 0. 0.
      0. 0. 0. 0. 0. 0. 0. 0. 0. 0. 0. 4.61538471e-002 0. 0. 0. 0. 0. 0.
      0. 0. 0. 0. 0. 1.53846154e-002 0. 0. 0. 0. 1.53846154e-002 0. 0.
      1.53846154e-002 0. 0. 0. 0. 0. 0. 0. 0. 0. 0. 0. 0. 0. 0. 0. 0. 0.
      0. 0. 0. 0. 0. 0. 0. 0. 1.53846154e-002 0. 0. 0. 0. 0. 0. 0. 0.
      1.53846154e-002 0. 0. 0. 0. 0. 0. 0. 0. 0. 0. 0. 0. 0. 0. 0. 0. 0.
      0. 0. 0. 0. 0. 0. 0. 0. 0. 0. 0. 0. 0. 1.53846154e-002 0. 0. 0. 0.
      0. 0. 0. 0. 0. 0. 0. 0. 0. 0. 0. 0. 0. 3.07692308e-002 0. 0. 0. 0.
      0. 0. 0. 1.53846154e-002 0. 0. 0. 0. 0. 0. 0. 0. 0. 0. 0. 0. 0. 0.
      0. 0. 0. 0. 0. 0. 0. 0. 0. 0. 0. 0. 0. 0. 0. 0. 0. 0. 0. 0. 0.
      1.53846154e-002 0. 0. 0. 0. 0. 0. 0. 0. 0. 0. 0. 0. 0. 0. 0. 0. 0.
      0. 0. 0. 0. 0. 0. 0. 0. 0. 0. 0. 1.53846154e-002 0. 0. 0.
      3.07692308e-002 0. 0. 0. 0. 0. 0. 0. 0. 0. 0. 0. 0. 0. 0. 0. 0. 0.
      0. 0. 0. 0. 0. 0. 0. 0. 0. 0. 0. 0. 0. 0. 0. 1.53846154e-002 0. 0.
      0. 0. 0. 0. 0. 0. 0. 0. 0. 0. 0. 0. 0. 0. 0. 0. 0. 0. 0. 0. 0. 0.
      0. 0. 0. 0. 0. 0. 0. 0. 0. 0. 0. 0. 0. 0. 0. 0. 0. 0. 0. 0. 0. 0.
      0. 0. 0. 0. 0. 0. 0. 0. 0. 0. 0. 0. 0. 0. 0. 0. 0. 0. 0. 0. 0. 0.
      0. 0. 0. 0. 0. 0. 1.53846154e-002 0. 0. 0. 0. 0. 0. 0. 0. 0. 0. 0.
      0. 0. 0. 0. 0. 0. 0. 0. 0. 0. 0. 0. 0. 0. 0. 0. 1.53846154e-002 0.
      0. 0. 0. 0. 0. 0. 0. 0. 0. 0. 0. 0. 1.53846154e-002 0. 0. 0. 0. 0.
      0. 0. 0. 0. 0. 0. 0. 0. 0. 0. 0. 0. 0. 0. 0. 0. 1.53846154e-002 0.
      0. 0. 0. 0. 0. 1.53846154e-002 0. 0. 0. 0. 0. 0. 0. 0. 0. 0. 0. 0.
      0. 1.53846154e-002 0. 0. 0. 0. 0. 0. 0. 1.53846154e-002 0. 0. 0.
      0. 0. 0. 0. 0. 1.53846154e-002 0. 0. 0. 0. 0. 0. 0. 0.
      3.07692308e-002 0. 0. 0. 0. 0. 0. 0. 1.53846154e-002 0. 0. 0. 0.
      0. 1.53846154e-002 0. 0. 0. 0. 0. 0. 0. 0. 0. 0. 0. 0. 0. 0. 0. 0.
      0. 0. 0. 0. 0. 0. 0. 0. 0. 0. 0. 0. 0. 0. 0. 0. 0. 0. 0.
      3.07692308e-002 0. 0. 0. 0. 0. 0. 0. 0. 0. 0. 0. 0. 0. 0. 0. 0. 0.
      0. 0. 0. 0. 0. 0. 0. 0. 0. 0. 0. 0. 0. 0. 0. 0. 0. 0. 0. 0. 0. 0.
      0. 0. 0. 0. 0. 0. 0. 0. 0. 0. 0. 0. 0. 0. 0. 0. 0. 0. 0. 0. 0. 0.
      0. 0. 1.53846154e-002 0. 0. 0. 0. 0. 0. 0. 0. 0. 0. 0. 0. 0. 0. 0.
      0. 0. 0. 0. 0. 0. 0. 0. 0. 0. 0. 0. 0. 0. 0. 0. 0. 0.
      1.53846154e-002 0. 0. 0. 0. 0. 0. 0. 0. 0. 0. 0. 0. 0. 0. 0. 0. 0.
      0. 0. 0. 0. 0. 0. 0. 0. 0. 1.53846154e-002 0. 0. 0. 0. 0. 0. 0. 0.
      0. 0. 0. 0. 0. 0. 0. 0. 0. 0. 0. 0. 0. 0. 0. 0. 0. 0. 0. 0. 0.
      4.61538471e-002 0. 0. 0. 0. 0. 0. 0. 0. 0. 0. 0. 0. 0. 0. 0. 0. 0.
      0. 0. 0. 0. 0. 0. 0. 0. 0. 0. 0. 0. 0. 0. 0. 0. 0. 0. 0. 0. 0.
      1.53846154e-002 0. 0. 0. 0. 0. 0. 0. 0. 0. 0. 1.53846154e-002 0.
      0. 0. 0. 0. 0. 0. 0. 0. 0. 1.53846154e-002 0. 0. 0. 0. 0. 0.
      1.53846154e-002 0. 0. 0. 0. 0. 0. 0. 0. 0. 0. 0. 0. 0. 0. 0.
      1.53846154e-002 0. 0. 0. 0. 0. 0. 0. 0. 0. 0. 0. 0. 0. 0. 0. 0. 0.
      0. 0.</_>
    <_>
      0. 0. 3.69003695e-003 0. 0. 0. 3.69003695e-003 0. 0.
      1.84501847e-003 0. 1.84501847e-003 0. 3.69003695e-003 0. 0. 0. 0.
      0. 0. 1.84501847e-003 1.84501847e-003 0. 1.84501847e-003
      5.53505542e-003 0. 0. 0. 0. 5.53505542e-003 1.84501847e-003
      3.69003695e-003 0. 1.84501847e-003 0. 0. 3.69003695e-003 0.
      1.84501847e-003 0. 1.84501847e-003 1.84501847e-003 0.
      5.53505542e-003 0. 1.84501847e-003 0. 1.84501847e-003
      5.53505542e-003 1.84501847e-003 1.84501847e-003 0. 0.
      7.38007389e-003 5.53505542e-003 0. 1.84501847e-003 1.84501847e-003
      0. 0. 3.69003695e-003 9.22509283e-003 0. 0. 0. 0. 0.
      1.84501847e-003 0. 0. 1.84501847e-003 1.84501847e-003 0.
      1.84501847e-003 3.69003695e-003 0. 1.84501847e-003 7.38007389e-003
      0. 1.84501847e-003 1.84501847e-003 0. 7.38007389e-003
      1.84501847e-003 3.69003695e-003 1.84501847e-003 5.53505542e-003 0.
      0. 0. 0. 1.84501847e-003 0. 0. 0. 1.84501847e-003 0. 0.
      1.84501847e-003 0. 0. 5.53505542e-003 3.69003695e-003
      9.22509283e-003 0. 0. 3.69003695e-003 0. 3.69003695e-003 0. 0.
      5.53505542e-003 1.84501847e-003 0. 0. 1.84501847e-003 0. 0. 0.
      3.69003695e-003 1.84501847e-003 1.84501847e-003 0. 1.84501847e-003
      1.84501847e-003 0. 0. 5.53505542e-003 3.69003695e-003
      1.84501847e-003 0. 0. 0. 0. 0. 3.69003695e-003 1.84501847e-003 0.
      0. 0. 1.84501847e-003 0. 0. 1.84501847e-003 0. 0. 1.84501847e-003
      0. 1.84501847e-003 0. 1.84501847e-003 0. 3.69003695e-003
      1.84501847e-003 1.84501847e-003 0. 3.69003695e-003 0. 0.
      3.69003695e-003 3.69003695e-003 5.53505542e-003 0. 0. 0. 0. 0. 0.
      3.69003695e-003 1.84501847e-003 0. 0. 0. 7.38007389e-003 0. 0. 0.
      5.53505542e-003 0. 0. 0. 0. 1.84501847e-003 0. 0. 0. 0. 0. 0. 0.
      0. 3.69003695e-003 1.84501847e-003 0. 0. 0. 3.69003695e-003
      1.84501847e-003 0. 1.84501847e-003 0. 0. 0. 0. 0. 0. 0. 0.
      1.84501847e-003 0. 0. 3.69003695e-003 3.69003695e-003 0.
      1.84501847e-003 0. 1.84501847e-003 0. 0. 3.69003695e-003
      5.53505542e-003 0. 0. 3.69003695e-003 0. 1.84501847e-003
      3.69003695e-003 0. 1.66051667e-002 0. 1.84501847e-003
      3.69003695e-003 1.84501847e-003 0. 0. 0. 0. 1.84501847e-003
      1.84501847e-003 0. 0. 1.84501847e-003 0. 0. 3.69003695e-003
      3.69003695e-003 0. 0. 0. 0. 1.84501847e-003 1.84501847e-003
      5.53505542e-003 0. 0. 0. 0. 1.84501847e-003 0. 5.53505542e-003
      1.84501847e-003 0. 1.84501847e-003 0. 0. 1.84501847e-003
      1.84501847e-003 0. 0. 0. 0. 1.84501847e-003 0. 0. 0. 0.
      3.69003695e-003 0. 0. 0. 1.84501847e-003 0. 0. 1.84501847e-003 0.
      1.84501847e-003 1.84501847e-003 0. 1.84501847e-003 1.84501847e-003
      0. 1.84501847e-003 0. 0. 0. 0. 0. 1.84501847e-003 0.
      1.84501847e-003 0. 0. 3.69003695e-003 1.10701108e-002 0. 0.
      1.84501847e-003 1.84501847e-003 1.84501847e-003 7.38007389e-003 0.
      1.84501847e-003 0. 0. 0. 1.84501847e-003 1.84501847e-003
      1.84501847e-003 0. 0. 3.69003695e-003 0. 1.84501847e-003 0.
      1.84501847e-003 0. 0. 0. 0. 1.84501847e-003 0. 1.84501847e-003 0.
      0. 0. 0. 1.84501847e-003 7.38007389e-003 0. 1.84501847e-003 0. 0.
      0. 3.69003695e-003 1.84501847e-003 0. 0. 0. 0. 0. 0. 0. 0. 0.
      3.69003695e-003 0. 0. 1.84501847e-003 0. 3.69003695e-003 0.
      1.84501847e-003 0. 0. 1.84501847e-003 3.69003695e-003 0.
      5.53505542e-003 0. 0. 1.84501847e-003 5.53505542e-003
      3.69003695e-003 0. 0. 1.84501847e-003 1.84501847e-003
      3.69003695e-003 1.84501847e-003 5.53505542e-003 0. 0.
      1.84501847e-003 1.84501847e-003 0. 0. 0. 0. 0. 0. 1.84501847e-003
      0. 0. 1.84501847e-003 0. 5.53505542e-003 1.84501847e-003 0. 0. 0.
      0. 0. 3.69003695e-003 0. 1.84501847e-003 3.69003695e-003 0. 0. 0.
      0. 0. 0. 3.69003695e-003 0. 0. 0. 0. 1.84501847e-003
      1.84501847e-003 0. 5.53505542e-003 1.84501847e-003 0. 0.
      1.84501847e-003 0. 1.84501847e-003 0. 0. 0. 0. 1.84501847e-003 0.
      0. 0. 0. 0. 0. 0. 3.69003695e-003 0. 3.69003695e-003 0. 0. 0. 0.
      1.84501847e-003 0. 0. 0. 0. 0. 1.84501847e-003 0. 3.69003695e-003
      0. 0. 5.53505542e-003 0. 0. 3.69003695e-003 3.69003695e-003 0. 0.
      0. 0. 0. 5.53505542e-003 1.84501847e-003 9.22509283e-003 0. 0. 0.
      1.84501847e-003 0. 0. 0. 0. 1.84501847e-003 1.84501847e-003 0. 0.
      0. 0. 0. 0. 0. 1.84501847e-003 1.84501847e-003 0. 3.69003695e-003
      0. 0. 0. 0. 0. 0. 3.69003695e-003 0. 0. 1.84501847e-003 0.
      3.69003695e-003 0. 1.84501847e-003 0. 0. 0. 1.84501847e-003 0.
      1.84501847e-003 3.69003695e-003 0. 0. 0. 1.84501847e-003
      1.84501847e-003 0. 0. 1.84501847e-003 1.84501847e-003 0. 0.
      5.53505542e-003 3.69003695e-003 1.84501847e-003 0. 0. 0. 0. 0. 0.
      0. 0. 0. 0. 0. 1.84501847e-003 3.69003695e-003 1.84501847e-003
      3.69003695e-003 3.69003695e-003 1.84501847e-003 0. 0. 0. 0. 0.
      3.69003695e-003 0. 0. 0. 0. 1.84501847e-003 0. 1.84501847e-003
      3.69003695e-003 0. 0. 0. 0. 0. 0. 0. 0. 0. 0. 0. 0. 0. 0. 0. 0. 0.
      0. 0. 0. 0. 0. 0. 0. 0. 0. 0. 0. 0. 0. 1.84501847e-003
      1.84501847e-003 1.84501847e-003 0. 5.53505542e-003 0. 0. 0. 0. 0.
      0. 0. 0. 0. 0. 0. 0. 0. 0. 0. 1.84501847e-003 1.84501847e-003 0.
      0. 1.84501847e-003 0. 0. 0. 0. 5.53505542e-003 3.69003695e-003 0.
      1.84501847e-003 0. 1.84501847e-003 1.84501847e-003 1.84501847e-003
      0. 0. 1.84501847e-003 0. 1.84501847e-003 0. 0. 0. 0.
      1.84501847e-003 1.84501847e-003 0. 0. 1.84501847e-003
      1.84501847e-003 0. 0. 0. 0. 0. 1.84501847e-003 5.53505542e-003 0.
      1.84501847e-003 0. 0. 0. 1.84501847e-003 3.69003695e-003
      1.84501847e-003 0. 0. 0. 1.84501847e-003 0. 0. 0. 0. 0. 0. 0. 0.
      0. 0. 0. 0. 1.84501847e-003 0. 0. 1.84501847e-003 0.
      5.53505542e-003 0. 1.84501847e-003 0. 1.84501847e-003 0. 0. 0. 0.
      0. 0. 0. 0. 0. 0. 3.69003695e-003 0. 0. 1.84501847e-003 0. 0.
      1.84501847e-003 0. 0. 0. 3.69003695e-003 0. 1.84501847e-003
      1.84501847e-003 0. 3.69003695e-003 0. 3.69003695e-003 0. 0.
      1.84501847e-003 0. 0. 1.84501847e-003 0. 0. 0. 5.53505542e-003 0.
      0. 0. 0. 1.84501847e-003 1.84501847e-003 0. 0. 0. 0. 0.
      1.84501847e-003 0. 0. 1.84501847e-003 0. 1.84501847e-003
      1.84501847e-003 5.53505542e-003 0. 0. 0. 0. 3.69003695e-003 0.
      1.84501847e-003 3.69003695e-003 0. 0. 0. 0. 1.84501847e-003 0. 0.
      0. 0. 0. 0. 0. 1.84501847e-003 0. 0. 3.69003695e-003 0.
      1.84501847e-003 1.84501847e-003 0. 1.84501847e-003 0.
      7.38007389e-003 0. 1.84501847e-003 0. 0. 0. 0. 0. 3.69003695e-003
      3.69003695e-003 0. 0. 0. 0. 0. 1.84501847e-003 0. 0. 0. 0. 0. 0.
      0. 0. 0. 3.69003695e-003 3.69003695e-003 5.53505542e-003 0. 0. 0.
      0. 3.69003695e-003 0. 0. 0. 0. 0. 3.69003695e-003 1.84501847e-003
      1.84501847e-003 1.84501847e-003 3.69003695e-003 1.84501847e-003 0.
      3.69003695e-003 0. 1.84501847e-003 1.84501847e-003 0.
      3.69003695e-003 3.69003695e-003 0. 3.69003695e-003 1.84501847e-003
      0. 0. 0. 1.84501847e-003 1.84501847e-003 0. 1.84501847e-003 0. 0.
      0. 0. 0. 0. 1.84501847e-003 0. 1.84501847e-003 0. 0.
      1.84501847e-003 1.84501847e-003 0. 0. 1.84501847e-003 0. 0. 0. 0.
      0. 0. 0. 0. 0. 5.53505542e-003 1.84501847e-003 0. 0. 0. 0. 0.
      1.84501847e-003 0. 0. 5.53505542e-003 1.84501847e-003
      1.84501847e-003 0. 0. 0. 0. 0. 3.69003695e-003 1.84501847e-003 0.
      0. 0. 0. 0. 0. 3.69003695e-003 0. 0. 0. 3.69003695e-003 0. 0.
      1.84501847e-003 5.53505542e-003 0. 3.69003695e-003 0.
      1.84501847e-003 0. 0. 0. 0. 0. 5.53505542e-003 1.84501847e-003 0.
      0. 1.84501847e-003 0. 0. 0. 0. 0. 0. 1.84501847e-003 0. 0.
      1.84501847e-003 0. 1.84501847e-003 0. 0. 0. 0. 0. 1.84501847e-003
      1.84501847e-003 0. 0. 1.84501847e-003 0. 0. 0. 0. 0. 0. 0. 0. 0.
      0. 0. 0. 0. 0. 0. 0. 0. 0. 1.84501847e-003 3.69003695e-003 0.
      1.84501847e-003 0. 0. 0. 0. 1.84501847e-003 0. 0. 0.
      1.84501847e-003 0. 1.84501847e-003 0. 0. 0. 1.84501847e-003
      3.69003695e-003 1.84501847e-003 0. 1.84501847e-003 0. 0. 0. 0. 0.
      0. 0. 0. 3.69003695e-003 0. 0. 0. 0. 0. 0. 0. 0. 0. 0.
      3.69003695e-003 1.84501847e-003 0. 0. 0. 0. 3.69003695e-003 0.
      1.84501847e-003 1.84501847e-003 0. 0. 0. 0. 0.</_>
    <_>
      0. 2.25225231e-003 0. 0. 2.25225231e-003 0. 2.25225231e-003
      4.50450461e-003 0. 4.50450461e-003 0. 0. 2.25225231e-003 0. 0. 0.
      0. 0. 0. 0. 0. 0. 2.25225231e-003 0. 2.25225231e-003 0. 0.
      4.50450461e-003 0. 6.75675692e-003 4.50450461e-003 2.25225231e-003
      0. 0. 0. 0. 4.50450461e-003 2.25225231e-003 2.25225231e-003
      9.00900923e-003 0. 0. 2.25225231e-003 0. 2.25225231e-003 0. 0.
      2.25225231e-003 2.25225231e-003 4.50450461e-003 0. 0. 0.
      2.25225231e-003 4.50450461e-003 0. 1.57657657e-002 4.50450461e-003
      2.25225231e-003 0. 0. 9.00900923e-003 2.25225231e-003 0. 0. 0.
      2.25225231e-003 2.25225231e-003 0. 0. 0. 2.25225231e-003
      4.50450461e-003 2.25225231e-003 0. 0. 4.50450461e-003
      2.25225231e-003 0. 0. 4.50450461e-003 6.75675692e-003
      4.50450461e-003 0. 4.50450461e-003 2.25225231e-003 0. 0.
      4.50450461e-003 0. 0. 0. 0. 0. 2.25225231e-003 2.25225231e-003 0.
      0. 0. 0. 0. 0. 0. 0. 0. 0. 2.25225231e-003 2.25225231e-003
      2.25225231e-003 0. 0. 2.25225231e-003 0. 0. 0. 0. 0.
      2.25225231e-003 0. 0. 0. 0. 4.50450461e-003 0. 0. 2.25225231e-003
      0. 0. 4.50450461e-003 0. 0. 2.25225231e-003 0. 0. 2.25225231e-003
      0. 0. 2.25225231e-003 0. 0. 2.25225231e-003 0. 2.25225231e-003
      6.75675692e-003 2.25225231e-003 2.25225231e-003 4.50450461e-003
      2.25225231e-003 2.25225231e-003 0. 2.25225231e-003 0. 0. 0. 0. 0.
      9.00900923e-003 2.25225231e-003 0. 0. 0. 0. 0. 0. 0. 0.
      2.25225231e-003 0. 2.25225231e-003 2.25225231e-003 4.50450461e-003
      0. 0. 1.12612620e-002 0. 0. 0. 0. 2.25225231e-003 0. 0. 0. 0.
      2.25225231e-003 2.25225231e-003 0. 0. 2.25225231e-003 0. 0. 0.
      4.50450461e-003 0. 0. 0. 0. 0. 0. 0. 0. 1.12612620e-002
      2.25225231e-003 0. 0. 0. 0. 0. 0. 2.25225231e-003 4.50450461e-003
      4.50450461e-003 2.25225231e-003 2.25225231e-003 0. 0. 0.
      2.25225231e-003 0. 0. 2.25225231e-003 6.75675692e-003 0. 0.
      2.25225231e-003 0. 0. 4.50450461e-003 4.50450461e-003
      9.00900923e-003 0. 2.25225231e-003 0. 2.25225231e-003 0. 0. 0. 0.
      0. 0. 0. 0. 2.25225231e-003 0. 2.25225231e-003 0. 2.25225231e-003
      0. 0. 0. 0. 0. 0. 2.25225231e-003 0. 0. 2.25225231e-003 0. 0.
      2.25225231e-003 0. 0. 0. 4.50450461e-003 2.25225231e-003 0.
      9.00900923e-003 0. 0. 0. 2.25225231e-003 0. 0. 0. 0.
      2.25225231e-003 0. 0. 0. 0. 0. 2.25225231e-003 0. 0. 0. 0.
      4.50450461e-003 0. 0. 0. 0. 4.50450461e-003 6.75675692e-003 0. 0.
      0. 0. 0. 2.25225231e-003 2.25225231e-003 2.25225231e-003 0. 0.
      2.25225231e-003 2.25225231e-003 0. 0. 0. 0. 0. 0. 0. 0. 0. 0. 0.
      4.50450461e-003 0. 0. 0. 0. 0. 0. 4.50450461e-003 2.25225231e-003
      4.50450461e-003 0. 0. 0. 2.25225231e-003 2.25225231e-003
      4.50450461e-003 0. 0. 0. 2.25225231e-003 0. 2.25225231e-003
      4.50450461e-003 0. 0. 0. 0. 2.25225231e-003 4.50450461e-003 0. 0.
      6.75675692e-003 2.25225231e-003 2.25225231e-003 4.50450461e-003
      2.25225231e-003 0. 2.25225231e-003 0. 0. 0. 0. 2.25225231e-003 0.
      0. 2.25225231e-003 0. 0. 2.25225231e-003 2.25225231e-003
      4.50450461e-003 2.25225231e-003 0. 2.25225231e-003 0.
      4.50450461e-003 4.50450461e-003 0. 0. 0. 0. 0. 2.25225231e-003
      2.25225231e-003 2.25225231e-003 0. 0. 0. 0. 2.25225231e-003
      4.50450461e-003 2.25225231e-003 0. 0. 0. 9.00900923e-003 0. 0.
      2.25225231e-003 0. 0. 0. 2.25225231e-003 0. 2.25225231e-003 0. 0.
      2.25225231e-003 0. 0. 0. 0. 0. 0. 0. 0. 4.50450461e-003
      2.25225231e-003 0. 2.25225231e-003 2.25225231e-003 0. 0. 0. 0.
      2.25225231e-003 0. 0. 2.25225231e-003 0. 0. 0. 0. 0. 0.
      4.50450461e-003 0. 0. 0. 2.25225231e-003 0. 0. 2.25225231e-003 0.
      4.50450461e-003 0. 0. 4.50450461e-003 0. 0. 4.50450461e-003 0. 0.
      0. 0. 0. 0. 0. 0. 0. 0. 0. 0. 0. 0. 0. 2.25225231e-003
      2.25225231e-003 0. 0. 0. 4.50450461e-003 4.50450461e-003
      4.50450461e-003 0. 0. 0. 2.25225231e-003 0. 0. 0. 0.
      2.25225231e-003 2.25225231e-003 0. 0. 0. 0. 0. 0. 0. 0.
      2.25225231e-003 0. 0. 0. 2.25225231e-003 0. 2.25225231e-003 0. 0.
      0. 0. 0. 2.25225231e-003 4.50450461e-003 0. 0. 0. 4.50450461e-003
      0. 2.25225231e-003 0. 2.25225231e-003 0. 1.12612620e-002 0.
      6.75675692e-003 0. 4.50450461e-003 0. 2.25225231e-003 0.
      2.25225231e-003 0. 0. 0. 0. 2.25225231e-003 0. 0. 0.
      2.25225231e-003 0. 0. 2.25225231e-003 1.57657657e-002 0. 0. 0. 0.
      0. 0. 0. 2.25225231e-003 4.50450461e-003 0. 0. 0. 0. 0.
      2.25225231e-003 0. 0. 0. 0. 0. 0. 2.25225231e-003 0.
      2.25225231e-003 2.25225231e-003 0. 0. 0. 0. 0. 0. 0.
      4.50450461e-003 6.75675692e-003 2.25225231e-003 0. 0. 0. 0. 0.
      2.25225231e-003 0. 4.50450461e-003 0. 0. 0. 0. 0. 2.25225231e-003
      0. 2.25225231e-003 4.50450461e-003 0. 2.25225231e-003 0. 0. 0. 0.
      0. 6.75675692e-003 0. 0. 0. 6.75675692e-003 2.25225231e-003 0.
      4.50450461e-003 0. 2.25225231e-003 0. 0. 0. 0. 0. 0. 0.
      2.25225231e-003 0. 0. 0. 2.25225231e-003 2.25225231e-003 0. 0.
      6.75675692e-003 0. 0. 0. 0. 4.50450461e-003 2.25225231e-003
      2.25225231e-003 0. 0. 2.25225231e-003 0. 0. 0. 0. 0. 0. 0. 0. 0.
      0. 2.25225231e-003 0. 0. 2.25225231e-003 0. 0. 0. 0.
      2.25225231e-003 4.50450461e-003 0. 0. 0. 2.25225231e-003
      2.25225231e-003 0. 2.25225231e-003 0. 4.50450461e-003 0. 0. 0.
      2.25225231e-003 2.25225231e-003 0. 0. 0. 0. 0. 2.25225231e-003 0.
      4.50450461e-003 2.25225231e-003 2.25225231e-003 2.25225231e-003 0.
      2.25225231e-003 0. 0. 0. 2.25225231e-003 0. 2.25225231e-003 0. 0.
      4.50450461e-003 0. 0. 0. 0. 0. 0. 0. 0. 1.12612620e-002 0. 0. 0.
      0. 0. 0. 2.25225231e-003 0. 4.50450461e-003 0. 0. 0. 0.
      2.25225231e-003 0. 2.25225231e-003 2.25225231e-003 0.
      2.25225231e-003 0. 2.25225231e-003 0. 2.25225231e-003 0. 0.
      2.25225231e-003 0. 0. 0. 0. 2.25225231e-003 0. 0. 0. 0. 0. 0. 0.
      0. 0. 2.25225231e-003 0. 0. 0. 0. 2.25225231e-003 0.
      2.25225231e-003 2.25225231e-003 2.25225231e-003 0. 0. 0. 0. 0. 0.
      9.00900923e-003 0. 0. 0. 0. 0. 0. 0. 0. 2.25225231e-003 0. 0. 0.
      4.50450461e-003 0. 4.50450461e-003 0. 2.25225231e-003 0.
      4.50450461e-003 0. 0. 0. 0. 0. 0. 0. 0. 0. 0. 0. 2.25225231e-003
      2.25225231e-003 0. 4.50450461e-003 4.50450461e-003 2.25225231e-003
      0. 0. 0. 0. 0. 0. 0. 2.25225231e-003 0. 0. 0. 0. 0.
      2.25225231e-003 2.25225231e-003 0. 0. 2.25225231e-003 0. 0. 0. 0.
      2.25225231e-003 0. 0. 2.25225231e-003 0. 0. 0. 0. 0. 0.
      2.25225231e-003 0. 0. 0. 0. 2.25225231e-003 0. 0. 0. 0. 0. 0. 0.
      0. 0. 0. 0. 0. 0. 0. 0. 2.25225231e-003 0. 0. 0. 0. 0.
      4.50450461e-003 0. 0. 0. 0. 6.75675692e-003 0. 0. 0. 0. 0. 0.
      2.25225231e-003 0. 0. 2.25225231e-003 0. 0. 0. 0. 0. 0. 0. 0. 0.
      0. 0. 0. 4.50450461e-003 0. 0. 0. 0. 0. 0. 0. 4.50450461e-003 0.
      0. 0. 0. 0. 4.50450461e-003 0. 2.25225231e-003 0. 0. 0.
      2.25225231e-003 0. 0. 0. 2.25225231e-003 0. 0. 0. 0. 0. 0. 0. 0.
      0. 0. 0. 0. 0. 0. 0. 0. 2.25225231e-003 2.25225231e-003 0. 0.
      4.50450461e-003 0. 0. 0. 2.25225231e-003 0. 2.25225231e-003 0. 0.
      4.50450461e-003 0. 0. 0. 0. 0. 0. 0. 0. 0. 0. 0. 0. 0. 0. 0. 0. 0.
      2.25225231e-003 2.25225231e-003 0. 0. 0. 0. 0. 2.25225231e-003
      2.25225231e-003 0. 2.25225231e-003 0. 0. 0. 0. 4.50450461e-003
      2.25225231e-003 0. 0. 0. 0. 0. 0. 0. 0. 2.25225231e-003
      2.25225231e-003 0. 0. 0. 0. 2.25225231e-003 2.25225231e-003 0. 0.
      0. 0. 0. 0. 2.25225231e-003 0. 0. 0. 0. 0. 2.25225231e-003 0. 0.
      0. 2.25225231e-003 0. 0. 0. 0. 2.25225231e-003 0.</_>
    <_>
      0. 0. 0. 0. 0. 0. 0. 0. 0. 0. 0. 0. 0. 0. 0. 4.16666679e-002 0. 0.
      0. 0. 0. 0. 0. 0. 0. 0. 0. 0. 0. 0. 0. 0. 0. 0. 0. 0. 0. 0. 0. 0.
      0. 0. 0. 2.08333340e-002 0. 0. 0. 0. 0. 0. 0. 0. 0. 0. 0. 0. 0. 0.
      0. 0. 0. 0. 0. 0. 0. 0. 0. 0. 0. 0. 0. 2.08333340e-002 0.
      2.08333340e-002 0. 2.08333340e-002 0. 0. 2.08333340e-002 0. 0. 0.
      0. 0. 0. 2.08333340e-002 0. 0. 0. 0. 0. 0. 0. 0. 0. 0. 0. 0. 0. 0.
      0. 0. 0. 0. 0. 0. 0. 0. 0. 0. 0. 0. 0. 0. 0. 0. 0. 0. 0. 0. 0. 0.
      0. 0. 0. 0. 0. 2.08333340e-002 0. 0. 0. 0. 0. 0. 0. 0. 0. 0. 0. 0.
      0. 0. 0. 0. 0. 0. 0. 0. 0. 2.08333340e-002 0. 0. 0. 0. 0. 0. 0. 0.
      0. 0. 0. 0. 0. 0. 0. 0. 0. 0. 0. 0. 0. 0. 2.08333340e-002 0. 0. 0.
      0. 0. 0. 0. 0. 0. 0. 0. 0. 0. 0. 0. 0. 0. 0. 0. 0. 0. 0. 0. 0. 0.
      0. 0. 0. 0. 0. 0. 0. 0. 0. 0. 0. 0. 0. 0. 2.08333340e-002 0. 0. 0.
      0. 0. 0. 0. 0. 0. 0. 0. 0. 0. 0. 0. 0. 0. 0. 0. 0. 0. 0. 0. 0. 0.
      0. 0. 0. 0. 0. 0. 0. 4.16666679e-002 0. 0. 0. 0. 0. 0. 0. 0. 0. 0.
      0. 0. 0. 0. 0. 0. 0. 2.08333340e-002 0. 0. 0. 0. 0. 0. 0. 0. 0. 0.
      0. 0. 0. 0. 0. 0. 0. 0. 0. 0. 0. 2.08333340e-002 0. 0. 0. 0. 0. 0.
      0. 0. 0. 0. 0. 0. 0. 0. 0. 0. 2.08333340e-002 0. 0. 0. 0. 0. 0. 0.
      0. 0. 0. 0. 0. 0. 0. 0. 4.16666679e-002 0. 2.08333340e-002 0. 0.
      0. 0. 0. 0. 0. 0. 0. 4.16666679e-002 0. 0. 0. 0. 0. 0. 0. 0. 0. 0.
      0. 0. 0. 0. 0. 0. 0. 2.08333340e-002 0. 0. 0. 0. 0. 0. 0. 0. 0. 0.
      0. 0. 0. 0. 0. 0. 0. 0. 0. 0. 0. 0. 0. 0. 0. 0. 0. 0. 0. 0. 0. 0.
      0. 2.08333340e-002 0. 0. 0. 0. 0. 0. 0. 0. 0. 0. 0. 0.
      2.08333340e-002 0. 0. 0. 0. 0. 0. 0. 0. 0. 0. 0. 0. 0. 0. 0. 0. 0.
      0. 0. 0. 0. 0. 2.08333340e-002 0. 0. 0. 2.08333340e-002 0. 0. 0.
      0. 0. 0. 0. 0. 0. 0. 0. 0. 0. 0. 0. 0. 0. 0. 0. 0. 0. 0. 0. 0. 0.
      0. 0. 0. 0. 0. 0. 0. 0. 0. 0. 0. 0. 0. 0. 0. 0. 0. 0. 0. 0. 0. 0.
      0. 0. 0. 0. 0. 0. 0. 0. 0. 0. 0. 0. 0. 0. 0. 0. 0. 0. 0. 0.
      6.25000000e-002 0. 0. 0. 0. 0. 0. 0. 0. 0. 0. 0. 0. 0. 0. 0. 0. 0.
      0. 0. 2.08333340e-002 0. 0. 0. 0. 0. 0. 0. 0. 0. 0. 0. 0. 0. 0. 0.
      0. 0. 0. 0. 0. 0. 0. 0. 0. 0. 0. 0. 0. 0. 0. 0. 0. 0. 0. 0. 0. 0.
      0. 0. 0. 4.16666679e-002 0. 0. 0. 0. 0. 0. 2.08333340e-002 0. 0.
      0. 0. 0. 0. 0. 0. 0. 2.08333340e-002 0. 0. 0. 0. 0. 0. 0. 0. 0. 0.
      0. 0. 0. 0. 0. 0. 0. 0. 0. 0. 0. 0. 0. 0. 0. 0. 0. 0. 0. 0. 0.
      2.08333340e-002 0. 0. 0. 0. 0. 0. 0. 0. 0. 0. 0. 0. 0. 0. 0. 0.
      2.08333340e-002 0. 0. 0. 0. 0. 0. 0. 0. 0. 0. 0. 0. 0. 0. 0.
      2.08333340e-002 0. 0. 0. 0. 0. 0. 0. 0. 0. 0. 0. 0. 0. 0. 0. 0. 0.
      0. 0. 0. 0. 0. 0. 0. 0. 0. 0. 0. 0. 0. 0. 0. 0. 0. 0. 0. 0. 0. 0.
      0. 0. 0. 0. 0. 0. 0. 0. 0. 0. 0. 0. 0. 0. 0. 0. 2.08333340e-002 0.
      0. 0. 0. 0. 0. 0. 0. 0. 0. 0. 0. 0. 0. 0. 0. 0. 0. 0. 0. 0. 0. 0.
      0. 0. 0. 0. 0. 2.08333340e-002 0. 0. 0. 0. 0. 2.08333340e-002 0.
      0. 0. 0. 0. 0. 0. 0. 0. 0. 0. 0. 0. 0. 0. 0. 2.08333340e-002 0. 0.
      0. 0. 0. 0. 0. 0. 0. 0. 0. 0. 0. 0. 0. 0. 0. 0. 0. 0. 0. 0. 0. 0.
      0. 0. 0. 0. 0. 0. 0. 0. 0. 0. 0. 0. 0. 0. 0. 0. 0. 0. 0. 0. 0. 0.
      0. 0. 0. 0. 0. 0. 0. 0. 0. 0. 0. 0. 0. 0. 0. 0. 0. 4.16666679e-002
      0. 0. 0. 0. 0. 0. 0. 0. 0. 0. 0. 0. 0. 0. 0. 0. 0. 0.
      2.08333340e-002 0. 0. 0. 0. 0. 0. 0. 0. 0. 0. 0. 0. 0. 0. 0. 0. 0.
      0. 0. 0. 0. 0. 0. 0. 0. 0. 0. 0. 0. 0. 0. 0. 0. 0. 0.
      2.08333340e-002 0. 0. 0. 0. 0. 0. 0. 0. 0. 0. 0. 2.08333340e-002
      0. 0. 0. 0. 0. 0. 0. 0. 0. 0. 0. 0. 0. 0. 0. 0. 0. 0. 0. 0. 0. 0.
      0. 0. 0. 0. 0. 0. 0. 0. 0. 0. 0. 0. 0. 0. 0. 0. 0. 0. 0. 0. 0. 0.
      0. 0. 0. 0. 0. 0. 2.08333340e-002 0. 0. 0. 0. 0. 0. 0. 0. 0. 0. 0.
      0. 0. 0. 0. 0. 0. 0. 0. 0. 0. 0. 0. 0. 0. 0. 0. 0. 0. 0. 0. 0. 0.
      0. 0. 0. 0. 0. 0. 0. 0. 0. 0. 0. 0. 0. 0. 0. 0. 0. 0. 0. 0. 0. 0.
      0. 0. 0. 0. 0. 0. 0. 0. 0. 0. 0. 0. 0. 0. 0. 0. 0. 0. 0. 0. 0.</_>
    <_>
      0. 0. 0. 0. 0. 0. 0. 0. 0. 0. 0. 7.81250000e-003 0. 0. 0. 0. 0. 0.
      1.56250000e-002 0. 0. 0. 0. 3.90625000e-002 0. 0. 0. 0. 0. 0.
      7.81250000e-003 0. 0. 0. 0. 0. 0. 0. 0. 0. 0. 0. 0. 0. 0. 0. 0. 0.
      0. 0. 0. 0. 0. 0. 0. 0. 0. 7.81250000e-003 0. 0. 0. 0. 0. 0. 0. 0.
      0. 0. 0. 0. 0. 0. 7.81250000e-003 0. 0. 0. 7.81250000e-003 0.
      7.81250000e-003 0. 0. 0. 0. 0. 0. 0. 0. 0. 0. 0. 0.
      7.81250000e-003 0. 7.81250000e-003 0. 0. 7.81250000e-003 0.
      7.81250000e-003 0. 0. 0. 0. 7.81250000e-003 7.81250000e-003 0. 0.
      0. 0. 0. 0. 0. 0. 0. 0. 0. 0. 7.81250000e-003 0. 0. 0. 0.
      7.81250000e-003 0. 0. 0. 0. 0. 0. 0. 0. 0. 0. 0. 7.81250000e-003
      0. 7.81250000e-003 0. 0. 0. 0. 0. 0. 0. 0. 7.81250000e-003
      7.81250000e-003 0. 0. 0. 0. 0. 0. 7.81250000e-003 0. 0. 0. 0. 0.
      0. 7.81250000e-003 0. 0. 0. 0. 7.81250000e-003 0. 0. 0.
      7.81250000e-003 0. 0. 0. 0. 0. 0. 0. 7.81250000e-003 0. 0. 0. 0.
      0. 0. 0. 0. 0. 0. 0. 0. 0. 7.81250000e-003 0. 0. 0. 0.
      7.81250000e-003 0. 0. 0. 0. 0. 0. 7.81250000e-003 0. 0. 0. 0. 0.
      0. 0. 1.56250000e-002 0. 0. 0. 0. 0. 0. 0. 0. 0. 0. 0. 0. 0. 0.
      7.81250000e-003 0. 0. 0. 0. 0. 0. 0. 0. 0. 0. 7.81250000e-003 0.
      0. 0. 0. 0. 0. 0. 0. 0. 0. 0. 0. 7.81250000e-003 0.
      7.81250000e-003 0. 0. 7.81250000e-003 0. 0. 0. 0. 0. 0. 0. 0. 0.
      0. 0. 0. 7.81250000e-003 0. 0. 7.81250000e-003 0. 0. 0. 0. 0. 0.
      0. 0. 7.81250000e-003 0. 0. 7.81250000e-003 0. 7.81250000e-003 0.
      0. 7.81250000e-003 0. 0. 0. 7.81250000e-003 0. 0. 0.
      7.81250000e-003 0. 0. 0. 0. 7.81250000e-003 0. 0. 0. 0.
      7.81250000e-003 0. 0. 0. 0. 0. 0. 0. 0. 1.56250000e-002
      7.81250000e-003 0. 0. 0. 0. 0. 0. 0. 0. 0. 0. 0. 0.
      7.81250000e-003 0. 0. 0. 0. 0. 7.81250000e-003 0. 0. 0. 0. 0.
      1.56250000e-002 0. 0. 0. 0. 0. 0. 0. 0. 0. 0. 0. 0. 0. 0. 0. 0. 0.
      0. 0. 0. 0. 0. 0. 0. 0. 1.56250000e-002 0. 0. 0. 7.81250000e-003
      0. 0. 0. 0. 0. 7.81250000e-003 0. 0. 0. 0. 0. 0. 7.81250000e-003
      1.56250000e-002 7.81250000e-003 7.81250000e-003 7.81250000e-003 0.
      0. 0. 0. 0. 0. 0. 0. 0. 0. 0. 0. 0. 0. 0. 0. 0. 0. 0. 0. 0. 0. 0.
      0. 0. 7.81250000e-003 0. 7.81250000e-003 0. 0. 0. 7.81250000e-003
      0. 0. 7.81250000e-003 0. 0. 0. 0. 0. 0. 7.81250000e-003 0. 0. 0.
      0. 0. 0. 0. 0. 0. 0. 0. 0. 7.81250000e-003 0. 0. 0.
      7.81250000e-003 0. 0. 0. 0. 0. 0. 0. 0. 0. 0. 0. 0. 0. 0.
      7.81250000e-003 0. 0. 7.81250000e-003 0. 0. 0. 0. 0. 0.
      7.81250000e-003 0. 0. 0. 0. 7.81250000e-003 0. 0. 0. 0. 0. 0. 0.
      0. 0. 7.81250000e-003 0. 0. 0. 0. 0. 0. 0. 0. 0. 7.81250000e-003
      0. 0. 0. 0. 0. 0. 0. 7.81250000e-003 7.81250000e-003 0. 0. 0.
      1.56250000e-002 0. 0. 0. 0. 7.81250000e-003 0. 0. 0. 0. 0. 0. 0.
      0. 7.81250000e-003 0. 0. 0. 0. 0. 0. 7.81250000e-003 0. 0. 0. 0.
      0. 0. 0. 0. 0. 0. 0. 0. 0. 0. 0. 0. 0. 0. 0. 0. 7.81250000e-003 0.
      0. 0. 0. 0. 0. 0. 0. 0. 0. 0. 0. 0. 7.81250000e-003 0. 0. 0. 0. 0.
      0. 0. 0. 0. 0. 0. 0. 0. 0. 0. 0. 0. 0. 0. 0. 0. 0. 0. 0. 0. 0.
      7.81250000e-003 0. 0. 0. 0. 0. 0. 7.81250000e-003 0. 0. 0. 0. 0.
      0. 0. 0. 0. 0. 0. 0. 0. 0. 7.81250000e-003 1.56250000e-002 0. 0.
      0. 0. 0. 0. 0. 0. 0. 7.81250000e-003 0. 0. 0. 0. 0. 0. 0. 0. 0. 0.
      0. 0. 0. 0. 0. 0. 0. 0. 0. 0. 0. 0. 0. 0. 0. 0. 0. 0.
      7.81250000e-003 0. 0. 0. 0. 0. 0. 0. 0. 0. 0. 0. 0. 0. 0. 0.
      7.81250000e-003 0. 0. 0. 7.81250000e-003 0. 0. 0. 0. 0.
      7.81250000e-003 7.81250000e-003 0. 0. 0. 7.81250000e-003 0. 0. 0.
      0. 0. 0. 0. 0. 0. 0. 0. 0. 7.81250000e-003 0. 0. 7.81250000e-003
      0. 0. 0. 0. 0. 0. 0. 0. 0. 0. 0. 7.81250000e-003 0. 0. 0.
      7.81250000e-003 0. 0. 0. 0. 0. 0. 0. 0. 0. 0. 0. 0. 0.
      7.81250000e-003 0. 0. 0. 0. 0. 0. 0. 0. 0. 0. 0. 0. 0. 0. 0. 0. 0.
      0. 0. 0. 0. 0. 0. 0. 0. 0. 0. 1.56250000e-002 0. 0. 0. 0. 0. 0. 0.
      0. 0. 0. 0. 0. 0. 0. 0. 0. 0. 0. 0. 7.81250000e-003 0. 0. 0. 0.
      7.81250000e-003 0. 0. 0. 7.81250000e-003 0. 0. 0. 0. 0. 0. 0. 0.
      0. 0. 0. 7.81250000e-003 0. 0. 0. 0. 0. 0. 0. 0. 0. 0. 0. 0. 0.
      7.81250000e-003 0. 0. 0. 0. 0. 0. 0. 0. 0. 0. 0. 0. 0. 0. 0. 0. 0.
      0. 0. 0. 0. 0. 0. 7.81250000e-003 0. 0. 0. 0. 7.81250000e-003 0.
      0. 0. 0. 0. 0. 0. 0. 0. 0. 0. 0. 0. 0. 1.56250000e-002 0. 0. 0. 0.
      1.56250000e-002 0. 0. 0. 0. 0. 0. 0. 0. 0. 0. 0. 0. 0. 0. 0.
      7.81250000e-003 0. 0. 0. 0. 0. 0. 0. 0. 0. 0. 0. 0. 0. 0. 0.
      7.81250000e-003 0. 0. 0. 0. 0. 0. 0. 0. 0. 0. 0. 0. 0. 0. 0. 0. 0.
      0. 0. 0. 0. 0. 0. 0. 0. 0. 0. 0. 0. 0. 0. 0. 0. 0. 0. 0.
      7.81250000e-003 0. 0. 0. 0. 0. 0. 0. 0. 0. 0. 0. 0. 0. 0.
      7.81250000e-003 0. 0. 0. 0. 0. 0. 0. 0. 0. 0. 0. 0. 0. 0. 0. 0. 0.
      0. 0. 0. 0. 0. 0. 0. 0. 1.56250000e-002 0. 0. 0. 0. 0. 0. 0. 0. 0.
      0. 0. 0. 0. 0. 7.81250000e-003 0. 0. 0. 0. 0. 0. 0. 0.
      7.81250000e-003 7.81250000e-003</_>
    <_>
      0. 0. 0. 0. 0. 0. 0. 0. 0. 0. 0. 0. 0. 0. 0. 0. 0. 0. 0. 0. 0. 0.
      0. 0. 0. 0. 1.28205130e-002 0. 0. 0. 0. 0. 0. 0. 0. 0.
      3.84615399e-002 1.28205130e-002 0. 0. 0. 0. 0. 0. 0. 0. 0. 0. 0.
      0. 0. 0. 0. 0. 1.28205130e-002 0. 0. 0. 0. 0. 0. 1.28205130e-002
      0. 0. 0. 0. 0. 0. 0. 1.28205130e-002 0. 0. 0. 0. 0. 0. 0. 0.
      1.28205130e-002 0. 1.28205130e-002 1.28205130e-002 0. 0.
      1.28205130e-002 0. 0. 0. 0. 0. 0. 0. 0. 0. 0. 1.28205130e-002 0.
      0. 0. 0. 0. 0. 0. 0. 0. 0. 0. 0. 1.28205130e-002 0. 0. 0. 0. 0.
      1.28205130e-002 0. 0. 0. 0. 0. 0. 0. 0. 0. 0. 0. 0. 0. 0. 0. 0. 0.
      0. 0. 0. 3.84615399e-002 0. 0. 0. 0. 0. 0. 0. 0. 0.
      1.28205130e-002 0. 0. 0. 0. 0. 1.28205130e-002 0. 0. 0. 0. 0. 0.
      0. 0. 0. 0. 0. 0. 0. 0. 0. 0. 0. 1.28205130e-002 0. 0. 0. 0. 0. 0.
      0. 0. 0. 0. 0. 1.28205130e-002 0. 0. 0. 0. 0. 0. 0. 0. 0. 0. 0. 0.
      0. 0. 0. 0. 0. 0. 0. 0. 0. 0. 0. 0. 0. 0. 0. 0. 0. 0. 0. 0. 0. 0.
      0. 0. 0. 1.28205130e-002 0. 0. 0. 0. 0. 0. 0. 0. 0. 0. 0.
      1.28205130e-002 0. 0. 0. 0. 0. 0. 0. 0. 0. 0. 0. 0. 0.
      2.56410260e-002 0. 0. 0. 0. 0. 0. 0. 0. 0. 0. 0. 0. 0. 0. 0. 0. 0.
      0. 0. 0. 0. 0. 0. 0. 0. 0. 0. 0. 0. 0. 0. 1.28205130e-002 0. 0. 0.
      0. 0. 0. 0. 0. 0. 0. 0. 0. 0. 0. 0. 0. 0. 0. 0. 0. 0. 0. 0. 0.
      1.28205130e-002 2.56410260e-002 0. 0. 0. 0. 0. 0. 1.28205130e-002
      0. 0. 0. 0. 0. 0. 0. 0. 0. 1.28205130e-002 0. 0. 0. 0. 0.
      1.28205130e-002 0. 0. 0. 1.28205130e-002 0. 0. 0. 0. 0. 0. 0. 0.
      0. 0. 0. 0. 0. 0. 0. 0. 0. 0. 0. 0. 0. 0. 0. 0. 1.28205130e-002 0.
      0. 0. 0. 0. 0. 0. 0. 0. 0. 0. 0. 0. 0. 0. 0. 0. 0. 0. 0. 0. 0. 0.
      0. 0. 0. 0. 0. 0. 0. 0. 0. 0. 0. 0. 0. 0. 0. 0. 0. 0. 0. 0. 0. 0.
      0. 0. 0. 0. 0. 0. 0. 0. 0. 0. 0. 1.28205130e-002 0. 0. 0.
      1.28205130e-002 0. 0. 0. 0. 0. 0. 0. 0. 0. 0. 0. 0. 0. 0. 0. 0. 0.
      0. 0. 0. 0. 0. 1.28205130e-002 0. 0. 1.28205130e-002
      1.28205130e-002 0. 0. 0. 0. 0. 0. 0. 0. 0. 0. 0. 0. 0. 0.
      1.28205130e-002 0. 0. 0. 0. 0. 0. 0. 0. 0. 2.56410260e-002 0. 0.
      0. 1.28205130e-002 0. 0. 0. 0. 2.56410260e-002 0. 0. 0. 0. 0. 0.
      0. 0. 0. 0. 0. 0. 0. 0. 0. 0. 0. 0. 0. 0. 0. 0. 0. 0.
      1.28205130e-002 0. 0. 0. 0. 0. 0. 0. 2.56410260e-002 0. 0. 0. 0.
      0. 0. 0. 0. 1.28205130e-002 0. 0. 0. 0. 0. 1.28205130e-002 0. 0.
      0. 0. 0. 0. 0. 0. 0. 0. 0. 0. 0. 0. 0. 1.28205130e-002 0. 0. 0. 0.
      0. 0. 0. 0. 0. 0. 0. 0. 0. 0. 0. 0. 0. 0. 0. 0. 0. 0. 0. 0.
      1.28205130e-002 0. 0. 0. 0. 0. 0. 0. 1.28205130e-002 0. 0. 0. 0.
      0. 0. 0. 0. 0. 0. 1.28205130e-002 0. 0. 0. 0. 0. 0. 0. 0. 0. 0. 0.
      0. 0. 0. 0. 0. 0. 0. 0. 0. 0. 0. 0. 0. 0. 0. 0. 0. 0. 0.
      1.28205130e-002 0. 0. 0. 0. 0. 0. 0. 0. 0. 0. 0. 0. 0. 0. 0. 0. 0.
      3.84615399e-002 0. 0. 0. 0. 0. 0. 0. 0. 0. 0. 0. 0. 0. 0.
      1.28205130e-002 1.28205130e-002 0. 0. 0. 0. 0. 0. 0. 0. 0. 0. 0.
      0. 0. 0. 0. 0. 0. 0. 0. 0. 0. 0. 0. 0. 0. 0. 0. 0. 0. 0. 0. 0. 0.
      0. 0. 0. 0. 0. 0. 0. 1.28205130e-002 0. 0. 0. 0. 0. 0. 0. 0. 0. 0.
      0. 0. 0. 0. 0. 0. 0. 0. 0. 0. 0. 0. 1.28205130e-002 0. 0. 0. 0. 0.
      0. 0. 0. 0. 0. 0. 0. 0. 0. 0. 0. 0. 0. 0. 0. 0. 0. 0. 0. 0. 0.
      3.84615399e-002 1.28205130e-002 0. 0. 0. 0. 0. 0. 0. 0. 0. 0. 0.
      0. 0. 0. 0. 1.28205130e-002 0. 0. 0. 0. 0. 0. 1.28205130e-002 0.
      0. 0. 0. 0. 0. 0. 0. 0. 0. 0. 0. 0. 0. 0. 0. 0. 0. 0. 0. 0. 0. 0.
      1.28205130e-002 0. 0. 0. 0. 0. 0. 0. 0. 0. 0. 0. 0. 0. 0. 0. 0. 0.
      0. 0. 0. 0. 0. 0. 0. 0. 0. 0. 0. 0. 0. 1.28205130e-002 0. 0. 0. 0.
      0. 0. 0. 0. 0. 0. 0. 0. 0. 0. 0. 0. 0. 0. 0. 0. 0. 0. 0. 0. 0. 0.
      0. 0. 0. 0. 0. 0. 0. 0. 0. 0. 0. 0. 0. 0. 0. 0. 0. 0. 0. 0. 0. 0.
      0. 0. 0. 1.28205130e-002 1.28205130e-002 0. 0. 0. 0. 0. 0. 0. 0.
      0. 0. 0. 0. 0. 0. 0. 0. 0. 0. 0. 0. 0. 0. 0. 0. 0. 0. 0. 0. 0. 0.
      0. 0. 0. 0. 0. 0. 0. 0. 0. 0. 1.28205130e-002 0. 0. 0. 0. 0. 0. 0.
      0. 0. 0. 0. 2.56410260e-002 0. 0. 0. 0. 0. 1.28205130e-002 0. 0.
      0. 0. 0. 0. 0. 0. 0. 0. 0. 0. 0. 0. 0. 0. 0. 0. 1.28205130e-002 0.
      0. 0. 0. 0. 0. 0. 0. 0. 0. 0. 0. 0. 0. 0. 0. 0. 0. 0. 0. 0. 0. 0.
      0. 0. 0. 0. 0. 0. 0. 0. 0. 0. 0. 0. 0. 0. 0. 0. 0. 0. 0. 0. 0. 0.
      0. 0. 0.</_>
    <_>
      0. 0. 0. 4.99999989e-003 4.99999989e-003 0. 0. 0. 0.
      9.99999978e-003 0. 0. 0. 0. 0. 0. 0. 4.99999989e-003 0. 0.
      4.99999989e-003 0. 9.99999978e-003 0. 0. 0. 0. 0. 0. 0. 0. 0. 0.
      4.99999989e-003 0. 0. 0. 0. 0. 0. 0. 0. 0. 4.99999989e-003
      4.99999989e-003 0. 0. 0. 4.99999989e-003 0. 0. 0. 0. 0.
      4.99999989e-003 0. 4.99999989e-003 4.99999989e-003 0. 0. 0. 0. 0.
      0. 0. 4.99999989e-003 0. 0. 0. 0. 0. 0. 0. 4.99999989e-003 0.
      4.99999989e-003 4.99999989e-003 4.99999989e-003 0. 0.
      4.99999989e-003 0. 0. 0. 4.99999989e-003 0. 0. 4.99999989e-003 0.
      0. 0. 4.99999989e-003 0. 0. 0. 0. 0. 0. 0. 4.99999989e-003 0.
      1.99999996e-002 0. 4.99999989e-003 0. 4.99999989e-003 0. 0. 0. 0.
      0. 0. 4.99999989e-003 0. 0. 4.99999989e-003 0. 0. 0. 0. 0.
      4.99999989e-003 0. 0. 0. 0. 0. 0. 4.99999989e-003 0.
      4.99999989e-003 0. 0. 0. 0. 0. 0. 0. 0. 0. 0. 0. 4.99999989e-003
      4.99999989e-003 0. 0. 0. 0. 0. 0. 0. 0. 0. 0. 0. 0. 0. 0.
      4.99999989e-003 0. 4.99999989e-003 0. 0. 0. 0. 0. 0. 0. 0. 0. 0.
      0. 0. 4.99999989e-003 0. 4.99999989e-003 4.99999989e-003 0. 0. 0.
      0. 0. 0. 0. 0. 0. 0. 4.99999989e-003 0. 0. 0. 0. 0. 0. 0. 0. 0.
      4.99999989e-003 0. 0. 0. 4.99999989e-003 0. 0. 0. 4.99999989e-003
      9.99999978e-003 4.99999989e-003 0. 0. 9.99999978e-003 0. 0.
      4.99999989e-003 0. 0. 0. 0. 0. 4.99999989e-003 4.99999989e-003 0.
      0. 0. 0. 0. 4.99999989e-003 0. 4.99999989e-003 0. 4.99999989e-003
      0. 0. 0. 0. 0. 0. 0. 4.99999989e-003 0. 0. 9.99999978e-003 0. 0.
      0. 0. 0. 0. 0. 0. 4.99999989e-003 4.99999989e-003 4.99999989e-003
      0. 0. 0. 0. 0. 0. 9.99999978e-003 0. 0. 0. 4.99999989e-003 0. 0.
      0. 0. 0. 0. 0. 0. 0. 0. 0. 0. 0. 0. 0. 0. 4.99999989e-003 0. 0.
      9.99999978e-003 0. 0. 0. 0. 4.99999989e-003 0. 9.99999978e-003
      4.99999989e-003 4.99999989e-003 0. 0. 0. 0. 0. 0. 0. 0. 0. 0. 0.
      0. 0. 9.99999978e-003 0. 4.99999989e-003 4.99999989e-003 0. 0. 0.
      0. 0. 1.49999997e-002 1.49999997e-002 0. 4.99999989e-003 0.
      4.99999989e-003 4.99999989e-003 0. 0. 0. 0. 0. 0. 0. 0. 0. 0. 0.
      0. 0. 0. 0. 0. 0. 0. 0. 4.99999989e-003 0. 4.99999989e-003 0. 0.
      0. 0. 0. 0. 0. 0. 0. 0. 4.99999989e-003 0. 0. 0. 0. 0. 0. 0. 0. 0.
      0. 0. 0. 0. 0. 0. 0. 4.99999989e-003 0. 4.99999989e-003 0. 0. 0.
      4.99999989e-003 0. 9.99999978e-003 0. 0. 4.99999989e-003 0. 0.
      4.99999989e-003 0. 0. 0. 0. 0. 0. 0. 0. 0. 0. 9.99999978e-003 0.
      0. 0. 0. 0. 0. 0. 0. 0. 0. 0. 0. 0. 0. 0. 4.99999989e-003 0. 0. 0.
      0. 0. 0. 0. 0. 4.99999989e-003 0. 4.99999989e-003 0. 0. 0. 0.
      4.99999989e-003 0. 0. 0. 0. 0. 0. 0. 0. 0. 0. 0. 0. 0. 0. 0. 0.
      9.99999978e-003 0. 0. 0. 0. 0. 0. 0. 0. 0. 0. 0. 0. 0. 0. 0.
      9.99999978e-003 0. 0. 4.99999989e-003 0. 0. 0. 0. 0. 0. 0. 0. 0.
      4.99999989e-003 0. 9.99999978e-003 0. 0. 0. 0. 0. 0.
      4.99999989e-003 0. 4.99999989e-003 0. 0. 0. 4.99999989e-003 0. 0.
      0. 0. 0. 0. 0. 0. 0. 0. 0. 0. 4.99999989e-003 0. 0. 0. 0. 0. 0. 0.
      0. 4.99999989e-003 0. 0. 0. 0. 4.99999989e-003 0. 0. 0. 0. 0. 0.
      0. 0. 0. 0. 4.99999989e-003 0. 0. 0. 0. 0. 0. 0. 0. 0. 0.
      4.99999989e-003 0. 4.99999989e-003 4.99999989e-003 0. 0. 0. 0. 0.
      0. 0. 0. 0. 0. 0. 4.99999989e-003 4.99999989e-003 0. 0. 0. 0. 0.
      0. 0. 0. 0. 0. 0. 0. 0. 0. 0. 4.99999989e-003 0. 9.99999978e-003
      0. 0. 0. 0. 0. 0. 0. 0. 0. 0. 0. 0. 0. 0. 0. 0. 0. 0.
      4.99999989e-003 0. 0. 4.99999989e-003 4.99999989e-003 0. 0. 0. 0.
      1.49999997e-002 0. 0. 0. 1.49999997e-002 0. 0. 0. 0.
      4.99999989e-003 0. 0. 0. 4.99999989e-003 0. 0. 4.99999989e-003 0.
      0. 0. 0. 0. 0. 0. 0. 4.99999989e-003 4.99999989e-003 0. 0. 0. 0.
      0. 0. 0. 0. 0. 0. 0. 0. 0. 0. 0. 0. 4.99999989e-003 0. 0. 0. 0. 0.
      4.99999989e-003 0. 0. 0. 0. 0. 4.99999989e-003 0. 0.
      4.99999989e-003 0. 0. 0. 0. 0. 0. 0. 0. 0. 4.99999989e-003 0. 0.
      0. 0. 0. 0. 9.99999978e-003 0. 0. 0. 0. 0. 0. 9.99999978e-003 0.
      0. 0. 0. 4.99999989e-003 4.99999989e-003 0. 4.99999989e-003 0. 0.
      0. 0. 0. 0. 0. 0. 0. 0. 0. 9.99999978e-003 0. 0. 0. 0. 0. 0. 0.
      4.99999989e-003 0. 4.99999989e-003 0. 4.99999989e-003 0. 0. 0.
      4.99999989e-003 0. 0. 0. 0. 0. 0. 0. 0. 0. 0. 0. 0. 0. 0. 0. 0. 0.
      0. 0. 0. 0. 0. 0. 0. 0. 4.99999989e-003 0. 0. 0. 0. 0. 0. 0. 0. 0.
      0. 0. 0. 0. 4.99999989e-003 0. 0. 0. 0. 0. 4.99999989e-003 0. 0.
      0. 0. 4.99999989e-003 0. 9.99999978e-003 0. 0. 0. 4.99999989e-003
      0. 0. 0. 0. 0. 0. 4.99999989e-003 0. 0. 0. 0. 0. 0. 0. 0.
      4.99999989e-003 0. 0. 0. 0. 0. 0. 0. 9.99999978e-003 0. 0. 0. 0.
      0. 0. 0. 0. 4.99999989e-003 0. 4.99999989e-003 0. 4.99999989e-003
      0. 0. 4.99999989e-003 0. 0. 9.99999978e-003 0. 4.99999989e-003 0.
      0. 0. 0. 0. 0. 0. 4.99999989e-003 0. 0. 0. 0. 0. 0. 0.
      4.99999989e-003 0. 0. 0. 0. 0. 0. 0. 4.99999989e-003 0. 0. 0. 0.
      9.99999978e-003 0. 0. 0. 0. 4.99999989e-003 0. 0. 0. 0. 0.
      4.99999989e-003 0. 0. 0. 4.99999989e-003 0. 0. 0. 0. 0. 0. 0. 0.
      0. 0. 0. 0. 0. 0. 4.99999989e-003 0. 0. 0. 4.99999989e-003 0. 0.
      4.99999989e-003 9.99999978e-003 0. 0. 0. 0. 0. 0. 0. 0. 0. 0. 0.
      0. 0. 0. 0. 0. 0. 0. 0. 0. 0. 0. 4.99999989e-003 0. 0. 0. 0. 0. 0.
      0. 0. 0. 0. 0. 0. 0. 0. 0. 0. 0. 0. 4.99999989e-003 0. 0. 0. 0. 0.
      0. 0. 0. 0. 0. 0. 0. 0. 0. 0. 0. 0. 0. 4.99999989e-003 0. 0. 0. 0.
      0. 0. 4.99999989e-003 0. 0. 4.99999989e-003 0. 4.99999989e-003
      4.99999989e-003 0. 0. 0. 0. 0. 0. 0. 0. 0. 0. 0. 0.
