<?xml version="1.0"?>
<opencv_storage>
<Classifier type_id="opencv-ml-ann-mlp">
  <layer_sizes type_id="opencv-matrix">
    <rows>1</rows>
    <cols>3</cols>
    <dt>i</dt>
    <data>
      1000 20 1</data></layer_sizes>
  <activation_function>SIGMOID_SYM</activation_function>
  <f_param1>6.6666666666666663e-001</f_param1>
  <f_param2>1.7159000000000000e+000</f_param2>
  <min_val>-9.4999999999999996e-001</min_val>
  <max_val>9.4999999999999996e-001</max_val>
  <min_val1>-9.7999999999999998e-001</min_val1>
  <max_val1>9.7999999999999998e-001</max_val1>
  <training_params>
    <train_method>RPROP</train_method>
    <dw0>1.0000000000000001e-001</dw0>
    <dw_plus>1.2000000000000000e+000</dw_plus>
    <dw_minus>5.0000000000000000e-001</dw_minus>
    <dw_min>1.1920928955078125e-007</dw_min>
    <dw_max>50.</dw_max>
    <term_criteria><epsilon>1.0000000000000000e-002</epsilon>
      <iterations>1000</iterations></term_criteria></training_params>
  <input_scale>
    4.0893588717672606e+002 -1.2439528746187375e-001
    2.0956540908001935e+002 -1.3263074708292930e-001
    1.4127980312727939e+003 -8.5142375996477337e-002
    1.9078461651168973e+002 -3.3121666143213818e-001
    3.5354735978350357e+002 -1.7956288161517589e-001
    1.8178782152169609e+002 -1.2990115618219608e-001
    5.9799181651655736e+001 -1.7457174412165752e-001
    1.2722951181853273e+002 -1.8618993545396367e-001
    9.9301795819816419e+001 -2.3992095232186025e-001
    9.1321559012593099e+001 -1.1535173078363198e-001
    5.2617891080768754e+002 -1.3518436272164158e-001
    4.2153772915300561e+002 -1.6855964326146586e-001
    1.2875652772343861e+002 -1.6533472816704217e-001
    2.2522572690376822e+002 -2.0196198467390250e-001
    5.8625187823419381e+001 -1.0505604431403642e-001
    1.7530816240217806e+002 -1.9089929398176597e-001
    2.5987857339246898e+002 -1.3498651297393499e-001
    1.3478011226374750e+002 -2.2970440009195681e-001
    8.8418325621723795e+001 -3.3127998505471606e-001
    9.7568597044164306e+001 -9.3022855466402987e-002
    3.7380643939388040e+002 -1.5082254015787883e-001
    1.0401802094417229e+002 -2.1268858232358176e-001
    7.1971839443051567e+002 -1.0884617800460296e-001
    1.1423679925701148e+002 -1.1626905007185442e-001
    1.4178230607323522e+002 -1.3850738330983833e-001
    2.3522375099787357e+002 -1.9588539109438924e-001
    2.9953897251996375e+002 -1.6815726559750163e-001
    3.2393751596007297e+002 -2.4726776096724759e-001
    3.2486290767033898e+002 -1.3506865892540693e-001
    2.4537721278000137e+002 -2.2570734363332473e-001
    1.1774241168428883e+002 -2.1467923788501270e-001
    2.5750820237112555e+002 -2.5508305260844955e-001
    4.0471368500666024e+001 -1.4935544598862502e-001
    2.4687254472984753e+002 -3.0369416619209472e-001
    1.5427946578739170e+002 -1.0183091191475159e-001
    1.6260379341378072e+002 -2.1037880693961403e-001
    1.1617869207310879e+002 -3.8082848429005950e-001
    2.1086538255470253e+002 -2.0568977781503589e-001
    1.4355059432727197e+002 -1.8882193491510113e-001
    1.3099638683614867e+002 -1.2461774172320331e-001
    2.4237846569646584e+002 -1.5714563584562119e-001
    9.1506032992598790e+001 -1.2523488082768622e-001
    4.8397886667030711e+001 -2.4261467565110892e-001
    2.5228706078001215e+002 -1.9754835083960179e-001
    4.0399705699720215e+002 -1.1532373813602236e-001
    2.0542526185938306e+002 -1.3635806523367536e-001
    1.1465185865497791e+002 -4.2602717019535097e-001
    6.9956271432055686e+001 -7.0891553537277385e-002
    2.4246971687157222e+002 -1.1017099985821319e-001
    6.4010991864699781e+002 -1.8674843526446741e-001
    6.3236527287192848e+002 -1.2057499003504737e-001
    1.8276860210615661e+002 -2.5821143828609072e-001
    3.2994988280117923e+002 -1.8680659091983678e-001
    1.2137139397388432e+002 -1.8591337252742995e-001
    2.5460178533404439e+002 -1.5521831685833121e-001
    1.3220679143840391e+002 -9.9392658193455191e-002
    2.5651378505178950e+001 -2.0201736631840680e-001
    2.9570277955310667e+002 -1.1292889173889299e-001
    2.1892188512713338e+002 -2.0846927433538592e-001
    9.8501844552744188e+001 -1.3940207369854549e-001
    1.7835947083791947e+002 -4.1268529797954101e-001
    5.8537675020318105e+001 -1.6323089255741316e-001
    2.2796410005062404e+002 -3.6728171967445605e-001
    2.2165662233230526e+002 -1.6870906492958326e-001
    2.9256492056230741e+002 -3.0463059306632684e-001
    5.6709034910845548e+002 -1.5117436392932787e-001
    2.9927583953638845e+002 -2.3493281077700881e-001
    8.9949254468699394e+001 -1.2353077834651904e-001
    1.6219377709856741e+002 -1.4809827393265743e-001
    8.3499749265466463e+001 -1.9118894206204368e-001
    1.6398794732361688e+002 -1.8227637244420344e-001
    1.3395245523570011e+002 -7.7307908622359325e-002
    1.4691864856996486e+002 -1.9209001764490430e-001
    3.8739262767492630e+002 -2.4340307585888682e-001
    3.3448609228306128e+002 -1.4102118985645182e-001
    3.1537787370081776e+002 -2.6626833512468095e-001
    1.6811405722376475e+002 -2.1060458745787256e-001
    9.2412072513881256e+001 -1.7245887862248688e-001
    3.8744150014583731e+001 -1.3994927064366100e-001
    5.2506921556128862e+002 -2.0057700447917190e-001
    6.6979624398536703e+002 -1.4199993009743681e-001
    6.5458698803340133e+002 -1.3110029766573358e-001
    1.7302787953299915e+002 -2.3850570339340676e-001
    1.3312281134123864e+002 -2.3299099158444206e-001
    1.0190448648583276e+002 -2.2314011194139571e-001
    1.1963596635706746e+002 -2.0579485189423666e-001
    1.1439038986618331e+002 -1.7273660762242177e-001
    2.5382676716437459e+002 -1.4333304080804704e-001
    1.7032553975582405e+002 -2.1450136229753489e-001
    1.1579198072618495e+002 -1.2202164546894706e-001
    4.0487194819369546e+002 -2.3441880765965756e-001
    1.5633180162781238e+002 -2.4258786209988265e-001
    1.2413212949080889e+002 -1.2238219014882418e-001
    7.9287804300911930e+001 -7.0138035237622409e-002
    1.2939989344467526e+002 -1.0862066676718478e-001
    3.4643364151908293e+002 -1.3638947825406383e-001
    1.5910449731058571e+002 -7.0662914467981286e-002
    4.2478371035032990e+002 -1.7768076009521866e-001
    1.7453367884352528e+002 -1.6354049118878683e-001
    1.7444061579097817e+002 -1.8177371901720127e-001
    5.0030630195168072e+002 -1.4638960787524991e-001
    3.4211103117384789e+002 -1.0546951041030288e-001
    5.0388808680175757e+001 -1.5396281434502654e-001
    2.0486936120061648e+002 -2.6054283346164930e-001
    1.2738766143195768e+002 -1.7682921551334510e-001
    2.5075810970417618e+002 -1.9259174161592071e-001
    3.9233490912622108e+002 -1.6317210331264628e-001
    2.6338141759887403e+001 -1.5526835681853302e-001
    1.3418162959587428e+002 -2.1974888980626947e-001
    3.5452639679282305e+002 -2.3650021222811146e-001
    1.3534268446254441e+002 -2.1864154685061371e-001
    1.7163191831796641e+002 -2.1339774753228039e-001
    7.7671395373068250e+001 -4.1389866543386206e-001
    4.2656235760702958e+002 -2.1829546395022759e-001
    1.1122488923195677e+002 -1.5125045454998784e-001
    5.0193605586150753e+001 -2.5727040349376512e-001
    2.0845461948058227e+002 -1.5744295843958941e-001
    4.3657845866839853e+002 -2.1824507447795871e-001
    2.4089415690375449e+002 -2.4559520869147589e-001
    1.0612271503085850e+002 -2.3980558322555692e-001
    1.1787238861739293e+002 -1.7844548435270713e-001
    9.4003475897393159e+001 -1.2820316609421697e-001
    6.4319401992220173e+002 -4.9875466805381651e-002
    5.4227328340283123e+002 -1.3035455668413523e-001
    8.1406287260935429e+001 -2.2063082604476525e-001
    6.3402009222618616e+001 -2.1478279306140763e-001
    2.0783193821280187e+002 -1.6894671949161033e-001
    4.6541547550633265e+002 -1.2935175342917801e-001
    2.9236121750653791e+002 -2.8792578775670075e-001
    7.2359326702128692e+002 -4.9875466805381637e-002
    1.0375793788564228e+002 -2.2416206050226131e-001
    1.9546310288132761e+002 -1.0003337392819529e-001
    5.6479939923465008e+002 -8.7631652683329647e-002
    1.8655500027357152e+002 -1.6232629133781235e-001
    1.7818166408565631e+002 -2.1715053958106917e-001
    2.6353534238279735e+002 -1.4866929472936191e-001
    5.5570511487105330e+002 -1.8230721928993640e-001
    1.4095824957417881e+002 -1.3576688150436356e-001
    9.6237007734338817e+001 -1.4908082733856851e-001
    2.6918079297596887e+002 -2.6029966094673174e-001
    1.4244098550854602e+002 -2.2986228767237357e-001
    1.1259991445007880e+002 -2.1426699230273510e-001
    1.3626012041629608e+002 -2.2094875528458757e-001
    1.3501741480897056e+002 -8.9016255928926299e-002
    1.2320509134554470e+002 -1.7604124246479630e-001
    1.3699861317454767e+002 -1.0140657226690415e-001
    1.7426677830395388e+002 -1.7293110502186937e-001
    3.8907560984112291e+002 -1.4895648399851283e-001
    2.3719174796210083e+002 -2.0473577556338340e-001
    5.4069907949177184e+002 -5.4091007074616074e-002
    3.2995393716425707e+002 -1.5314671664282573e-001
    4.8682398377260301e+002 -1.3616375131768199e-001
    2.2603681280151829e+002 -1.7077220793230427e-001
    4.1625468347736827e+001 -1.8768777057768490e-001
    9.6749465023381390e+001 -1.4146253491728955e-001
    7.7772758400162800e+001 -1.9790646381673727e-001
    9.0517546500541130e+001 -1.6405697353803922e-001
    2.0636575622556168e+002 -1.5522362988685465e-001
    3.3903118351754523e+002 -1.8511670331185334e-001
    3.0044003143093909e+002 -1.8100169382359227e-001
    3.0661997378846883e+002 -2.7040628848911746e-001
    4.3734476656060633e+002 -1.1017972020821870e-001
    3.5032274461563725e+002 -1.3061365468556066e-001
    4.3920392271780980e+002 -1.3963253106771917e-001
    1.5441554270516528e+002 -2.1213833020765835e-001
    1.5599705266002778e+002 -1.6401194316482454e-001
    9.0598380302389927e+001 -1.1974437006905539e-001
    5.5479356272296307e+001 -1.9093222837761009e-001
    1.4818623806933732e+002 -2.1905762287777883e-001
    1.3615211654722609e+002 -1.5256632455901895e-001
    1.9194700151952009e+002 -1.8177013070407680e-001
    1.2543769882790608e+002 -2.2277405494735406e-001
    2.4752820324600700e+002 -1.6623600758317764e-001
    7.5520750264774574e+002 -8.6959399454351827e-002
    3.3477370354743300e+002 -2.7500685458302970e-001
    3.3212548005717520e+002 -1.0249330878488500e-001
    1.2930437145668711e+002 -2.4895831813652536e-001
    3.3503565847012226e+002 -1.2220808466220134e-001
    2.2375081776197081e+002 -2.0892572775862348e-001
    1.8593329777292163e+003 -6.0042514204492921e-002
    1.3067241947670362e+002 -1.7953891016267895e-001
    2.7660875146048835e+002 -8.1955418211181602e-002
    3.0157159363174293e+002 -1.8140307035215839e-001
    5.2465415303370912e+002 -1.2407194306176918e-001
    1.1648552819652126e+002 -9.2729039183154519e-002
    2.7906985888656897e+002 -2.9916160615972759e-001
    4.1554720235666494e+001 -1.7652777262973438e-001
    3.0864067478370811e+002 -1.8307492328588251e-001
    1.7188536784360659e+002 -1.1486129596952631e-001
    6.6995989830057965e+002 -9.6925950288745052e-002
    1.2477244457817763e+002 -2.3728190216437281e-001
    1.8699470953239580e+002 -9.6503063564323310e-002
    1.5772172180120552e+002 -1.4820957380102853e-001
    2.3979005617039317e+002 -1.8883946352342357e-001
    9.4469124667435142e+002 -4.9875466805381644e-002
    3.1490525540722791e+002 -1.4046508666106303e-001
    3.6139903372423259e+002 -1.5597667417952885e-001
    2.9901543792080560e+002 -1.1972666820442604e-001
    2.0328216838118269e+002 -2.3331750504984908e-001
    3.1103872244045647e+002 -1.7976726124689965e-001
    3.0568657391593644e+002 -2.0466782084841598e-001
    3.7482123344289215e+002 -1.6588786454270341e-001
    1.0705261045272717e+002 -2.1982722283474351e-001
    3.5314478580361219e+002 -1.3983780191888198e-001
    4.0560194991162365e+002 -1.4454317071009132e-001
    1.7848981860015334e+002 -1.2793009976552375e-001
    3.5648827700308215e+002 -1.0159221200055499e-001
    1.1551756773784601e+002 -1.2643099220919279e-001
    1.0416034115234889e+002 -1.8425295928600777e-001
    1.0976769163538077e+002 -1.3837734434787050e-001
    1.6251275361709895e+002 -1.2041067741298656e-001
    1.7571349181214819e+002 -3.5637189156049426e-001
    2.2158204911215537e+002 -2.0122252684995384e-001
    6.4682887512374805e+001 -1.6140921344196052e-001
    3.0475660567081874e+001 -1.9276704117233448e-001
    1.9889141582245628e+002 -2.4243763239837568e-001
    5.8999622676133663e+002 -1.2929405056456605e-001
    1.0503309450785196e+002 -1.2042858361432805e-001
    2.4582327346427968e+002 -1.1835342972316185e-001
    9.6023291626489581e+001 -8.9932549454412175e-002
    2.2573876239987771e+002 -1.8343993488014460e-001
    3.4433089311107125e+002 -2.9198205388475318e-001
    2.2400474752713987e+002 -1.2492565323779514e-001
    2.7224639710201239e+002 -2.2665271619508107e-001
    3.2474573738384925e+002 -9.7115267576412881e-002
    4.8949671066283759e+002 -2.0636780053458487e-001
    3.7856372086637521e+002 -1.5212984548758549e-001
    2.6824204336524019e+002 -1.8005792407914578e-001
    1.7445719582676361e+002 -3.3793522007091942e-001
    8.4658940760720483e+001 -1.7777737637472341e-001
    8.2518746429843645e+002 -1.8715274486346883e-001
    1.1691423688748300e+002 -1.6761634928900235e-001
    5.2327457705422944e+002 -1.8613383649312387e-001
    6.9840484046259826e+002 -1.2316869195480923e-001
    4.0332822726901020e+002 -1.4253840285040728e-001
    4.2110528646177386e+002 -1.6463142689108576e-001
    4.6234897638322144e+002 -1.3791193219409378e-001
    1.3767834646726178e+002 -1.9105453181845711e-001
    1.3747438548089929e+002 -2.7205334770035389e-001
    6.0153142490625726e+001 -1.4076414854132141e-001
    1.6666918344332564e+002 -1.9224633452070380e-001
    1.7097758924680497e+002 -1.1685778359437275e-001
    9.6816665718567072e+002 -8.1945764376997771e-002
    1.0121066396116559e+002 -2.2640222271484894e-001
    2.6541477227616764e+002 -1.4890090823749841e-001
    4.1294094691176872e+002 -1.1084921971759412e-001
    1.8905935059795974e+002 -3.1800332522651792e-001
    9.4279239800752336e+001 -1.7139526159531659e-001
    1.2646041512382359e+002 -2.3003259004161788e-001
    1.4354883654707945e+002 -2.8353562483539940e-001
    9.5151131170445652e+001 -1.1787027048488584e-001
    5.0434402132998906e+002 -1.3508270957748150e-001
    1.5518446761523259e+002 -3.6971164997040262e-001
    7.4962932922259665e+002 -8.1389859369744050e-002
    1.2245714084586953e+002 -1.7693433886183954e-001
    5.5406686330633283e+002 -1.8673269163732095e-001
    5.1360918462988586e+001 -2.9269646470049404e-001
    1.2185814081870829e+002 -2.8432222371410854e-001
    3.0974408426602366e+002 -2.1101343324898400e-001
    9.8067445420491424e+001 -2.0212576101992602e-001
    1.1093391049553024e+002 -1.2896688456989172e-001
    1.4407448972975644e+002 -2.3118698120103220e-001
    1.1511290306766026e+002 -2.1318801535254372e-001
    5.8289458272594686e+002 -4.9875466805381644e-002
    5.8661941698147118e+001 -2.1847592679917838e-001
    7.7097894637172814e+001 -1.1994348374998276e-001
    7.2713209343353171e+001 -1.6629279802277319e-001
    7.1933117633328465e+001 -1.8468957669759647e-001
    4.2371854551594544e+002 -1.3042352641117291e-001
    2.7071080949380092e+002 -1.6731000605160876e-001
    3.4903071862688188e+002 -2.2209972000987518e-001
    1.4211101529904766e+002 -1.5278197907195140e-001
    6.1352296672404646e+002 -1.7412686194114230e-001
    1.5849373404842677e+002 -2.4527501887753386e-001
    4.4754852014780994e+001 -1.0444787875998239e-001
    1.0351700271450522e+003 -1.2403949917109888e-001
    2.7249167406410436e+002 -1.7968609278314404e-001
    1.1688177040630014e+003 -5.7712926599105784e-002
    4.2552597501790274e+002 -1.3928019425020136e-001
    1.6404043758078507e+002 -2.7481573832793632e-001
    8.7410766206586544e+001 -1.3700200668493334e-001
    1.0154369693471182e+002 -3.1142938489272237e-001
    4.7276647778847817e+001 -1.8118810410650577e-001
    3.7061814229539544e+002 -2.4937886549729241e-001
    1.9629299823588693e+002 -1.8804170016266988e-001
    4.8127796659159387e+001 -1.0349221663278659e-001
    1.4887863162625521e+002 -2.6901710349614988e-001
    1.7033472092878097e+002 -1.7351810719372865e-001
    1.0573337713228410e+002 -4.2629288297148221e-001
    1.1429148922720383e+002 -2.1673607518470792e-001
    9.7484096640500309e+002 -4.9875466805381644e-002
    8.8099439906916800e+001 -1.3983819750938245e-001
    2.4640169744355495e+002 -1.6291507033499678e-001
    2.2151095409800388e+002 -1.5588509568902520e-001
    2.1189750869534396e+002 -1.3512616899887236e-001
    1.0700737796829530e+002 -2.3754098811053387e-001
    4.6490250910546450e+002 -2.0000879276404346e-001
    7.1421964653275921e+001 -4.1348075227850717e-001
    4.9264363417769414e+002 -9.9441959082304202e-002
    7.3329373862871790e+001 -5.9651747675997430e-002
    1.6485442817937974e+002 -1.2896429132528581e-001
    3.7768441206617757e+002 -1.6650820969881261e-001
    2.2239833029236306e+002 -1.6538793399569349e-001
    2.0107187563579612e+002 -2.1591627166871444e-001
    6.0762194164968901e+002 -1.2182264588219414e-001
    1.2228155480995927e+003 -1.0141327888149988e-001
    4.3623704992603416e+002 -1.5545223028015914e-001
    3.0311458120291775e+002 -2.4917088288245004e-001
    9.7201093822002136e+001 -9.3737481465528655e-002
    2.5513359366666293e+002 -1.9959359479293892e-001
    3.1319979626015601e+002 -8.6916274079337427e-002
    1.5700604307312534e+002 -1.6999316045412824e-001
    3.3710436835333837e+002 -1.1590986022342224e-001
    2.7296859081741400e+002 -1.2079269579922862e-001
    1.3585012204472585e+002 -1.0114023316885727e-001
    1.7040908395986642e+002 -1.8307375431901143e-001
    8.1109828332650636e+001 -2.5111425057164188e-001
    2.1324448561367871e+002 -1.7456444723403339e-001
    1.0614402910333629e+002 -1.6075017238438388e-001
    1.9094821648402194e+003 -4.9875466805381644e-002
    5.3287311494960909e+002 -1.0829524559808146e-001
    1.2712743246086160e+002 -5.5028199578828603e-002
    2.4225095311727708e+002 -1.4014590543872399e-001
    1.1614784051040601e+003 -1.2599299879703926e-001
    3.9415042954535687e+002 -6.5780548060824368e-002
    1.9617828490692102e+002 -2.9522228894784569e-001
    1.6923644789697539e+002 -9.4157423740582336e-002
    7.7208037912078765e+001 -1.1987532793928891e-001
    1.9736355463238718e+002 -2.4344037119814438e-001
    5.2198581176117625e+002 -1.5021080554538133e-001
    3.0825142787323756e+002 -1.5316639612813535e-001
    1.1065100238279639e+002 -1.2744287066867782e-001
    1.9515711563256943e+002 -1.5969139691788831e-001
    2.7736956955544787e+002 -2.0407622494141270e-001
    3.2685736899224696e+002 -1.5830079784702480e-001
    9.5420223814396394e+001 -1.0215691522166266e-001
    5.9118339985151488e+002 -1.4647845335404025e-001
    1.2725474059926873e+002 -2.9914641805569819e-001
    1.7255357589412699e+002 -1.7386282563039079e-001
    2.0702927505884460e+002 -1.7418427679075907e-001
    9.1682182021147298e+001 -9.1073641983934722e-002
    1.5191905951933077e+002 -1.9432889716669677e-001
    2.8714008636090864e+002 -1.2936185792978280e-001
    1.4473434671850484e+002 -2.3425130200105687e-001
    1.2326639362155709e+002 -2.7854946885762982e-001
    2.0482996324982415e+002 -2.0339535228617106e-001
    4.4486960430058855e+002 -9.4513193526697209e-002
    1.0901264345653102e+002 -3.5061042116620372e-001
    2.8660656135137526e+002 -1.3998841523850850e-001
    2.6236330815270207e+002 -2.8466355483533307e-001
    9.6096726427281752e+001 -1.5721141203708322e-001
    2.9952866879314115e+002 -2.6609418385444766e-001
    1.3806013282605437e+002 -7.7340775586695901e-002
    3.7618064583052205e+002 -2.1115602736100089e-001
    1.3874974601927693e+002 -1.9850298766588290e-001
    1.6092925927463006e+002 -1.4873736521825831e-001
    3.4538033516366215e+002 -9.1476814135831211e-002
    3.2003782298665095e+002 -1.3160566208537366e-001
    1.9625000104376347e+003 -7.0270234136488294e-002
    2.3308848294988849e+002 -2.1394779957878948e-001
    9.9119383690884078e+001 -6.0780538637683394e-002
    3.6918520913541920e+002 -7.9671257891131567e-002
    2.2362650469603616e+002 -2.5573299194528620e-001
    2.2518479790553752e+002 -2.2840427774958491e-001
    2.9558480253936801e+002 -1.9746763481596044e-001
    1.4926944808533102e+002 -1.9335832332554309e-001
    1.2028952143967979e+002 -5.5363072921676679e-002
    6.6595523994950156e+002 -1.6233207814035147e-001
    3.0849319087197290e+002 -2.2989087080189041e-001
    2.3699782255994728e+002 -1.8170728382854778e-001
    7.7268927372809060e+001 -7.3905465339961118e-002
    4.4724721268593993e+002 -1.2260829046960968e-001
    1.4314838723138396e+002 -1.2635113425163166e-001
    4.1978125659852020e+002 -2.3778316226924801e-001
    4.3289481402948877e+002 -1.7760273825895612e-001
    4.5445464930676951e+002 -2.0788663943049482e-001
    5.6048753860636816e+002 -1.3877133409428272e-001
    3.1345359448581632e+002 -2.2816614075070760e-001
    1.4271897987258984e+002 -1.6075823804762404e-001
    4.3544947733548577e+002 -1.1255231137907118e-001
    4.6157288999277148e+002 -1.1975880749264028e-001
    2.3537874251995601e+002 -1.7019581573407810e-001
    2.4119775028257251e+002 -4.9875466805381644e-002
    1.3730602318272048e+002 -2.5315828334178092e-001
    4.4481710182464258e+002 -5.7678655829005568e-002
    2.9923882872812118e+002 -8.5709260033165716e-002
    2.0020793849650192e+002 -2.3925393788975061e-001
    2.5875299159355791e+002 -8.6683738846086988e-002
    2.4825346955812714e+002 -2.4168985215467809e-001
    1.3994103778175744e+002 -2.4036419056455013e-001
    2.4631009996725868e+002 -1.8260569977818064e-001
    1.0465975231106654e+003 -1.2844398689663866e-001
    1.2022712551101299e+002 -1.5631806064651499e-001
    2.3063324923466698e+002 -1.2504078649581987e-001
    1.9496819328100062e+003 -4.9875466805381644e-002
    5.2822393991731769e+002 -1.1379446969727296e-001
    1.5492341541776031e+002 -1.4162756687803929e-001
    4.1144376466611834e+002 -2.3096937948012836e-001
    8.8571108666939313e+002 -1.0877203178655051e-001
    7.7107230507669374e+002 -9.9987724298941469e-002
    1.7401748646171089e+002 -8.5234800548021461e-002
    1.0844586553622779e+002 -1.6038722439734482e-001
    3.5183386033702072e+002 -1.5068429151543489e-001
    1.6281207060664769e+002 -1.4347136472335684e-001
    1.8667062312611660e+002 -1.1129132547620516e-001
    9.5123538448283796e+001 -1.4084977756178635e-001
    9.0830590815040534e+002 -7.9683726868056595e-002
    1.6689613295352495e+002 -3.3368630489663698e-001
    3.4383592074559465e+002 -1.0469283777753316e-001
    1.6930082554478932e+002 -1.1665915609187397e-001
    8.0377075806853085e+001 -2.0940719342105499e-001
    2.0725384563632971e+002 -8.5611955100511880e-002
    1.0161757374740864e+002 -1.7541875019957578e-001
    3.2494713490500487e+002 -6.5511416698700878e-002
    6.6167757753289862e+001 -1.3448956180145666e-001
    9.4397020843548262e+001 -2.9414231022297727e-001
    6.5869904723570733e+002 -1.7609418428841689e-001
    7.3691590112171343e+002 -2.0976347989068198e-001
    2.2873611119562923e+002 -1.8356827091185673e-001
    8.9589198020868832e+002 -1.5689337908438317e-001
    9.1410769332180917e+002 -6.7158207504800782e-002
    3.5897808316666453e+002 -3.3291249116721972e-001
    1.4868789253167324e+002 -1.2295869070223230e-001
    1.6441460597377733e+002 -2.7610807068604160e-001
    3.8900162731684952e+002 -1.7749483293839863e-001
    3.3116509656599652e+002 -1.1793526924000927e-001
    2.1677074555200738e+002 -1.7641153790720426e-001
    8.8826613760816812e+001 -1.1529493943653055e-001
    4.1655700009285488e+002 -1.7321540980260544e-001
    1.2534624245112190e+002 -2.4602698729002312e-001
    9.2012202331582742e+001 -1.9229458241115713e-001
    3.2697646169883802e+002 -1.4663051477992026e-001
    2.6314581699761152e+002 -2.0324831899834311e-001
    5.3548304055304686e+002 -1.4811631876315640e-001
    1.5236097790901277e+002 -1.8293728288603595e-001
    5.0808999240171509e+001 -1.8361614193645451e-001
    1.3302257848097634e+002 -1.6733768903807200e-001
    4.6768465134760396e+002 -6.1311344370665488e-002
    2.9625271140853260e+002 -1.3930820711616521e-001
    1.9112277918623911e+002 -2.0575283940588285e-001
    2.7631410175743298e+002 -2.4253059942366711e-001
    7.8580028407867260e+001 -1.8774223068969409e-001
    3.0121850654980454e+002 -1.7990626130600182e-001
    1.3814551459957516e+002 -2.8496584721536056e-001
    9.0789955430563566e+001 -1.4453229684185384e-001
    7.1397914729169671e+001 -1.4248327763350865e-001
    6.5041553146727938e+002 -1.9692042997418432e-001
    2.3146073559957296e+002 -2.3096554734970048e-001
    4.4662178603005032e+002 -1.7212897427532334e-001
    3.2567552767361570e+002 -1.1279825573553723e-001
    7.9477774882575929e+001 -7.1097070591992786e-002
    1.6263211710870493e+002 -1.5913415025559421e-001
    2.4905896970171906e+002 -2.9917602199239141e-001
    1.9196853342296413e+002 -2.2228311840973231e-001
    5.2427067377734693e+002 -1.5972460128778584e-001
    7.7633170068531825e+001 -1.0356708766630637e-001
    1.3604948366558835e+002 -9.1877112262546023e-002
    1.2142855405476087e+002 -1.5912712701409790e-001
    3.3349958930716798e+002 -1.8760525323827421e-001
    2.3242840614063067e+002 -2.8571120335296074e-001
    1.7951363609257979e+002 -1.4348115329834907e-001
    1.0002348421706527e+002 -6.9705299526926182e-002
    1.7276245247932303e+002 -1.4752172733362956e-001
    2.4313300420323171e+002 -2.5734110398583604e-001
    1.1959388195335787e+003 -4.9875466805381644e-002
    2.8067931659896163e+002 -2.9013830587042116e-001
    1.5692781502356968e+002 -9.0243184475068863e-002
    1.3662997542999190e+002 -1.7124805507074464e-001
    1.5786125454697236e+002 -1.9922745243884793e-001
    1.3828526544428874e+002 -1.4796810202266944e-001
    1.8209250711126987e+002 -1.2539741346266153e-001
    9.3355925129886407e+002 -1.1622401438513030e-001
    4.3158224330923747e+002 -9.5824480194406050e-002
    3.2223738030619666e+002 -1.5219735004503171e-001
    3.2255446677508525e+002 -1.9069356582143196e-001
    1.0921795038168071e+002 -1.9153813430559660e-001
    5.3590339206094654e+002 -9.3670449568037065e-002
    1.9678544326400251e+002 -1.2544020061018787e-001
    3.2438998585161812e+002 -2.0068751574074362e-001
    3.4032686620585758e+002 -1.0555237429723549e-001
    6.6738740002056630e+001 -6.7071312308360304e-002
    2.7681992686125233e+002 -1.2940688290859831e-001
    3.4153321434354928e+002 -1.5853679798463105e-001
    4.0959682093501505e+002 -1.6133095659916014e-001
    9.6466047157240567e+001 -1.7532283833533788e-001
    3.3943557518079029e+002 -8.5712465094167981e-002
    1.5239621715778560e+002 -2.8568082928460814e-001
    1.6169055633081473e+002 -1.3393932456751162e-001
    1.2262255849327704e+002 -1.9374148580597644e-001
    4.1104810362482482e+001 -2.3954740240048111e-001
    1.3462187643916684e+002 -2.2197169171581452e-001
    9.4302908325144031e+001 -2.4608648647329831e-001
    1.2259424954535775e+002 -2.9660213364543492e-001
    1.5557550598298641e+002 -4.1239463047441954e-001
    2.3343334516464392e+002 -2.4749850497475584e-001
    9.4549501639646749e+001 -8.8505664051429053e-002
    2.5707493838666443e+002 -2.0026484145899842e-001
    6.1312619688773843e+001 -1.2851692804239181e-001
    8.9191337962718933e+001 -1.1800568259726826e-001
    6.0678198046630882e+002 -1.5154732082423344e-001
    6.4922778784578577e+002 -1.3114083626985076e-001
    6.8456041158430210e+001 -3.7920707248899804e-001
    1.5773989756151784e+002 -7.3445657261017483e-002
    7.9868046966776987e+001 -1.7405722140692145e-001
    2.0612114472316193e+003 -5.7605650120863633e-002
    6.0678519494243642e+002 -6.4916846178513926e-002
    5.5987037194384675e+002 -1.9463011358356189e-001
    5.5687084474767028e+002 -1.3918738487173885e-001
    3.0347161419166514e+002 -2.6955155464000391e-001
    3.7007434084508901e+002 -7.3690207570880628e-002
    4.0529500335024699e+002 -2.5168845327147304e-001
    4.1954527457184400e+002 -1.1996914844784176e-001
    2.5083773067774683e+002 -1.3905029056770701e-001
    5.4017358769532416e+002 -2.2711065994470547e-001
    1.9744098998417175e+002 -5.9463591538030484e-002
    9.8971546760260850e+001 -7.2450464894293382e-002
    2.9298737561255263e+002 -1.8939911049755936e-001
    9.0484340700946646e+001 -1.9822813461559810e-001
    2.8736232672006565e+002 -1.7645296420527415e-001
    2.8719258804073439e+002 -1.4710297291836341e-001
    1.3339346057367297e+002 -2.4746562428537852e-001
    1.1313542004854907e+002 -7.6632235037270097e-002
    1.3476772780669623e+002 -2.0603782217450711e-001
    2.3048249375109239e+002 -1.6460005477141065e-001
    5.3718509566413127e+002 -1.2173662679406223e-001
    9.7968644659326728e+001 -1.4924989117594245e-001
    5.0732252266942805e+002 -2.2005674332659256e-001
    6.1974993483606954e+002 -1.9116745094502458e-001
    5.5606298804752123e+002 -8.6584925389230294e-002
    1.1216163908056815e+002 -1.0013877061798122e-001
    1.0166105941185437e+002 -1.9252165642413596e-001
    1.8459406348373861e+002 -8.2893944991796045e-002
    2.2036810273417524e+002 -1.2563098124772148e-001
    2.9448514280223696e+002 -2.8994726030275397e-001
    3.6308693612390454e+002 -1.7801233156449994e-001
    1.8985837647282517e+002 -2.2657251758843885e-001
    1.2479032761477293e+002 -2.2282018728714412e-001
    1.6091614302791785e+002 -4.4433132132366920e-001
    1.4224736141180173e+002 -1.5246195778166813e-001
    6.6974978764331377e+002 -8.5483142377222932e-002
    6.4278644816160170e+002 -1.1233994090745789e-001
    4.6792304937166428e+001 -2.1654634883661672e-001
    3.1651497066021608e+002 -3.2188208973767052e-001
    7.4283961778056664e+001 -1.4145267731145655e-001
    1.2059887244569150e+003 -4.9875466805381644e-002
    5.1292621172502734e+001 -3.0337946046553899e-001
    8.2993714465876891e+001 -2.1829968039367367e-001
    1.9596353343199684e+002 -1.5166090897328136e-001
    4.1774049176332625e+002 -8.2062267105211834e-002
    2.2185524879333673e+002 -1.8158196959023606e-001
    9.7178997886036299e+001 -2.4983679658766983e-001
    1.3187904721535963e+002 -1.2728948982039115e-001
    5.2555536638310377e+002 -1.5950847202083066e-001
    6.7876980247715744e+002 -1.8406434987186815e-001
    1.1526021545933759e+002 -9.8465566868548682e-002
    6.3673925574059339e+001 -1.8653492428456284e-001
    6.2080089718030638e+002 -2.0216401578847679e-001
    1.4714654745455150e+002 -1.6117966686809396e-001
    2.9760453233370868e+002 -2.4305285683560382e-001
    1.0358249939775459e+002 -2.0413875529524181e-001
    4.4177465803553071e+002 -1.1351706073188246e-001
    2.5281539967916413e+002 -1.8439173377697748e-001
    6.6490615684521413e+002 -1.1737207951038139e-001
    1.9012085336432230e+002 -2.1440307429266742e-001
    1.5503747401627413e+002 -1.8234980975001841e-001
    1.5075715219201857e+002 -3.5222243598389397e-001
    2.8998735040419217e+002 -1.7311874790454276e-001
    1.8614016506216032e+002 -1.2851085489235176e-001
    1.4830780560812661e+002 -2.9252068056159419e-001
    1.4683475381699643e+002 -1.5201285061345204e-001
    3.4814514326779914e+002 -5.1862596263248004e-002
    4.0649889000866744e+002 -1.2672745862831164e-001
    2.2303098105091928e+002 -1.5294317888353867e-001
    6.1743374711249794e+002 -1.3790632050027843e-001
    9.8067670182143630e+001 -1.3444497981699383e-001
    6.5493993532719651e+002 -1.3676975008855505e-001
    2.0903804868744141e+003 -4.9875466805381651e-002
    4.1521669583823024e+002 -2.4590278232965912e-001
    7.0564972826670356e+001 -1.3144763831956299e-001
    4.0276662527919677e+002 -8.8997342533580034e-002
    4.4247284285000813e+002 -1.4141519043607007e-001
    3.8044680123966793e+002 -1.4479922951815860e-001
    2.5767882306221912e+002 -1.2592331481441879e-001
    7.0394552080966818e+001 -1.4341348214002450e-001
    1.2988578986988583e+002 -2.4600456214155014e-001
    1.9880211897849324e+002 -1.1785762511313409e-001
    1.8720682269906215e+003 -5.8845393397672627e-002
    2.7668967865085705e+002 -1.3840071861110520e-001
    4.2188030026150068e+002 -1.5460036092075080e-001
    4.2686238496934948e+002 -8.7321914431691863e-002
    5.6157554913226409e+002 -7.0276637782875739e-002
    2.5295563307237197e+002 -1.1097651872758894e-001
    2.9077804403185104e+002 -1.3136713263036767e-001
    1.3000522361275404e+002 -1.9595085578519378e-001
    1.0492126533930859e+002 -9.5942741245056487e-002
    1.9567969907922776e+002 -1.4350044447516058e-001
    3.7934287440572518e+002 -2.2731794268828245e-001
    5.0857912354724436e+002 -1.1970243325133448e-001
    2.4837461322044123e+002 -2.2316805133313777e-001
    1.5274893694118805e+002 -2.2315089305276778e-001
    2.6796880750246959e+002 -2.3057527154532639e-001
    4.8006893461878337e+002 -1.7890103456424719e-001
    8.9352824925603002e+001 -1.5057890176332453e-001
    1.7147252764855773e+002 -1.2009698353443980e-001
    3.0166619802978124e+002 -2.8270842427523080e-001
    3.3258118070512796e+002 -1.5492660892156931e-001
    1.9775734697124375e+002 -1.5073777800239993e-001
    1.5095283100655180e+002 -2.8281649093716454e-001
    6.6289269883910947e+002 -1.2458434339060259e-001
    1.3120584759146124e+002 -1.4845637348904764e-001
    1.1638037935952961e+002 -4.7971773715819388e-001
    4.3455962925817187e+002 -1.1104053747504314e-001
    1.7423555526178274e+002 -1.8538727662649637e-001
    2.2556765875251526e+002 -2.8101042093033807e-001
    3.8638164942030465e+002 -9.2872998383988714e-002
    1.2387245034229738e+002 -1.1500730931842942e-001
    1.8532339237210002e+002 -1.7574876806705195e-001
    1.2734991135692680e+002 -1.2427335137469511e-001
    2.3498112716065842e+002 -2.2440400245466030e-001
    9.8300794419686170e+001 -7.9826413200529578e-002
    2.4753856076593055e+002 -1.2594048974133409e-001
    6.7464900580475629e+001 -1.4819249039726451e-001
    8.1840295468778251e+001 -7.5522042489604341e-002
    5.4453560094728900e+001 -1.0355707157228328e-001
    2.4365020241468389e+002 -1.2679172136404171e-001
    4.3403066322713300e+002 -9.1484557086190049e-002
    2.9944123817670055e+002 -3.2829931358317971e-001
    1.8468782880070330e+002 -1.6484658870282662e-001
    2.3928563101923712e+002 -1.6578329404895736e-001
    7.9569329054424145e+001 -7.0083047355161285e-002
    2.4314824510871114e+002 -1.8556361295367155e-001
    2.5642764892724961e+002 -1.8636905951692884e-001
    4.9747037524688324e+002 -4.9875466805381637e-002
    4.5708773793564450e+002 -1.0139702968839429e-001
    1.1421482492757063e+003 -1.2474974454833961e-001
    9.2595217849722872e+001 -1.0353010708444610e-001
    8.8307595983647531e+001 -1.5991708616484857e-001
    9.7860925883465114e+001 -1.1952433814609813e-001
    2.2354332216388380e+002 -7.5445097185272744e-002
    4.2870675148440029e+001 -1.7743747089595960e-001
    7.7245464503752089e+001 -1.3467409249088630e-001
    5.2065908138371867e+002 -1.8216076298928122e-001
    5.1326412927473268e+002 -2.0033229601437838e-001
    2.3628658708989607e+002 -2.0758103179249604e-001
    3.3709463615103340e+002 -2.5051456515022202e-001
    2.2804019677345539e+002 -9.2116189967183154e-002
    2.0620401871333519e+002 -2.2702137891022048e-001
    7.9779490852956508e+002 -1.3113840486971395e-001
    1.1931257409315286e+002 -1.3935467522148631e-001
    2.2605455379688260e+002 -3.0666731785563967e-001
    1.6490710000491970e+003 -7.0598731574887566e-002
    9.0163763343740513e+001 -1.1724206225646973e-001
    7.0328382886379939e+002 -1.9740734638715896e-001
    1.3857003097919036e+002 -1.7598009373918533e-001
    4.2792539152097822e+002 -1.5293316890785136e-001
    9.9867634655422066e+001 -1.1601923414449924e-001
    2.7741107261884395e+002 -8.5519044035239869e-002
    4.1232364468780946e+002 -1.2884751071506842e-001
    4.4151637083851119e+002 -1.0110683853240059e-001
    3.7807889373417015e+002 -2.3906501902706781e-001
    4.9204393575376804e+002 -1.5037660956082616e-001
    2.1907346056167833e+002 -2.0163125367915483e-001
    1.5680583041422727e+002 -2.2651360060036238e-001
    2.7549304722874479e+002 -2.2798662290627483e-001
    7.9281072927902994e+002 -7.6174055299333188e-002
    4.0782411093757418e+002 -2.6259445975539553e-001
    4.5641216610334806e+002 -1.1356802961449235e-001
    2.9026741082925236e+002 -1.4345516068515171e-001
    1.0563063854136988e+002 -1.1996458673390539e-001
    3.2798922615110348e+002 -1.1343150625850049e-001
    3.4524710383664836e+002 -1.2934039543325457e-001
    1.0235460484480204e+002 -1.2457116064089417e-001
    2.9322319974737508e+002 -2.1791555413312136e-001
    3.1367655651749379e+002 -1.1317941200622184e-001
    1.0810843286126001e+002 -1.4905453246093478e-001
    4.3933128019588747e+002 -1.3365608196230225e-001
    9.8367242321671313e+001 -9.9365335877057523e-002
    1.0821007024017260e+002 -1.7557473907206747e-001
    1.3474066891680954e+002 -2.6633988408062892e-001
    3.3492023358839265e+002 -2.1190694109257088e-001
    3.5137221454292995e+002 -2.5040849338014382e-001
    1.6036190455278319e+002 -9.6191928501647803e-002
    4.8383853453041661e+002 -9.8574161542759164e-002
    1.1409466270029273e+002 -1.0242560184692782e-001
    3.4701568513834582e+002 -1.0119494386171837e-001
    2.0528488662099318e+002 -2.4388879748241671e-001
    8.6136146825330655e+001 -2.7318616960594327e-001
    4.0204417271220916e+002 -9.2388070981537299e-002
    8.4176389894122465e+001 -1.4734771897883875e-001
    1.4785350898931335e+002 -1.1897739478402029e-001
    5.9106824097243975e+002 -1.1734863155433903e-001
    2.8934032608041144e+002 -1.5602368245958947e-001
    1.0838636135462730e+003 -7.2794866189787449e-002
    1.1504643332570542e+002 -8.6017324307710530e-002
    5.2438419595349778e+001 -2.1674689422097215e-001
    1.6413629198829184e+002 -1.7621139112160514e-001
    2.9033299263439216e+002 -1.1909451739502028e-001
    2.5639619106443979e+002 -1.5000890746602807e-001
    3.3143872611541917e+002 -1.2421335130446910e-001
    1.7226934970415715e+002 -1.6345604664195162e-001
    9.7497388237424261e+001 -1.3355934253476956e-001
    1.2885429082267879e+002 -1.4507023557531618e-001
    1.9305424242124676e+002 -1.5391641255320324e-001
    2.6020387653983016e+002 -1.7894946015225530e-001
    2.4720018239856586e+002 -1.3610222629149549e-001
    7.5058855302594100e+002 -7.0509028145104624e-002
    2.5169592021716153e+002 -1.1039100112644379e-001
    1.1695004012813405e+002 -2.7544936363338718e-001
    9.9937301690926608e+002 -5.4987617441801841e-002
    6.0047976462072279e+002 -1.3042956575421749e-001
    1.1851109561926448e+002 -1.2580944770671978e-001
    1.1187332409725424e+002 -1.0235542185129073e-001
    7.4754638648138013e+001 -1.1170043114776075e-001
    5.1600124997019486e+002 -2.0664419057185279e-001
    9.9467519725504445e+001 -8.0996601109279462e-002
    5.8289458272594686e+002 -4.9875466805381644e-002
    6.4620115161278875e+001 -1.7814558882618853e-001
    6.2368896935941484e+002 -6.9284526063142657e-002
    2.5184149141063159e+002 -8.5445996538315333e-002
    9.7104888576018240e+001 -1.6082796688926951e-001
    1.4756560958000512e+002 -1.8161012532040111e-001
    1.2004421387716037e+002 -6.4539951605571327e-002
    7.7619089738796816e+001 -1.8760406150431685e-001
    2.7124759077089089e+002 -2.6402728229015554e-001
    2.7121567257108882e+002 -2.1156922487733298e-001
    7.8013852543080475e+002 -1.0033970371740965e-001
    4.5034111223350720e+002 -9.6666460419628966e-002
    3.5901203167365151e+002 -1.7778961841744878e-001
    1.1557046144931854e+002 -1.6366396211835602e-001
    8.6479337372352575e+002 -6.6423046065130373e-002
    1.6359839023434913e+002 -2.4815502261184583e-001
    7.7928025654550663e+002 -1.6806848521620177e-001
    6.9020937924520740e+002 -1.2924301486798967e-001
    1.0942265354909185e+002 -1.4046004319618347e-001
    1.1300601291059048e+002 -1.0712289067336787e-001
    2.2305386899584894e+002 -1.7391532211319544e-001
    2.6331953583762601e+002 -2.0707190824279306e-001
    2.0250401473666167e+002 -2.0037123832624093e-001
    2.2795772717699919e+002 -3.1700801800670475e-001
    3.9062465246665238e+002 -2.4089059593661380e-001
    4.2133255979975951e+002 -2.2567084794677758e-001
    4.1920208641598248e+002 -1.2047298289690912e-001
    2.4962355842378855e+002 -2.2192289684322319e-001
    5.6884438455978409e+002 -1.8667164506892131e-001
    4.1265594622765519e+002 -1.8882106350853908e-001
    1.2106742467066294e+003 -8.1864692671166112e-002
    2.7208960106424871e+002 -2.8251103261735022e-001
    1.6437597537134596e+002 -2.5362561252506399e-001
    1.8669635562324515e+002 -2.3249062119058853e-001
    7.7884748936174356e+002 -7.5368574301985430e-002
    1.2085780829062004e+002 -2.8234685937070952e-001
    4.3630190339287191e+002 -1.4078408681488708e-001
    2.5888652409537900e+002 -9.5051361398562198e-002
    2.4909805369265069e+002 -1.3821940129565552e-001
    1.8457576173998805e+002 -3.1088930463417896e-001
    2.1952475103053857e+002 -1.3975600230378299e-001
    3.8678399043977248e+002 -1.6375870914686158e-001
    2.0759636821517708e+002 -2.6410257778446772e-001
    5.5544420280512793e+002 -1.2414579950866515e-001
    3.2767481867231965e+002 -1.6525829124225760e-001
    9.5307246573571229e+002 -1.5654904613731324e-001
    3.5122410087504954e+002 -1.9201700917785416e-001
    1.7594598737430593e+002 -1.8449345997788605e-001
    5.4330395606164063e+002 -1.6871068952444965e-001
    2.0546049274017494e+002 -1.9337940772429121e-001
    3.3788941202283780e+002 -1.5860131322437332e-001
    1.4027020259938448e+002 -5.6976424205567595e-002
    1.3106991116192503e+002 -2.1123606880651752e-001
    1.9699012305763034e+002 -1.5680577238175092e-001
    2.9122254523644034e+002 -1.6841103496450166e-001
    7.6075149734700730e+001 -1.4918398111808373e-001
    2.3545207527739589e+002 -1.4525690765762869e-001
    1.1998493919809242e+002 -1.4232631856052172e-001
    2.9713271323296397e+002 -1.4723038056898655e-001
    6.1881163829951817e+001 -2.0869956102932877e-001
    5.4852399695096459e+001 -2.2662637178960923e-001
    9.4826396221077644e+001 -1.5165666245416268e-001
    1.4710119733549681e+002 -1.1545044840573392e-001
    1.4021620435321931e+003 -5.8407910781899552e-002
    2.0549662912824439e+002 -1.7622914412927912e-001
    3.7309264587694071e+002 -1.6081653179379538e-001
    2.9256942917005296e+002 -1.4215264160888880e-001
    1.0128375979181810e+002 -1.5103625900684048e-001
    9.4009575992246107e+002 -1.4052892741356693e-001
    2.8050090327716288e+002 -1.5407400953073988e-001
    3.6563763568272645e+002 -1.1305873589741740e-001
    9.6122764638624312e+002 -1.0790925402122159e-001
    1.9693511716600449e+002 -1.6740626633124187e-001
    7.0301242738070627e+001 -1.2345561325395721e-001
    3.5002847864171422e+001 -4.8930822385336586e-001
    2.7077521779770706e+002 -1.0460690061553571e-001
    3.9288684264630547e+002 -1.7623312926396223e-001
    7.4101426675515791e+002 -1.0272294386039585e-001
    2.2875536729638034e+003 -6.1397807552731831e-002
    3.9870887851983149e+001 -1.2752785428857544e-001
    3.7127858434749663e+002 -2.0424215980311813e-001
    2.9272059517644192e+002 -2.2638188712036594e-001
    1.3603410023306552e+002 -9.9619909797222544e-002
    1.5308786742926688e+003 -9.2951641766362794e-002
    1.7061072577099449e+002 -2.0937066941544086e-001
    5.9965581419431622e+001 -1.2627802446356973e-001
    4.5618281732598086e+002 -1.7300828719175318e-001
    1.6970115350843338e+002 -1.1926250172174456e-001
    1.2847897327198140e+002 -1.2377029353218671e-001
    9.4591000654868651e+002 -1.5145675766857905e-001
    4.7437730303563308e+002 -2.3712431638363909e-001
    1.1858889720226691e+003 -4.9875466805381651e-002
    1.9398788135863464e+002 -1.1098538754551003e-001
    5.7151994866307018e+002 -1.3431360298181624e-001
    1.8849165858155166e+003 -7.0008901933954371e-002
    3.7514496609363408e+002 -2.4618873519472886e-001
    8.9083204494811469e+001 -7.0533241392217297e-002
    3.1131799160151479e+002 -3.0962318534071315e-001
    1.7886620891957466e+002 -2.5192321096407344e-001
    3.6249079682002423e+002 -1.8352993167366952e-001
    6.2037249306340527e+002 -1.6002744993787318e-001
    1.3965216775082541e+002 -3.0566680341957048e-001
    6.2294395481036156e+002 -7.2452963603034631e-002
    2.5500038664856862e+002 -1.3002488658754238e-001
    4.5557539757862588e+002 -1.2963631692092289e-001
    4.2434165797309225e+002 -1.2300381734026448e-001
    1.2130475102776144e+002 -1.4687236709556292e-001
    9.3404641557183095e+002 -1.3987041089628388e-001
    2.4594248813768218e+002 -2.9719429199577596e-001
    1.4899746471271217e+002 -1.3321245571535220e-001
    2.2811676607545991e+002 -4.2584058637079164e-001
    6.0341964502726228e+001 -1.6885492056792287e-001
    3.1408943566065943e+002 -1.1492519747616547e-001
    5.8898714878822915e+001 -9.9384553287370669e-002
    4.7615339291213098e+002 -1.1790101053294649e-001
    5.7544286182481619e+002 -1.5055362082983986e-001
    2.6966121596469816e+002 -9.9674209399530755e-002
    1.9871174144781423e+002 -6.2692440904141528e-002
    1.5641887511840042e+002 -1.6605728783168555e-001
    1.9414596966861916e+002 -2.5305035134532988e-001
    4.1444569030166281e+002 -1.5129778393157220e-001
    3.9311021848111244e+002 -2.8840724320105082e-001
    4.0290380321132517e+002 -1.6212524611349649e-001
    2.6531752531082975e+003 -4.9875466805381644e-002
    4.3546960140165072e+002 -6.5638947785856785e-002
    2.7257232150295420e+002 -2.5212371361341462e-001
    5.7759965725497568e+002 -8.7799809359121045e-002
    5.5085498971298352e+002 -6.5964143972762138e-002
    7.9088230067445352e+001 -2.5765130169532385e-001
    6.4353157606937714e+002 -1.5730029307538881e-001
    4.7137039374768568e+002 -1.5035446451645354e-001
    2.7259196233443680e+002 -7.7478638881676887e-002
    8.8321212832876242e+001 -1.1970212849981550e-001
    2.2575265224122265e+002 -2.2301016514413330e-001
    5.5952723787424191e+002 -6.6016771646113956e-002
    1.7778669158913345e+002 -1.8481530461155823e-001
    3.4304308577006992e+002 -8.5193571398703150e-002
    1.3759415757308929e+002 -1.4709793787719358e-001
    2.6215623689794387e+002 -1.1558379016973286e-001
    2.4206303109821306e+002 -1.8265581618791352e-001
    1.0510502070654830e+002 -1.6687890984476261e-001
    5.5031424485022157e+001 -2.2554739553724351e-001
    1.6300639669368564e+002 -7.8631221365631110e-002
    1.7938126232070908e+002 -1.0598132595492540e-001
    4.1140637040448968e+002 -8.4274659159673596e-002
    2.7978430791146218e+002 -1.1749419017278455e-001
    1.6033251800004865e+002 -2.2752218252374853e-001
    1.1233778502370654e+002 -1.4682940587150431e-001
    5.1865358516494234e+002 -1.1205529382401347e-001
    1.4386194669361581e+002 -2.6391160420341853e-001
    2.8815119598820144e+002 -1.6429563608841591e-001
    5.9177269504305229e+002 -2.3244977346657036e-001
    2.0116542624127985e+002 -1.4527736868588473e-001
    5.6782208617743447e+002 -1.2361179123716459e-001
    3.9387398799784080e+002 -8.8084738509135299e-002
    2.6202743226476417e+002 -1.8423749807382933e-001
    1.7874388426374813e+002 -1.9945641702536054e-001
    7.0752895745809769e+002 -1.1650453867915490e-001
    1.6927750509176497e+002 -1.1344071863550023e-001
    4.2182577982508343e+002 -9.6310427594509487e-002
    4.6953840651240728e+002 -8.9678963088951930e-002
    5.2735722457998349e+002 -1.6240701433280280e-001
    3.2159700996110087e+002 -4.9875466805381651e-002
    1.2160387448790077e+003 -4.9875466805381644e-002
    3.0405411585355290e+002 -1.5590245520885426e-001
    1.5722981542073413e+002 -1.6070923432566611e-001
    7.4369306752697400e+002 -4.9875466805381644e-002
    1.6095973899618465e+002 -2.4714772164502152e-001
    2.5943487185015778e+002 -2.0317738597616974e-001
    3.2140093548761354e+002 -5.2560335384395473e-002
    7.2228733079207615e+001 -2.3459991590027088e-001
    6.1491404147678440e+002 -2.0219546174333608e-001
    5.7495855076712053e+002 -1.2517050751604247e-001
    4.8038017585287827e+002 -1.6374905756414238e-001
    2.4119775028257251e+002 -4.9875466805381644e-002
    4.0814090150412369e+002 -1.6442709994257840e-001
    7.5934412014037230e+002 -9.4439866093064942e-002
    1.5567714818089300e+002 -2.6848032948614692e-001
    4.6501103265342692e+002 -8.8490498718060445e-002
    4.2431186294558188e+002 -1.8052947770008412e-001
    6.2160922652722547e+001 -1.0586294560354373e-001
    1.7355417161577432e+002 -1.2440106653775003e-001
    1.2263939548077973e+002 -1.3285650997264656e-001
    1.0199578276129158e+002 -2.1399022435657006e-001
    3.1669329993898327e+002 -1.2499656489335445e-001
    3.0285506541745980e+002 -1.9288442972598616e-001
    8.4982354466321695e+001 -1.3638293056548656e-001
    6.0142395687576629e+002 -7.4717559692256505e-002
    3.5186668152841651e+002 -1.5194100084984963e-001
    2.1830378830212442e+002 -6.6792468956919718e-002
    7.9509569991079033e+001 -6.7758921132590716e-002
    3.2946035060678389e+002 -2.9066499445061655e-001
    3.9389945077410141e+002 -1.4838205118404316e-001
    8.0059554508276733e+001 -1.2629619295546637e-001
    1.4667427182756620e+002 -1.5588088808654443e-001
    6.4713178636176409e+001 -1.7982373783467895e-001
    1.6262206915293800e+002 -2.5603097368275657e-001
    2.3903130874409260e+002 -1.7116018187478749e-001
    1.6512472365633727e+002 -1.0054280170138126e-001
    1.6132043309912456e+002 -1.6561267096796986e-001
    6.7025958360704601e+002 -1.5276199888572392e-001
    3.1969217385323259e+002 -8.9697506548754205e-002
    2.8590721133947608e+002 -1.9367542966663212e-001
    2.0944435148526000e+002 -2.1560193182804954e-001
    1.1459282890020488e+002 -1.1187293489548170e-001
    1.6248645686280008e+002 -1.2966607265965030e-001
    7.6217621202246221e+001 -1.2207535927756669e-001
    2.3345837188793277e+002 -3.5583309406807212e-001
    1.7170156792288222e+002 -3.4221523309198848e-001
    4.5184449440680868e+002 -1.1532856505575680e-001
    4.3884242429957487e+002 -1.5608704473133431e-001
    6.2147898949193223e+002 -9.3903277158319851e-002
    4.4062139925610893e+002 -1.0837357426462051e-001
    7.5641340618800456e+001 -1.2512864611088731e-001
    2.4906276801337424e+002 -1.4896987079770560e-001
    3.7840352383076271e+002 -1.0593317035267488e-001
    1.7931058030925061e+002 -2.3489001160034476e-001
    3.6566557265186140e+002 -1.3107540274907720e-001
    1.5168603212210792e+002 -1.1122667154770106e-001
    1.1989658452903134e+003 -1.0565362130402704e-001
    1.0919131795859531e+002 -8.0489314324884889e-002
    8.4519107046310893e+001 -3.4391055750511140e-001
    7.9091880088547373e+002 -7.3075920032855915e-002
    4.0855001487595626e+002 -1.3023953028427077e-001
    2.5651321353889597e+002 -1.9701030108630266e-001
    2.2475119463282243e+002 -1.5468504050439982e-001
    3.5580905608582088e+002 -1.6430029909296656e-001
    2.6486542971148174e+002 -2.2659827033967475e-001
    1.1770646275042030e+002 -1.4889486325960499e-001
    1.2830907315961247e+002 -2.5955015981595014e-001
    2.2547838855705379e+002 -1.1853341009041249e-001
    3.3833047056907066e+002 -1.6575218775182624e-001
    8.2434734754465751e+002 -8.9552718016221708e-002
    3.4935944222882279e+002 -2.0281219407575771e-001
    2.1749286975370174e+002 -2.0454881913047540e-001
    4.1225539505950604e+002 -1.0023148469756464e-001
    4.8239550056514503e+002 -4.9875466805381644e-002
    1.5213849227770908e+002 -1.7235499421476780e-001
    1.9603381859981988e+002 -8.5967194832184957e-002
    1.1893676703151223e+002 -1.9972952105754055e-001
    1.8974061903753784e+002 -1.0427472613703315e-001
    6.8373030377779367e+002 -1.0330695188848496e-001
    1.8640538168383441e+002 -2.4234496836898595e-001
    7.2987846872412433e+002 -8.0052105113192690e-002
    2.0991519385899528e+002 -2.7521893770598099e-001
    1.5553129946047159e+002 -1.1634493276792349e-001
    1.3805584290020295e+002 -7.4983921821711999e-002
    3.7258704778907384e+002 -2.0252710887866288e-001
    1.9108554665047180e+002 -2.0842550647900437e-001
    8.7708660171055783e+001 -1.4682444285400040e-001
    1.9485660076163595e+002 -9.3262677148886391e-002
    9.6193811907601457e+001 -1.8714369041852266e-001
    3.5859692167168521e+002 -1.7962986867727468e-001
    6.2406316884794755e+001 -1.6510577424544073e-001
    6.9456289864286543e+002 -1.3414601977115911e-001
    2.8231860998381723e+002 -2.0831155633771259e-001
    6.9298363072995141e+002 -1.7378487144529720e-001
    1.2903699314804783e+002 -1.5423167933372608e-001
    4.4899581633355126e+002 -2.1885901823026202e-001
    2.0745338746906975e+002 -1.1345941356303568e-001
    1.8245487188100347e+002 -3.7774213399144418e-001
    6.9216084962565662e+002 -9.6153040248173852e-002
    5.5366108545834379e+002 -1.0347027441948424e-001
    1.7097735593203723e+002 -1.0390995243904039e-001
    1.7005449183842882e+002 -1.0546928395538895e-001
    1.6798576002890803e+002 -2.3880271546525225e-001
    1.7741029776688481e+002 -2.6960693421400272e-001
    1.9095135807677686e+003 -6.3072029842502209e-002
    5.9753345649079859e+002 -1.0737529887529806e-001
    1.0355729302643851e+003 -8.3951633224476629e-002
    3.8357888396939222e+002 -2.8386451899295667e-001
    1.1836396763399553e+002 -8.1882612264787963e-002
    1.1258939263840826e+002 -4.1707676745389644e-001
    3.9222451777961373e+002 -6.6364651951780748e-002
    4.7991531335493607e+002 -1.7199598167246419e-001
    9.2216473735317152e+002 -1.1074605298034541e-001
    1.1715884315533904e+002 -1.0313808926742191e-001
    6.2417579122672021e+002 -1.6210839555492215e-001
    3.3133264060943094e+002 -1.1106356098395416e-001
    8.5670466084179466e+001 -1.2083460984822113e-001
    3.5744898972593381e+002 -1.2368191361227250e-001
    7.8501731593707802e+002 -9.9670774519969738e-002
    8.5021753196156965e+001 -1.5484976624741256e-001
    6.1015231069730464e+002 -1.0441998949134712e-001
    2.7899510725482793e+002 -2.3232083168242962e-001</input_scale>
  <output_scale>
    5.2631578947368418e-001 4.9999999999999994e-001</output_scale>
  <inv_output_scale>
    1.8999999999999999e+000 -9.4999999999999996e-001</inv_output_scale>
  <weights>
    <_>
      1.6645571705073414e-004 -7.5415571186981945e-005
      -3.3814312587357453e-004 1.0130002659324094e-001
      -7.9117009719152642e-004 -1.3771945561680821e-003
      -1.5511300396974931e-003 2.9387193899657604e-004
      5.7342419653577670e-005 -7.1900278918672622e-004
      -1.9101142814337974e-003 -1.4160626535717202e-003
      -1.4624306051425201e-003 -1.2875885322333191e-003
      -1.3431853382460252e-003 5.0525303127017807e-004
      1.1903094584419793e-003 3.6593727858669822e-001
      -1.5556773018036152e-003 -1.5133849786835435e-003
      1.3194996088415206e-003 1.2775359150097171e-003
      -6.4953598793383860e-004 9.8834336557043420e-002
      -1.4333722486960659e-003 -1.0412594127939129e-003
      1.6321761033781246e-003 4.2636736419560117e-004
      -1.9643395941073144e-003 1.5350443474781150e-003
      1.4453579424347079e-003 1.0351318557364764e-003
      1.8068245856199955e-003 4.4239926391753670e-004
      8.4927259720372905e-004 -7.5751182575367615e-004
      7.4803433295718424e-004 1.6006135296061652e-001
      7.4016698791773416e-004 -2.8275033241668968e-004
      -1.6110283299364153e-001 -1.5884391645240259e-001
      1.6144833023044280e-001 -3.6381886183841872e-001
      -1.5848087879030401e-001 -1.6061488550937317e-001
      -1.5894922912389883e-001 1.6071411341402786e-001
      -1.6140179109681796e-001 -1.6063304085094293e-001
      -1.5941181351979772e-001 -1.6023035695036239e-001
      1.6028717666205466e-001 1.5967525497611645e-001
      -1.5815680498904061e-001 1.5826100718536928e-001
      -1.5960107025583978e-001 -1.0196233648378747e-001
      1.5843991395150853e-001 1.5990081931158945e-001
      -1.5808712114029511e-001 -1.6184502501581921e-001
      1.6070886882049046e-001 -3.6203859395098670e-001
      -1.5845280231212805e-001 -1.6135833515463022e-001
      -1.6057807294593879e-001 1.5972086690080237e-001
      -1.5813132591708284e-001 -1.6119191868397947e-001
      -1.5807184661254819e-001 -1.6028665510018750e-001
      1.5954165956013699e-001 1.5971422812331776e-001
      -1.6057662072009263e-001 1.5853117548709783e-001
      -1.5852375035390232e-001 -1.0032167623391632e-001
      1.6130916770182263e-001 1.5974247261541702e-001
      -3.6396769073181579e-001 -3.6374025088560125e-001
      3.6387898356335124e-001 -1.6167704652721393e-001
      -3.6419314211795428e-001 -3.6565350970523808e-001
      -3.6503442411843823e-001 3.6349623187983260e-001
      -3.6244457191188273e-001 -3.6549890910659333e-001
      -3.6463802151528568e-001 -3.6534369212414708e-001
      3.6207057523029385e-001 3.6259118546574065e-001
      -3.6522688839365691e-001 3.6224626736936372e-001
      -3.6406143280878756e-001 3.7066190815805700e-004
      3.6542969000819103e-001 3.6505937155187307e-001
      3.6419276412590484e-001 3.6340039219097575e-001
      -3.6483472378144083e-001 1.6127694047008356e-001
      3.6211047037607891e-001 3.6509914307800240e-001
      3.6564966784317154e-001 -3.6403699900809294e-001
      3.6448295033748834e-001 3.6443492266811284e-001
      3.6406878524240904e-001 3.6324866739099210e-001
      -3.6402709235583475e-001 -3.6406237318106660e-001
      3.6355325960709267e-001 -3.6467350511366037e-001
      3.6365104115270780e-001 -1.1179585898387356e-003
      -3.6461423374782859e-001 -3.6354866797379431e-001
      1.4063162543167945e-003 9.0406629704034569e-004
      9.0742760768321162e-004 1.0058871196100445e-001
      -1.6844802104700324e-003 -8.7470312447637810e-004
      5.2937379124173845e-004 -5.4934981405337091e-004
      1.5131607596412244e-003 -6.5022251504068262e-004
      4.6348010195421119e-004 4.1742137299924376e-004
      -2.3583082844717829e-004 -7.4910533663537227e-004
      8.5984348810293210e-004 -1.7825508052007610e-003
      -1.0186966808081593e-003 3.6356006895133886e-001
      1.1296522467689751e-003 6.2494202358878703e-004
      1.6016719097457854e-001 1.6107843214396869e-001
      -1.6060622898248517e-001 3.6470649583244041e-001
      1.6170942375239350e-001 1.5958867367068424e-001
      1.6180974585145075e-001 -1.5978733783077731e-001
      1.6149456221796188e-001 1.6074203188650943e-001
      1.5816294707478762e-001 1.6191808900272586e-001
      -1.5861286440573613e-001 -1.6159884633420385e-001
      1.6119082055826989e-001 -1.5811007743027009e-001
      1.6092218918997409e-001 9.9948449636402925e-002
      -1.6100810952973693e-001 -1.6172668885462446e-001
      1.0073288174604278e-001 1.0117971020072743e-001
      -9.8957604639794250e-002 1.2214550439584165e-003
      1.0152581426329110e-001 1.0126033372700012e-001
      1.0059639568876305e-001 -1.0092358262567611e-001
      1.0060130163355396e-001 9.9744430219957533e-002
      1.0128306859807970e-001 9.9900626951139507e-002
      -9.8493791275024237e-002 -9.8147055466022745e-002
      9.9814012688471426e-002 -1.0008775479670255e-001
      9.8817864109246756e-002 1.5928025214875291e-001
      -9.9651873386138803e-002 -1.0088168714594679e-001
      1.6179925055877381e-001 1.5931667271978733e-001
      -1.5868406793768131e-001 3.6560438035227327e-001
      1.6107896764393109e-001 1.5852007978085836e-001
      1.5824696740395650e-001 -1.5817377456044956e-001
      1.6080208146048786e-001 1.5813026111145412e-001
      1.6107369303355418e-001 1.6155673066814341e-001
      -1.6186262794231437e-001 -1.6108729241244496e-001
      1.6045378633174595e-001 -1.5882450063328418e-001
      1.6074387324966474e-001 6.7395366318175054e-004
      -1.6100800538446985e-001 -1.6041186733505758e-001
      -1.2737516920239000e-003 -2.9635024089517958e-004
      -8.2898726494473607e-004 9.9391070639259477e-002
      1.6757877380338820e-003 -1.8651593157383434e-003
      -7.7025231595775900e-004 -1.7171443776657219e-003
      -1.3797372385538215e-003 1.3149823191654919e-004
      8.5781476882623720e-004 1.2951446202004446e-003
      -1.2142721865525674e-003 1.8021553941358071e-004
      4.7355244335650637e-004 -4.2375189052835938e-004
      1.6238314644143464e-003 3.6386177903961436e-001
      -1.0456151504474737e-003 2.7340719111566825e-004
      9.8404737229520478e-002 9.9006300412374251e-002
      -1.0148265926088816e-001 1.5608839819006848e-003
      9.9926028282784296e-002 9.8910926851584771e-002
      1.0085088394988956e-001 -1.0138891145069699e-001
      1.0055497284548164e-001 1.0068157326790964e-001
      9.8310424158423490e-002 1.0013884459392210e-001
      -9.8182168822352603e-002 -1.0175891634157397e-001
      1.0089970624763764e-001 -9.8975175950940908e-002
      9.9524630518136398e-002 1.5868693247335935e-001
      -9.8679593911104355e-002 -9.8564101358344564e-002
      -1.6037658703401464e-001 -1.6138939818864065e-001
      1.5818220667379260e-001 -3.6551950379793929e-001
      -1.5814694053285838e-001 -1.5852963871305598e-001
      -1.5798985896659470e-001 1.5839597814629558e-001
      -1.6087745812830490e-001 -1.6198132443229307e-001
      -1.6193652343811221e-001 -1.6184438215405908e-001
      1.6193799922938734e-001 1.5874472736811829e-001
      -1.6104206376437813e-001 1.5974596019227991e-001
      -1.5816008680787774e-001 -1.0063907408097782e-001
      1.5963258952657788e-001 1.6200923159891978e-001
      1.5981697956366256e-001 1.5901358271734437e-001
      -1.6007473110762510e-001 3.6598378099338646e-001
      1.6071209437335982e-001 1.6046837942657322e-001
      1.5909212743313067e-001 -1.5879523987212452e-001
      1.6190438350305802e-001 1.6005161643735594e-001
      1.6011242018654134e-001 1.6153112738812941e-001
      -1.5953066070012595e-001 -1.6042328451615856e-001
      1.6035742906796113e-001 -1.5930604277506477e-001
      1.5815879763469770e-001 1.0067780017420017e-001
      -1.5986506293461394e-001 -1.6191657455917066e-001
      1.0357787625320386e-003 -2.4784833869644085e-004
      1.8165693124637533e-003 9.9828799851746280e-002
      -1.2814777749809297e-003 1.5494069661998733e-003
      -1.0273387212532403e-003 5.5891068273118683e-004
      -1.3418436348856533e-003 -1.7225284564018062e-004
      1.7586522058685994e-003 -1.7540662461340562e-003
      1.9591442385328839e-003 -9.8414694081390419e-004
      -2.6903955761935217e-004 -7.6676495855590443e-005
      -1.7707866349419288e-003 1.5861738161817135e-001
      1.9367908917171939e-003 -1.7934482698824666e-003
      1.5863884489178554e-001 1.5856643600515768e-001
      -1.6136752530641230e-001 3.6515591755976495e-001
      1.5930740174457270e-001 1.6072346691267791e-001
      1.6179867916169274e-001 -1.6158815143902411e-001
      1.5900656783691039e-001 1.5917198978346353e-001
      1.6028463540293869e-001 1.6135933499122340e-001
      -1.5867706782383129e-001 -1.5829047118686768e-001
      1.5909695548716069e-001 -1.5826804107727821e-001
      1.6135701826479751e-001 9.9435384177500072e-002
      -1.6118069882135261e-001 -1.5878382474100589e-001
      -1.5852818162099919e-001 -1.6004681493319176e-001
      1.5825840128471597e-001 -3.6454146834575507e-001
      -1.5971784384406423e-001 -1.6050004986816846e-001
      -1.6191602629160334e-001 1.5962998176556165e-001
      -1.5840953469928087e-001 -1.5871122630421647e-001
      -1.5987723358871159e-001 -1.6140658685028786e-001
      1.5959135191123497e-001 1.5871728673840027e-001
      -1.6151767220321228e-001 1.5845465547177240e-001
      -1.5989761093989324e-001 -1.4141172101557881e-003
      1.6126670699114345e-001 1.5849565329633580e-001
      9.8764934659092904e-002 9.9321638052546943e-002
      -9.8043827413617265e-002 1.5254327680510743e-003
      9.9417012957941184e-002 1.0086361523211700e-001
      1.0020886237579535e-001 -9.8087674610011680e-002
      9.8447924583042565e-002 1.0040777737063671e-001
      1.0116611648845275e-001 9.8934801951850129e-002
      -9.8741419795624147e-002 -9.9177346306644487e-002
      1.0181062047105276e-001 -9.9207289264346077e-002
      9.9790302507136108e-002 1.6111541872610227e-001
      -9.7997608382640100e-002 -1.0055587835506526e-001
      -9.8606623907261867e-002 -9.9462315958191036e-002
      9.9890791484707295e-002 1.0487462273715692e-003
      -1.0000114254286850e-001 -9.8968883573987726e-002
      -1.0060403306382441e-001 9.9663254426770445e-002
      -9.8432196827741805e-002 -9.9182679506646970e-002
      -9.9382740757125484e-002 -9.9884256214158418e-002
      9.8047754459279948e-002 9.9575556680753574e-002
      -1.0133900552991534e-001 1.0116851085107069e-001
      -9.9003667654030653e-002 -1.6156306473550100e-001
      9.9066212822308833e-002 9.9305485723413217e-002
      1.6018786651584221e-001 1.6113618689063808e-001
      -1.6061846170433802e-001 3.6488843266050841e-001
      1.5855047923246263e-001 1.6004883583652485e-001
      1.6163416617552323e-001 -1.6136692112610973e-001
      1.5981094940816942e-001 1.6160524939756599e-001
      1.5859571915710158e-001 1.5850277441055322e-001
      -1.5914938083099389e-001 -1.6117165554949991e-001
      1.5804877950244975e-001 -1.6142661420493110e-001
      1.6104277097418654e-001 1.0115021871576822e-001
      -1.6053011799732833e-001 -1.5880705421272823e-001
      1.5828138618531784e-001 1.5945930566960023e-001
      -1.5985845454580150e-001 3.6259507623140785e-001
      1.6195725404498282e-001 1.6024918955769346e-001
      1.6175595206803339e-001 -1.6093275307865407e-001
      1.6113193108527682e-001 1.6018663484754947e-001
      1.6143691330324555e-001 1.5822817114909526e-001
      -1.6157835945438853e-001 -1.6088120432652686e-001
      1.5932966376438695e-001 -1.6071425680291573e-001
      1.6034888780570572e-001 1.0197952785653383e-001
      -1.6013512566310983e-001 -1.5913561664209069e-001
      1.5933997754708776e-001 1.6164277709670691e-001
      -1.6003477574672917e-001 3.6204830126876131e-001
      1.5836236177558788e-001 1.6181080936296921e-001
      1.6140321131328900e-001 -1.5876426762703610e-001
      1.5893839556473000e-001 1.6064409243956546e-001
      1.5927150688591077e-001 1.6178394022910242e-001
      -1.6020053331075879e-001 -1.5978065132449176e-001
      1.6109152962473389e-001 -1.6168969016393311e-001
      1.5916024121977468e-001 9.8636010502177962e-002
      -1.5835564274124733e-001 -1.5936122278224318e-001
      -3.6282026867172978e-001 -3.6283749569656465e-001
      3.6417007326908835e-001 -1.6102266916136687e-001
      -3.6282482061908139e-001 -3.6356444000985710e-001
      -3.6295215266972847e-001 3.6294162210218361e-001
      -3.6309774997919997e-001 -3.6389036026811572e-001
      -3.6396516284327723e-001 -3.6484581904024160e-001
      3.6531383382588523e-001 3.6372188136066896e-001
      -3.6209276614468167e-001 3.6530924613032911e-001
      -3.6583971934865306e-001 -1.0375067612477529e-003
      3.6591738339562541e-001 3.6564103120022784e-001
      2.8103076892047052e-004 -1.2706688176198910e-003
      -1.7652735100329026e-003 9.9216364015712502e-002
      7.8883486184402885e-004 1.5562609392472115e-004
      1.5935188857564009e-003 9.4669412753269067e-004
      -9.2392216182397846e-004 -1.0335690559087618e-003
      -7.3671114974041552e-004 2.2271614101482262e-005
      -1.4947181615479199e-003 1.6491551426049827e-003
      -1.2751047789551911e-003 -4.4697583645504635e-004
      1.4765308712928749e-004 3.6519531348505641e-001
      -1.1347732437722441e-003 -1.6594580842843598e-004
      8.2357427532325778e-004 7.4579347122799566e-004
      7.7382662682463910e-004 9.9143984565815316e-002
      9.3683231123803390e-004 -7.6953661443773802e-004
      -7.5523591137154067e-004 -1.2724635333261208e-003
      -1.9649928000588374e-003 -1.3544706470171863e-003
      1.5415242145074837e-003 8.2213191443430977e-004
      -9.2525077088781438e-004 1.1898446789837536e-003
      1.7984673795717887e-003 1.0967643753525963e-003
      -1.3398160060648645e-004 3.6349489627316262e-001
      -1.5035779317639636e-003 2.7579079006397056e-004
      3.6560992554532246e-001 3.6392029848357965e-001
      -3.6537311436674824e-001 1.5839661109606640e-001
      3.6358543854251857e-001 3.6579319946489225e-001
      3.6348587161547574e-001 -3.6443983513583833e-001
      3.6565033158070193e-001 3.6325328780376542e-001
      3.6425707955263920e-001 3.6291302428150563e-001
      -3.6394498836525058e-001 -3.6409636336282869e-001
      3.6238396171097764e-001 -3.6498646270442769e-001
      3.6573698748628714e-001 -1.1394630265015027e-003
      -3.6325257843554248e-001 -3.6412694610841501e-001
      1.5849511169871067e-001 1.6180093067086321e-001
      -1.6177171859333700e-001 3.6278256943625975e-001
      1.5824600458244514e-001 1.5900612716817700e-001
      1.5885753752197024e-001 -1.5968236161004262e-001
      1.5958902011508069e-001 1.6009911097015464e-001
      1.5875843750522395e-001 1.6110897417683320e-001
      -1.5936320033983387e-001 -1.5926930667164080e-001
      1.6143629959781841e-001 -1.5985266577270654e-001
      1.5885757877855697e-001 9.9820304914133962e-002
      -1.6080041290422703e-001 -1.6184203564146638e-001
      1.0942129716166593e-003 3.1305322062356866e-004
      6.6834301828169740e-004 -9.9532181413932358e-002
      -1.1806372810865412e-003 -1.2888631451484361e-003
      -5.8205695119060985e-004 -1.4087312766681848e-003
      -7.3906958189415284e-004 -1.3079582872580348e-003
      1.7469407546634452e-004 -8.0742872291358903e-004
      -4.1846228184257150e-004 -6.8650613662919746e-004
      -4.1037759747544755e-004 1.1243672785139353e-003
      1.0467783631129129e-003 -3.6409240748845006e-001
      1.9006178110463068e-004 1.4221630283994813e-003
      -5.0462991246562339e-004 -1.1611102734532253e-003
      8.2052027232017155e-004 1.0060225762945534e-001
      1.0786641819241355e-003 -1.9317607752293298e-003
      -3.7587551248255413e-004 -7.3832042342829307e-004
      -1.3765073987966336e-003 -1.1677625712642054e-003
      1.7098950963927162e-003 1.7665651419295075e-003
      1.0897745921502333e-003 -1.3327050453137562e-003
      1.0427009041000801e-003 -1.6316780123285524e-003
      1.8600199975448983e-003 3.6349094867997889e-001
      -1.6244036776050935e-003 1.8801078569875285e-003
      -1.0128584165399659e-001 -9.8405966749609636e-002
      1.0006421897561002e-001 1.5925050605329616e-003
      -9.9760077328426178e-002 -9.9409894949150229e-002
      -9.9696073758668874e-002 9.8938580761510367e-002
      -9.8990614347630165e-002 -9.8190799044263713e-002
      -9.8031811179444067e-002 -9.9704010790809983e-002
      9.8823363964250205e-002 1.0193529685469747e-001
      -9.9980203087426986e-002 9.9369853097728722e-002
      -1.0114946107488981e-001 -1.6174316889899326e-001
      9.9519377486764773e-002 9.8666902892906763e-002
      9.9925041989987862e-002 1.0121319494899381e-001
      -1.0154774048916841e-001 1.8834720887031253e-003
      1.0074675680714168e-001 1.0113133263377884e-001
      1.0012945587407257e-001 -1.0130134806513066e-001
      1.0130088704138608e-001 1.0064314530681484e-001
      1.0083403893608849e-001 9.9494074519505440e-002
      -9.9132885207864938e-002 -9.8443042418814755e-002
      9.9697697602330312e-002 -9.9871621181472789e-002
      1.0031032443277485e-001 1.6091983325579257e-001
      -9.8614524545570847e-002 -9.9952885351703435e-002
      -3.6345361522029962e-001 -3.6272628466525925e-001
      3.6339199566935532e-001 -1.5918162734960351e-001
      -3.6406315628870844e-001 -3.6452370723955496e-001
      -3.6227076526791779e-001 3.6291672835743116e-001
      -3.6356161909972307e-001 -3.6303379849908335e-001
      -3.6262261774558180e-001 -3.6573952748383554e-001
      3.6351701334867359e-001 3.6260567149861411e-001
      -3.6594177113585813e-001 3.6377402195902198e-001
      -3.6348810734011383e-001 9.6557615495554416e-005
      3.6561996533698127e-001 3.6562161956980310e-001
      -1.9491992009803422e-003 -1.9310785891970828e-003
      7.9163186356480397e-004 9.8072226855232730e-002
      2.2947101709104578e-004 -1.7648162763740649e-003
      -1.2130552323245114e-003 1.1320664200067665e-003
      -1.3818516877907167e-003 8.1510336338348754e-004
      -3.9091756966253000e-004 -6.8227132786845279e-004
      -1.2833858921806607e-003 -2.4352146815370679e-005
      1.8336192986399963e-003 -8.5276974347488210e-004
      -2.3374846209185673e-004 1.5815272494235263e-001
      -1.5089002982331123e-003 6.0328672640709569e-004
      -1.2196264722796890e-004 -1.9347846167899752e-003
      -1.4835037021293240e-003 -1.0030848631448915e-001
      1.1965341420702436e-003 1.5431336266522183e-003
      -1.6067441462156579e-003 1.1438423807721837e-003
      5.0092463796772013e-004 6.2392491349456958e-004
      -5.4206432166949148e-004 -5.7575338498880302e-004
      1.5042912060460600e-003 1.6493853169807365e-003
      1.3823339629639997e-003 -1.4852024521753437e-003
      -1.3673042303966182e-003 -3.6209550852150840e-001
      -1.5603860581734907e-003 -5.9359635316015569e-004
      1.6186062725974115e-003 -1.8719676270492341e-003
      -1.8289060671675128e-004 1.0105096981856998e-001
      -1.8654775649919325e-003 3.2772617411369609e-004
      -1.6954047158022484e-003 7.7634322478856155e-005
      -1.1924711389654508e-003 1.0693865080281667e-003
      1.3588038653437468e-003 -2.5653602475722570e-005
      8.4964121440934959e-004 -1.4039558676619962e-003
      1.1757427029755463e-003 3.2781856277032395e-004
      1.8423254083587276e-003 3.6483731047746221e-001
      1.5377051628834709e-003 2.6276654739042227e-004
      -1.0179441669088431e-001 -9.9842085644596415e-002
      9.9788503007860116e-002 -9.1501232339824545e-004
      -9.9430107161519676e-002 -1.0144143580223181e-001
      -1.0106800379846036e-001 1.0097959103710885e-001
      -9.9786293589497699e-002 -1.0073576579432561e-001
      -1.0074481474354147e-001 -1.0079660603902604e-001
      1.0035234957525473e-001 1.0019757883640419e-001
      -1.0064690177962690e-001 9.9692986597700553e-002
      -1.0062165431626736e-001 -1.5838977387406805e-001
      1.0140955068137607e-001 1.0041156860532523e-001
      -3.6295704770550652e-001 -3.6332096091476995e-001
      3.6478472305925436e-001 -1.5818637651300882e-001
      -3.6498544524134247e-001 -3.6398956939903426e-001
      -3.6556499697098699e-001 3.6455408493340802e-001
      -3.6205297515955059e-001 -3.6547477544044610e-001
      -3.6584180137669864e-001 -3.6521263698743534e-001
      3.6283090850880007e-001 3.6241825027809171e-001
      -3.6438388801139732e-001 3.6389360518084601e-001
      -1.5909176191285868e-001 -1.0079157079660073e-001
      3.6230487523570076e-001 1.5891772093931730e-001
      -1.8122910301997114e-003 9.5778263886044102e-004
      5.2222502953686023e-004 1.0165621633854850e-001
      -1.8736110170009812e-003 9.5311043562060216e-004
      -5.4963019431217286e-004 -1.2327548036848573e-003
      -1.6061487421050041e-003 -8.5284836150864574e-004
      3.5009679545992822e-004 -1.4016674874887391e-003
      9.1901310446060314e-004 1.1206978741040707e-004
      2.8762033011520138e-004 1.2290761396282907e-003
      1.1584984068351567e-003 3.6579272128349427e-001
      -1.1335609736380231e-003 -1.6261293346533090e-003
      9.8321271839667268e-002 9.8033068228313036e-002
      -9.9528113008623714e-002 -1.5059998439605482e-003
      1.0012192494140298e-001 9.9008695663914098e-002
      9.8195687473782017e-002 -9.9041359568399337e-002
      1.0189342728638501e-001 1.0149373576640908e-001
      9.8842267803822048e-002 1.0087346103332308e-001
      -9.9261555267448384e-002 -9.8665942220966377e-002
      9.9715562911127167e-002 -9.8222432031021670e-002
      9.9721199336136282e-002 1.6052500800659469e-001
      -1.0128670994397888e-001 -9.9186494778479337e-002
      -3.1575416692422587e-004 -1.2701444828523284e-003
      1.9456989614407699e-003 1.0080667110555606e-001
      5.4154720420898639e-004 -1.3100481648870149e-003
      8.1286110830937341e-004 -8.3842386005897329e-004
      5.0946208898558498e-004 -1.0433446221036063e-003
      -2.6768387551763528e-004 1.6122643232165668e-003
      1.3591467742671143e-003 -1.8242328196796248e-003
      7.7172177219858584e-004 -5.9512605273660812e-004
      4.9022449445870753e-004 3.6428400758192342e-001
      4.2546173974845891e-004 5.1533944831773371e-004
      9.8121664243357429e-002 1.0070600516717937e-001
      -1.0176158613093306e-001 -1.3047888593086115e-003
      1.0144183382940294e-001 9.9896044585706431e-002
      1.0136235445569756e-001 -9.8167127375889673e-002
      9.8110557636905557e-002 9.9989136372379578e-002
      1.0185514458708050e-001 9.8804472420045225e-002
      -9.8875828034470911e-002 -1.0013961426238496e-001
      1.0087349774644520e-001 -1.0081261834067136e-001
      9.8926652677781862e-002 1.5891406608599440e-001
      -9.9356108223986397e-002 -9.9268039863120661e-002
      -3.6422692773990129e-001 -3.6432135245112396e-001
      3.6224390892385760e-001 -1.5936747065886109e-001
      -3.6216675390541214e-001 -3.6221958949710065e-001
      -3.6382335420893386e-001 3.6484660043399564e-001
      -3.6461733505614119e-001 -3.6459717369996392e-001
      -3.6325253043596667e-001 -3.6303289584841736e-001
      3.6583183936441871e-001 3.6331780114711298e-001
      -3.6586506924961426e-001 3.6540714163354859e-001
      -3.6270656178464344e-001 -9.9725470969231650e-002
      3.6266451231663988e-001 3.6542487240542432e-001
      -5.5776316411329518e-004 -4.0662770781298152e-004
      -1.6461867575510158e-003 1.0046126447846965e-001
      -1.0557372327291148e-004 1.2855684154493424e-003
      -6.5749435446768589e-004 -4.6805490410614659e-004
      -1.0625246593687909e-003 -1.8421887845258972e-003
      1.9926152867634495e-004 -5.4289139216895377e-004
      1.6407153939006214e-004 1.0678396711940874e-003
      3.3505922952938028e-004 -1.6436301578572621e-003
      -7.9419544585838941e-004 3.6492061901078399e-001
      1.5682696934542217e-003 1.1203128963211545e-003
      -3.6554556457238707e-001 -3.6442184498581209e-001
      3.6261546396333799e-001 -1.6173629204051987e-001
      -3.6315791112234042e-001 -3.6253392616369118e-001
      -3.6252124708606948e-001 3.6331388536696874e-001
      -3.6286800495983684e-001 -3.6347288036949899e-001
      -3.6415921689974312e-001 -3.6388163068224871e-001
      3.6531964036399123e-001 3.6282693931799409e-001
      -3.6474019275763492e-001 3.6542448197989486e-001
      -3.6205616344271951e-001 -9.8399994466252777e-002
      3.6458245355424534e-001 3.6436197920760505e-001
      1.5946740527391912e-001 1.5912426077372413e-001
      -1.6037536975281352e-001 3.6498523791738857e-001
      1.6143949163815427e-001 1.5894904350241734e-001
      1.5964067068275078e-001 -1.6130057340304610e-001
      1.5837577585810675e-001 1.5962153112082697e-001
      1.6123616054446580e-001 1.5907780191811716e-001
      -1.6147225599932657e-001 -1.5844080151193959e-001
      1.5961648883571550e-001 -1.6026017889665073e-001
      1.6170691059129727e-001 9.9566571748080687e-002
      -1.5985225888035109e-001 -1.5974915831484271e-001
      1.5984302913188761e-001 1.5943856740568257e-001
      -1.5863118857787328e-001 3.6588149619625687e-001
      1.5857840097481396e-001 1.5816622459718324e-001
      1.5908359040590753e-001 -1.6049587421984951e-001
      1.5818925126769484e-001 1.5844619390097339e-001
      1.6123118744436754e-001 1.6020431678852959e-001
      -1.5971832017608639e-001 -1.6100884082354291e-001
      1.6076223912410523e-001 -1.5859040541267022e-001
      1.6082936956094707e-001 1.0055852549222422e-001
      -1.5973952882442727e-001 -1.5918338050378983e-001
      -1.6184423766128264e-001 -1.6148742347915840e-001
      1.6010402093471354e-001 -3.6560222535842746e-001
      -1.6002141404768500e-001 -1.5809818978244092e-001
      -1.6191193068959420e-001 1.5810370126368758e-001
      -1.5856617149281971e-001 -1.5830051908656423e-001
      -1.6185132217178089e-001 -1.5876807495121847e-001
      1.5932359636974372e-001 1.5919464217160056e-001
      -1.5978866985001638e-001 1.5889866138961756e-001
      -1.5890553148385456e-001 -9.9571656135285846e-002
      1.6053660499078998e-001 1.6151316364806775e-001
      5.6883030337491480e-004 -1.4657447800483780e-003
      -1.4597294806689004e-003 1.0017285007152620e-001
      1.1401357010515645e-003 1.8721731043361139e-003
      8.1734983235165481e-004 8.5365005932108717e-004
      1.3974580951104099e-003 -1.2688518444609054e-003
      1.5911137584451313e-003 1.7339780569397556e-003
      7.9673148317305209e-004 6.5027937946691983e-004
      -1.4032349127467147e-004 -7.6072905808770297e-004
      1.6788762953056369e-003 3.6257194848350355e-001
      -8.7643993477076743e-004 1.6992740225634378e-003
      1.5979753244380684e-001 1.6146069821823394e-001
      -1.5827408420036126e-001 3.6304046459538064e-001
      1.5818596910518956e-001 1.5943124612586715e-001
      1.5864569927829328e-001 -1.5909206767609438e-001
      1.5848950265631578e-001 1.6058178709711102e-001
      1.5902211199999811e-001 1.6120868081078060e-001
      -1.5846840764527831e-001 -1.5847556576604044e-001
      1.5838824940755031e-001 -1.6044156419198052e-001
      1.5907352953346859e-001 9.9515224072414810e-002
      -1.5974194302435055e-001 -1.6035289725113755e-001
      -1.0138032415226864e-001 -9.9567748136046075e-002
      9.8716064353957036e-002 -1.7616713066351264e-004
      -1.0099354167366878e-001 -9.9594773746890949e-002
      -9.9992281783327655e-002 1.0046242196336898e-001
      -1.0066809281430747e-001 -9.8842552598627689e-002
      -1.0051295079118952e-001 -9.8724321979743138e-002
      1.0147548144713366e-001 9.9910534861344089e-002
      -1.0147014164556388e-001 9.8915876442456446e-002
      -1.0099176644337615e-001 -3.6480637275603917e-001
      1.0007308016291395e-001 1.0087019138942518e-001
      1.6184063576379432e-001 1.5948249664735997e-001
      -1.5864896422183694e-001 3.6586006081909839e-001
      1.6004846313532878e-001 1.5994406535167460e-001
      1.5971811121281054e-001 -1.6126534216316118e-001
      1.6178971752563337e-001 1.5925537832764214e-001
      1.5819714582605282e-001 1.5988168069605016e-001
      -1.5854610892498838e-001 -1.5889121613690449e-001
      1.5946902174707808e-001 -1.5895478289302864e-001
      1.5817247812087806e-001 1.0181453449297195e-001
      -1.6138043394696444e-001 -1.5923243519455310e-001
      -1.0063044095590500e-001 -1.0114394066376710e-001
      1.0138109249000633e-001 -2.0749555834848055e-004
      -1.0016080837563222e-001 -9.9848040501529178e-002
      -1.0060360517675584e-001 9.8949494263801216e-002
      -1.0160082939914430e-001 -1.0144164186654700e-001
      -9.8544315996441992e-002 -1.0071556293196512e-001
      1.0125545186723904e-001 9.8735146363646331e-002
      -9.9175605391680660e-002 1.0160037439259369e-001
      -9.9782774911229333e-002 -1.6169742813863347e-001
      9.8738102900698579e-002 9.8582728078862841e-002
      -1.6113813270675309e-001 -1.5990748520024334e-001
      1.6106233486493721e-001 -3.6448387867321019e-001
      -1.5947402080630410e-001 -1.5965820112383294e-001
      -1.5895080785201615e-001 1.5893747785260168e-001
      -1.5829833095163492e-001 -1.6018695746452491e-001
      -1.5865366962465258e-001 -1.5871977049224420e-001
      1.5828669417953167e-001 1.5968259120246220e-001
      -1.5967354575317561e-001 1.5882611907053912e-001
      -1.6091497084180797e-001 -9.8329359834827143e-002
      1.5822223587103773e-001 1.6145772516194482e-001
      4.2467568714230075e-004 1.6672015951859631e-003
      1.5912074156472500e-004 9.8956894421265665e-002
      1.4050858826549772e-003 1.3554284682677636e-003
      6.4214189381200937e-004 -1.3094198276572960e-003
      1.8470790082028982e-003 1.8590611568540250e-003
      1.5174462248177256e-003 1.9335218215589950e-003
      -1.4267725257320896e-003 1.7592389893169164e-003
      -1.1088774471434137e-003 -6.2852139072441804e-004
      8.1798733140348023e-005 3.6268910352336214e-001
      7.4706950556256702e-004 -9.2022458627258330e-005
      -3.6549824400247299e-001 -3.6581760998860957e-001
      3.6577895005583633e-001 -1.5986924883710579e-001
      -3.6339129015158922e-001 -3.6499969491330436e-001
      -3.6593980801364601e-001 3.6503151015546287e-001
      -3.6281579375645279e-001 -3.6274274013257501e-001
      -3.6584577380333683e-001 -3.6275050328644409e-001
      3.6244362454768531e-001 3.6286001901378384e-001
      -3.6459826768860426e-001 3.6443409387331771e-001
      -3.6456805445024182e-001 -2.0905731278636486e-005
      3.6351428623606064e-001 3.6448361039156485e-001
      9.8696845963838764e-002 1.0159785234021801e-001
      -9.9695379400546291e-002 -7.3872597177364330e-004
      9.9072295413927883e-002 1.0156444701494211e-001
      9.9445285746725620e-002 -9.9096905032501001e-002
      1.0113192102676095e-001 1.0069820495073843e-001
      1.0043926076990362e-001 9.9753646348808622e-002
      -1.0117441769973891e-001 -1.0117596049899323e-001
      9.9576021447656496e-002 -1.0104879297057327e-001
      1.0193611399151892e-001 3.6255228317737775e-001
      -9.9414207103356675e-002 -1.0094522734986404e-001
      1.8192202962364346e-003 -1.7261945941605544e-003
      -1.5156972833775678e-003 9.9338348104528143e-002
      1.2373895081492781e-003 2.9194753902553328e-004
      2.2177620301834511e-004 3.2783383458999393e-004
      5.1937398867624163e-004 8.8453041868279125e-004
      7.7541469335733193e-004 -3.7713109726809912e-004
      -1.1432359301929290e-003 -9.6323799866467052e-004
      -1.6423740745143411e-003 -2.4097590887828257e-004
      1.4481290159728960e-003 3.6229254842394987e-001
      7.3753572632198616e-004 1.3200347728876544e-003
      1.0185527392216344e-001 9.9816284649233561e-002
      -1.0033133560175789e-001 -1.3475866777612061e-003
      9.9124816039759076e-002 9.8194584559840245e-002
      9.8229803346691610e-002 -1.0138761718557988e-001
      1.0172795971002345e-001 9.9735554711092356e-002
      1.0159683249084595e-001 9.9474559221102446e-002
      -9.8505575996476552e-002 -1.0127157487278650e-001
      9.8835353575935453e-002 -9.8606108496248429e-002
      9.8994819212925772e-002 1.6060762272993134e-001
      -1.0168477063499408e-001 -9.8301466914353444e-002
      -3.6538897266533754e-001 -3.6559558665542219e-001
      3.6453616020849666e-001 -1.5956246520469852e-001
      -3.6432474869692211e-001 -3.6309061894449945e-001
      -3.6505574093614523e-001 3.6595318424371004e-001
      -3.6309175325032195e-001 -3.6267738091635660e-001
      -3.6564701383056453e-001 -3.6441871975106921e-001
      3.6432057563022235e-001 3.6515545811935401e-001
      -3.6350358003812278e-001 3.6419955645367957e-001
      -3.6588027857087591e-001 4.5934892007513939e-004
      3.6473002563291212e-001 3.6576005047898807e-001
      -3.6320348860740997e-001 -3.6229449221303189e-001
      3.6539831762978436e-001 -1.6176067055219256e-001
      -3.6350825571999035e-001 -3.6487300177807103e-001
      -3.6291891099211271e-001 3.6204271387938525e-001
      -3.6277362861606510e-001 -3.6232071256624065e-001
      -3.6594566268273576e-001 -3.6453581017235426e-001
      3.6380422920835009e-001 3.6315493481975891e-001
      -3.6392449795496828e-001 3.6458163123816201e-001
      -3.6257982113600901e-001 -1.6129984319809137e-003
      3.6371701687964675e-001 3.6329929085939194e-001
      -1.6135395600651853e-001 -1.6002549271419642e-001
      1.6144933519168214e-001 -3.6455868403844538e-001
      -1.5841705083517657e-001 -1.5888522366583890e-001
      -1.6040446363950245e-001 1.6025769404604040e-001
      -1.5940343386079944e-001 -1.5932150762908834e-001
      -1.6194924851466436e-001 -1.6188746862450704e-001
      1.5891469670388048e-001 1.5935867589105254e-001
      -1.5951136583790682e-001 1.5900250937182947e-001
      -1.5913523537684829e-001 -1.0030468546011163e-001
      1.5990505174883701e-001 1.5988202655254358e-001
      1.5825606615230198e-001 1.6173684205586963e-001
      -1.6006280511691459e-001 3.6217947030986475e-001
      1.6083349970122884e-001 1.6140638461928036e-001
      1.6050613024292537e-001 -1.6133208790352002e-001
      1.5951213009977783e-001 1.6120257036698410e-001
      1.6121205087491888e-001 1.5871870593595361e-001
      -1.6167984878835123e-001 -1.5929201003445786e-001
      1.6119710910487345e-001 -1.6037203468132596e-001
      1.5849540709020993e-001 9.9687624995223253e-002
      -1.6186681129885738e-001 -1.6033273869199410e-001
      -3.6335440452645784e-001 -3.6494009341578626e-001
      3.6230601058776946e-001 -1.5905863094972622e-001
      -3.6359337707388717e-001 -3.6214660973523910e-001
      -3.6567859376464007e-001 3.6400408666562245e-001
      -3.6374816391913323e-001 -3.6274668080895045e-001
      -3.6333514631646957e-001 -3.6439507921688219e-001
      3.6459028028773433e-001 3.6546385198615550e-001
      -3.6336532893653684e-001 3.6575723976885410e-001
      -3.6306764774921041e-001 7.4144514234823766e-004
      3.6347650116315516e-001 3.6278723098774324e-001
      9.8782462358633610e-002 1.0147841800981983e-001
      -1.0032748447126427e-001 1.8216757417584273e-004
      1.0087455295118394e-001 9.8488288541896771e-002
      1.0041288926742313e-001 -9.8065486266603066e-002
      1.0000359030971635e-001 1.0174373110592952e-001
      9.8913091971287115e-002 1.0154816867147173e-001
      -9.9679487082820928e-002 -1.0057917005959910e-001
      1.0050236548031730e-001 -9.8783454691090941e-002
      9.9160217100984147e-002 3.6420426096859759e-001
      -1.0160068511501381e-001 -9.9683010194107163e-002
      -1.0001231878384689e-001 -1.0182781800503987e-001
      1.0165096340078479e-001 4.9523073882067059e-004
      -1.0103715095467883e-001 -9.8904012739597688e-002
      -1.0138351746302744e-001 9.8690584567300024e-002
      -9.8122574878781801e-002 -9.8855528576075338e-002
      -1.0118152905498011e-001 -9.8430571795841207e-002
      1.0145390430436961e-001 1.0188395268278312e-001
      -1.0186886892441677e-001 9.9716439772006740e-002
      -1.0143228694275414e-001 -1.6153479458711972e-001
      1.0087373487626720e-001 9.9777451626902727e-002
      -1.0072471818867955e-001 -9.9486285239998307e-002
      9.9624087448276596e-002 -1.5614477193305470e-003
      -9.8527527849557067e-002 -1.0071123846076276e-001
      -1.0085162980295724e-001 1.0111957853376995e-001
      -1.0064201875761215e-001 -1.0056169870900014e-001
      -1.0046534354557357e-001 -9.9521785320309253e-002
      9.9389597938473184e-002 9.8840168281683835e-002
      -9.9045577530518916e-002 1.0100668817991487e-001
      -1.0166184525272831e-001 -1.6140104758297852e-001
      1.0065144957914295e-001 1.0182838737724910e-001
      -1.0176999302092071e-001 -1.0096712550234467e-001
      1.0101032816932730e-001 2.1057062036392016e-004
      -9.9148939594172869e-002 -9.8029335445081231e-002
      -9.9860474996571635e-002 1.0148430074274263e-001
      -9.9756001963119442e-002 -9.8826181980711539e-002
      -9.9427491910128854e-002 -9.8494036187437906e-002
      1.0113879517236421e-001 1.0188699621577348e-001
      -1.0188528382120728e-001 9.8563794872402535e-002
      -9.8850629746827789e-002 -1.5998961532685640e-001
      9.8987734017371820e-002 9.8062205329349589e-002
      1.0162933992181802e-001 9.9209929584064216e-002
      -9.9093554767707273e-002 -7.5284413595153032e-004
      9.8138688260530529e-002 9.8591753574609989e-002
      1.0036771709373289e-001 -1.0080218894567650e-001
      1.0017124440539417e-001 1.0025966357639163e-001
      1.0150283448006617e-001 1.0166391215278175e-001
      -1.0094699717677035e-001 -1.0104885079856281e-001
      9.9489571645082209e-002 -9.8094902516735652e-002
      9.8772595103477287e-002 1.5897824194235444e-001
      -9.9797888647747995e-002 -9.8445105614555745e-002
      3.6276463519966706e-001 3.6498159494292226e-001
      -3.6412277835981632e-001 1.6077381636177826e-001
      3.6582044125015289e-001 3.6578143414420639e-001
      3.6289793926076247e-001 -3.6498741186442440e-001
      3.6255304831313917e-001 3.6282929269370645e-001
      3.6325299208762263e-001 3.6290712252149349e-001
      -3.6339554485061082e-001 -3.6415912227803493e-001
      3.6239957974104653e-001 -3.6513776378624779e-001
      3.6262837057918407e-001 1.6290097425402245e-003
      -3.6567112871003804e-001 -3.6499489110449190e-001
      9.6183526160237287e-004 -1.9125309229857113e-003
      -8.9457945235342506e-004 9.9541839345332839e-002
      2.9661315444412528e-004 -1.7849234230981059e-003
      -4.1733172461483337e-004 9.4859623034974916e-004
      -1.2778191549112222e-003 5.0311722058812847e-005
      -7.2780683188430895e-005 -9.8376864241864204e-004
      1.0722457101285249e-003 -9.7726134958425748e-005
      1.9445938269582186e-003 1.4516763977464875e-003
      -6.3368014201692358e-004 3.6395740644247110e-001
      -8.9355875288280040e-004 1.6924078790430813e-003
      -1.5900282860642770e-001 -1.5968541306337258e-001
      1.6162963866709951e-001 -3.6293897788865526e-001
      -1.5849795903755609e-001 -1.6154762856427773e-001
      -1.6121800286279356e-001 1.6157892835115872e-001
      -1.5882161037133849e-001 -1.6187537265312651e-001
      -1.6086590237167200e-001 -1.5895008949810363e-001
      1.6188771865030394e-001 1.6026349925121852e-001
      -1.5980271303375176e-001 1.5878693578437797e-001
      -1.6144476115527490e-001 -1.0160263939254310e-001
      1.5932405011411438e-001 1.6048168647565930e-001
      -4.8520879837599118e-004 -2.0897120202478803e-005
      -1.6537203380054266e-003 9.8345856253093417e-002
      4.9321509424371524e-004 5.9259162128215415e-004
      3.3869415386085511e-004 -1.8999640379740168e-003
      1.0729111475855091e-003 -1.1199750166973610e-004
      1.0042996511359231e-003 -1.6292917593423856e-003
      -5.3852233375920044e-004 7.0013084207565246e-005
      -6.8302008789770940e-004 -1.3283203119490578e-003
      -1.4240569391994751e-003 3.6521817410389812e-001
      -1.9748066439679857e-003 -2.1132245652304149e-004
      -3.6553504454169838e-001 -3.6406056903704659e-001
      3.6287833152012067e-001 -1.6089860379384435e-001
      -3.6268855900078212e-001 -3.6434469875188513e-001
      -3.6583512637789822e-001 3.6353736723956942e-001
      -3.6281153117459208e-001 -3.6509552362684283e-001
      -3.6475111845921060e-001 -3.6297715307411993e-001
      3.6329471194916030e-001 3.6452247852703440e-001
      -3.6314298425541341e-001 3.6335315073839825e-001
      -3.6487489754353292e-001 -1.5748151770651891e-003
      3.6499721759607817e-001 3.6310367810712108e-001
      -9.8325220255418552e-002 -9.8641168297782814e-002
      9.8268174521362051e-002 1.6342256114163095e-003
      -9.9922107562625595e-002 -9.8456849885259309e-002
      -1.0035531938640539e-001 1.0161946926445008e-001
      -9.9213749000549592e-002 -9.8229158748409762e-002
      -1.0006712985525648e-001 -1.0079353165865143e-001
      1.0175998960696520e-001 9.8679138017877824e-002
      -9.9436372115475402e-002 1.0089745652070420e-001
      -1.0080548108435158e-001 -1.6124219583307980e-001
      1.0024470268717968e-001 1.0018603180181621e-001
      -3.6329439069759129e-001 -3.6364716827393972e-001
      3.6223218675096003e-001 -1.6130170904704444e-001
      -3.6391562447706177e-001 -3.6314803213207170e-001
      -3.6461185058107914e-001 3.6471064525256824e-001
      -3.6530526381160944e-001 -3.6409898421237075e-001
      -3.6255119772837452e-001 -3.6417350022313305e-001
      3.6443505938209908e-001 3.6206665695856888e-001
      -3.6540400692345631e-001 3.6310389204507165e-001
      -3.6451324376115712e-001 1.3972462844673156e-003
      3.6598993974533156e-001 3.6510462866332538e-001
      -1.5924607052611683e-001 -1.5820820802018631e-001
      1.6186637671335385e-001 -3.6451194328740144e-001
      -1.5867774168363230e-001 -1.6013004247759721e-001
      -1.6091990661788852e-001 1.6034816503187699e-001
      -1.6165685127450030e-001 -1.5945762460599391e-001
      -1.6077139530035811e-001 -1.5871901402682653e-001
      1.5936041785867877e-001 1.5954246434620883e-001
      -1.5901210670269944e-001 1.6096474034215830e-001
      -1.5991502413521469e-001 -1.0035514704117103e-001
      1.6017637660130157e-001 1.5866697460408324e-001
      1.0034853823283427e-001 1.0159062735655966e-001
      -9.8970315134682851e-002 -1.3624346416165195e-003
      9.9602944261465751e-002 1.0099040636535456e-001
      9.9242333296213264e-002 -1.0086409412672724e-001
      9.8533683500186126e-002 9.8468367272716142e-002
      1.0080716905004244e-001 1.0177048439626087e-001
      -1.0105348647066276e-001 -1.0193285593297417e-001
      9.9471582452280827e-002 -1.0003619190299777e-001
      9.8410167978065746e-002 1.5848489231878204e-001
      -9.9270975730448810e-002 -9.9281870272733358e-002
      -1.6560495793292024e-003 -1.8219094144907022e-003
      1.8094920411627219e-003 9.9727407549696778e-002
      -6.0216595649899285e-004 -1.7854826868166918e-003
      -2.0395673460752717e-003 -7.7080447158797694e-004
      -1.1237543039821080e-003 1.0885792344247774e-003
      -1.9287903059481415e-003 -1.8749803275842913e-003
      1.4606012443989375e-003 1.1011828469857515e-003
      4.1462275303720542e-004 -1.0429639397975393e-003
      1.7580741033708935e-003 3.6317927204881517e-001
      9.2711885549753847e-005 -1.0958650950583515e-003
      -9.1830017862212787e-005 -9.0893247385075149e-004
      1.8622486281215100e-003 1.0102340526161510e-001
      3.4341032606681476e-004 -7.7612568187022946e-004
      -1.9852210202910558e-003 6.6203274804013668e-004
      -2.3840928551746576e-004 6.5166084904381971e-004
      -2.2255483694721967e-004 1.8157126710940802e-003
      7.3740388775206389e-004 -1.8381498427964271e-003
      -1.3565770423596413e-003 1.0548610688919935e-003
      -1.4997909788821845e-003 3.6367715746928603e-001
      1.9149395330991525e-003 -2.2489275120537999e-004
      -1.5990779501754063e-001 -1.5913708637583823e-001
      1.6097302857275969e-001 -3.6240963637987789e-001
      -1.6182052079531584e-001 -1.5955911773698903e-001
      -1.5924062125035138e-001 1.6127165466608684e-001
      -1.6110753813309914e-001 -1.6053501781998597e-001
      -1.6082224570075099e-001 -1.6016039429213713e-001
      1.6126280963304823e-001 1.5806889990799070e-001
      -1.5840147821422157e-001 1.6050471845555470e-001
      -1.5971555449499264e-001 -9.8606579841687039e-002
      1.6092076705453148e-001 1.6033070798648302e-001
      -3.6256215978907330e-001 -3.6583276129094999e-001
      3.6317393548226040e-001 -1.6104939290706455e-001
      -3.6282119663868750e-001 -3.6338789202017174e-001
      -3.6496186707365841e-001 3.6596328321706706e-001
      -3.6496746810598463e-001 -3.6412640377839833e-001
      -3.6258117644091947e-001 -3.6289419533889211e-001
      3.6290118117400949e-001 3.6272590755900502e-001
      -3.6286997930040676e-001 3.6545117631143981e-001
      -3.6436666706000354e-001 -1.9478399523547990e-003
      3.6522390949036476e-001 3.6281417396054449e-001
      -1.0046262264185513e-001 -9.8421793892520412e-002
      9.8899979311375188e-002 -1.3038995173793450e-003
      -1.0024034429020641e-001 -9.9946868704839514e-002
      -9.9559212557910504e-002 9.8621180027090624e-002
      -1.0189999076527352e-001 -1.0011969066925305e-001
      -1.0074554843067017e-001 -9.8607148146578782e-002
      1.0120496957788576e-001 9.9373638662449151e-002
      -1.0022929134520991e-001 9.8398356909928431e-002
      -9.8961031063443269e-002 -1.6134249138085682e-001
      1.0056624822364514e-001 1.0035448060137414e-001
      1.5867165023782182e-001 1.6118522715971545e-001
      -1.5836808078218445e-001 3.6300209756984625e-001
      1.5970701605219928e-001 1.6101321933402812e-001
      1.6092769498639015e-001 -1.5947315334914786e-001
      1.5857523602611334e-001 1.6190929880480198e-001
      1.5982988048391766e-001 1.6069477368480478e-001
      -1.6029574803946184e-001 -1.6071196626141318e-001
      1.6165428490660877e-001 -1.6143447384314713e-001
      1.5990264537260049e-001 1.6256454258611608e-003
      -1.5963781928800880e-001 -1.5851704230092689e-001
      -3.6276950995087676e-001 -3.6558531108728376e-001
      3.6353773342534768e-001 -1.5891636296215070e-001
      -3.6341111138452764e-001 -3.6446660260006691e-001
