<?xml version="1.0"?>
<opencv_storage>
<Classifier type_id="opencv-ml-svm">
  <svm_type>C_SVC</svm_type>
  <kernel><type>RBF</type>
    <gamma>5.0625000000000009e-001</gamma></kernel>
  <C>3.1250000000000000e+002</C>
  <term_criteria><epsilon>1.1920928955078125e-007</epsilon>
    <iterations>100000</iterations></term_criteria>
  <var_all>1000</var_all>
  <var_count>1000</var_count>
  <class_count>2</class_count>
  <class_labels type_id="opencv-matrix">
    <rows>1</rows>
    <cols>2</cols>
    <dt>i</dt>
    <data>
      0 1</data></class_labels>
  <sv_total>246</sv_total>
  <support_vectors>
    <_>
      0. 0. 0. 0. 0. 0. 1.05263162e-002 0. 0. 0. 0. 0. 1.05263162e-002
      0. 0. 0. 0. 0. 0. 0. 0. 0. 0. 0. 0. 0. 0. 0. 0. 0. 0. 0. 0. 0. 0.
      0. 1.05263162e-002 1.05263162e-002 0. 1.05263162e-002 0. 0. 0. 0.
      0. 0. 0. 0. 0. 0. 0. 1.05263162e-002 0. 0. 0. 0. 0. 0. 0. 0. 0. 0.
      1.05263162e-002 0. 0. 0. 0. 0. 0. 0. 1.05263162e-002 0. 0. 0. 0.
      0. 0. 0. 0. 0. 0. 0. 0. 0. 0. 0. 0. 0. 0. 0. 0. 0. 1.05263162e-002
      0. 0. 0. 0. 0. 0. 0. 3.15789506e-002 0. 1.05263162e-002 0.
      2.10526325e-002 0. 0. 0. 0. 0. 0. 0. 0. 0. 0. 0. 1.05263162e-002
      1.05263162e-002 0. 0. 0. 0. 0. 0. 0. 0. 0. 0. 0. 0. 0. 0. 0. 0. 0.
      0. 0. 0. 0. 0. 0. 0. 1.05263162e-002 0. 0. 0. 0. 0. 0. 0. 0. 0. 0.
      0. 0. 0. 0. 0. 0. 0. 0. 0. 0. 0. 0. 0. 0. 0. 0. 0. 0. 0. 0. 0. 0.
      0. 0. 0. 0. 0. 0. 0. 0. 0. 0. 0. 0. 0. 0. 0. 0. 0. 0. 0. 0. 0. 0.
      0. 4.21052650e-002 0. 1.05263162e-002 1.05263162e-002 0. 0. 0. 0.
      0. 0. 0. 0. 0. 0. 0. 0. 0. 1.05263162e-002 0. 0. 0.
      1.05263162e-002 0. 0. 0. 0. 0. 0. 0. 0. 0. 0. 0. 0. 0. 0.
      2.10526325e-002 1.05263162e-002 0. 0. 0. 0. 0. 0. 0.
      1.05263162e-002 1.05263162e-002 0. 0. 0. 0. 0. 0. 1.05263162e-002
      0. 0. 0. 0. 0. 0. 0. 0. 1.05263162e-002 0. 0. 0. 0. 0.
      2.10526325e-002 0. 0. 0. 0. 0. 0. 1.05263162e-002 0. 0. 0. 0. 0.
      0. 0. 1.05263162e-002 1.05263162e-002 0. 0. 1.05263162e-002 0. 0.
      0. 0. 0. 0. 0. 1.05263162e-002 0. 0. 0. 0. 0. 0. 0. 0.
      1.05263162e-002 0. 0. 0. 0. 0. 0. 0. 0. 0. 0. 2.10526325e-002 0.
      0. 0. 0. 0. 0. 0. 0. 0. 0. 1.05263162e-002 0. 0. 0.
      1.05263162e-002 0. 1.05263162e-002 0. 1.05263162e-002 0. 0.
      1.05263162e-002 0. 0. 0. 0. 0. 0. 0. 0. 0. 0. 0. 0. 0. 0. 0.
      1.05263162e-002 0. 0. 0. 1.05263162e-002 0. 0. 0. 0.
      1.05263162e-002 0. 0. 0. 0. 0. 0. 0. 0. 0. 0. 0. 0. 0. 0. 0. 0. 0.
      0. 0. 0. 0. 0. 0. 0. 0. 0. 0. 0. 0. 0. 0. 0. 0. 0. 0. 0. 0. 0. 0.
      0. 0. 1.05263162e-002 0. 0. 0. 0. 0. 0. 0. 0. 0. 0. 0. 0. 0.
      1.05263162e-002 0. 0. 1.05263162e-002 0. 0. 0. 0. 0. 0. 0. 0. 0.
      0. 0. 0. 0. 0. 0. 0. 0. 0. 0. 0. 0. 0. 0. 0. 0. 0. 1.05263162e-002
      0. 0. 0. 0. 0. 0. 0. 0. 0. 0. 0. 0. 0. 0. 1.05263162e-002 0. 0. 0.
      0. 0. 0. 0. 0. 0. 0. 1.05263162e-002 0. 0. 0. 0. 0. 0. 0. 0. 0. 0.
      0. 0. 0. 0. 0. 0. 1.05263162e-002 1.05263162e-002 0. 0. 0. 0. 0.
      0. 0. 0. 0. 0. 0. 0. 0. 0. 0. 0. 0. 0. 0. 0. 0. 0. 0. 0. 0. 0. 0.
      0. 0. 0. 0. 0. 0. 0. 0. 1.05263162e-002 1.05263162e-002 0. 0. 0.
      1.05263162e-002 0. 0. 0. 0. 0. 0. 0. 0. 0. 0. 0. 1.05263162e-002
      0. 0. 0. 0. 0. 0. 1.05263162e-002 0. 0. 0. 0. 0. 0. 0. 0. 0. 0. 0.
      0. 0. 1.05263162e-002 0. 0. 0. 1.05263162e-002 0. 0. 0. 0. 0. 0.
      0. 0. 0. 0. 0. 0. 0. 1.05263162e-002 0. 0. 0. 0. 0. 0. 0. 0. 0. 0.
      0. 0. 0. 0. 0. 0. 0. 0. 0. 0. 0. 0. 0. 0. 0. 0. 0. 0. 0. 0. 0. 0.
      0. 0. 0. 0. 0. 0. 0. 0. 0. 0. 0. 0. 0. 0. 0. 0. 0. 0. 0. 0. 0. 0.
      0. 0. 0. 1.05263162e-002 0. 0. 0. 0. 0. 0. 1.05263162e-002 0. 0.
      0. 0. 0. 0. 0. 0. 0. 2.10526325e-002 0. 0. 0. 0. 0. 0. 0. 0. 0. 0.
      0. 0. 0. 0. 0. 0. 0. 0. 0. 0. 1.05263162e-002 0. 0. 0. 0. 0. 0. 0.
      0. 0. 0. 0. 0. 0. 1.05263162e-002 0. 0. 0. 0. 0. 0. 0. 0. 0. 0. 0.
      0. 0. 0. 0. 0. 0. 0. 0. 0. 0. 0. 0. 0. 0. 0. 0. 1.05263162e-002 0.
      0. 0. 0. 1.05263162e-002 0. 0. 0. 0. 0. 0. 0. 0. 0. 0. 0. 0. 0. 0.
      0. 0. 0. 0. 0. 0. 0. 0. 0. 0. 0. 0. 0. 0. 0. 0. 0. 0. 0. 0. 0. 0.
      0. 0. 0. 0. 0. 0. 0. 0. 0. 0. 0. 0. 0. 1.05263162e-002 0. 0. 0. 0.
      0. 0. 2.10526325e-002 0. 0. 0. 0. 0. 0. 0. 0. 0. 4.21052650e-002
      0. 0. 0. 0. 0. 0. 1.05263162e-002 0. 0. 0. 0. 0. 0. 0. 0. 0. 0. 0.
      0. 1.05263162e-002 0. 0. 0. 0. 0. 0. 0. 0. 0. 0. 0. 0. 0. 0. 0. 0.
      0. 0. 0. 1.05263162e-002 0. 0. 0. 0. 0. 0. 0. 1.05263162e-002 0.
      0. 0. 0. 0. 0. 0. 0. 0. 0. 2.10526325e-002 0. 0. 0. 0. 0. 0. 0. 0.
      0. 0. 0. 0. 0. 0. 0. 0. 1.05263162e-002 0. 0. 0. 0. 0. 0. 0. 0. 0.
      0. 0. 0. 0. 0. 0. 0. 0. 0. 1.05263162e-002 0. 0. 0. 0. 0. 0. 0. 0.
      0. 0. 0. 0. 0. 0. 0. 0. 0. 0. 0. 0. 0. 0. 0. 0. 0. 1.05263162e-002
      0. 0. 0. 0. 0. 0. 0. 0. 0. 0. 0. 0. 1.05263162e-002 0. 0. 0. 0. 0.
      0. 0. 0. 1.05263162e-002 0. 0. 0. 0. 0. 0. 0. 0. 0. 0. 0. 0. 0. 0.
      0. 0. 0. 0. 0. 0. 1.05263162e-002 0. 0. 0. 0. 0. 0. 0. 0. 0. 0. 0.
      0. 0. 1.05263162e-002 0. 0. 0. 0. 0. 0. 0. 0. 0. 0. 0. 0. 0. 0. 0.
      0. 0. 0. 0. 0. 0. 0. 0. 0. 0. 0. 0. 0. 0.</_>
    <_>
      0. 0. 0. 0. 0. 0. 0. 1.99999996e-002 0. 0. 0. 0. 0. 0. 0. 0. 0. 0.
      0. 0. 0. 0. 0. 0. 0. 0. 0. 0. 0. 0. 0. 0. 0. 0. 0. 0. 0.
      3.99999991e-002 0. 0. 0. 0. 0. 0. 9.99999940e-002 0. 0. 0. 0. 0.
      0. 0. 0. 0. 0. 0. 0. 0. 0. 0. 1.99999996e-002 0. 0. 0. 0. 0. 0. 0.
      0. 0. 0. 0. 0. 0. 0. 0. 0. 0. 0. 0. 0. 0. 0. 0. 0. 0. 0. 0.
      1.99999996e-002 0. 0. 0. 0. 0. 0. 0. 0. 0. 0. 0. 0. 0. 0. 0. 0. 0.
      0. 0. 0. 0. 0. 0. 0. 1.99999996e-002 0. 0. 0. 0. 1.99999996e-002
      0. 0. 0. 0. 0. 0. 0. 0. 0. 0. 0. 0. 0. 0. 0. 0. 0. 1.99999996e-002
      0. 0. 0. 0. 0. 0. 0. 0. 0. 0. 0. 0. 0. 0. 0. 0. 0. 0. 0. 0. 0. 0.
      0. 0. 0. 0. 0. 0. 0. 0. 0. 0. 0. 0. 0. 0. 0. 0. 0. 0. 0. 0. 0. 0.
      0. 0. 0. 0. 0. 0. 0. 0. 0. 0. 0. 0. 0. 0. 0. 0. 0. 1.99999996e-002
      0. 0. 0. 0. 0. 0. 0. 0. 0. 0. 0. 0. 0. 0. 0. 0. 0. 0. 0. 0. 0. 0.
      1.99999996e-002 0. 0. 0. 0. 0. 0. 0. 0. 0. 0. 0. 0. 0. 0. 0. 0. 0.
      0. 0. 0. 0. 0. 3.99999991e-002 0. 0. 0. 0. 0. 0. 0. 0. 0. 0. 0. 0.
      0. 0. 0. 0. 0. 0. 0. 0. 0. 0. 0. 0. 0. 0. 0. 0. 0. 0. 0. 0. 0. 0.
      0. 0. 0. 0. 0. 0. 0. 0. 0. 0. 0. 0. 0. 0. 0. 0. 1.99999996e-002
      1.99999996e-002 0. 0. 0. 0. 0. 0. 0. 0. 0. 0. 0. 1.99999996e-002
      0. 0. 0. 0. 0. 0. 0. 0. 0. 0. 0. 0. 0. 0. 0. 0. 0. 0. 0. 0. 0.
      3.99999991e-002 0. 0. 0. 0. 0. 0. 0. 0. 0. 0. 0. 3.99999991e-002
      0. 0. 0. 0. 0. 0. 0. 0. 1.99999996e-002 0. 0. 0. 0. 0. 0. 0. 0. 0.
      0. 1.99999996e-002 0. 0. 0. 0. 0. 0. 0. 0. 0. 0. 0.
      1.99999996e-002 0. 0. 0. 0. 0. 0. 0. 0. 0. 0. 0. 0. 0. 0. 0. 0. 0.
      0. 0. 0. 0. 0. 0. 0. 0. 0. 0. 0. 0. 0. 0. 0. 0. 1.99999996e-002 0.
      0. 0. 0. 0. 0. 0. 0. 0. 0. 0. 0. 0. 0. 0. 0. 0. 0. 0. 0. 0. 0. 0.
      0. 0. 0. 0. 0. 0. 0. 0. 0. 0. 0. 0. 0. 1.99999996e-002 0. 0. 0.
      3.99999991e-002 0. 0. 0. 1.99999996e-002 0. 0. 0. 0. 0. 0. 0. 0.
      0. 0. 0. 0. 0. 0. 1.99999996e-002 0. 0. 0. 0. 0. 0. 0. 0. 0. 0. 0.
      0. 0. 0. 0. 0. 0. 0. 0. 0. 0. 0. 0. 0. 0. 0. 0. 0. 0. 0. 0. 0. 0.
      1.99999996e-002 0. 0. 0. 0. 0. 0. 0. 0. 0. 0. 0. 0. 0. 0. 0. 0. 0.
      1.99999996e-002 0. 0. 0. 0. 0. 0. 0. 0. 0. 0. 0. 0. 0. 0. 0. 0. 0.
      0. 0. 0. 0. 0. 0. 0. 0. 0. 0. 0. 0. 0. 0. 0. 0. 0. 0. 0. 0. 0. 0.
      0. 3.99999991e-002 0. 0. 0. 0. 0. 0. 0. 0. 0. 0. 3.99999991e-002
      0. 0. 0. 0. 0. 0. 0. 1.99999996e-002 0. 0. 0. 0. 0. 0. 0. 0. 0. 0.
      0. 0. 0. 0. 0. 0. 0. 0. 0. 0. 0. 0. 0. 0. 0. 0. 0. 0. 0. 0. 0. 0.
      0. 0. 0. 3.99999991e-002 0. 0. 0. 0. 0. 0. 0. 0. 0. 0. 0. 0. 0. 0.
      0. 0. 0. 0. 0. 0. 1.99999996e-002 0. 0. 0. 0. 0. 0. 0. 0. 0. 0.
      1.99999996e-002 0. 0. 0. 0. 0. 0. 0. 0. 0. 0. 0. 0. 0. 0. 0. 0. 0.
      0. 0. 0. 0. 1.99999996e-002 0. 0. 0. 0. 0. 0. 0. 0. 0. 0. 0. 0. 0.
      0. 0. 0. 0. 0. 0. 0. 0. 0. 0. 0. 1.99999996e-002 0. 0. 0. 0. 0. 0.
      0. 0. 0. 0. 0. 0. 0. 0. 0. 0. 0. 0. 0. 0. 0. 0. 0. 0. 0. 0. 0. 0.
      1.99999996e-002 0. 0. 0. 0. 0. 0. 0. 0. 0. 0. 0. 0. 0. 0. 0. 0. 0.
      0. 0. 0. 0. 0. 0. 0. 0. 0. 0. 0. 0. 0. 0. 0. 0. 0. 0. 0. 0. 0. 0.
      0. 0. 0. 0. 0. 0. 0. 0. 0. 0. 0. 0. 0. 0. 0. 0. 0. 0. 0. 0. 0. 0.
      0. 0. 0. 0. 0. 0. 0. 0. 0. 0. 0. 0. 0. 0. 0. 0. 0. 0. 0. 0. 0. 0.
      0. 0. 0. 0. 0. 0. 0. 0. 0. 0. 0. 0. 0. 0. 0. 0. 0. 0. 0. 0. 0. 0.
      0. 0. 0. 0. 0. 0. 0. 0. 0. 0. 0. 0. 0. 0. 0. 0. 0. 0. 0. 0. 0. 0.
      0. 0. 0. 0. 0. 0. 0. 0. 0. 0. 0. 0. 0. 0. 0. 0. 0. 0. 0. 0. 0. 0.
      0. 0. 0. 0. 0. 0. 0. 0. 0. 0. 0. 0. 0. 0. 0. 0. 0. 0. 0. 0. 0.
      1.99999996e-002 0. 0. 0. 0. 0. 0. 0. 0. 0. 0. 0. 0. 0. 0. 0. 0. 0.
      0. 0. 0. 0. 0. 0. 0. 0. 0. 0. 0. 0. 1.99999996e-002 0. 0. 0. 0. 0.
      0. 0. 0. 0. 0. 0. 0. 0. 0. 0. 0. 0. 0. 0. 0. 0. 0. 0. 0.
      1.99999996e-002 0. 0. 0. 0. 0. 0. 0. 0. 0. 0. 0. 0. 0. 0. 0. 0. 0.
      0. 0. 0. 0. 0. 0. 0. 0. 0. 0. 0. 0. 0. 0. 0. 0. 0. 0. 0. 0. 0. 0.
      0. 0. 0. 0. 0. 0. 0. 0. 0. 0.</_>
    <_>
      0. 9.17431246e-003 6.11620815e-003 0. 0. 0. 0. 0. 0.
      3.05810408e-003 0. 0. 0. 0. 0. 0. 0. 0. 0. 0. 0. 0. 0. 0. 0. 0.
      3.05810408e-003 3.05810408e-003 0. 0. 0. 0. 0. 0. 6.11620815e-003
      0. 0. 0. 0. 0. 3.05810408e-003 0. 0. 0. 9.17431246e-003 0. 0. 0.
      0. 3.05810408e-003 3.05810408e-003 0. 0. 0. 0. 0. 0. 0. 0. 0. 0.
      0. 0. 0. 0. 0. 0. 0. 3.05810408e-003 0. 3.05810408e-003 0.
      3.05810408e-003 0. 3.05810408e-003 0. 0. 0. 0. 0. 3.05810408e-003
      0. 0. 0. 3.05810408e-003 6.11620815e-003 0. 0. 0. 0. 0.
      3.05810408e-003 0. 3.05810408e-003 0. 0. 0. 6.11620815e-003 0. 0.
      0. 0. 0. 0. 0. 0. 0. 0. 0. 0. 3.05810408e-003 3.05810408e-003
      3.05810408e-003 0. 0. 6.11620815e-003 0. 0. 0. 3.05810408e-003 0.
      3.05810408e-003 0. 0. 6.11620815e-003 0. 0. 0. 0. 0. 0. 0. 0. 0.
      0. 0. 0. 0. 0. 0. 0. 0. 0. 0. 0. 0. 0. 0. 0. 0. 0. 0. 0.
      3.05810408e-003 3.05810408e-003 0. 0. 3.05810408e-003 0. 0.
      3.05810408e-003 0. 3.05810408e-003 0. 0. 0. 0. 0. 3.05810408e-003
      9.17431246e-003 3.05810408e-003 0. 0. 3.05810408e-003 0. 0. 0.
      6.11620815e-003 0. 0. 0. 0. 3.05810408e-003 0. 1.22324163e-002 0.
      0. 6.11620815e-003 0. 3.05810408e-003 0. 3.05810408e-003 0. 0. 0.
      3.05810408e-003 0. 0. 3.05810408e-003 9.17431246e-003
      3.05810408e-003 0. 9.17431246e-003 3.05810408e-003 0. 0. 0. 0. 0.
      0. 0. 0. 6.11620815e-003 0. 0. 0. 0. 0. 0. 3.05810408e-003 0.
      3.05810408e-003 0. 0. 0. 0. 0. 9.17431246e-003 0. 3.05810408e-003
      3.05810408e-003 0. 0. 6.11620815e-003 0. 3.05810408e-003
      3.05810408e-003 3.05810408e-003 0. 0. 3.05810408e-003 0. 0. 0. 0.
      3.05810408e-003 3.05810408e-003 3.05810408e-003 0. 0. 0. 0. 0. 0.
      0. 0. 0. 0. 0. 6.11620815e-003 0. 0. 0. 0. 3.05810408e-003 0. 0.
      0. 9.17431246e-003 0. 0. 0. 0. 0. 0. 0. 0. 0. 0. 3.05810408e-003
      0. 3.05810408e-003 6.11620815e-003 0. 0. 0. 0. 3.05810408e-003 0.
      0. 0. 0. 0. 0. 0. 0. 3.05810408e-003 0. 9.17431246e-003 0. 0. 0.
      0. 3.05810408e-003 3.05810408e-003 0. 6.11620815e-003 0.
      6.11620815e-003 0. 0. 0. 0. 0. 0. 0. 0. 0. 0. 0. 0.
      3.05810408e-003 0. 3.05810408e-003 0. 0. 0. 0. 0. 0.
      6.11620815e-003 0. 0. 3.05810408e-003 3.05810408e-003 0. 0. 0. 0.
      0. 0. 0. 0. 3.05810408e-003 0. 3.05810408e-003 0. 0. 0. 0. 0. 0.
      0. 0. 3.05810408e-003 0. 0. 3.05810408e-003 0. 0. 0. 0. 0. 0. 0.
      0. 0. 6.11620815e-003 0. 0. 3.05810408e-003 6.11620815e-003
      3.05810408e-003 0. 0. 9.17431246e-003 3.05810408e-003 0.
      3.05810408e-003 0. 0. 0. 0. 0. 0. 0. 0. 0. 0. 0. 3.05810408e-003
      3.05810408e-003 0. 0. 0. 0. 0. 0. 3.05810408e-003 0. 0. 0. 0. 0.
      3.05810408e-003 3.05810408e-003 3.05810408e-003 0. 0.
      3.05810408e-003 3.05810408e-003 3.05810408e-003 3.05810408e-003
      3.05810408e-003 3.05810408e-003 0. 0. 0. 3.05810408e-003 0. 0.
      6.11620815e-003 3.05810408e-003 0. 0. 3.05810408e-003
      3.05810408e-003 0. 0. 3.05810408e-003 0. 0. 0. 0. 0. 0. 0. 0. 0.
      0. 6.11620815e-003 3.05810408e-003 0. 0. 0. 0. 3.05810408e-003 0.
      0. 6.11620815e-003 3.05810408e-003 0. 0. 0. 6.11620815e-003 0. 0.
      0. 0. 3.05810408e-003 0. 3.05810408e-003 0. 0. 0. 0. 0. 0. 0. 0.
      0. 0. 0. 3.05810408e-003 0. 0. 0. 0. 0. 0. 3.05810408e-003 0.
      9.17431246e-003 0. 0. 0. 3.05810408e-003 0. 0. 0. 0. 0.
      3.05810408e-003 0. 0. 3.05810408e-003 0. 0. 0. 3.05810408e-003
      3.05810408e-003 0. 0. 0. 0. 0. 0. 0. 0. 0. 0. 0. 3.05810408e-003
      0. 0. 0. 0. 0. 0. 0. 0. 6.11620815e-003 0. 0. 0. 0. 0.
      3.05810408e-003 0. 0. 6.11620815e-003 0. 0. 0. 0. 0. 0. 0. 0. 0.
      0. 0. 0. 0. 0. 0. 0. 0. 0. 0. 0. 0. 3.05810408e-003 0. 0. 0.
      6.11620815e-003 3.05810408e-003 0. 0. 0. 3.05810408e-003
      3.05810408e-003 0. 0. 0. 0. 3.05810408e-003 0. 0. 3.05810408e-003
      0. 3.05810408e-003 0. 0. 0. 6.11620815e-003 0. 3.05810408e-003 0.
      6.11620815e-003 0. 0. 0. 0. 0. 0. 0. 0. 0. 0. 0. 0.
      3.05810408e-003 3.05810408e-003 0. 3.05810408e-003 3.05810408e-003
      3.05810408e-003 0. 0. 0. 0. 3.05810408e-003 0. 0. 0.
      6.11620815e-003 3.05810408e-003 0. 0. 0. 0. 3.05810408e-003 0. 0.
      0. 0. 0. 3.05810408e-003 0. 0. 0. 0. 0. 0. 0. 0. 0. 0. 0. 0. 0. 0.
      0. 0. 0. 0. 0. 3.05810408e-003 0. 3.05810408e-003 0. 0. 0.
      3.05810408e-003 0. 3.05810408e-003 0. 0. 0. 0. 0. 0. 0. 0. 0. 0.
      0. 0. 0. 6.11620815e-003 3.05810408e-003 0. 0. 0. 6.11620815e-003
      6.11620815e-003 3.05810408e-003 0. 3.05810408e-003 3.05810408e-003
      0. 0. 0. 3.05810408e-003 0. 0. 3.05810408e-003 0. 0. 0. 0. 0. 0.
      0. 0. 0. 0. 0. 0. 9.17431246e-003 3.05810408e-003 0. 0.
      6.11620815e-003 0. 0. 6.11620815e-003 0. 0. 0. 0. 1.22324163e-002
      0. 6.11620815e-003 0. 0. 0. 3.05810408e-003 6.11620815e-003 0. 0.
      0. 0. 3.05810408e-003 0. 3.05810408e-003 0. 3.05810408e-003 0. 0.
      3.05810408e-003 9.17431246e-003 0. 3.05810408e-003 3.05810408e-003
      3.05810408e-003 6.11620815e-003 0. 6.11620815e-003 0.
      6.11620815e-003 6.11620815e-003 0. 0. 0. 0. 0. 0. 0. 0. 0. 0. 0.
      0. 3.05810408e-003 0. 0. 3.05810408e-003 0. 0. 0. 0.
      3.05810408e-003 0. 0. 0. 0. 3.05810408e-003 0. 3.05810408e-003
      3.05810408e-003 0. 0. 0. 0. 0. 0. 0. 0. 0. 0. 0. 0.
      3.05810408e-003 0. 3.05810408e-003 0. 3.05810408e-003 0. 0.
      3.05810408e-003 0. 0. 0. 0. 0. 3.05810408e-003 0. 0. 0.
      6.11620815e-003 3.05810408e-003 0. 0. 0. 0. 6.11620815e-003 0. 0.
      3.05810408e-003 0. 0. 3.05810408e-003 0. 0. 0. 0. 0. 0. 0.
      3.05810408e-003 6.11620815e-003 0. 0. 0. 0. 6.11620815e-003 0. 0.
      6.11620815e-003 3.05810408e-003 0. 0. 0. 0. 3.05810408e-003 0. 0.
      0. 0. 0. 6.11620815e-003 0. 6.11620815e-003 3.05810408e-003
      3.05810408e-003 0. 0. 0. 0. 3.05810408e-003 0. 0. 3.05810408e-003
      0. 0. 3.05810408e-003 3.05810408e-003 0. 0. 6.11620815e-003 0. 0.
      0. 0. 0. 0. 0. 6.11620815e-003 0. 0. 0. 0. 0. 0. 3.05810408e-003
      3.05810408e-003 0. 0. 0. 0. 0. 0. 0. 0. 0. 0. 0. 3.05810408e-003
      0. 0. 0. 0. 3.05810408e-003 0. 0. 0. 0. 0. 0. 0. 3.05810408e-003
      3.05810408e-003 0. 3.05810408e-003 0. 0. 0. 0. 0. 0. 0. 0. 0. 0.
      0. 0. 3.05810408e-003 0. 0. 0. 0. 0. 0. 0. 0. 3.05810408e-003 0.
      0. 0. 0. 0. 0. 3.05810408e-003 3.05810408e-003 0. 3.05810408e-003
      0. 0. 3.05810408e-003 0. 0. 0. 9.17431246e-003 0. 0. 0.
      3.05810408e-003 6.11620815e-003 0. 0. 6.11620815e-003 0.
      3.05810408e-003 0. 3.05810408e-003 0. 0. 0. 0. 3.05810408e-003 0.
      0. 3.05810408e-003 0. 0. 0. 0. 0. 0. 0. 0. 3.05810408e-003
      3.05810408e-003 0. 0. 0. 0. 6.11620815e-003 0. 0. 0. 0. 0. 0. 0.
      0. 3.05810408e-003 3.05810408e-003 0. 0. 0. 0. 0. 0. 0. 0. 0. 0.
      0. 0. 3.05810408e-003 0. 3.05810408e-003 3.05810408e-003
      3.05810408e-003 0. 0.</_>
    <_>
      0. 0. 0. 0. 0. 0. 0. 0. 0. 7.04225339e-003 0. 0. 0. 0. 0. 0. 0. 0.
      0. 0. 0. 1.40845068e-002 0. 0. 0. 0. 0. 0. 0. 0. 7.04225339e-003
      0. 0. 0. 0. 0. 0. 7.04225339e-003 0. 0. 0. 0. 0. 7.04225339e-003
      7.04225339e-003 0. 0. 0. 0. 0. 0. 0. 0. 0. 0. 0. 0.
      7.04225339e-003 0. 0. 0. 0. 0. 7.04225339e-003 0. 0. 0. 0.
      7.04225339e-003 0. 0. 0. 7.04225339e-003 1.40845068e-002 0.
      7.04225339e-003 0. 0. 0. 0. 0. 0. 0. 0. 0. 0. 0. 0. 0. 0. 0. 0. 0.
      0. 0. 0. 0. 0. 0. 0. 0. 0. 0. 0. 0. 7.04225339e-003 0. 0. 0. 0. 0.
      0. 0. 0. 0. 0. 0. 0. 0. 7.04225339e-003 0. 0. 0. 0.
      7.04225339e-003 0. 0. 0. 0. 0. 0. 0. 0. 0. 0. 7.04225339e-003 0.
      0. 0. 7.04225339e-003 0. 0. 7.04225339e-003 0. 0. 0. 0. 0. 0. 0.
      0. 0. 0. 0. 7.04225339e-003 0. 0. 0. 0. 0. 3.52112651e-002
      7.04225339e-003 0. 7.04225339e-003 0. 0. 0. 7.04225339e-003 0. 0.
      0. 0. 0. 0. 0. 0. 0. 7.04225339e-003 0. 0. 0. 0. 0. 0. 0. 0. 0. 0.
      0. 0. 0. 0. 0. 0. 0. 1.40845068e-002 0. 7.04225339e-003 0. 0.
      7.04225339e-003 0. 7.04225339e-003 0. 0. 0. 0. 7.04225339e-003 0.
      0. 0. 0. 0. 0. 0. 0. 0. 0. 0. 0. 0. 7.04225339e-003 0. 0. 0. 0. 0.
      7.04225339e-003 7.04225339e-003 0. 7.04225339e-003 0. 0. 0.
      7.04225339e-003 0. 0. 0. 0. 0. 0. 0. 0. 0. 0. 0. 0. 0. 0. 0. 0. 0.
      0. 0. 0. 0. 0. 0. 0. 0. 0. 0. 0. 0. 7.04225339e-003 0. 0. 0.
      7.04225339e-003 0. 0. 0. 0. 0. 0. 0. 0. 0. 0. 0. 0. 0. 0. 0. 0. 0.
      0. 0. 0. 7.04225339e-003 0. 0. 0. 0. 0. 0. 0. 0. 0. 0. 0. 0.
      7.04225339e-003 0. 0. 0. 0. 0. 0. 0. 0. 7.04225339e-003 0.
      7.04225339e-003 0. 0. 0. 0. 0. 0. 0. 0. 1.40845068e-002 0. 0. 0.
      0. 7.04225339e-003 0. 0. 0. 0. 0. 0. 0. 7.04225339e-003 0. 0. 0.
      7.04225339e-003 7.04225339e-003 0. 0. 0. 0. 0. 0. 0. 0.
      7.04225339e-003 0. 7.04225339e-003 0. 0. 0. 0. 0. 7.04225339e-003
      0. 0. 0. 0. 7.04225339e-003 0. 7.04225339e-003 0. 7.04225339e-003
      0. 0. 0. 7.04225339e-003 0. 1.40845068e-002 7.04225339e-003 0.
      7.04225339e-003 0. 0. 7.04225339e-003 7.04225339e-003 0. 0. 0. 0.
      0. 0. 0. 0. 0. 0. 0. 0. 0. 0. 0. 0. 7.04225339e-003 0. 0. 0. 0. 0.
      0. 0. 0. 0. 0. 0. 7.04225339e-003 0. 0. 0. 0. 0. 0. 0. 0. 0. 0. 0.
      0. 0. 0. 0. 0. 0. 0. 0. 0. 0. 0. 0. 0. 0. 0. 0. 0. 0. 0.
      7.04225339e-003 0. 0. 0. 0. 0. 0. 0. 0. 0. 0. 0. 0. 0.
      7.04225339e-003 7.04225339e-003 0. 0. 0. 0. 0. 0. 7.04225339e-003
      0. 0. 0. 0. 0. 0. 0. 0. 0. 0. 0. 0. 0. 0. 0. 0. 0. 7.04225339e-003
      7.04225339e-003 0. 7.04225339e-003 0. 0. 0. 0. 0. 0.
      7.04225339e-003 7.04225339e-003 0. 0. 0. 0. 0. 0. 0. 0. 0. 0. 0.
      0. 0. 0. 0. 0. 0. 0. 0. 0. 0. 0. 0. 1.40845068e-002 0. 0. 0. 0. 0.
      1.40845068e-002 7.04225339e-003 0. 0. 0. 0. 0. 7.04225339e-003 0.
      0. 0. 0. 0. 0. 0. 0. 0. 7.04225339e-003 0. 0. 0. 0. 0. 0. 0. 0. 0.
      0. 0. 0. 0. 0. 2.11267602e-002 0. 0. 0. 7.04225339e-003 0. 0. 0.
      0. 7.04225339e-003 0. 7.04225339e-003 0. 0. 0. 0. 0. 0. 0. 0. 0.
      0. 0. 0. 0. 0. 0. 0. 2.81690136e-002 0. 7.04225339e-003 0. 0. 0.
      0. 0. 7.04225339e-003 0. 0. 0. 0. 0. 0. 0. 0. 0. 0. 0.
      7.04225339e-003 0. 0. 0. 0. 0. 0. 7.04225339e-003 0.
      7.04225339e-003 0. 0. 0. 0. 0. 0. 0. 0. 0. 0. 0. 7.04225339e-003
      0. 0. 0. 0. 0. 0. 0. 0. 0. 0. 0. 0. 0. 0. 0. 0. 0. 0. 0. 0. 0. 0.
      0. 7.04225339e-003 0. 0. 0. 0. 0. 0. 0. 0. 0. 0. 0. 0. 0. 0. 0. 0.
      0. 0. 0. 0. 0. 0. 0. 0. 0. 0. 0. 0. 0. 0. 0. 0. 7.04225339e-003 0.
      0. 0. 7.04225339e-003 0. 0. 0. 0. 0. 0. 7.04225339e-003 0. 0. 0.
      0. 0. 0. 0. 0. 0. 0. 0. 1.40845068e-002 0. 0. 0. 7.04225339e-003
      0. 0. 0. 7.04225339e-003 0. 0. 0. 0. 0. 0. 7.04225339e-003 0. 0.
      0. 0. 0. 0. 0. 0. 7.04225339e-003 0. 0. 0. 0. 0. 0. 0.
      7.04225339e-003 0. 0. 7.04225339e-003 0. 0. 0. 0. 0. 0. 0. 0. 0.
      0. 7.04225339e-003 0. 0. 0. 0. 0. 0. 0. 0. 0. 0. 0.
      7.04225339e-003 0. 0. 0. 0. 0. 0. 7.04225339e-003 0. 0. 0. 0.
      7.04225339e-003 1.40845068e-002 0. 0. 0. 0. 0. 0. 0. 0. 0. 0. 0.
      0. 0. 0. 0. 0. 0. 0. 0. 7.04225339e-003 0. 0. 0. 0. 0. 0. 0. 0. 0.
      7.04225339e-003 0. 0. 0. 0. 0. 7.04225339e-003 0. 0. 0. 0. 0.
      7.04225339e-003 0. 0. 0. 0. 0. 0. 0. 0. 0. 7.04225339e-003 0. 0.
      0. 0. 7.04225339e-003 0. 0. 0. 7.04225339e-003 0. 0. 0.
      7.04225339e-003 0. 7.04225339e-003 0. 0. 0. 0. 0. 0. 0. 0. 0. 0.
      0. 0. 0. 7.04225339e-003 0. 0. 0. 0. 7.04225339e-003 0. 0. 0.
      7.04225339e-003 0. 7.04225339e-003 0. 0. 0. 0. 0. 0. 0. 0. 0. 0.
      0. 0. 0. 0. 0. 0. 0. 0. 0. 7.04225339e-003 7.04225339e-003 0.
      7.04225339e-003 0. 7.04225339e-003 0. 0. 0. 0. 0. 0. 0. 0. 0. 0.
      7.04225339e-003 0. 7.04225339e-003 0. 0. 0. 0. 0. 0. 0.
      7.04225339e-003 0. 0. 0. 0. 0. 0. 0. 0. 0. 0. 0. 0. 0. 0. 0. 0. 0.
      0. 0. 0. 0. 0. 0. 0. 0. 0. 0. 0. 0. 0. 0. 0. 0. 0. 0.
      7.04225339e-003 7.04225339e-003 0. 0. 0. 0. 0. 0. 0. 0. 0. 0. 0.
      0. 0. 0. 0. 0. 0. 0. 0. 0. 0. 0. 7.04225339e-003 7.04225339e-003
      0. 0. 0. 0. 0. 0. 0. 0. 0. 0. 0. 0. 0. 0. 0. 0. 0. 0. 0. 0. 0. 0.
      0. 0. 0. 0. 0. 0.</_>
    <_>
      0. 0. 0. 0. 0. 0. 0. 0. 0. 0. 0. 0. 0. 0. 0. 7.19424477e-003
      7.19424477e-003 0. 0. 7.19424477e-003 0. 0. 0. 0. 7.19424477e-003
      0. 0. 7.19424477e-003 0. 0. 0. 7.19424477e-003 7.19424477e-003 0.
      0. 0. 7.19424477e-003 0. 0. 0. 0. 0. 0. 0. 0. 0. 0. 0. 0. 0. 0. 0.
      0. 7.19424477e-003 0. 0. 0. 0. 0. 0. 0. 0. 0. 0. 0. 0. 0. 0. 0. 0.
      0. 0. 0. 0. 0. 0. 7.19424477e-003 0. 0. 0. 0. 0. 0. 0. 0.
      7.19424477e-003 0. 0. 0. 1.43884895e-002 0. 0. 0. 0. 0. 0. 0. 0.
      0. 0. 0. 0. 0. 0. 0. 0. 0. 0. 7.19424477e-003 0. 0. 0. 0.
      1.43884895e-002 0. 7.19424477e-003 0. 0. 0. 0. 0. 0. 0. 0. 0. 0.
      0. 0. 0. 0. 0. 0. 0. 0. 0. 0. 7.19424477e-003 0. 0. 0. 0. 0. 0. 0.
      0. 0. 0. 0. 0. 0. 0. 0. 0. 0. 7.19424477e-003 0. 0. 0. 0. 0. 0. 0.
      7.19424477e-003 0. 0. 0. 0. 0. 7.19424477e-003 0. 1.43884895e-002
      7.19424477e-003 7.19424477e-003 0. 0. 0. 0. 0. 0. 0. 0. 0.
      7.19424477e-003 0. 0. 0. 0. 0. 0. 0. 0. 0. 0. 0. 7.19424477e-003
      0. 0. 0. 7.19424477e-003 0. 7.19424477e-003 0. 0. 0. 0.
      7.19424477e-003 7.19424477e-003 0. 0. 0. 0. 0. 0. 0. 0. 0. 0. 0.
      7.19424477e-003 0. 0. 0. 0. 0. 7.19424477e-003 0. 0.
      7.19424477e-003 0. 0. 0. 0. 7.19424477e-003 0. 7.19424477e-003 0.
      0. 7.19424477e-003 7.19424477e-003 0. 0. 0. 0. 7.19424477e-003 0.
      0. 0. 0. 1.43884895e-002 0. 0. 0. 0. 0. 0. 0. 0. 0. 0. 0. 0. 0. 0.
      0. 0. 0. 7.19424477e-003 0. 0. 0. 0. 0. 0. 0. 0. 0. 0. 0. 0. 0.
      7.19424477e-003 0. 0. 0. 0. 0. 0. 0. 0. 0. 0. 0. 0. 0. 0. 0. 0. 0.
      0. 0. 0. 0. 0. 0. 0. 0. 0. 0. 0. 0. 0. 0. 0. 0. 0. 0. 0.
      7.19424477e-003 0. 7.19424477e-003 0. 0. 7.19424477e-003 0. 0. 0.
      0. 0. 0. 0. 2.87769791e-002 0. 7.19424477e-003 0. 0. 0. 0. 0. 0.
      7.19424477e-003 0. 0. 7.19424477e-003 0. 0. 0. 0. 0. 0. 0. 0.
      7.19424477e-003 0. 0. 7.19424477e-003 0. 0. 7.19424477e-003 0.
      1.43884895e-002 0. 0. 7.19424477e-003 0. 7.19424477e-003 0. 0. 0.
      0. 0. 0. 0. 0. 7.19424477e-003 0. 0. 7.19424477e-003 0. 0. 0. 0.
      0. 0. 0. 0. 0. 0. 0. 0. 0. 0. 7.19424477e-003 0. 0. 0. 0.
      7.19424477e-003 0. 7.19424477e-003 0. 0. 0. 0. 0. 0. 0. 0. 0. 0.
      7.19424477e-003 0. 0. 0. 7.19424477e-003 0. 0. 0. 1.43884895e-002
      0. 0. 0. 0. 0. 0. 0. 0. 0. 0. 0. 0. 7.19424477e-003 0. 0. 0. 0. 0.
      0. 0. 0. 0. 0. 0. 0. 0. 0. 0. 0. 7.19424477e-003 7.19424477e-003
      1.43884895e-002 7.19424477e-003 0. 0. 7.19424477e-003 0. 0. 0. 0.
      0. 0. 0. 0. 0. 0. 0. 0. 0. 0. 0. 0. 0. 0. 0. 0. 7.19424477e-003 0.
      0. 0. 0. 0. 0. 0. 7.19424477e-003 0. 7.19424477e-003 0. 0. 0. 0.
      0. 0. 0. 0. 0. 7.19424477e-003 0. 0. 0. 0. 0. 0. 0.
      7.19424477e-003 0. 0. 0. 7.19424477e-003 0. 0. 0. 0. 0.
      7.19424477e-003 0. 0. 0. 0. 0. 0. 0. 1.43884895e-002 0. 0. 0. 0.
      0. 0. 0. 0. 0. 7.19424477e-003 0. 7.19424477e-003 0. 0. 0. 0. 0.
      0. 0. 0. 0. 0. 7.19424477e-003 0. 0. 0. 0. 0. 0. 0. 0. 0. 0. 0. 0.
      0. 0. 0. 0. 0. 0. 0. 0. 1.43884895e-002 7.19424477e-003 0. 0. 0.
      0. 7.19424477e-003 0. 7.19424477e-003 0. 0. 0. 7.19424477e-003 0.
      0. 0. 7.19424477e-003 0. 0. 0. 0. 0. 0. 0. 0. 0. 0. 0. 0. 0. 0. 0.
      0. 0. 0. 0. 0. 0. 0. 0. 0. 0. 7.19424477e-003 0. 0. 0. 0. 0. 0. 0.
      0. 0. 0. 0. 0. 0. 7.19424477e-003 0. 0. 0. 0. 0. 0. 0. 0. 0. 0. 0.
      0. 0. 0. 0. 0. 0. 0. 0. 0. 0. 0. 0. 0. 0. 0. 0. 0. 7.19424477e-003
      0. 0. 0. 0. 0. 0. 0. 0. 0. 0. 0. 1.43884895e-002 0. 0. 0. 0. 0. 0.
      0. 0. 7.19424477e-003 0. 0. 0. 0. 0. 0. 7.19424477e-003 0. 0. 0.
      0. 0. 0. 0. 0. 0. 0. 0. 0. 0. 0. 1.43884895e-002 7.19424477e-003
      0. 0. 0. 0. 0. 0. 0. 0. 7.19424477e-003 0. 0. 0. 0. 0. 0. 0.
      7.19424477e-003 0. 0. 0. 0. 0. 0. 7.19424477e-003 0. 0. 0. 0. 0.
      0. 0. 0. 0. 0. 0. 0. 0. 0. 0. 0. 0. 0. 0. 0. 0. 0. 0. 0. 0. 0. 0.
      0. 7.19424477e-003 0. 0. 0. 0. 0. 0. 0. 0. 0. 0. 0. 0. 0. 0. 0. 0.
      0. 0. 0. 1.43884895e-002 0. 7.19424477e-003 0. 7.19424477e-003 0.
      7.19424477e-003 0. 0. 0. 0. 7.19424477e-003 0. 0. 0. 0. 0. 0. 0.
      0. 7.19424477e-003 7.19424477e-003 0. 0. 0. 0. 1.43884895e-002 0.
      0. 7.19424477e-003 0. 0. 7.19424477e-003 0. 0. 0. 0. 0. 0. 0. 0.
      0. 7.19424477e-003 0. 0. 0. 0. 0. 0. 0. 0. 0. 0. 0. 0. 0. 0. 0. 0.
      0. 0. 0. 0. 7.19424477e-003 0. 0. 0. 0. 0. 0. 0. 0. 0. 0.
      7.19424477e-003 0. 7.19424477e-003 0. 0. 0. 0. 0. 0. 0. 0. 0. 0.
      0. 0. 7.19424477e-003 0. 0. 0. 0. 2.15827338e-002 0.
      7.19424477e-003 0. 0. 0. 0. 0. 0. 0. 0. 0. 0. 0. 0. 0. 0.
      7.19424477e-003 0. 0. 0. 0. 0. 0. 7.19424477e-003 0.
      7.19424477e-003 0. 0. 0. 0. 0. 0. 0. 0. 0. 0. 0. 0. 0. 0. 0. 0. 0.
      0. 0. 7.19424477e-003 0. 0. 0. 0. 0. 0. 0. 0. 0. 0. 0. 0. 0. 0. 0.
      0. 0. 0. 0. 0. 0. 0. 0. 0. 0. 0. 0. 0. 0. 0. 0. 0. 0. 0. 0.
      7.19424477e-003 0. 0. 0. 0. 0. 0. 0. 0. 0. 7.19424477e-003 0. 0.
      0. 0. 0. 0. 0. 0. 0. 7.19424477e-003 0. 0. 0. 0. 0. 0. 0. 0. 0. 0.
      0. 7.19424477e-003 0. 0. 0. 7.19424477e-003 0. 0. 0. 0. 0. 0. 0.
      0. 0. 0. 0. 0. 0. 0. 0. 0. 0. 0. 0. 0. 0.</_>
    <_>
      0. 0. 0. 0. 0. 0. 0. 0. 4.20168089e-003 0. 0. 0. 0.
      4.20168089e-003 4.20168089e-003 4.20168089e-003 0. 4.20168089e-003
      0. 0. 0. 0. 0. 0. 0. 4.20168089e-003 0. 0. 0. 0. 0.
      8.40336177e-003 0. 0. 0. 4.20168089e-003 0. 0. 0. 0. 0. 0. 0. 0.
      0. 8.40336177e-003 0. 0. 0. 0. 4.20168089e-003 0. 0. 0.
      8.40336177e-003 0. 4.20168089e-003 0. 0. 0. 0. 4.20168089e-003 0.
      0. 0. 0. 0. 0. 0. 0. 0. 0. 0. 0. 0. 0. 0. 0. 0. 4.20168089e-003 0.
      0. 0. 8.40336177e-003 0. 0. 4.20168089e-003 0. 0. 0.
      4.20168089e-003 4.20168089e-003 0. 0. 0. 0. 0. 4.20168089e-003 0.
      0. 0. 0. 0. 0. 8.40336177e-003 0. 0. 0. 0. 0. 0. 4.20168089e-003
      0. 4.20168089e-003 0. 0. 0. 0. 0. 0. 4.20168089e-003 0. 0. 0. 0.
      4.20168089e-003 0. 8.40336177e-003 0. 4.20168089e-003 0. 0. 0. 0.
      0. 4.20168089e-003 8.40336177e-003 0. 0. 4.20168089e-003 0. 0. 0.
      4.20168089e-003 0. 4.20168089e-003 0. 0. 0. 0. 0. 4.20168089e-003
      0. 0. 0. 0. 0. 4.20168089e-003 0. 0. 0. 0. 4.20168089e-003 0. 0.
      0. 0. 0. 0. 0. 0. 0. 8.40336177e-003 0. 0. 0. 0. 0. 0. 0.
      4.20168089e-003 0. 4.20168089e-003 0. 8.40336177e-003 0. 0. 0. 0.
      0. 0. 0. 0. 0. 0. 1.68067235e-002 0. 0. 0. 0. 4.20168089e-003 0.
      4.20168089e-003 0. 0. 0. 8.40336177e-003 0. 0. 0. 0. 0.
      4.20168089e-003 0. 0. 0. 0. 0. 4.20168089e-003 0. 0.
      4.20168089e-003 0. 0. 0. 0. 0. 0. 0. 1.68067235e-002 0. 0.
      4.20168089e-003 1.26050431e-002 4.20168089e-003 4.20168089e-003 0.
      8.40336177e-003 4.20168089e-003 0. 0. 0. 0. 4.20168089e-003 0.
      4.20168089e-003 8.40336177e-003 0. 0. 4.20168089e-003 0. 0. 0. 0.
      0. 0. 8.40336177e-003 0. 0. 4.20168089e-003 0. 0. 0. 0. 0. 0.
      4.20168089e-003 0. 0. 0. 4.20168089e-003 0. 0. 8.40336177e-003 0.
      4.20168089e-003 0. 0. 0. 0. 0. 0. 0. 0. 0. 0. 0. 0. 0. 0. 0. 0. 0.
      0. 0. 4.20168089e-003 0. 0. 0. 0. 0. 4.20168089e-003
      4.20168089e-003 0. 0. 0. 0. 0. 4.20168089e-003 0. 0. 0. 0. 0. 0.
      0. 0. 0. 0. 0. 0. 4.20168089e-003 0. 0. 0. 4.20168089e-003 0. 0.
      0. 0. 4.20168089e-003 0. 0. 0. 0. 0. 0. 0. 0. 0. 0. 0.
      4.20168089e-003 0. 0. 4.20168089e-003 4.20168089e-003 0. 0. 0. 0.
      0. 0. 0. 0. 0. 0. 0. 0. 0. 0. 0. 4.20168089e-003 0. 0. 0. 0. 0. 0.
      8.40336177e-003 4.20168089e-003 0. 0. 0. 0. 0. 0. 0. 0. 0. 0. 0.
      0. 0. 4.20168089e-003 4.20168089e-003 0. 0. 0. 0. 0. 0. 0. 0. 0.
      0. 0. 0. 0. 0. 0. 0. 0. 0. 0. 1.68067235e-002 0. 0.
      4.20168089e-003 0. 0. 4.20168089e-003 0. 4.20168089e-003
      4.20168089e-003 8.40336177e-003 4.20168089e-003 0. 0. 0. 0. 0.
      8.40336177e-003 0. 0. 0. 0. 0. 0. 4.20168089e-003 4.20168089e-003
      0. 0. 0. 0. 0. 4.20168089e-003 0. 0. 4.20168089e-003 0.
      4.20168089e-003 0. 0. 0. 0. 4.20168089e-003 0. 0. 0. 0. 0. 0. 0.
      0. 0. 0. 0. 0. 8.40336177e-003 0. 0. 0. 0. 4.20168089e-003 0. 0.
      4.20168089e-003 0. 0. 8.40336177e-003 0. 0. 0. 0. 0. 0. 0. 0.
      4.20168089e-003 4.20168089e-003 0. 1.26050431e-002 0.
      4.20168089e-003 0. 4.20168089e-003 0. 0. 4.20168089e-003 0. 0. 0.
      0. 0. 4.20168089e-003 0. 0. 4.20168089e-003 0. 0. 0. 0. 0.
      4.20168089e-003 0. 0. 0. 0. 0. 0. 4.20168089e-003 0. 0. 0. 0. 0.
      0. 0. 8.40336177e-003 4.20168089e-003 4.20168089e-003 0. 0. 0.
      8.40336177e-003 0. 0. 0. 0. 0. 4.20168089e-003 0. 0. 0. 0. 0. 0.
      0. 0. 0. 0. 0. 0. 0. 0. 8.40336177e-003 0. 0. 0. 0. 0.
      4.20168089e-003 4.20168089e-003 0. 0. 0. 0. 0. 0. 0. 0.
      8.40336177e-003 0. 4.20168089e-003 0. 0. 0. 0. 0. 0. 0. 0. 0. 0.
      0. 0. 0. 0. 0. 0. 0. 0. 0. 0. 8.40336177e-003 0. 4.20168089e-003
      0. 0. 0. 0. 0. 0. 4.20168089e-003 4.20168089e-003 0. 0. 0. 0. 0.
      0. 4.20168089e-003 0. 4.20168089e-003 0. 0. 0. 0. 0.
      4.20168089e-003 0. 0. 0. 0. 0. 0. 4.20168089e-003 0. 0. 0.
      1.26050431e-002 0. 0. 0. 0. 0. 0. 0. 4.20168089e-003 0. 0. 0. 0.
      0. 0. 0. 0. 0. 0. 0. 0. 0. 0. 0. 0. 0. 0. 0. 0. 0. 0. 0.
      4.20168089e-003 4.20168089e-003 0. 0. 0. 4.20168089e-003 0. 0. 0.
      0. 0. 0. 0. 0. 0. 0. 0. 0. 0. 0. 0. 0. 0. 4.20168089e-003 0. 0. 0.
      0. 0. 0. 0. 0. 0. 0. 0. 0. 0. 0. 8.40336177e-003 0. 0. 0. 0. 0. 0.
      0. 0. 0. 0. 4.20168089e-003 4.20168089e-003 0. 4.20168089e-003 0.
      0. 0. 4.20168089e-003 4.20168089e-003 0. 0. 4.20168089e-003 0. 0.
      8.40336177e-003 0. 0. 0. 8.40336177e-003 0. 0. 0. 8.40336177e-003
      0. 0. 4.20168089e-003 0. 0. 0. 0. 0. 8.40336177e-003 0. 0. 0. 0.
      0. 0. 0. 0. 0. 0. 0. 0. 0. 0. 4.20168089e-003 0. 0. 0. 0. 0. 0. 0.
      0. 0. 0. 0. 4.20168089e-003 0. 0. 0. 0. 0. 0. 0. 0.
      4.20168089e-003 0. 0. 4.20168089e-003 0. 0. 0. 4.20168089e-003
      4.20168089e-003 0. 1.68067235e-002 0. 0. 0. 4.20168089e-003 0. 0.
      0. 4.20168089e-003 0. 0. 0. 0. 8.40336177e-003 0. 4.20168089e-003
      0. 0. 0. 0. 4.20168089e-003 0. 1.26050431e-002 0. 0. 0. 0. 0. 0.
      0. 0. 0. 0. 0. 0. 0. 0. 0. 0. 8.40336177e-003 0. 0. 0. 0. 0. 0. 0.
      0. 0. 0. 0. 0. 0. 0. 4.20168089e-003 4.20168089e-003
      4.20168089e-003 8.40336177e-003 4.20168089e-003 0. 0. 0.
      4.20168089e-003 0. 0. 0. 0. 0. 0. 0. 0. 0. 0. 0. 0. 0. 0. 0. 0. 0.
      0. 0. 0. 0. 0. 0. 0. 0. 4.20168089e-003 0. 0. 0. 0. 0. 0. 0. 0. 0.
      0. 0. 0. 0. 0. 0. 0. 0. 0. 4.20168089e-003 0. 4.20168089e-003 0.
      0. 0. 4.20168089e-003 0. 0. 0. 0. 0. 0. 4.20168089e-003 0.
      4.20168089e-003 0. 0. 0. 0. 1.26050431e-002 0. 0. 0. 0. 0. 0. 0.
      0. 0. 0. 4.20168089e-003 4.20168089e-003 4.20168089e-003 0. 0.
      8.40336177e-003 0. 0. 4.20168089e-003 0. 0. 0. 0. 0. 0. 0. 0. 0.
      0. 0. 0. 0. 0. 0. 0. 4.20168089e-003 0. 0. 0. 0. 0.
      8.40336177e-003 4.20168089e-003 0. 0. 0. 0. 0. 4.20168089e-003 0.
      0. 4.20168089e-003 0. 0. 0. 0. 0. 0. 0. 0. 0. 0. 0. 0. 0. 0. 0. 0.
      0. 0. 0. 4.20168089e-003 0. 0. 0. 0. 0. 0. 0. 4.20168089e-003 0.
      0. 0. 0. 0. 4.20168089e-003 0. 0. 0. 0. 0. 4.20168089e-003 0.</_>
    <_>
      0. 0. 0. 0. 0. 0. 0. 0. 0. 0. 0. 0. 0. 0. 0. 1.84049085e-002
      6.13496918e-003 6.13496918e-003 0. 0. 0. 0. 0. 0. 0.
      6.13496918e-003 0. 6.13496918e-003 0. 6.13496918e-003 0. 0. 0. 0.
      0. 0. 0. 6.13496918e-003 0. 0. 6.13496918e-003 0. 0. 0. 0. 0. 0.
      0. 0. 0. 0. 0. 0. 0. 6.13496918e-003 0. 0. 6.13496918e-003 0. 0.
      0. 0. 0. 0. 1.22699384e-002 0. 0. 0. 6.13496918e-003 0. 0. 0. 0.
      0. 0. 0. 0. 0. 0. 0. 0. 0. 0. 6.13496918e-003 0. 0. 0. 0. 0.
      6.13496918e-003 0. 0. 0. 0. 0. 0. 0. 0. 0. 0. 0. 0. 0. 0. 0. 0. 0.
      0. 0. 0. 0. 0. 0. 6.13496918e-003 0. 0. 0. 0. 0. 0. 0. 0. 0. 0. 0.
      0. 0. 0. 0. 0. 0. 0. 0. 0. 0. 0. 0. 0. 0. 0. 0. 0. 0. 0. 0. 0. 0.
      0. 0. 0. 0. 0. 0. 0. 0. 0. 0. 0. 0. 0. 0. 0. 0. 0. 0.
      6.13496918e-003 0. 0. 0. 0. 6.13496918e-003 0. 6.13496918e-003
      6.13496918e-003 0. 6.13496918e-003 0. 0. 6.13496918e-003 0. 0. 0.
      0. 0. 0. 6.13496918e-003 0. 0. 0. 0. 0. 0. 0. 0. 0.
      6.13496918e-003 0. 0. 6.13496918e-003 0. 0. 0. 6.13496918e-003
      6.13496918e-003 1.22699384e-002 0. 0. 0. 0. 0. 0. 0. 0. 0. 0. 0.
      0. 0. 1.22699384e-002 6.13496918e-003 0. 0. 0. 0. 6.13496918e-003
      0. 0. 1.22699384e-002 6.13496918e-003 0. 0. 0. 0. 6.13496918e-003
      0. 0. 6.13496918e-003 0. 0. 0. 0. 0. 0. 0. 0. 0. 0. 0. 0. 0. 0. 0.
      6.13496918e-003 0. 0. 1.22699384e-002 0. 0. 0. 1.84049085e-002 0.
      0. 0. 0. 0. 0. 0. 0. 0. 0. 0. 0. 0. 6.13496918e-003 0. 0. 0. 0. 0.
      0. 0. 0. 0. 0. 0. 0. 0. 0. 0. 0. 0. 0. 0. 0. 0. 0. 0. 0. 0.
      6.13496918e-003 0. 0. 0. 0. 0. 0. 0. 0. 6.13496918e-003 0.
      6.13496918e-003 6.13496918e-003 0. 6.13496918e-003 0. 0. 0. 0. 0.
      0. 0. 0. 6.13496918e-003 0. 0. 6.13496918e-003 0. 0.
      6.13496918e-003 6.13496918e-003 1.22699384e-002 1.22699384e-002 0.
      0. 0. 0. 0. 6.13496918e-003 6.13496918e-003 0. 0. 0. 0. 0. 0. 0.
      0. 0. 0. 0. 0. 6.13496918e-003 0. 0. 0. 0. 0. 0. 0. 0. 0. 0. 0. 0.
      0. 0. 0. 0. 0. 6.13496918e-003 0. 0. 0. 0. 6.13496918e-003 0. 0.
      0. 6.13496918e-003 0. 0. 0. 0. 0. 6.13496918e-003 0. 0. 0. 0. 0.
      0. 6.13496918e-003 0. 0. 0. 0. 0. 0. 0. 0. 0. 0. 0. 0. 0. 0. 0. 0.
      0. 0. 6.13496918e-003 6.13496918e-003 0. 0. 0. 0. 0. 0. 0. 0. 0.
      0. 0. 0. 0. 0. 0. 0. 0. 1.22699384e-002 0. 0. 0. 6.13496918e-003
      0. 0. 0. 0. 0. 0. 0. 0. 0. 0. 0. 0. 0. 0. 0. 0. 6.13496918e-003 0.
      0. 6.13496918e-003 0. 0. 0. 6.13496918e-003 6.13496918e-003 0.
      6.13496918e-003 0. 0. 0. 0. 0. 0. 0. 0. 0. 0. 0. 6.13496918e-003
      0. 0. 0. 0. 0. 0. 6.13496918e-003 0. 0. 0. 0. 6.13496918e-003 0.
      0. 0. 0. 0. 1.22699384e-002 0. 0. 0. 0. 0. 0. 0. 0. 0. 0. 0. 0. 0.
      0. 0. 0. 0. 0. 0. 0. 6.13496918e-003 0. 0. 0. 0. 0. 0. 0. 0. 0. 0.
      0. 0. 0. 0. 1.84049085e-002 0. 6.13496918e-003 0. 6.13496918e-003
      0. 0. 0. 0. 0. 0. 0. 0. 0. 0. 6.13496918e-003 0. 0. 0. 0. 0. 0. 0.
      0. 1.22699384e-002 0. 0. 0. 0. 6.13496918e-003 0. 0. 0. 0. 0.
      6.13496918e-003 0. 0. 6.13496918e-003 0. 0. 0. 0. 0. 0. 0. 0. 0.
      0. 0. 1.22699384e-002 0. 0. 0. 0. 0. 0. 0. 0. 0. 0. 0. 0. 0. 0. 0.
      0. 0. 0. 0. 0. 0. 0. 0. 0. 0. 0. 1.84049085e-002 0. 0. 0. 0. 0. 0.
      0. 0. 6.13496918e-003 0. 0. 0. 0. 0. 0. 0. 0. 0. 0. 0. 0. 0. 0. 0.
      0. 0. 0. 0. 0. 0. 0. 0. 0. 0. 0. 0. 0. 0. 0. 0. 0. 0. 0. 0. 0. 0.
      0. 0. 0. 0. 0. 0. 0. 0. 0. 0. 0. 0. 0. 0. 0. 0. 0. 0.
      6.13496918e-003 0. 6.13496918e-003 0. 0. 0. 6.13496918e-003 0. 0.
      6.13496918e-003 0. 0. 0. 0. 0. 0. 0. 6.13496918e-003 0. 0. 0. 0.
      0. 6.13496918e-003 1.22699384e-002 0. 0. 1.22699384e-002 0. 0. 0.
      0. 0. 6.13496918e-003 0. 6.13496918e-003 0. 0. 0. 0. 0. 0. 0. 0.
      6.13496918e-003 0. 0. 0. 0. 0. 0. 6.13496918e-003 6.13496918e-003
      0. 0. 0. 6.13496918e-003 0. 0. 0. 0. 0. 0. 0. 6.13496918e-003 0.
      0. 0. 0. 0. 0. 0. 0. 0. 0. 0. 0. 0. 0. 0. 0. 0. 0. 0. 0. 0.
      6.13496918e-003 0. 0. 0. 0. 0. 0. 0. 0. 0. 0. 0. 0. 0. 0. 0. 0. 0.
      0. 0. 0. 0. 0. 0. 0. 6.13496918e-003 0. 0. 0. 6.13496918e-003 0.
      0. 0. 0. 0. 0. 0. 0. 1.22699384e-002 6.13496918e-003
      6.13496918e-003 0. 0. 0. 1.22699384e-002 0. 0. 0. 0. 0. 0. 0. 0.
      0. 0. 0. 0. 0. 0. 0. 0. 0. 0. 0. 0. 1.22699384e-002 0. 0. 0. 0.
      6.13496918e-003 0. 0. 0. 0. 0. 0. 0. 6.13496918e-003 0. 0. 0. 0.
      0. 0. 0. 0. 0. 6.13496918e-003 0. 0. 0. 0. 0. 0. 0.
      6.13496918e-003 0. 0. 0. 0. 0. 0. 0. 1.22699384e-002 0. 0. 0. 0.
      0. 0. 0. 0. 0. 0. 0. 0. 0. 0. 0. 0. 0. 0. 0. 0. 0. 0. 0. 0. 0. 0.
      0. 1.22699384e-002 0. 0. 0. 0. 0. 0. 0. 0. 1.22699384e-002
      6.13496918e-003 0. 0. 0. 0. 0. 0. 0. 0. 6.13496918e-003 0. 0. 0.
      0. 0. 6.13496918e-003 0. 0. 6.13496918e-003 0. 0. 0. 0. 0. 0. 0.
      6.13496918e-003 0. 0. 0. 0. 0. 0. 0. 0. 0. 0. 0. 6.13496918e-003
      0. 0. 1.22699384e-002 0. 0. 6.13496918e-003 0. 0. 0. 0. 0. 0. 0.
      0. 6.13496918e-003 0. 0. 0. 0. 0. 6.13496918e-003 0. 0. 0. 0. 0.
      0. 0. 6.13496918e-003 0. 0. 0. 0. 0. 1.22699384e-002 0.
      6.13496918e-003 1.22699384e-002 0. 0. 0. 0. 0. 1.84049085e-002 0.
      0. 0. 0. 0. 6.13496918e-003 0. 0. 0. 0. 0. 0. 0. 0.
      1.22699384e-002 0. 0. 0. 6.13496918e-003 0. 0.</_>
    <_>
      0. 0. 0. 0. 0. 0. 0. 0. 0. 1.23456791e-002 0. 0. 1.23456791e-002
      0. 0. 0. 0. 1.23456791e-002 0. 0. 0. 1.23456791e-002 0. 0. 0. 0.
      0. 2.46913582e-002 0. 0. 0. 0. 0. 0. 0. 0. 1.23456791e-002 0. 0.
      0. 0. 0. 0. 2.46913582e-002 1.23456791e-002 0. 0. 0. 0. 0. 0. 0.
      1.23456791e-002 0. 0. 0. 6.17283955e-002 0. 0. 0. 0. 0. 0. 0.
      1.23456791e-002 0. 0. 0. 0. 0. 0. 0. 0. 0. 0. 0. 0. 0. 0. 0.
      1.23456791e-002 0. 0. 0. 0. 0. 0. 0. 1.23456791e-002 0. 0. 0. 0.
      0. 0. 0. 0. 0. 0. 0. 0. 0. 0. 0. 0. 0. 0. 0. 0. 0. 0. 0. 0. 0. 0.
      0. 0. 0. 0. 0. 3.70370373e-002 0. 0. 0. 0. 1.23456791e-002 0. 0.
      0. 0. 0. 0. 0. 0. 0. 0. 0. 0. 0. 0. 0. 0. 0. 0. 0. 0. 0. 0. 0. 0.
      0. 0. 0. 0. 0. 0. 0. 0. 0. 0. 0. 0. 0. 0. 0. 0. 0. 0. 0. 0. 0. 0.
      0. 0. 0. 0. 0. 0. 0. 0. 0. 0. 0. 0. 0. 0. 0. 0. 1.23456791e-002 0.
      0. 0. 0. 0. 0. 0. 0. 0. 2.46913582e-002 0. 1.23456791e-002 0. 0.
      0. 0. 0. 0. 0. 0. 0. 0. 0. 0. 0. 0. 0. 0. 1.23456791e-002 0. 0. 0.
      0. 0. 0. 0. 0. 0. 1.23456791e-002 0. 0. 1.23456791e-002 0. 0. 0.
      0. 0. 0. 0. 0. 0. 0. 0. 0. 0. 0. 0. 0. 0. 0. 0. 0. 0. 0. 0. 0. 0.
      0. 0. 0. 0. 2.46913582e-002 0. 0. 0. 0. 0. 0. 0. 0.
      1.23456791e-002 0. 0. 1.23456791e-002 0. 0. 0. 0. 0. 0. 0. 0. 0.
      0. 1.23456791e-002 0. 0. 0. 1.23456791e-002 0. 0. 0. 0. 0. 0. 0.
      1.23456791e-002 0. 0. 0. 2.46913582e-002 0. 0. 0. 1.23456791e-002
      0. 0. 0. 0. 0. 0. 0. 0. 0. 0. 0. 0. 0. 0. 0. 1.23456791e-002 0. 0.
      1.23456791e-002 0. 0. 0. 0. 0. 1.23456791e-002 0. 2.46913582e-002
      0. 0. 0. 0. 0. 0. 0. 0. 0. 0. 0. 2.46913582e-002 0. 0. 0.
      1.23456791e-002 0. 1.23456791e-002 0. 0. 0. 0. 0. 0. 0. 0. 0. 0.
      0. 0. 0. 0. 0. 1.23456791e-002 0. 1.23456791e-002 0. 0. 0. 0. 0.
      0. 1.23456791e-002 0. 0. 0. 0. 0. 0. 0. 0. 0. 0. 0. 0. 0. 0. 0. 0.
      0. 0. 0. 0. 0. 0. 0. 0. 0. 0. 0. 0. 0. 0. 0. 0. 0. 0. 0. 0. 0. 0.
      0. 0. 0. 0. 0. 0. 0. 0. 0. 0. 0. 0. 0. 0. 0. 0. 0. 0. 0. 0. 0. 0.
      0. 0. 0. 0. 0. 0. 0. 0. 0. 0. 0. 0. 0. 1.23456791e-002 0.
      2.46913582e-002 0. 0. 0. 0. 0. 0. 0. 0. 0. 0. 0. 0. 0. 0. 0. 0. 0.
      0. 0. 0. 0. 0. 0. 0. 0. 0. 0. 0. 0. 1.23456791e-002 0. 0. 0. 0. 0.
      0. 0. 0. 0. 0. 0. 0. 1.23456791e-002 0. 0. 0. 0. 0. 0. 0. 0. 0. 0.
      0. 0. 0. 0. 0. 0. 0. 0. 1.23456791e-002 0. 0. 0. 0. 0. 0. 0. 0. 0.
      0. 0. 0. 0. 0. 0. 0. 0. 0. 0. 0. 0. 0. 0. 0. 0. 0. 0. 0. 0. 0. 0.
      0. 1.23456791e-002 0. 0. 0. 0. 0. 0. 0. 2.46913582e-002 0. 0.
      1.23456791e-002 0. 1.23456791e-002 0. 0. 0. 0. 0. 0. 0. 0. 0. 0.
      0. 0. 0. 0. 0. 0. 0. 0. 1.23456791e-002 0. 0. 0. 1.23456791e-002
      0. 0. 0. 0. 0. 0. 0. 0. 0. 0. 0. 1.23456791e-002 0. 0. 0. 0. 0. 0.
      0. 0. 0. 0. 0. 0. 0. 0. 0. 0. 0. 0. 0. 0. 0. 0. 0. 0. 0. 0. 0. 0.
      0. 0. 0. 0. 0. 0. 0. 0. 0. 0. 0. 0. 0. 0. 0. 0. 0. 0. 0. 0. 0. 0.
      0. 0. 0. 0. 0. 0. 0. 0. 0. 0. 0. 0. 0. 0. 0. 0. 0. 0.
      1.23456791e-002 0. 0. 0. 0. 0. 0. 0. 0. 0. 0. 0. 0. 0. 0. 0. 0.
      1.23456791e-002 0. 0. 0. 0. 0. 0. 0. 0. 0. 0. 0. 0. 0. 0. 0. 0. 0.
      0. 0. 0. 0. 0. 0. 0. 0. 0. 0. 0. 0. 0. 0. 0. 0. 0. 0. 0. 0. 0. 0.
      0. 0. 0. 0. 0. 0. 0. 2.46913582e-002 0. 0. 0. 0. 0. 0. 0. 0. 0. 0.
      0. 0. 1.23456791e-002 0. 0. 0. 0. 0. 0. 0. 0. 0. 0. 0. 0. 0. 0. 0.
      1.23456791e-002 0. 0. 0. 0. 0. 0. 0. 0. 0. 0. 0. 0. 0. 0. 0. 0. 0.
      0. 0. 0. 0. 0. 0. 0. 0. 0. 0. 0. 0. 0. 0. 0. 0. 0. 0. 0. 0.
      1.23456791e-002 0. 0. 0. 0. 0. 0. 0. 0. 0. 0. 0. 0. 0. 0. 0. 0. 0.
      0. 0. 0. 0. 0. 0. 0. 0. 0. 0. 0. 0. 0. 0. 0. 1.23456791e-002 0. 0.
      0. 0. 0. 0. 1.23456791e-002 0. 0. 0. 0. 0. 0. 0. 0. 0. 0. 0. 0. 0.
      0. 1.23456791e-002 0. 0. 0. 1.23456791e-002 0. 0. 0. 0. 0. 0. 0.
      0. 0. 0. 2.46913582e-002 0. 0. 0. 0. 0. 0. 0. 0. 0. 0. 0. 0. 0. 0.
      0. 0. 0. 0. 0. 0. 0. 0. 1.23456791e-002 0. 0. 0. 0. 0. 0. 0. 0. 0.
      0. 0. 0. 0. 0. 0. 0. 0. 0. 0. 0. 0. 0. 0. 0. 0. 0. 0. 0. 0. 0. 0.
      0. 0. 0. 0. 0. 0. 0. 0. 0. 0. 0. 0. 0. 0. 0. 0. 0. 0. 0. 0. 0. 0.
      0. 0. 0. 0. 0. 0. 0. 0. 0. 0. 0. 0. 0. 0. 0. 0. 0. 0. 0. 0. 0. 0.
      0. 0. 0. 0. 0. 0. 0. 0. 0. 0. 0. 0. 0. 0. 0. 0. 0. 0. 0. 0. 0.
      1.23456791e-002 0. 0. 0. 0. 0. 0. 0. 0. 0. 0. 0. 0. 0. 0. 0. 0. 0.</_>
    <_>
      0. 0. 0. 1.96078438e-002 0. 1.96078438e-002 0. 0. 0. 0. 0. 0. 0.
      0. 0. 0. 0. 0. 0. 0. 0. 0. 0. 0. 0. 0. 0. 0. 0. 0. 0. 0. 0. 0. 0.
      0. 0. 0. 0. 0. 1.96078438e-002 0. 1.96078438e-002 0. 0. 0. 0. 0.
      0. 0. 0. 0. 0. 0. 0. 0. 0. 0. 0. 0. 0. 0. 0. 0. 1.96078438e-002 0.
      0. 0. 0. 0. 0. 0. 0. 0. 0. 0. 0. 0. 0. 0. 1.96078438e-002 0. 0. 0.
      0. 0. 0. 0. 0. 0. 0. 0. 0. 0. 0. 0. 0. 1.96078438e-002
      1.96078438e-002 0. 0. 0. 0. 0. 0. 1.96078438e-002 0. 0. 0. 0. 0.
      0. 0. 0. 0. 0. 0. 0. 0. 0. 0. 0. 0. 0. 0. 0. 0. 0. 0. 0. 0. 0. 0.
      0. 0. 0. 0. 0. 0. 0. 0. 1.96078438e-002 0. 0. 0. 0. 0. 0. 0. 0. 0.
      0. 0. 0. 0. 0. 0. 0. 0. 0. 0. 0. 0. 0. 0. 0. 0. 0. 0. 0. 0. 0. 0.
      0. 0. 0. 0. 0. 0. 0. 0. 0. 0. 0. 0. 0. 0. 0. 0. 0. 3.92156877e-002
      0. 0. 0. 0. 0. 0. 0. 1.96078438e-002 0. 0. 0. 3.92156877e-002 0.
      0. 0. 0. 0. 0. 0. 0. 0. 0. 0. 0. 0. 0. 1.96078438e-002 0. 0. 0. 0.
      0. 0. 0. 0. 0. 0. 1.96078438e-002 0. 1.96078438e-002 0. 0. 0. 0.
      0. 0. 0. 0. 0. 0. 0. 0. 0. 0. 0. 0. 0. 0. 0. 0. 0. 0. 0. 0.
      1.96078438e-002 0. 0. 0. 0. 0. 0. 0. 0. 0. 0. 0. 0. 0. 0. 0. 0. 0.
      0. 0. 0. 0. 0. 0. 0. 0. 0. 0. 0. 0. 0. 0. 0. 0. 0. 0. 0. 0. 0. 0.
      0. 0. 0. 0. 0. 0. 0. 1.96078438e-002 0. 0. 0. 0. 0.
      1.96078438e-002 0. 0. 0. 0. 0. 0. 0. 0. 0. 0. 0. 0. 0.
      1.96078438e-002 0. 0. 1.96078438e-002 0. 0. 0. 0. 0. 0. 0. 0. 0.
      0. 0. 0. 0. 0. 0. 0. 0. 0. 0. 0. 0. 0. 0. 0. 0. 0. 0. 0. 0. 0. 0.
      0. 0. 0. 0. 0. 0. 0. 0. 0. 1.96078438e-002 0. 0. 0. 0. 0.
      3.92156877e-002 1.96078438e-002 0. 0. 0. 0. 0. 0. 0. 0. 0. 0. 0.
      0. 0. 0. 0. 0. 0. 0. 0. 0. 0. 0. 1.96078438e-002 0. 0. 0. 0. 0. 0.
      0. 0. 0. 0. 0. 0. 0. 0. 0. 0. 0. 0. 0. 0. 0. 0. 0. 0. 0. 0. 0. 0.
      1.96078438e-002 0. 0. 0. 0. 0. 0. 0. 0. 0. 0. 0. 0. 0. 0. 0. 0. 0.
      0. 0. 0. 0. 0. 0. 1.96078438e-002 0. 0. 0. 0. 0. 0. 0. 0. 0. 0. 0.
      0. 0. 0. 0. 0. 0. 0. 0. 0. 0. 0. 0. 0. 0. 0. 0. 0. 0. 0. 0. 0. 0.
      0. 0. 0. 0. 0. 0. 0. 0. 0. 0. 0. 0. 0. 0. 0. 0. 0. 0. 0. 0. 0. 0.
      0. 0. 1.96078438e-002 0. 0. 0. 0. 0. 0. 0. 0. 0. 0. 0. 0. 0. 0. 0.
      1.96078438e-002 3.92156877e-002 0. 0. 0. 0. 0. 0. 0. 0. 0. 0. 0.
      0. 0. 0. 0. 0. 0. 0. 0. 0. 0. 0. 0. 0. 0. 0. 0. 1.96078438e-002 0.
      0. 0. 0. 0. 0. 0. 0. 0. 0. 0. 0. 0. 0. 0. 1.96078438e-002 0. 0. 0.
      0. 0. 0. 0. 0. 0. 0. 0. 0. 0. 0. 0. 0. 0. 0. 0. 0. 0. 0. 0. 0. 0.
      1.96078438e-002 0. 0. 0. 0. 0. 0. 0. 0. 0. 0. 0. 0. 0. 0. 0. 0. 0.
      0. 1.96078438e-002 0. 0. 0. 1.96078438e-002 0. 0. 0. 0. 0. 0. 0.
      0. 0. 0. 0. 0. 0. 0. 0. 0. 0. 0. 0. 0. 0. 0. 0. 0. 0. 0. 0. 0. 0.
      0. 0. 0. 1.96078438e-002 0. 0. 0. 0. 0. 0. 0. 0. 0. 0. 0. 0. 0. 0.
      0. 0. 0. 0. 0. 0. 0. 0. 0. 0. 0. 0. 0. 0. 0. 0. 0. 0. 0. 0. 0. 0.
      0. 0. 0. 0. 0. 0. 0. 0. 0. 0. 1.96078438e-002 0. 0. 0. 0.
      3.92156877e-002 0. 0. 0. 0. 0. 0. 0. 0. 0. 0. 0. 0. 0. 0. 0. 0. 0.
      0. 0. 0. 0. 0. 0. 0. 0. 0. 0. 0. 0. 0. 0. 0. 0. 0. 0. 0. 0. 0. 0.
      0. 0. 0. 0. 0. 0. 0. 0. 0. 0. 0. 0. 0. 0. 0. 0. 0. 0. 0. 0. 0. 0.
      0. 0. 1.96078438e-002 0. 0. 0. 0. 0. 0. 0. 0. 0. 0. 0. 0. 0. 0. 0.
      0. 0. 0. 0. 0. 0. 0. 0. 0. 0. 0. 0. 0. 0. 0. 0. 0. 0. 0. 0. 0. 0.
      0. 0. 0. 0. 0. 0. 0. 0. 0. 0. 0. 0. 0. 0. 0. 0. 0. 0. 0. 0. 0. 0.
      0. 0. 0. 0. 0. 0. 1.96078438e-002 0. 0. 0. 0. 1.96078438e-002 0.
      0. 0. 0. 0. 0. 0. 0. 0. 0. 0. 0. 0. 0. 0. 0. 0. 1.96078438e-002 0.
      0. 0. 0. 0. 0. 0. 0. 0. 0. 0. 0. 0. 0. 0. 0. 0. 0. 0. 0. 0. 0. 0.
      0. 0. 0. 0. 0. 0. 0. 0. 0. 0. 0. 0. 0. 0. 0. 0. 0. 0. 0. 0. 0. 0.
      0. 0. 0. 0. 0. 0. 0. 0. 0. 0. 0. 0. 0. 0. 0. 0. 0. 1.96078438e-002
      0. 0. 0. 0. 0. 0. 0. 0. 0. 0. 0. 0. 0. 0. 0. 0. 0. 0. 0. 0. 0. 0.
      0. 0. 0. 0. 0. 0. 0. 0. 0. 0. 0. 0. 1.96078438e-002 0. 0. 0. 0. 0.
      0. 0. 0. 0. 0. 0. 0. 0. 0. 0. 0. 1.96078438e-002 0. 0. 0. 0. 0. 0.
      0. 0. 0. 0. 0. 0. 0. 0. 0. 1.96078438e-002 0. 0. 0. 0. 0. 0. 0. 0.
      0. 0. 0. 0. 0.</_>
    <_>
      0. 0. 0. 0. 0. 0. 0. 0. 0. 0. 0. 0. 2.45700241e-003
      2.45700241e-003 0. 0. 0. 0. 0. 2.45700241e-003 0. 0.
      2.45700241e-003 0. 7.37100746e-003 2.45700241e-003 2.45700241e-003
      0. 0. 0. 0. 2.45700241e-003 2.45700241e-003 0. 4.91400482e-003 0.
      4.91400482e-003 0. 2.45700241e-003 0. 0. 4.91400482e-003 0. 0.
      4.91400482e-003 0. 0. 0. 0. 0. 0. 0. 0. 0. 0. 2.45700241e-003
      7.37100746e-003 1.47420149e-002 0. 0. 0. 0. 0. 0. 7.37100746e-003
      2.45700241e-003 0. 2.45700241e-003 0. 2.45700241e-003 0. 0.
      2.45700241e-003 0. 0. 7.37100746e-003 0. 4.91400482e-003
      2.45700241e-003 2.45700241e-003 4.91400482e-003 0. 0.
      2.45700241e-003 9.82800964e-003 0. 0. 0. 7.37100746e-003 0. 0.
      2.45700241e-003 0. 0. 0. 0. 4.91400482e-003 7.37100746e-003 0. 0.
      2.45700241e-003 2.45700241e-003 0. 0. 7.37100746e-003 0. 0.
      2.45700241e-003 0. 4.91400482e-003 0. 0. 0. 0. 2.45700241e-003
      2.45700241e-003 0. 0. 0. 2.45700241e-003 1.71990171e-002 0. 0. 0.
      0. 0. 0. 0. 0. 0. 0. 2.45700241e-003 0. 2.45700241e-003 0.
      2.45700241e-003 0. 0. 0. 0. 2.45700241e-003 2.45700241e-003 0. 0.
      0. 0. 2.45700241e-003 0. 0. 0. 0. 0. 2.45700241e-003 0. 0. 0. 0.
      0. 0. 0. 2.45700241e-003 0. 0. 2.45700241e-003 0. 0. 0. 0. 0.
      2.45700241e-003 0. 0. 4.91400482e-003 0. 2.45700241e-003 0. 0.
      2.45700241e-003 0. 0. 2.45700241e-003 0. 0. 0. 0. 4.91400482e-003
      2.45700241e-003 0. 0. 0. 0. 0. 0. 0. 0. 0. 0. 0. 4.91400482e-003
      0. 0. 0. 1.22850118e-002 0. 0. 0. 2.45700241e-003 0. 0. 0. 0.
      2.45700241e-003 0. 0. 0. 0. 4.91400482e-003 2.45700241e-003 0. 0.
      2.45700241e-003 1.71990171e-002 0. 0. 0. 0. 0. 7.37100746e-003
      4.91400482e-003 4.91400482e-003 4.91400482e-003 7.37100746e-003
      2.45700241e-003 2.45700241e-003 0. 2.45700241e-003 2.45700241e-003
      0. 0. 0. 0. 0. 0. 0. 0. 0. 0. 0. 2.45700241e-003 0. 0. 0.
      2.45700241e-003 2.45700241e-003 0. 2.45700241e-003 0. 0. 0. 0. 0.
      2.45700241e-003 0. 4.91400482e-003 0. 0. 7.37100746e-003 0.
      2.45700241e-003 2.45700241e-003 4.91400482e-003 0. 0. 0. 0. 0. 0.
      0. 0. 2.45700241e-003 0. 2.45700241e-003 4.91400482e-003 0. 0. 0.
      0. 0. 0. 0. 2.45700241e-003 0. 0. 0. 2.45700241e-003 0. 0. 0. 0.
      0. 0. 0. 0. 9.82800964e-003 0. 0. 2.45700241e-003 0.
      9.82800964e-003 0. 0. 2.45700241e-003 0. 0. 0. 0. 0. 0. 0. 0. 0.
      2.45700241e-003 4.91400482e-003 0. 0. 2.45700241e-003 0. 0.
      2.45700241e-003 0. 4.91400482e-003 0. 0. 2.45700241e-003 0. 0. 0.
      0. 0. 0. 2.45700241e-003 0. 4.91400482e-003 0. 0. 0. 0. 0.
      4.91400482e-003 0. 4.91400482e-003 2.45700241e-003 0. 0. 0. 0. 0.
      7.37100746e-003 0. 0. 0. 0. 2.45700241e-003 0. 2.45700241e-003 0.
      0. 2.45700241e-003 0. 2.45700241e-003 0. 0. 2.45700241e-003 0. 0.
      0. 0. 0. 0. 2.45700241e-003 0. 0. 0. 0. 0. 2.45700241e-003 0. 0.
      0. 0. 0. 0. 2.45700241e-003 0. 2.45700241e-003 0. 0.
      2.45700241e-003 0. 0. 7.37100746e-003 0. 0. 0. 0. 0.
      2.45700241e-003 0. 4.91400482e-003 2.45700241e-003 4.91400482e-003
      0. 0. 0. 4.91400482e-003 0. 0. 0. 0. 0. 0. 0. 0. 0. 0. 0. 0. 0. 0.
      0. 2.45700241e-003 0. 0. 4.91400482e-003 0. 0. 7.37100746e-003 0.
      2.45700241e-003 2.45700241e-003 0. 0. 0. 0. 0. 0. 0. 0. 0. 0. 0.
      0. 0. 0. 2.45700241e-003 0. 0. 0. 2.45700241e-003 0. 0. 0. 0.
      2.45700241e-003 0. 0. 0. 0. 0. 0. 4.91400482e-003 0. 0. 0. 0. 0.
      0. 0. 2.45700241e-003 2.45700241e-003 2.45700241e-003 0.
      4.91400482e-003 2.45700241e-003 2.45700241e-003 0. 0. 0. 0.
      2.45700241e-003 0. 0. 4.91400482e-003 7.37100746e-003
      2.45700241e-003 0. 0. 2.45700241e-003 2.45700241e-003 0. 0. 0. 0.
      0. 4.91400482e-003 0. 0. 0. 0. 4.91400482e-003 0. 9.82800964e-003
      0. 0. 2.45700241e-003 2.45700241e-003 2.45700241e-003 0. 0.
      2.45700241e-003 0. 0. 2.45700241e-003 0. 0. 0. 0. 2.45700241e-003
      1.47420149e-002 0. 0. 0. 0. 0. 0. 0. 0. 0. 0. 2.45700241e-003 0.
      0. 0. 2.45700241e-003 2.45700241e-003 0. 2.45700241e-003 0. 0. 0.
      2.45700241e-003 0. 7.37100746e-003 2.45700241e-003 0.
      2.45700241e-003 4.91400482e-003 0. 2.45700241e-003 0. 0. 0.
      2.45700241e-003 2.45700241e-003 0. 0. 0. 0. 0. 2.45700241e-003
      2.45700241e-003 4.91400482e-003 0. 0. 2.45700241e-003 0.
      2.45700241e-003 0. 0. 0. 4.91400482e-003 2.45700241e-003 0. 0. 0.
      0. 2.45700241e-003 0. 0. 0. 0. 2.45700241e-003 0. 1.22850118e-002
      0. 4.91400482e-003 0. 0. 0. 0. 0. 0. 0. 0. 0. 0. 0. 0. 0.
      4.91400482e-003 0. 0. 0. 0. 0. 2.45700241e-003 2.45700241e-003 0.
      0. 0. 0. 0. 0. 0. 0. 2.45700241e-003 0. 0. 0. 0. 0. 0.
      4.91400482e-003 0. 0. 0. 0. 0. 0. 0. 0. 0. 0. 0. 0.
      2.45700241e-003 4.91400482e-003 2.45700241e-003 4.91400482e-003 0.
      0. 0. 2.45700241e-003 0. 0. 0. 0. 0. 0. 0. 0. 2.45700241e-003
      2.45700241e-003 0. 0. 0. 0. 2.45700241e-003 4.91400482e-003 0.
      7.37100746e-003 0. 0. 0. 0. 2.45700241e-003 0. 0. 0. 0. 0. 0. 0.
      0. 0. 0. 0. 0. 0. 0. 0. 0. 0. 0. 0. 0. 0. 0. 2.45700241e-003 0. 0.
      0. 0. 0. 0. 4.91400482e-003 0. 0. 0. 4.91400482e-003 0. 0.
      2.45700241e-003 0. 0. 0. 2.45700241e-003 2.45700241e-003
      2.45700241e-003 0. 7.37100746e-003 0. 4.91400482e-003
      4.91400482e-003 0. 0. 0. 0. 0. 0. 2.45700241e-003 0. 0. 0. 0. 0.
      0. 2.45700241e-003 2.45700241e-003 0. 4.91400482e-003 0. 0. 0. 0.
      2.45700241e-003 0. 2.45700241e-003 2.45700241e-003 0. 0. 0.
      2.45700241e-003 0. 2.45700241e-003 0. 2.45700241e-003 0.
      4.91400482e-003 0. 7.37100746e-003 0. 0. 0. 0. 0. 2.45700241e-003
      0. 0. 0. 0. 0. 0. 0. 0. 2.45700241e-003 2.45700241e-003 0. 0.
      2.45700241e-003 0. 0. 2.45700241e-003 2.45700241e-003 0. 0. 0. 0.
      0. 0. 0. 2.45700241e-003 0. 2.45700241e-003 0. 0. 0. 0. 0. 0. 0.
      0. 0. 0. 2.45700241e-003 0. 0. 0. 0. 0. 0. 0. 0. 0.
      2.45700241e-003 0. 0. 0. 0. 2.45700241e-003 0. 0. 0. 0. 0.
      9.82800964e-003 2.45700241e-003 0. 0. 2.45700241e-003 0. 0. 0.
      2.45700241e-003 0. 0. 0. 0. 0. 4.91400482e-003 0. 0.
      2.45700241e-003 2.45700241e-003 0. 2.45700241e-003 2.45700241e-003
      2.45700241e-003 0. 0. 0. 2.45700241e-003 2.45700241e-003
      4.91400482e-003 0. 0. 2.45700241e-003 4.91400482e-003 0. 0.
      2.45700241e-003 0. 2.45700241e-003 4.91400482e-003 0. 0. 0. 0.
      2.45700241e-003 0. 0. 0. 0. 0. 0. 0. 0. 0. 0. 0. 0. 0. 0. 0. 0.
      4.91400482e-003 0. 2.45700241e-003 2.45700241e-003 0. 0.
      4.91400482e-003 0. 2.45700241e-003 0. 0. 0. 0. 0. 0. 0. 0. 0. 0.
      0. 0. 0. 0. 0. 0. 0. 0. 0. 0. 2.45700241e-003 0. 0.
      4.91400482e-003 0. 0. 0. 2.45700241e-003 2.45700241e-003 0. 0.
      4.91400482e-003 0. 0. 0. 0. 0. 2.45700241e-003 0. 0.
      2.45700241e-003 0. 2.45700241e-003 0. 0. 0. 0. 0. 0. 0. 0. 0. 0.
      2.45700241e-003 0. 0. 4.91400482e-003 0. 0. 0. 0. 0. 0. 0. 0. 0.
      0. 0. 2.45700241e-003 7.37100746e-003 2.45700241e-003 0. 0. 0. 0.
      2.45700241e-003 2.45700241e-003 0. 0. 0. 0. 0. 0. 0. 0. 0. 0. 0.
      0. 2.45700241e-003 2.45700241e-003 0. 0. 0. 0. 0. 0. 0. 0.
      2.45700241e-003 2.45700241e-003 0. 0. 0. 0. 0.</_>
    <_>
      0. 5.64971752e-003 0. 0. 0. 0. 0. 5.64971752e-003 0.
      5.64971752e-003 0. 1.12994350e-002 0. 0. 0. 0. 0. 3.95480245e-002
      0. 0. 0. 0. 0. 5.64971752e-003 0. 0. 0. 1.12994350e-002 0. 0. 0.
      0. 0. 0. 5.64971752e-003 0. 0. 0. 0. 0. 0. 0. 0. 5.64971752e-003
      5.64971752e-003 0. 0. 0. 0. 0. 0. 0. 5.64971752e-003 0. 0. 0.
      1.69491526e-002 0. 0. 5.64971752e-003 0. 0. 5.64971752e-003 0. 0.
      1.12994350e-002 0. 0. 0. 0. 0. 0. 0. 0. 5.64971752e-003
      1.12994350e-002 0. 0. 0. 0. 0. 0. 0. 0. 5.64971752e-003 0. 0. 0.
      5.64971752e-003 5.64971752e-003 0. 0. 0. 0. 0. 0. 0. 0.
      5.64971752e-003 0. 0. 0. 0. 0. 0. 0. 0. 0. 0. 0. 0. 0.
      5.64971752e-003 0. 0. 0. 0. 0. 5.64971752e-003 0. 0. 0. 0. 0. 0.
      0. 0. 5.64971752e-003 0. 5.64971752e-003 0. 0. 0. 5.64971752e-003
      0. 0. 0. 0. 5.64971752e-003 0. 0. 0. 0. 0. 0. 0. 0. 0. 0. 0. 0. 0.
      0. 0. 0. 0. 0. 0. 0. 5.64971752e-003 0. 0. 0. 0. 5.64971752e-003
      0. 0. 0. 0. 0. 5.64971752e-003 0. 1.69491526e-002 0. 0. 0. 0. 0.
      0. 0. 0. 0. 0. 0. 0. 0. 0. 0. 0. 5.64971752e-003 0. 0. 0. 0. 0. 0.
      0. 0. 0. 0. 5.64971752e-003 0. 5.64971752e-003 0. 0. 0. 0.
      5.64971752e-003 0. 0. 0. 5.64971752e-003 0. 0. 0. 1.12994350e-002
      5.64971752e-003 5.64971752e-003 0. 0. 0. 0. 0. 0. 0. 0. 0.
      1.69491526e-002 0. 0. 0. 0. 0. 0. 0. 5.64971752e-003 0. 0. 0. 0.
      0. 0. 5.64971752e-003 0. 0. 0. 0. 0. 0. 0. 0. 0. 0.
      5.64971752e-003 0. 0. 0. 0. 0. 0. 5.64971752e-003 0. 0. 0. 0. 0.
      0. 0. 0. 5.64971752e-003 5.64971752e-003 0. 5.64971752e-003 0. 0.
      0. 5.64971752e-003 0. 0. 0. 5.64971752e-003 0. 0. 0. 0.
      5.64971752e-003 0. 5.64971752e-003 0. 5.64971752e-003 0. 0. 0. 0.
      0. 5.64971752e-003 0. 0. 0. 5.64971752e-003 0. 0. 0. 0. 0. 0. 0.
      0. 0. 0. 0. 0. 0. 0. 0. 0. 0. 0. 0. 0. 0. 0. 5.64971752e-003
      1.12994350e-002 0. 0. 0. 0. 0. 0. 0. 0. 5.64971752e-003
      5.64971752e-003 5.64971752e-003 0. 0. 5.64971752e-003 0. 0. 0. 0.
      2.25988701e-002 0. 0. 0. 0. 0. 0. 5.64971752e-003 0. 0. 0. 0. 0.
      0. 0. 5.64971752e-003 0. 0. 0. 0. 0. 0. 0. 0. 5.64971752e-003 0.
      0. 0. 0. 0. 0. 5.64971752e-003 0. 5.64971752e-003 0. 0. 0. 0. 0.
      0. 0. 0. 0. 0. 5.64971752e-003 0. 0. 0. 0. 0. 0. 0. 0. 0. 0. 0. 0.
      0. 0. 0. 0. 0. 0. 0. 0. 0. 5.64971752e-003 0. 0. 0. 0.
      5.64971752e-003 0. 0. 0. 0. 0. 0. 0. 0. 0. 0. 5.64971752e-003 0.
      0. 0. 0. 0. 5.64971752e-003 0. 0. 5.64971752e-003 0. 0. 0. 0. 0.
      0. 0. 0. 0. 0. 0. 0. 0. 0. 0. 0. 0. 1.12994350e-002 0. 0.
      5.64971752e-003 0. 0. 0. 0. 0. 0. 5.64971752e-003 5.64971752e-003
      0. 0. 0. 0. 0. 5.64971752e-003 0. 5.64971752e-003 0. 0. 0. 0. 0.
      0. 0. 0. 0. 0. 0. 1.12994350e-002 0. 5.64971752e-003 0. 0. 0. 0.
      5.64971752e-003 0. 0. 0. 5.64971752e-003 5.64971752e-003 0. 0.
      5.64971752e-003 0. 0. 0. 0. 0. 0. 0. 0. 0. 0. 0. 0. 0.
      1.12994350e-002 5.64971752e-003 0. 0. 0. 0. 0. 0. 0. 0. 0. 0. 0.
      0. 0. 5.64971752e-003 0. 0. 0. 5.64971752e-003 5.64971752e-003 0.
      0. 0. 0. 5.64971752e-003 0. 0. 0. 5.64971752e-003 1.12994350e-002
      0. 5.64971752e-003 5.64971752e-003 0. 5.64971752e-003
      5.64971752e-003 0. 0. 0. 0. 1.69491526e-002 0. 0. 0. 0.
      1.12994350e-002 0. 0. 0. 0. 5.64971752e-003 0. 5.64971752e-003 0.
      0. 0. 5.64971752e-003 0. 0. 5.64971752e-003 0. 0. 0. 0.
      1.12994350e-002 0. 0. 0. 1.12994350e-002 0. 0. 0. 0. 0. 0. 0. 0.
      0. 0. 0. 0. 0. 0. 0. 0. 0. 0. 0. 5.64971752e-003 0. 0. 0. 0. 0. 0.
      0. 0. 0. 0. 0. 0. 0. 0. 0. 0. 0. 0. 0. 0. 0. 0. 0. 0. 0. 0. 0. 0.
      0. 0. 0. 0. 0. 0. 0. 0. 0. 5.64971752e-003 0. 0. 0. 0. 0. 0. 0. 0.
      0. 0. 0. 0. 0. 0. 0. 0. 0. 0. 0. 0. 0. 0. 1.12994350e-002 0. 0. 0.
      5.64971752e-003 0. 0. 0. 0. 0. 0. 0. 0. 0. 0. 0. 0. 0. 0. 0. 0. 0.
      0. 0. 0. 0. 0. 0. 0. 0. 0. 0. 0. 0. 0. 0. 0. 0. 0. 0. 0.
      1.12994350e-002 0. 0. 5.64971752e-003 5.64971752e-003 0. 0.
      5.64971752e-003 0. 0. 0. 0. 0. 0. 0. 0. 1.69491526e-002 0.
      5.64971752e-003 0. 0. 0. 0. 0. 0. 0. 0. 0. 0. 0. 0. 0. 0.
      5.64971752e-003 0. 0. 0. 0. 0. 0. 0. 0. 0. 0. 0. 0. 0. 0. 0.
      5.64971752e-003 0. 0. 5.64971752e-003 0. 0. 0. 5.64971752e-003 0.
      0. 0. 0. 0. 0. 0. 0. 0. 0. 0. 0. 0. 0. 0. 0. 0. 0. 5.64971752e-003
      0. 0. 0. 0. 0. 0. 0. 0. 5.64971752e-003 0. 0. 0. 0. 0.
      5.64971752e-003 0. 0. 0. 0. 0. 0. 0. 0. 0. 0. 0. 0. 0. 0. 0. 0. 0.
      0. 0. 0. 0. 0. 0. 0. 0. 0. 5.64971752e-003 0. 0. 0. 0. 0.
      1.12994350e-002 0. 0. 0. 0. 0. 0. 0. 0. 0. 0. 0. 0. 0.
      1.12994350e-002 0. 5.64971752e-003 0. 5.64971752e-003 0. 0. 0. 0.
      0. 0. 0. 0. 0. 0. 0. 0. 0. 1.69491526e-002 5.64971752e-003 0. 0.
      0. 5.64971752e-003 0. 0. 0. 0. 0. 0. 0. 0. 0. 0. 0. 0. 0. 0. 0. 0.
      0. 0. 0. 0. 0. 1.12994350e-002 0. 0. 0. 0. 0. 0. 0. 0. 0. 0. 0.
      5.64971752e-003 0. 0. 0. 0. 0. 5.64971752e-003 0. 0. 0. 0. 0. 0.
      0. 0. 0. 0. 0. 0. 0. 0. 0. 5.64971752e-003 0. 0. 0. 0. 0. 0. 0. 0.
      0. 0. 0. 0. 0. 0. 0. 0. 0. 0. 5.64971752e-003 0. 0.
      5.64971752e-003 0. 0. 5.64971752e-003 0. 0. 0. 0. 0. 0.
      5.64971752e-003 0. 0. 0. 0. 0. 0. 0. 0. 0. 0. 0. 0. 0. 0. 0. 0.
      5.64971752e-003 0. 0. 0. 0. 0. 0. 0. 0. 0. 0. 0. 0. 0. 0. 0. 0. 0.
      0. 0. 0. 0. 0. 0. 0. 0. 0. 0. 0. 0. 0. 0. 0.</_>
    <_>
      0. 0. 0. 0. 0. 0. 0. 1.11111114e-002 0. 0. 0. 0. 0. 0. 0. 0. 0.
      1.11111114e-002 0. 0. 0. 0. 0. 0. 0. 0. 0. 0. 0. 1.11111114e-002
      0. 0. 0. 0. 0. 0. 0. 0. 0. 0. 0. 0. 0. 0. 1.11111114e-002 0. 0. 0.
      0. 0. 0. 0. 0. 0. 0. 0. 0. 1.11111114e-002 0. 0. 0. 0.
      1.11111114e-002 1.11111114e-002 0. 0. 0. 0. 0. 0. 0. 0. 0. 0.
      1.11111114e-002 0. 0. 0. 0. 0. 0. 0. 0. 0. 0. 0. 0. 0.
      1.11111114e-002 0. 0. 0. 0. 0. 0. 0. 0. 0. 0. 0. 0. 0. 0. 0. 0. 0.
      0. 0. 0. 0. 0. 0. 0. 1.11111114e-002 0. 0. 0. 0. 0. 0.
      1.11111114e-002 0. 0. 0. 0. 0. 0. 0. 0. 0. 0. 0. 0. 0. 0. 0. 0. 0.
      0. 0. 0. 1.11111114e-002 0. 1.11111114e-002 0. 0. 0. 0. 0. 0. 0.
      0. 0. 0. 0. 0. 1.11111114e-002 0. 0. 1.11111114e-002
      1.11111114e-002 0. 0. 0. 0. 0. 0. 0. 0. 0. 0. 0. 1.11111114e-002
      0. 0. 0. 0. 0. 0. 0. 0. 0. 0. 0. 0. 0. 1.11111114e-002 0. 0. 0. 0.
      0. 0. 0. 0. 0. 1.11111114e-002 1.11111114e-002 0. 0. 0. 0. 0. 0.
      0. 1.11111114e-002 0. 0. 0. 0. 0. 0. 0. 0. 0. 0. 0. 0.
      1.11111114e-002 1.11111114e-002 0. 0. 0. 0. 0. 0. 0. 0.
      1.11111114e-002 0. 1.11111114e-002 0. 1.11111114e-002 0. 0. 0. 0.
      0. 0. 0. 0. 0. 0. 0. 1.11111114e-002 0. 0. 0. 0. 0. 0. 0. 0. 0. 0.
      1.11111114e-002 0. 0. 0. 0. 0. 0. 0. 0. 0. 0. 0. 0. 0. 0. 0. 0. 0.
      1.11111114e-002 0. 0. 0. 0. 0. 0. 0. 0. 0. 0. 0. 0. 0. 0. 0. 0. 0.
      0. 0. 0. 0. 0. 0. 1.11111114e-002 0. 1.11111114e-002 0. 0.
      1.11111114e-002 1.11111114e-002 0. 0. 0. 0. 0. 0. 0. 0. 0.
      1.11111114e-002 0. 1.11111114e-002 0. 0. 0. 0. 0. 0. 0. 0. 0. 0.
      0. 0. 0. 0. 1.11111114e-002 0. 0. 0. 0. 0. 0. 0. 0. 0. 0. 0. 0. 0.
      0. 0. 0. 0. 0. 0. 0. 0. 0. 0. 0. 0. 0. 2.22222228e-002 0. 0. 0. 0.
      0. 0. 0. 0. 0. 0. 0. 0. 0. 0. 0. 0. 0. 0. 0. 0. 0. 0.
      1.11111114e-002 0. 0. 0. 0. 0. 1.11111114e-002 0. 1.11111114e-002
      0. 0. 1.11111114e-002 0. 0. 0. 0. 0. 0. 0. 0. 0. 0. 0. 0. 0. 0. 0.
      0. 1.11111114e-002 0. 0. 0. 0. 0. 0. 0. 0. 1.11111114e-002 0. 0.
      0. 0. 0. 0. 0. 0. 0. 0. 0. 0. 1.11111114e-002 0. 0. 0. 0. 0. 0. 0.
      0. 0. 0. 0. 0. 0. 0. 2.22222228e-002 0. 0. 0. 1.11111114e-002 0.
      0. 0. 0. 0. 0. 0. 1.11111114e-002 0. 0. 0. 0. 0. 0.
      2.22222228e-002 0. 0. 0. 0. 0. 0. 0. 0. 0. 0. 0. 0. 0. 0.
      1.11111114e-002 2.22222228e-002 0. 0. 0. 0. 0. 1.11111114e-002 0.
      0. 0. 0. 1.11111114e-002 0. 0. 0. 1.11111114e-002 0. 0. 0. 0. 0.
      0. 1.11111114e-002 0. 0. 0. 0. 0. 0. 0. 0. 1.11111114e-002 0. 0.
      0. 0. 0. 0. 0. 0. 0. 0. 0. 0. 0. 0. 0. 0. 1.11111114e-002 0.
      1.11111114e-002 0. 0. 0. 0. 0. 0. 0. 0. 0. 0. 0. 0. 0. 0. 0. 0. 0.
      0. 0. 0. 0. 0. 0. 0. 0. 0. 0. 0. 0. 0. 0. 0. 0. 0. 0. 0. 0. 0. 0.
      0. 0. 0. 0. 0. 0. 0. 0. 0. 0. 1.11111114e-002 0. 0. 0. 0. 0. 0. 0.
      0. 0. 0. 0. 1.11111114e-002 1.11111114e-002 0. 1.11111114e-002 0.
      0. 0. 0. 0. 0. 0. 0. 0. 0. 0. 0. 0. 0. 0. 0. 0. 0. 0. 0. 0. 0. 0.
      0. 0. 0. 0. 0. 0. 0. 0. 0. 0. 0. 0. 0. 0. 0. 0. 0. 0. 0. 0.
      1.11111114e-002 0. 0. 0. 0. 0. 0. 0. 0. 0. 0. 0. 0. 0. 0. 0. 0. 0.
      0. 0. 0. 0. 1.11111114e-002 0. 0. 0. 1.11111114e-002
      1.11111114e-002 0. 0. 0. 0. 0. 0. 0. 0. 0. 0. 0. 0. 0. 0. 0. 0. 0.
      0. 0. 0. 0. 0. 0. 0. 0. 0. 0. 0. 0. 1.11111114e-002 0. 0. 0. 0. 0.
      1.11111114e-002 0. 0. 0. 0. 0. 0. 0. 0. 0. 0. 0. 0. 0. 0.
      1.11111114e-002 0. 0. 0. 0. 0. 0. 0. 0. 0. 0. 0. 0. 0. 0. 0. 0. 0.
      0. 0. 0. 0. 0. 0. 0. 1.11111114e-002 0. 0. 0. 0. 1.11111114e-002
      0. 0. 0. 0. 0. 0. 0. 0. 0. 0. 0. 0. 0. 0. 0. 0. 0. 0. 0. 0. 0. 0.
      0. 0. 1.11111114e-002 0. 0. 0. 0. 0. 0. 0. 0. 0. 0. 0. 0. 0. 0.
      1.11111114e-002 0. 0. 0. 0. 0. 0. 0. 0. 0. 0. 0. 0. 0. 0. 0. 0. 0.
      0. 0. 0. 0. 0. 0. 0. 0. 0. 0. 0. 0. 0. 0. 1.11111114e-002 0. 0. 0.
      0. 0. 0. 0. 0. 0. 0. 0. 0. 0. 0. 0. 0. 1.11111114e-002 0. 0. 0. 0.
      0. 0. 0. 0. 0. 0. 0. 0. 1.11111114e-002 0. 0. 0. 0. 0. 0. 0.
      1.11111114e-002 0. 0. 0. 0. 0. 0. 0. 0. 0. 0. 0. 0. 0. 0. 0. 0. 0.
      0. 0. 0. 0. 0. 0. 0. 0. 0. 1.11111114e-002 1.11111114e-002
      2.22222228e-002 0. 0. 0. 0. 0. 0. 0. 0. 0. 0. 0. 0. 0. 0. 0. 0. 0.
      0. 0. 0. 0. 0. 0. 0. 2.22222228e-002 0. 0. 0. 0. 0. 0. 0. 0. 0. 0.
      0. 1.11111114e-002 0. 0. 1.11111114e-002 0. 0. 0. 0. 0. 0. 0. 0.
      0. 0. 0. 0. 0. 0. 0. 0. 0. 0. 0. 0. 0. 0. 0. 0. 0. 0. 0. 0. 0. 0.
      0. 0. 0. 0. 0. 0. 1.11111114e-002 0. 0. 0. 0. 0. 0. 0. 0. 0. 0. 0.
      0. 0. 0. 0. 0. 0. 0. 0. 0. 0. 0. 0. 0. 0. 0. 0. 0. 0. 0. 0. 0.
      1.11111114e-002 0. 0. 0.</_>
    <_>
      0. 0. 0. 0. 0. 0. 0. 0. 0. 0. 0. 0. 6.17283955e-003 0. 0. 0. 0.
      6.17283955e-003 0. 0. 0. 0. 0. 0. 1.23456791e-002 0. 0. 0. 0. 0.
      0. 6.17283955e-003 0. 0. 0. 6.17283955e-003 0. 0. 0. 0. 0. 0. 0.
      1.23456791e-002 0. 0. 0. 0. 0. 0. 6.17283955e-003 0. 0. 0. 0. 0.
      0. 0. 6.17283955e-003 0. 0. 0. 0. 0. 0. 0. 6.17283955e-003 0. 0.
      0. 6.17283955e-003 0. 0. 0. 0. 0. 0. 0. 0. 0. 0. 0. 0. 0.
      6.17283955e-003 0. 0. 6.17283955e-003 0. 0. 0. 0. 0.
      6.17283955e-003 0. 0. 0. 0. 0. 6.17283955e-003 6.17283955e-003 0.
      0. 0. 6.17283955e-003 6.17283955e-003 0. 0. 0. 0. 6.17283955e-003
      0. 0. 0. 0. 0. 0. 0. 0. 6.17283955e-003 0. 6.17283955e-003 0. 0.
      0. 0. 0. 0. 0. 0. 0. 0. 0. 0. 0. 0. 0. 0. 0. 0. 0. 0. 0.
      6.17283955e-003 0. 0. 0. 6.17283955e-003 0. 0. 0. 0. 0. 0. 0. 0.
      6.17283955e-003 0. 0. 0. 0. 0. 0. 0. 0. 0. 0. 0. 0. 0. 0. 0. 0. 0.
      0. 0. 0. 1.23456791e-002 0. 0. 0. 0. 0. 6.17283955e-003 0. 0. 0.
      0. 0. 0. 0. 0. 0. 0. 0. 0. 6.17283955e-003 0. 0. 0. 0. 0.
      6.17283955e-003 0. 0. 0. 0. 0. 0. 0. 6.17283955e-003
      6.17283955e-003 6.17283955e-003 6.17283955e-003 0. 0. 0. 0. 0. 0.
      0. 0. 6.17283955e-003 0. 0. 0. 0. 0. 0. 0. 6.17283955e-003 0. 0.
      6.17283955e-003 0. 0. 0. 0. 0. 0. 0. 0. 0. 0. 0. 0. 0. 0. 0. 0. 0.
      0. 0. 0. 0. 0. 0. 0. 0. 6.17283955e-003 0. 0. 0. 6.17283955e-003
      0. 0. 6.17283955e-003 0. 0. 0. 0. 0. 0. 0. 0. 0. 0.
      6.17283955e-003 0. 0. 0. 0. 0. 0. 0. 0. 0. 0. 0. 0. 0. 0. 0.
      6.17283955e-003 6.17283955e-003 0. 0. 0. 6.17283955e-003 0. 0. 0.
      1.23456791e-002 0. 0. 0. 1.23456791e-002 0. 0. 0. 0. 0. 0. 0. 0.
      0. 0. 0. 0. 6.17283955e-003 0. 6.17283955e-003 0. 0. 0. 0. 0.
      6.17283955e-003 0. 0. 1.23456791e-002 0. 0. 0. 1.23456791e-002
      6.17283955e-003 0. 0. 0. 0. 0. 0. 6.17283955e-003 0. 0.
      6.17283955e-003 0. 0. 0. 0. 0. 6.17283955e-003 0. 0.
      6.17283955e-003 6.17283955e-003 6.17283955e-003 0. 0. 0. 0. 0. 0.
      0. 6.17283955e-003 0. 0. 0. 0. 6.17283955e-003 6.17283955e-003 0.
      0. 0. 0. 0. 0. 0. 0. 0. 0. 0. 0. 0. 6.17283955e-003 0. 0. 0.
      6.17283955e-003 0. 0. 0. 0. 0. 0. 0. 0. 0. 0. 0. 6.17283955e-003
      0. 0. 0. 0. 6.17283955e-003 0. 0. 0. 0. 0. 0. 0. 0. 0. 0. 0. 0. 0.
      0. 6.17283955e-003 0. 0. 0. 6.17283955e-003 0. 0. 6.17283955e-003
      0. 0. 0. 0. 0. 1.23456791e-002 0. 0. 6.17283955e-003 0. 0. 0. 0.
      0. 0. 0. 0. 0. 0. 6.17283955e-003 0. 0. 0. 6.17283955e-003 0. 0.
      0. 0. 0. 0. 0. 0. 0. 6.17283955e-003 0. 0. 0. 0. 0. 0. 0. 0.
      6.17283955e-003 0. 0. 6.17283955e-003 0. 0. 0. 0. 0. 0.
      6.17283955e-003 0. 0. 6.17283955e-003 0. 0. 0. 0. 6.17283955e-003
      0. 0. 0. 0. 6.17283955e-003 6.17283955e-003 6.17283955e-003 0.
      6.17283955e-003 0. 0. 0. 0. 0. 0. 0. 0. 0. 0. 0. 6.17283955e-003
      0. 0. 0. 0. 0. 0. 0. 0. 0. 0. 0. 0. 6.17283955e-003 0. 0.
      6.17283955e-003 0. 0. 0. 0. 0. 0. 0. 0. 0. 0. 6.17283955e-003 0.
      0. 0. 0. 6.17283955e-003 0. 0. 0. 0. 6.17283955e-003 0. 0. 0. 0.
      0. 6.17283955e-003 6.17283955e-003 0. 0. 6.17283955e-003 0. 0. 0.
      0. 6.17283955e-003 1.23456791e-002 6.17283955e-003 0. 0. 0.
      6.17283955e-003 1.23456791e-002 0. 0. 0. 6.17283955e-003 0. 0. 0.
      6.17283955e-003 0. 6.17283955e-003 0. 0. 0. 0. 0. 0.
      6.17283955e-003 0. 0. 0. 0. 6.17283955e-003 0. 0. 6.17283955e-003
      0. 0. 6.17283955e-003 0. 6.17283955e-003 6.17283955e-003 0. 0.
      6.17283955e-003 0. 6.17283955e-003 0. 0. 0. 0. 0. 0. 0. 0. 0. 0.
      0. 0. 0. 0. 0. 0. 0. 0. 6.17283955e-003 1.23456791e-002
      6.17283955e-003 0. 0. 0. 0. 0. 0. 6.17283955e-003 0. 0. 0. 0. 0.
      0. 0. 0. 0. 0. 0. 6.17283955e-003 0. 0. 0. 0. 0. 6.17283955e-003
      0. 6.17283955e-003 0. 0. 0. 0. 0. 0. 0. 0. 0. 0. 6.17283955e-003
      0. 0. 0. 6.17283955e-003 0. 0. 0. 0. 0. 0. 0. 0. 0.
      6.17283955e-003 0. 0. 0. 0. 0. 0. 0. 0. 0. 0. 0. 6.17283955e-003
      0. 1.23456791e-002 0. 0. 0. 0. 0. 0. 6.17283955e-003 0. 0. 0. 0.
      6.17283955e-003 0. 6.17283955e-003 0. 0. 0. 0. 0. 0. 0. 0. 0. 0.
      0. 0. 0. 0. 0. 0. 6.17283955e-003 0. 6.17283955e-003 0. 0. 0. 0.
      0. 0. 0. 0. 1.23456791e-002 0. 0. 0. 0. 0. 0. 0. 0. 0. 0.
      6.17283955e-003 0. 6.17283955e-003 0. 0. 0. 0. 0. 0. 0. 0. 0. 0.
      0. 0. 0. 6.17283955e-003 0. 0. 0. 0. 6.17283955e-003 0. 0.
      6.17283955e-003 0. 0. 0. 0. 0. 0. 6.17283955e-003 0.
      6.17283955e-003 0. 0. 0. 0. 0. 0. 0. 0. 0. 0. 6.17283955e-003
      6.17283955e-003 0. 0. 6.17283955e-003 0. 0. 0. 0. 0. 0.
      6.17283955e-003 0. 0. 0. 0. 1.85185187e-002 0. 0. 0. 0. 0. 0. 0.
      0. 0. 0. 0. 0. 0. 0. 0. 0. 0. 0. 0. 0. 0. 0. 0. 0. 0. 0. 0. 0. 0.
      0. 6.17283955e-003 0. 0. 0. 0. 0. 0. 0. 0. 0. 0. 6.17283955e-003
      0. 0. 6.17283955e-003 0. 0. 0. 0. 0. 0. 0. 0. 6.17283955e-003 0.
      0. 0. 0. 0. 0. 0. 0. 0. 0. 0. 0. 0. 0. 0. 0. 0. 0. 0. 0. 0. 0. 0.
      0. 0. 0. 6.17283955e-003 0. 0. 0. 0. 0. 0. 0. 0. 0. 0. 0. 0. 0.
      6.17283955e-003 0. 0. 0. 0. 0. 0. 0. 0. 0. 0. 0. 0. 0. 0. 0. 0. 0.
      0. 6.17283955e-003 0. 0. 0. 0. 0. 0. 0. 0. 0. 0. 0. 0. 0. 0. 0. 0.
      0. 0. 0. 0. 0. 0. 0. 0. 0. 0. 0. 0. 0. 0. 0. 0. 0. 0. 0.
      6.17283955e-003 0. 0. 0. 0. 0. 0. 0. 0. 0. 0. 0. 0. 0. 0. 0. 0. 0.
      0. 0. 0. 0. 0. 0. 1.23456791e-002 0. 0. 6.17283955e-003 0. 0.
      6.17283955e-003 0. 0. 0. 0. 0. 0. 0. 0. 0. 0. 0. 6.17283955e-003
      0. 0. 0.</_>
    <_>
      0. 4.95049497e-003 0. 0. 0. 4.95049497e-003 0. 0. 0. 0. 0. 0. 0.
      0. 4.95049497e-003 0. 0. 0. 0. 4.95049497e-003 0. 0. 0. 0. 0.
      4.95049497e-003 4.95049497e-003 0. 0. 0. 0. 0. 4.95049497e-003 0.
      0. 0. 4.95049497e-003 4.95049497e-003 0. 0. 0. 0. 0.
      4.95049497e-003 1.48514844e-002 0. 0. 0. 0. 0. 4.95049497e-003 0.
      0. 0. 0. 0. 0. 0. 0. 0. 4.95049497e-003 0. 0. 0. 0. 0. 0. 0. 0. 0.
      0. 0. 4.95049497e-003 4.95049497e-003 0. 1.98019799e-002 0.
      4.95049497e-003 0. 4.95049497e-003 0. 0. 0. 0. 0. 0. 0. 0. 0. 0.
      0. 9.90098994e-003 0. 0. 0. 0. 0. 4.95049497e-003 0. 0. 0. 0.
      4.95049497e-003 4.95049497e-003 0. 0. 0. 0. 0. 0. 0.
      4.95049497e-003 0. 0. 0. 0. 0. 0. 0. 4.95049497e-003
      9.90098994e-003 0. 4.95049497e-003 4.95049497e-003 0. 0. 0. 0. 0.
      4.95049497e-003 0. 0. 0. 0. 0. 0. 0. 0. 0. 0. 0. 0. 0. 0. 0. 0.
      4.95049497e-003 0. 0. 0. 4.95049497e-003 0. 0. 0. 0. 0. 0.
      4.95049497e-003 0. 4.95049497e-003 0. 4.95049497e-003 0. 0. 0.
      4.95049497e-003 0. 4.95049497e-003 4.95049497e-003 0. 0. 0. 0. 0.
      0. 0. 0. 0. 4.95049497e-003 4.95049497e-003 0. 0. 0. 0. 0. 0. 0.
      0. 0. 0. 0. 0. 0. 0. 0. 0. 0. 4.95049497e-003 0. 4.95049497e-003
      0. 0. 0. 0. 0. 0. 0. 0. 0. 0. 0. 0. 0. 0. 0. 0. 4.95049497e-003 0.
      9.90098994e-003 0. 4.95049497e-003 4.95049497e-003 0.
      4.95049497e-003 0. 4.95049497e-003 0. 0. 4.95049497e-003 0. 0. 0.
      4.95049497e-003 0. 0. 0. 0. 0. 0. 0. 0. 0. 0. 0. 0. 0. 0. 0. 0. 0.
      0. 0. 0. 0. 0. 4.95049497e-003 0. 0. 0. 0. 4.95049497e-003 0. 0.
      0. 0. 0. 0. 0. 0. 0. 0. 0. 4.95049497e-003 4.95049497e-003 0.
      4.95049497e-003 0. 0. 0. 0. 0. 0. 0. 0. 0. 0. 0. 0. 0. 0. 0. 0. 0.
      0. 0. 0. 0. 0. 4.95049497e-003 4.95049497e-003 0. 0. 0. 0. 0. 0.
      9.90098994e-003 0. 0. 0. 0. 0. 0. 0. 0. 4.95049497e-003 0. 0. 0.
      0. 0. 0. 0. 4.95049497e-003 0. 0. 0. 0. 4.95049497e-003 0.
      1.98019799e-002 0. 9.90098994e-003 0. 4.95049497e-003 0. 0. 0. 0.
      0. 0. 0. 0. 4.95049497e-003 0. 4.95049497e-003 0. 4.95049497e-003
      4.95049497e-003 0. 0. 4.95049497e-003 0. 0. 4.95049497e-003 0. 0.
      0. 0. 0. 0. 0. 0. 0. 4.95049497e-003 0. 4.95049497e-003 0. 0. 0.
      4.95049497e-003 0. 0. 0. 1.48514844e-002 0. 0. 0. 4.95049497e-003
      0. 0. 0. 0. 0. 4.95049497e-003 0. 0. 0. 0. 0. 0. 0. 0. 0. 0. 0.
      4.95049497e-003 4.95049497e-003 0. 0. 0. 0. 0. 9.90098994e-003
      4.95049497e-003 0. 0. 0. 4.95049497e-003 0. 0. 0. 0. 0. 0. 0. 0.
      0. 0. 0. 0. 0. 0. 0. 0. 0. 0. 0. 0. 0. 9.90098994e-003 0. 0. 0. 0.
      0. 0. 0. 0. 4.95049497e-003 0. 4.95049497e-003 0. 0. 0. 0. 0. 0.
      0. 0. 0. 0. 0. 0. 0. 0. 0. 0. 0. 4.95049497e-003 0.
      4.95049497e-003 0. 0. 0. 4.95049497e-003 4.95049497e-003 0.
      1.48514844e-002 0. 0. 0. 0. 0. 0. 0. 0. 4.95049497e-003 0. 0. 0.
      0. 0. 0. 0. 0. 4.95049497e-003 0. 0. 0. 0. 0. 0. 0.
      4.95049497e-003 0. 0. 0. 0. 0. 0. 0. 0. 0. 0. 0. 0. 0.
      4.95049497e-003 0. 0. 0. 0. 0. 0. 0. 0. 0. 0. 0. 0. 0. 0. 0. 0. 0.
      4.95049497e-003 0. 4.95049497e-003 0. 0. 0. 0. 0. 0. 0. 0. 0. 0.
      0. 0. 4.95049497e-003 0. 4.95049497e-003 0. 0. 9.90098994e-003 0.
      0. 0. 1.48514844e-002 0. 4.95049497e-003 9.90098994e-003 0. 0.
      4.95049497e-003 4.95049497e-003 0. 0. 0. 0. 0. 0. 0. 0. 0. 0. 0.
      4.95049497e-003 0. 0. 0. 0. 0. 0. 4.95049497e-003 0. 0. 0.
      4.95049497e-003 4.95049497e-003 0. 0. 0. 0. 0. 0. 4.95049497e-003
      0. 0. 4.95049497e-003 0. 4.95049497e-003 4.95049497e-003 0. 0. 0.
      0. 0. 0. 0. 9.90098994e-003 4.95049497e-003 0. 0. 0.
      4.95049497e-003 0. 0. 0. 0. 0. 0. 0. 4.95049497e-003 0. 0. 0. 0.
      9.90098994e-003 0. 0. 0. 4.95049497e-003 0. 0. 0. 0. 0. 0.
      4.95049497e-003 0. 0. 0. 0. 4.95049497e-003 4.95049497e-003 0.
      4.95049497e-003 0. 0. 0. 0. 0. 0. 0. 0. 0. 4.95049497e-003 0. 0.
      0. 0. 0. 0. 0. 0. 0. 0. 0. 0. 0. 0. 0. 0. 0. 0. 4.95049497e-003 0.
      0. 4.95049497e-003 0. 0. 4.95049497e-003 0. 0. 0. 0. 0. 0. 0.
      9.90098994e-003 0. 0. 0. 0. 0. 0. 0. 0. 9.90098994e-003
      9.90098994e-003 0. 0. 0. 0. 0. 0. 0. 0. 0. 4.95049497e-003 0. 0.
      0. 9.90098994e-003 0. 0. 0. 0. 4.95049497e-003 0. 0. 0.
      4.95049497e-003 0. 4.95049497e-003 0. 4.95049497e-003
      4.95049497e-003 0. 0. 9.90098994e-003 0. 0. 0. 0. 4.95049497e-003
      4.95049497e-003 9.90098994e-003 0. 0. 0. 0. 0. 0. 0. 0. 0. 0. 0.
      0. 0. 4.95049497e-003 0. 0. 0. 0. 0. 0. 4.95049497e-003 0. 0. 0.
      0. 0. 0. 0. 0. 0. 0. 0. 0. 0. 4.95049497e-003 0. 0. 0. 0. 0. 0. 0.
      0. 0. 0. 0. 0. 4.95049497e-003 0. 0. 0. 0. 0. 0. 4.95049497e-003
      4.95049497e-003 0. 0. 0. 0. 0. 4.95049497e-003 0. 4.95049497e-003
      0. 0. 0. 0. 4.95049497e-003 4.95049497e-003 0. 0. 0.
      4.95049497e-003 0. 0. 0. 0. 0. 0. 0. 0. 0. 0. 0. 0. 0. 0.
      4.95049497e-003 0. 0. 0. 0. 0. 0. 0. 0. 0. 0. 0. 0. 0.
      9.90098994e-003 0. 0. 4.95049497e-003 0. 0. 0. 0. 0.
      4.95049497e-003 0. 0. 0. 0. 0. 0. 0. 0. 0. 4.95049497e-003 0. 0.
      0. 0. 4.95049497e-003 0. 0. 0. 0. 4.95049497e-003 0. 0. 0. 0. 0.
      0. 0. 0. 0. 0. 0. 0. 0. 0. 0. 0. 0. 0. 4.95049497e-003 0. 0.
      4.95049497e-003 0. 0. 0. 0. 0. 0. 0. 0. 0. 0. 0. 0. 0. 0. 0. 0. 0.
      0. 0. 0. 0. 0. 0. 0. 0. 0. 0. 0. 0. 0. 0. 0. 0. 0. 0. 0. 0. 0. 0.
      0. 0. 0. 4.95049497e-003 0. 0. 0. 0. 0. 0. 4.95049497e-003 0. 0.
      0. 0. 0. 0. 0. 0. 0. 0. 0. 0. 0. 0. 9.90098994e-003 0.
      4.95049497e-003 0. 0. 0. 0. 0. 0. 0. 0. 0. 0. 0. 0. 0. 0. 0.
      4.95049497e-003 0. 1.48514844e-002 9.90098994e-003 0. 0. 0. 0. 0.
      0. 0. 0. 0. 4.95049497e-003 0. 0. 0. 0. 0. 4.95049497e-003 0. 0.
      0. 0. 0. 0. 0. 0. 0. 0. 0. 0. 0.</_>
    <_>
      0. 0. 0. 0. 0. 0. 0. 0. 0. 0. 0. 0. 0. 0. 0. 0. 2.77777780e-002 0.
      0. 0. 0. 0. 2.77777780e-002 0. 0. 0. 0. 0. 0. 0. 0. 0. 0.
      2.77777780e-002 0. 0. 0. 0. 0. 0. 0. 0. 0. 0. 0. 0. 0. 0. 0. 0. 0.
      0. 0. 0. 0. 0. 0. 0. 0. 0. 0. 0. 0. 0. 0. 0. 0. 0. 0. 0. 0. 0. 0.
      0. 0. 0. 0. 0. 0. 0. 0. 0. 0. 0. 0. 0. 0. 0. 0. 0. 0. 0. 0. 0. 0.
      0. 0. 0. 0. 0. 0. 0. 0. 0. 0. 0. 0. 0. 0. 0. 0. 0. 0. 0. 0. 0. 0.
      0. 0. 0. 0. 0. 0. 0. 0. 0. 0. 0. 0. 0. 0. 0. 0. 0. 0. 0. 0. 0. 0.
      0. 0. 0. 0. 0. 0. 0. 0. 0. 0. 0. 0. 0. 0. 0. 0. 0. 0. 0. 0. 0.
      2.77777780e-002 0. 0. 0. 0. 0. 0. 0. 0. 0. 0. 0. 0. 0. 0. 0. 0. 0.
      2.77777780e-002 0. 0. 0. 0. 0. 0. 0. 0. 0. 0. 0. 0. 0. 0. 0. 0. 0.
      0. 0. 0. 0. 0. 0. 0. 0. 0. 0. 0. 0. 0. 0. 2.77777780e-002 0. 0. 0.
      0. 0. 0. 0. 0. 0. 0. 0. 0. 0. 0. 0. 0. 0. 0. 2.77777780e-002 0. 0.
      0. 0. 0. 0. 0. 0. 0. 0. 0. 0. 0. 0. 0. 0. 0. 0. 2.77777780e-002 0.
      0. 0. 0. 0. 0. 0. 0. 0. 0. 0. 0. 0. 0. 0. 0. 0. 0. 0. 0. 0. 0. 0.
      0. 0. 0. 0. 0. 0. 0. 0. 0. 0. 0. 0. 0. 0. 0. 0. 0. 0. 0. 0. 0. 0.
      0. 0. 0. 0. 0. 0. 0. 0. 0. 0. 0. 0. 0. 0. 0. 0. 0. 0. 0. 0. 0. 0.
      0. 0. 0. 0. 0. 0. 0. 0. 0. 0. 0. 0. 0. 0. 0. 0. 0. 0.
      2.77777780e-002 0. 0. 0. 0. 0. 0. 0. 0. 0. 0. 0. 0. 0. 0. 0. 0. 0.
      0. 0. 0. 0. 0. 0. 0. 0. 0. 0. 0. 0. 0. 0. 0. 0. 0. 0. 0. 0. 0. 0.
      0. 0. 0. 0. 0. 0. 0. 0. 0. 0. 0. 0. 0. 0. 0. 0. 0. 0. 0. 0. 0. 0.
      0. 0. 0. 0. 0. 0. 0. 0. 0. 0. 0. 0. 0. 0. 0. 0. 0. 0. 0. 0. 0. 0.
      0. 0. 0. 0. 0. 0. 0. 0. 0. 0. 0. 0. 0. 0. 0. 0. 0. 0. 0. 0. 0. 0.
      0. 0. 0. 0. 0. 0. 0. 0. 0. 0. 0. 0. 0. 0. 0. 0. 0. 0. 0. 0. 0. 0.
      0. 0. 0. 0. 0. 0. 0. 0. 0. 0. 0. 0. 0. 0. 0. 0. 0. 0. 0. 0. 0. 0.
      0. 0. 0. 2.77777780e-002 0. 0. 0. 0. 0. 0. 2.77777780e-002 0. 0.
      0. 0. 0. 0. 0. 0. 0. 0. 0. 2.77777780e-002 2.77777780e-002 0. 0.
      0. 0. 0. 0. 0. 2.77777780e-002 0. 0. 0. 0. 0. 0. 0. 0. 0. 0. 0. 0.
      2.77777780e-002 0. 0. 0. 0. 0. 0. 0. 0. 0. 0. 0. 0. 0. 0. 0. 0. 0.
      0. 0. 0. 0. 0. 0. 0. 0. 0. 0. 0. 0. 0. 0. 0. 2.77777780e-002
      2.77777780e-002 0. 0. 0. 0. 0. 0. 0. 0. 0. 0. 0. 0. 0. 0. 0. 0.
      5.55555560e-002 0. 0. 0. 0. 0. 0. 0. 0. 0. 0. 0. 0. 0. 0. 0. 0. 0.
      0. 0. 0. 0. 0. 0. 0. 0. 0. 0. 0. 0. 2.77777780e-002 0. 0. 0. 0. 0.
      0. 0. 0. 0. 0. 0. 0. 0. 2.77777780e-002 0. 0. 2.77777780e-002 0.
      0. 0. 0. 0. 0. 0. 2.77777780e-002 0. 0. 0. 0. 0. 0. 0. 0. 0. 0. 0.
      2.77777780e-002 0. 0. 0. 0. 0. 0. 0. 0. 0. 0. 0. 0. 0. 0. 0. 0. 0.
      0. 0. 2.77777780e-002 0. 2.77777780e-002 0. 0. 0. 0. 0. 0. 0. 0.
      0. 0. 0. 0. 0. 0. 0. 0. 0. 0. 0. 0. 0. 0. 0. 0. 0. 0. 0. 0. 0. 0.
      0. 0. 0. 0. 2.77777780e-002 0. 0. 0. 0. 0. 0. 0. 0. 0. 0. 0. 0. 0.
      0. 0. 0. 0. 0. 0. 0. 0. 0. 0. 0. 0. 0. 2.77777780e-002 0. 0. 0. 0.
      0. 0. 0. 0. 0. 0. 0. 0. 0. 0. 0. 2.77777780e-002 0. 0. 0. 0. 0. 0.
      0. 0. 0. 0. 0. 0. 0. 0. 0. 0. 0. 0. 0. 0. 0. 0. 0. 0.
      2.77777780e-002 0. 0. 0. 0. 0. 0. 0. 0. 0. 0. 0. 0. 0. 0. 0. 0. 0.
      0. 0. 0. 2.77777780e-002 0. 0. 0. 0. 0. 0. 0. 0. 0. 0. 0. 0. 0. 0.
      0. 0. 0. 0. 0. 0. 0. 2.77777780e-002 0. 0. 0. 0. 0. 0. 0. 0. 0. 0.
      0. 0. 0. 0. 0. 0. 0. 0. 0. 0. 0. 0. 0. 0. 0. 0. 0. 0. 0. 0.
      2.77777780e-002 0. 0. 0. 0. 0. 0. 0. 0. 0. 0. 0. 0. 0. 0. 0. 0. 0.
      0. 0. 0. 0. 0. 0. 0. 0. 0. 0. 0. 0. 0. 0. 0. 0. 0. 0. 0. 0. 0. 0.
      0. 0. 2.77777780e-002 0. 0. 0. 0. 0. 0. 0. 0. 0. 0. 0. 0. 0. 0. 0.
      0. 0. 0. 0. 0. 0. 0. 0. 0. 0. 0. 0. 0. 0. 0. 0. 0. 0. 0. 0. 0. 0.
      0. 0. 0. 0. 0. 0. 0. 0. 0. 0. 0. 0. 0. 0. 0. 0. 0. 0. 0. 0. 0. 0.
      0. 0. 0. 0. 0. 0. 0. 0. 0. 0. 0. 0. 0. 0. 0. 0. 0. 0. 0. 0. 0. 0.
      0. 0. 0. 0. 0. 0. 0. 0. 0. 0. 0. 0. 0. 0. 0. 0. 2.77777780e-002
      2.77777780e-002 0. 0. 0. 0. 0. 0. 0. 0. 0. 0. 0. 0. 0.</_>
    <_>
      8.54700897e-003 0. 0. 0. 0. 0. 0. 0. 0. 0. 8.54700897e-003 0.
      8.54700897e-003 0. 0. 0. 8.54700897e-003 0. 0. 0. 0. 0. 0. 0. 0.
      0. 0. 2.56410278e-002 0. 0. 0. 0. 0. 0. 8.54700897e-003 0. 0. 0.
      0. 0. 0. 0. 0. 0. 0. 0. 0. 0. 0. 8.54700897e-003 0. 0. 0. 0. 0. 0.
      8.54700897e-003 0. 0. 0. 0. 0. 0. 0. 0. 0. 0. 0. 8.54700897e-003
      0. 0. 0. 8.54700897e-003 8.54700897e-003 0. 0. 1.70940179e-002
      8.54700897e-003 0. 0. 8.54700897e-003 0. 0. 0. 0. 0. 0. 0.
      8.54700897e-003 0. 0. 0. 0. 0. 0. 0. 0. 0. 0. 0. 8.54700897e-003
      0. 0. 0. 0. 2.56410278e-002 0. 0. 8.54700897e-003 0. 0. 0. 0. 0.
      0. 0. 0. 0. 8.54700897e-003 0. 8.54700897e-003 0. 0. 0. 0. 0. 0.
      0. 0. 0. 0. 0. 0. 0. 0. 0. 0. 0. 0. 0. 0. 8.54700897e-003 0. 0. 0.
      0. 0. 0. 0. 0. 0. 0. 0. 0. 0. 0. 0. 0. 0. 0. 0. 0. 0. 0. 0. 0. 0.
      0. 8.54700897e-003 0. 8.54700897e-003 0. 0. 0. 0. 0. 0. 0.
      8.54700897e-003 0. 0. 0. 0. 0. 0. 0. 0. 8.54700897e-003 0. 0. 0.
      0. 0. 0. 0. 0. 0. 8.54700897e-003 8.54700897e-003 0. 0. 0. 0. 0.
      0. 8.54700897e-003 0. 0. 8.54700897e-003 0. 0. 0. 0. 0. 0. 0. 0.
      0. 0. 8.54700897e-003 8.54700897e-003 0. 0. 0. 0. 0. 0. 0.
      8.54700897e-003 0. 0. 0. 0. 0. 0. 0. 0. 0. 0. 0. 0. 0. 0. 0. 0.
      8.54700897e-003 0. 0. 0. 0. 0. 0. 0. 0. 0. 0. 0. 0. 0. 0.
      8.54700897e-003 0. 0. 0. 0. 0. 0. 0. 0. 0. 0. 0. 0. 0. 0. 0. 0. 0.
      0. 0. 8.54700897e-003 0. 0. 0. 0. 8.54700897e-003 8.54700897e-003
      0. 0. 0. 0. 0. 0. 0. 8.54700897e-003 8.54700897e-003 0. 0. 0.
      1.70940179e-002 0. 8.54700897e-003 0. 0. 0. 8.54700897e-003 0. 0.
      0. 0. 0. 0. 0. 0. 0. 8.54700897e-003 8.54700897e-003 0. 0. 0. 0.
      0. 8.54700897e-003 0. 0. 0. 8.54700897e-003 0. 8.54700897e-003 0.
      0. 0. 8.54700897e-003 0. 0. 0. 0. 0. 0. 0. 0. 0. 2.56410278e-002
      0. 0. 0. 0. 0. 0. 0. 0. 8.54700897e-003 0. 0. 0. 0. 0. 0. 0. 0. 0.
      0. 0. 0. 8.54700897e-003 0. 0. 0. 0. 0. 0. 0. 0. 8.54700897e-003
      0. 0. 0. 0. 0. 0. 0. 0. 0. 0. 0. 0. 0. 0. 0. 0. 0. 0. 0. 0. 0. 0.
      0. 0. 0. 0. 0. 0. 0. 0. 0. 0. 0. 0. 8.54700897e-003 0. 0. 0. 0. 0.
      0. 0. 8.54700897e-003 0. 0. 0. 0. 0. 0. 0. 0. 0. 8.54700897e-003
      0. 0. 0. 0. 0. 0. 8.54700897e-003 0. 0. 0. 0. 0. 0. 0. 0. 0. 0. 0.
      0. 0. 0. 0. 0. 0. 0. 0. 1.70940179e-002 0. 0. 8.54700897e-003 0.
      0. 0. 0. 0. 0. 0. 0. 0. 0. 0. 0. 0. 0. 0. 1.70940179e-002 0. 0. 0.
      0. 0. 0. 0. 0. 0. 0. 0. 1.70940179e-002 0. 0. 0. 0. 0. 0.
      8.54700897e-003 0. 0. 0. 0. 0. 0. 0. 0. 0. 0. 0. 0. 0. 0. 0. 0. 0.
      0. 0. 8.54700897e-003 0. 0. 0. 0. 0. 0. 0. 0. 8.54700897e-003 0.
      0. 0. 0. 0. 0. 0. 0. 0. 0. 0. 0. 0. 0. 0. 0. 0. 0. 0. 0. 0. 0. 0.
      0. 0. 1.70940179e-002 8.54700897e-003 0. 0. 0. 0. 1.70940179e-002
      0. 0. 0. 8.54700897e-003 0. 0. 0. 0. 0. 0. 0. 0. 0. 0. 0.
      1.70940179e-002 0. 0. 0. 0. 0. 0. 0. 1.70940179e-002 0. 0. 0. 0.
      0. 0. 0. 0. 0. 0. 0. 0. 0. 0. 0. 0. 0. 0. 0. 8.54700897e-003 0. 0.
      0. 0. 0. 0. 0. 8.54700897e-003 0. 0. 0. 0. 0. 0. 0. 0. 0. 0. 0.
      1.70940179e-002 0. 0. 0. 0. 0. 8.54700897e-003 8.54700897e-003 0.
      0. 0. 0. 0. 0. 0. 0. 0. 0. 0. 0. 0. 0. 0. 0. 0. 0. 0. 0. 0. 0. 0.
      0. 0. 0. 0. 0. 0. 0. 0. 0. 0. 0. 0. 0. 0. 0. 0. 0. 0. 0. 0.
      8.54700897e-003 0. 0. 0. 0. 0. 0. 0. 0. 0. 0. 8.54700897e-003 0.
      0. 0. 0. 0. 0. 0. 0. 0. 0. 8.54700897e-003 0. 0. 0. 0. 0. 0. 0. 0.
      0. 0. 0. 0. 0. 8.54700897e-003 0. 0. 0. 0. 0. 0. 0. 0. 0. 0. 0. 0.
      0. 8.54700897e-003 0. 0. 0. 0. 0. 0. 0. 1.70940179e-002 0. 0. 0.
      0. 0. 0. 8.54700897e-003 0. 0. 0. 0. 0. 0. 0. 0. 0. 0. 0. 0. 0. 0.
      0. 0. 0. 0. 0. 0. 0. 8.54700897e-003 0. 0. 0. 0. 0.
      8.54700897e-003 0. 0. 0. 0. 0. 0. 1.70940179e-002 0. 0. 0. 0.
      8.54700897e-003 0. 0. 0. 0. 0. 0. 0. 0. 0. 0. 0. 0. 0. 0.
      8.54700897e-003 0. 0. 0. 0. 8.54700897e-003 0. 0. 0. 0. 0. 0. 0.
      0. 0. 8.54700897e-003 0. 8.54700897e-003 0. 0. 0. 0. 0. 0. 0.
      8.54700897e-003 0. 0. 0. 0. 0. 0. 0. 0. 0. 0. 0. 0. 0. 0.
      8.54700897e-003 0. 0. 0. 0. 0. 0. 0. 0. 0. 0. 0. 0. 0. 0. 0. 0. 0.
      8.54700897e-003 0. 0. 0. 0. 0. 8.54700897e-003 0. 0. 0. 0. 0. 0.
      8.54700897e-003 0. 0. 0. 8.54700897e-003 0. 0. 0. 0. 0. 0. 0. 0.
      0. 0. 0. 0. 0. 0. 0. 0. 0. 0. 0. 0. 0. 0. 0. 0. 0. 0.
      8.54700897e-003 0. 0. 8.54700897e-003 0. 0. 0. 0. 0. 0. 0. 0. 0.
      0. 0. 0. 0. 0. 0. 0. 0. 0. 0. 0. 0. 0. 0. 0. 0. 0. 0. 0. 0.
      8.54700897e-003 0. 0. 0. 0. 0. 0. 0. 0. 0. 0. 0. 0. 0. 0. 0. 0. 0.
      0. 0. 0. 0. 0. 0. 0. 0. 0. 0. 0. 0. 0. 0. 0. 0. 0. 0. 0. 0. 0. 0.
      0. 0. 0. 0. 0. 0. 0. 0. 0. 0. 0. 0. 0. 0. 0. 0. 0. 0. 0. 0.
      8.54700897e-003 0. 0. 0. 0. 0. 0. 0. 0. 0. 0. 0. 0. 0. 0. 0. 0. 0.</_>
    <_>
      0. 3.49650346e-003 3.49650346e-003 3.49650346e-003 0. 0.
      3.49650346e-003 0. 0. 0. 3.49650346e-003 0. 3.49650346e-003 0. 0.
      0. 0. 1.04895104e-002 0. 0. 0. 3.49650346e-003 0. 0.
      6.99300691e-003 0. 0. 0. 0. 0. 0. 3.49650346e-003 3.49650346e-003
      0. 0. 3.49650346e-003 0. 3.49650346e-003 0. 3.49650346e-003 0. 0.
      0. 0. 6.99300691e-003 0. 0. 0. 0. 0. 0. 0. 3.49650346e-003 0.
      3.49650346e-003 0. 6.99300691e-003 0. 0. 0. 0. 0. 1.04895104e-002
      0. 0. 0. 0. 0. 3.49650346e-003 0. 0. 0. 3.49650346e-003 0. 0. 0.
      0. 0. 0. 3.49650346e-003 6.99300691e-003 0. 0. 0. 6.99300691e-003
      0. 0. 0. 0. 0. 0. 0. 0. 0. 0. 0. 0. 0. 0. 0. 1.39860138e-002
      3.49650346e-003 0. 0. 3.49650346e-003 6.99300691e-003 0. 0. 0. 0.
      0. 0. 0. 0. 0. 0. 0. 0. 3.49650346e-003 0. 6.99300691e-003 0. 0.
      0. 0. 0. 0. 0. 0. 0. 0. 0. 0. 0. 0. 3.49650346e-003 0.
      3.49650346e-003 0. 0. 0. 6.99300691e-003 0. 0. 0. 0. 0. 0. 0. 0.
      3.49650346e-003 0. 3.49650346e-003 0. 0. 0. 0. 0. 0.
      3.49650346e-003 0. 0. 0. 0. 0. 0. 0. 3.49650346e-003 0.
      1.04895104e-002 3.49650346e-003 0. 0. 0. 0. 0. 0. 0.
      3.49650346e-003 0. 3.49650346e-003 0. 3.49650346e-003 0. 0. 0.
      3.49650346e-003 3.49650346e-003 6.99300691e-003 0. 0. 0. 0. 0. 0.
      0. 0. 3.49650346e-003 3.49650346e-003 0. 3.49650346e-003
      3.49650346e-003 6.99300691e-003 0. 3.49650346e-003 0. 0. 0. 0. 0.
      0. 0. 3.49650346e-003 0. 0. 0. 0. 0. 0. 6.99300691e-003
      3.49650346e-003 3.49650346e-003 0. 0. 3.49650346e-003 0. 0.
      3.49650346e-003 0. 3.49650346e-003 0. 0. 0. 0. 0. 0. 0. 0.
      3.49650346e-003 3.49650346e-003 0. 0. 3.49650346e-003 0. 0. 0.
      3.49650346e-003 0. 3.49650346e-003 0. 0. 0. 0. 0. 0. 0. 0. 0. 0.
      1.04895104e-002 3.49650346e-003 0. 0. 3.49650346e-003 0.
      3.49650346e-003 0. 0. 0. 0. 3.49650346e-003 0. 0. 0. 0. 0. 0. 0.
      0. 0. 0. 0. 0. 6.99300691e-003 0. 3.49650346e-003 0.
      3.49650346e-003 6.99300691e-003 0. 0. 0. 0. 0. 0. 0. 0. 0.
      3.49650346e-003 0. 0. 0. 0. 6.99300691e-003 3.49650346e-003 0. 0.
      0. 0. 0. 0. 0. 0. 0. 0. 0. 0. 0. 0. 6.99300691e-003 0. 0.
      3.49650346e-003 0. 0. 3.49650346e-003 0. 0. 0. 0. 6.99300691e-003
      0. 0. 0. 3.49650346e-003 0. 3.49650346e-003 0. 0. 3.49650346e-003
      0. 0. 6.99300691e-003 3.49650346e-003 0. 0. 6.99300691e-003 0.
      3.49650346e-003 0. 0. 3.49650346e-003 0. 3.49650346e-003 0. 0. 0.
      1.04895104e-002 0. 0. 0. 3.49650346e-003 0. 0. 0. 0. 0. 0. 0. 0.
      0. 0. 6.99300691e-003 0. 0. 0. 0. 0. 0. 3.49650346e-003 0. 0. 0.
      0. 6.99300691e-003 3.49650346e-003 0. 0. 0. 0. 0. 0. 0. 0. 0. 0.
      0. 3.49650346e-003 3.49650346e-003 0. 3.49650346e-003 0. 0. 0. 0.
      0. 3.49650346e-003 0. 3.49650346e-003 0. 3.49650346e-003 0. 0. 0.
      0. 0. 0. 0. 0. 3.49650346e-003 3.49650346e-003 0. 0.
      3.49650346e-003 0. 0. 0. 0. 0. 0. 0. 0. 0. 3.49650346e-003 0. 0.
      0. 0. 3.49650346e-003 0. 3.49650346e-003 0. 0. 0. 0.
      3.49650346e-003 3.49650346e-003 0. 0. 3.49650346e-003 0. 0.
      3.49650346e-003 0. 0. 0. 3.49650346e-003 0. 0. 3.49650346e-003 0.
      3.49650346e-003 0. 0. 0. 0. 0. 0. 3.49650346e-003 0. 0. 0.
      3.49650346e-003 0. 0. 0. 0. 3.49650346e-003 3.49650346e-003
      1.04895104e-002 3.49650346e-003 0. 0. 3.49650346e-003
      3.49650346e-003 0. 0. 0. 0. 3.49650346e-003 0. 0. 3.49650346e-003
      3.49650346e-003 3.49650346e-003 3.49650346e-003 0. 3.49650346e-003
      3.49650346e-003 0. 0. 3.49650346e-003 0. 0. 0. 0. 0.
      6.99300691e-003 0. 0. 0. 6.99300691e-003 3.49650346e-003 0. 0. 0.
      0. 3.49650346e-003 0. 3.49650346e-003 6.99300691e-003 0. 0. 0.
      3.49650346e-003 0. 6.99300691e-003 0. 3.49650346e-003 0. 0. 0.
      3.49650346e-003 0. 0. 0. 0. 0. 0. 0. 1.04895104e-002 0. 0. 0.
      3.49650346e-003 3.49650346e-003 0. 0. 0. 0. 3.49650346e-003 0.
      6.99300691e-003 0. 0. 3.49650346e-003 3.49650346e-003 0. 0. 0. 0.
      0. 0. 0. 0. 0. 0. 0. 0. 0. 0. 0. 3.49650346e-003 3.49650346e-003
      0. 0. 3.49650346e-003 3.49650346e-003 0. 0. 3.49650346e-003 0. 0.
      0. 0. 0. 3.49650346e-003 0. 0. 0. 0. 0. 0. 0. 0. 0. 0. 0. 0. 0. 0.
      0. 0. 0. 0. 0. 0. 3.49650346e-003 0. 3.49650346e-003 0. 0. 0.
      6.99300691e-003 3.49650346e-003 3.49650346e-003 0. 0. 0. 0. 0. 0.
      0. 3.49650346e-003 0. 3.49650346e-003 0. 0. 0. 3.49650346e-003 0.
      0. 0. 0. 0. 0. 0. 0. 0. 0. 0. 0. 0. 0. 0. 0. 0. 0. 0. 0.
      3.49650346e-003 0. 0. 0. 0. 0. 0. 0. 0. 0. 0. 1.04895104e-002 0.
      3.49650346e-003 0. 0. 3.49650346e-003 0. 0. 0. 0. 0. 0. 0. 0.
      1.04895104e-002 0. 0. 0. 0. 0. 0. 3.49650346e-003 0. 0. 0. 0.
      3.49650346e-003 0. 0. 0. 0. 3.49650346e-003 6.99300691e-003 0.
      3.49650346e-003 3.49650346e-003 0. 0. 0. 0. 0. 3.49650346e-003
      3.49650346e-003 0. 0. 0. 0. 0. 0. 0. 0. 0. 0. 0. 0. 0. 0. 0. 0. 0.
      0. 3.49650346e-003 0. 0. 0. 0. 3.49650346e-003 0. 0. 0. 0.
      3.49650346e-003 0. 0. 0. 0. 3.49650346e-003 0. 0. 3.49650346e-003
      0. 0. 0. 0. 0. 0. 0. 0. 0. 0. 0. 0. 0. 6.99300691e-003 0. 0. 0. 0.
      0. 0. 3.49650346e-003 0. 3.49650346e-003 0. 0. 0. 0. 0. 0. 0.
      3.49650346e-003 0. 0. 0. 0. 3.49650346e-003 6.99300691e-003
      3.49650346e-003 0. 0. 0. 0. 0. 0. 0. 0. 0. 0. 0. 0.
      3.49650346e-003 6.99300691e-003 3.49650346e-003 0. 0. 0. 0.
      3.49650346e-003 0. 0. 0. 1.74825173e-002 0. 3.49650346e-003 0. 0.
      0. 0. 0. 0. 0. 0. 0. 0. 0. 0. 0. 0. 0. 0. 3.49650346e-003 0. 0. 0.
      1.39860138e-002 0. 3.49650346e-003 0. 0. 0. 0. 3.49650346e-003 0.
      0. 0. 0. 0. 0. 3.49650346e-003 0. 0. 0. 0. 0. 0. 0. 0. 0. 0. 0.
      3.49650346e-003 0. 0. 0. 0. 3.49650346e-003 0. 3.49650346e-003 0.
      0. 0. 6.99300691e-003 0. 3.49650346e-003 0. 0. 0. 0. 0. 0.
      3.49650346e-003 0. 0. 0. 0. 0. 3.49650346e-003 0. 0. 0. 0. 0. 0.
      3.49650346e-003 6.99300691e-003 0. 3.49650346e-003 3.49650346e-003
      0. 0. 0. 0. 0. 0. 0. 0. 0. 0. 0. 0. 3.49650346e-003 0. 0. 0. 0. 0.
      0. 0. 0. 0. 0. 0. 0. 0. 0. 0. 0. 0. 3.49650346e-003
      3.49650346e-003 0. 3.49650346e-003 0. 0. 3.49650346e-003 0. 0. 0.
      3.49650346e-003 0. 0. 0. 0. 3.49650346e-003 0. 0. 3.49650346e-003
      3.49650346e-003 0. 3.49650346e-003 0. 3.49650346e-003 0. 0. 0. 0.
      3.49650346e-003 0. 0. 3.49650346e-003 0. 0. 0. 0. 0. 0. 0. 0. 0.
      0. 0. 0. 0. 0. 0. 0. 0. 0. 0. 0. 0. 0. 0. 3.49650346e-003 0. 0. 0.
      6.99300691e-003 0. 0. 0. 0. 0. 3.49650346e-003 0. 0. 0. 0. 0. 0.
      0. 0. 0. 0. 0. 3.49650346e-003 3.49650346e-003 0. 0.</_>
    <_>
      0. 0. 0. 0. 0. 3.26797389e-003 0. 3.26797389e-003 3.26797389e-003
      0. 0. 0. 3.26797389e-003 0. 0. 0. 9.80392192e-003 3.26797389e-003
      0. 6.53594779e-003 3.26797389e-003 6.53594779e-003 0. 0. 0.
      3.26797389e-003 0. 3.26797389e-003 0. 0. 0. 0. 3.26797389e-003
      3.26797389e-003 0. 0. 0. 0. 0. 0. 0. 0. 0. 6.53594779e-003
      6.53594779e-003 0. 0. 0. 0. 0. 0. 0. 1.63398702e-002 0.
      3.26797389e-003 3.26797389e-003 0. 3.26797389e-003 3.26797389e-003
      0. 3.26797389e-003 0. 0. 0. 0. 3.26797389e-003 0. 0. 0.
      3.26797389e-003 0. 0. 3.26797389e-003 0. 0. 3.26797389e-003 0. 0.
      0. 0. 0. 0. 0. 0. 3.26797389e-003 0. 0. 6.53594779e-003 0. 0. 0.
      6.53594779e-003 3.26797389e-003 3.26797389e-003 0. 0.
      3.26797389e-003 0. 6.53594779e-003 0. 3.26797389e-003 0. 0. 0. 0.
      0. 0. 6.53594779e-003 0. 0. 9.80392192e-003 0. 0. 3.26797389e-003
      0. 0. 0. 0. 0. 0. 0. 0. 0. 0. 0. 0. 0. 0. 0. 3.26797389e-003 0. 0.
      0. 0. 0. 3.26797389e-003 0. 0. 0. 0. 3.26797389e-003
      3.26797389e-003 0. 0. 0. 0. 0. 0. 0. 0. 0. 3.26797389e-003
      9.80392192e-003 3.26797389e-003 0. 0. 0. 0. 0. 0. 0. 0. 0. 0. 0.
      3.26797389e-003 0. 3.26797389e-003 0. 0. 3.26797389e-003 0. 0. 0.
      0. 6.53594779e-003 0. 0. 0. 0. 0. 0. 3.26797389e-003 0. 0.
      3.26797389e-003 3.26797389e-003 0. 0. 0. 9.80392192e-003 0.
      3.26797389e-003 0. 0. 0. 0. 0. 1.30718956e-002 0. 0. 0. 0. 0.
      3.26797389e-003 0. 9.80392192e-003 0. 0. 0. 0. 0. 0. 0. 0. 0. 0.
      0. 6.53594779e-003 0. 3.26797389e-003 6.53594779e-003 0. 0. 0. 0.
      0. 0. 3.26797389e-003 3.26797389e-003 0. 0. 0. 0. 0. 0.
      3.26797389e-003 0. 0. 0. 0. 0. 0. 0. 0. 0. 0. 0. 0. 0. 0. 0.
      3.26797389e-003 0. 0. 0. 3.26797389e-003 3.26797389e-003 0. 0. 0.
      6.53594779e-003 0. 6.53594779e-003 0. 0. 3.26797389e-003 0. 0. 0.
      0. 0. 0. 3.26797389e-003 0. 0. 0. 0. 0. 0. 0. 0. 6.53594779e-003
      0. 0. 0. 0. 0. 3.26797389e-003 0. 0. 0. 0. 0. 0. 3.26797389e-003
      3.26797389e-003 0. 0. 3.26797389e-003 0. 0. 0. 0. 0. 0.
      3.26797389e-003 0. 3.26797389e-003 0. 0. 3.26797389e-003 0. 0. 0.
      6.53594779e-003 0. 3.26797389e-003 0. 6.53594779e-003 0.
      6.53594779e-003 6.53594779e-003 9.80392192e-003 0. 0. 0.
      6.53594779e-003 0. 9.80392192e-003 0. 3.26797389e-003 0. 0. 0.
      3.26797389e-003 0. 0. 0. 0. 6.53594779e-003 0. 3.26797389e-003 0.
      0. 3.26797389e-003 3.26797389e-003 0. 0. 0. 0. 3.26797389e-003 0.
      0. 0. 0. 0. 3.26797389e-003 0. 0. 0. 0. 0. 0. 0. 0.
      3.26797389e-003 0. 0. 3.26797389e-003 0. 0. 6.53594779e-003 0. 0.
      3.26797389e-003 0. 0. 0. 0. 0. 0. 0. 0. 0. 0. 0. 0. 0. 0. 0. 0.
      6.53594779e-003 0. 0. 0. 3.26797389e-003 0. 0. 0. 0. 0. 0. 0. 0.
      3.26797389e-003 0. 0. 0. 3.26797389e-003 0. 0. 3.26797389e-003 0.
      6.53594779e-003 0. 0. 0. 3.26797389e-003 0. 0. 0. 0. 0.
      3.26797389e-003 0. 0. 0. 0. 0. 0. 0. 0. 6.53594779e-003 0.
      3.26797389e-003 0. 3.26797389e-003 0. 1.30718956e-002
      3.26797389e-003 0. 0. 0. 0. 3.26797389e-003 0. 3.26797389e-003 0.
      0. 0. 0. 0. 0. 6.53594779e-003 0. 3.26797389e-003 0. 0.
      3.26797389e-003 0. 0. 6.53594779e-003 3.26797389e-003 0. 0. 0. 0.
      0. 0. 0. 0. 0. 0. 0. 3.26797389e-003 0. 0. 0. 0. 0. 0.
      3.26797389e-003 6.53594779e-003 0. 0. 3.26797389e-003 0. 0. 0. 0.
      0. 0. 3.26797389e-003 0. 0. 0. 0. 3.26797389e-003 0. 0. 0.
      3.26797389e-003 0. 0. 0. 3.26797389e-003 0. 0. 3.26797389e-003 0.
      0. 0. 0. 0. 0. 0. 0. 0. 0. 0. 6.53594779e-003 6.53594779e-003 0.
      0. 0. 0. 0. 0. 0. 0. 0. 0. 0. 0. 0. 3.26797389e-003 0. 0. 0. 0.
      3.26797389e-003 3.26797389e-003 0. 0. 0. 0. 0. 0. 0. 0. 0.
      9.80392192e-003 3.26797389e-003 0. 0. 0. 0. 0. 0. 0.
      3.26797389e-003 3.26797389e-003 0. 3.26797389e-003 0. 0. 0. 0.
      3.26797389e-003 3.26797389e-003 0. 3.26797389e-003 0. 0. 0.
      3.26797389e-003 0. 0. 0. 3.26797389e-003 0. 0. 0. 0. 0. 0. 0. 0.
      0. 0. 0. 0. 3.26797389e-003 3.26797389e-003 0. 3.26797389e-003 0.
      0. 0. 0. 0. 0. 0. 0. 3.26797389e-003 0. 0. 0. 6.53594779e-003
      3.26797389e-003 0. 3.26797389e-003 0. 0. 0. 3.26797389e-003
      3.26797389e-003 0. 0. 0. 0. 0. 0. 0. 6.53594779e-003 0. 0.
      6.53594779e-003 0. 3.26797389e-003 0. 3.26797389e-003 0. 0. 0.
      3.26797389e-003 6.53594779e-003 0. 0. 0. 0. 0. 0. 0. 0.
      3.26797389e-003 0. 3.26797389e-003 0. 0. 0. 0. 0. 0. 0. 0. 0. 0.
      0. 0. 3.26797389e-003 0. 0. 0. 0. 0. 3.26797389e-003
      3.26797389e-003 0. 3.26797389e-003 3.26797389e-003 0. 0. 0. 0. 0.
      3.26797389e-003 0. 0. 0. 0. 0. 3.26797389e-003 0. 0. 0. 0.
      6.53594779e-003 1.30718956e-002 0. 0. 0. 3.26797389e-003 0. 0. 0.
      0. 0. 0. 0. 0. 0. 3.26797389e-003 0. 3.26797389e-003 0. 0. 0.
      3.26797389e-003 0. 0. 0. 0. 0. 0. 0. 0. 3.26797389e-003
      3.26797389e-003 0. 0. 3.26797389e-003 0. 0. 6.53594779e-003 0. 0.
      0. 0. 0. 0. 3.26797389e-003 0. 3.26797389e-003 0. 0. 0. 0. 0. 0.
      0. 0. 0. 0. 0. 0. 3.26797389e-003 0. 0. 3.26797389e-003 0. 0.
      3.26797389e-003 0. 0. 0. 0. 0. 0. 3.26797389e-003 6.53594779e-003
      0. 0. 0. 3.26797389e-003 0. 0. 0. 0. 0. 0. 0. 0. 3.26797389e-003
      0. 0. 0. 0. 0. 3.26797389e-003 0. 0. 0. 0. 0. 0. 3.26797389e-003
      0. 0. 0. 3.26797389e-003 6.53594779e-003 0. 0. 0. 0. 0. 0. 0. 0.
      0. 3.26797389e-003 0. 0. 0. 0. 0. 3.26797389e-003 0. 0.
      9.80392192e-003 0. 3.26797389e-003 0. 3.26797389e-003
      3.26797389e-003 0. 0. 3.26797389e-003 0. 0. 0. 0. 0.
      9.80392192e-003 0. 0. 0. 3.26797389e-003 0. 0. 0. 3.26797389e-003
      0. 0. 3.26797389e-003 3.26797389e-003 0. 6.53594779e-003 0. 0.
      3.26797389e-003 0. 0. 0. 0. 3.26797389e-003 0. 0. 0.
      6.53594779e-003 0. 0. 0. 3.26797389e-003 0. 0. 3.26797389e-003 0.
      3.26797389e-003 0. 6.53594779e-003 0. 0. 0. 3.26797389e-003 0. 0.
      0. 0. 3.26797389e-003 0. 0. 0. 0. 0. 0. 0. 0. 3.26797389e-003 0.
      0. 0. 9.80392192e-003 0. 3.26797389e-003 6.53594779e-003 0. 0. 0.
      0. 0. 0. 0. 0. 0. 0. 0. 0. 0. 0. 0. 0. 0. 0. 0. 0. 0. 0. 0.
      3.26797389e-003 0. 0. 0. 0. 0. 0. 0. 3.26797389e-003
      6.53594779e-003 0. 0. 0. 0. 0. 0. 0. 0. 0. 0. 0. 0. 0. 0. 0. 0. 0.
      0. 0. 3.26797389e-003 0. 0. 3.26797389e-003 0. 3.26797389e-003 0.
      0. 0. 0. 0. 0. 0. 0. 3.26797389e-003 3.26797389e-003 0. 0. 0.
      3.26797389e-003 0. 0. 3.26797389e-003 0. 0. 0. 0. 0. 0.
      6.53594779e-003 0. 0. 0. 0. 0. 0. 0. 0. 0. 0. 0. 0. 0.
      3.26797389e-003 0. 0. 0. 0. 3.26797389e-003 0. 3.26797389e-003 0.
      0. 3.26797389e-003 0. 0. 0. 0. 0. 0.</_>
    <_>
      0. 0. 0. 0. 0. 0. 0. 0. 0. 0. 0. 0. 0. 0. 0. 0. 0. 0. 0. 0. 0. 0.
      0. 0. 2.77777780e-002 0. 0. 2.77777780e-002 0. 0. 0. 0.
      2.77777780e-002 0. 0. 0. 2.77777780e-002 0. 0. 0. 0. 0. 0. 0. 0.
      0. 0. 0. 0. 0. 0. 0. 0. 0. 0. 0. 2.77777780e-002 0. 0. 0. 0. 0. 0.
      2.77777780e-002 0. 0. 0. 0. 2.77777780e-002 0. 0. 0. 0. 0. 0. 0.
      0. 0. 0. 0. 0. 0. 0. 5.55555560e-002 2.77777780e-002 0. 0. 0. 0.
      0. 0. 0. 0. 0. 0. 0. 0. 2.77777780e-002 0. 0. 0. 0. 0. 0. 0. 0. 0.
      0. 0. 0. 0. 0. 0. 0. 0. 0. 0. 0. 0. 0. 0. 0. 0. 0. 0. 0. 0. 0. 0.
      0. 0. 0. 0. 0. 0. 0. 0. 0. 0. 0. 0. 0. 0. 0. 0. 0. 0. 0. 0. 0. 0.
      0. 0. 0. 0. 0. 0. 0. 0. 0. 0. 0. 0. 0. 0. 0. 0. 0. 0. 0.
      2.77777780e-002 0. 0. 0. 0. 0. 0. 0. 0. 0. 0. 0. 0. 0. 0. 0. 0. 0.
      0. 0. 0. 0. 0. 0. 0. 0. 0. 0. 0. 0. 0. 0. 2.77777780e-002 0.
      2.77777780e-002 0. 0. 0. 0. 0. 0. 0. 0. 0. 0. 0. 0. 0. 0. 0. 0. 0.
      0. 0. 0. 0. 0. 0. 0. 0. 2.77777780e-002 0. 0. 0. 5.55555560e-002
      0. 0. 0. 0. 0. 0. 0. 0. 0. 0. 0. 0. 0. 0. 0. 0. 0. 0. 0. 0. 0. 0.
      0. 0. 0. 0. 0. 0. 0. 0. 0. 0. 0. 0. 0. 0. 0. 0. 0. 0. 0. 0. 0. 0.
      0. 0. 0. 0. 0. 0. 2.77777780e-002 0. 0. 0. 0. 0. 0. 0. 0. 0. 0. 0.
      0. 0. 0. 0. 0. 0. 0. 0. 0. 0. 0. 0. 0. 0. 0. 0. 0. 0. 0. 0.
      2.77777780e-002 0. 0. 0. 0. 0. 2.77777780e-002 0. 0. 0. 0. 0. 0.
      0. 0. 0. 0. 0. 0. 0. 0. 0. 0. 0. 0. 0. 0. 0. 0. 0. 0.
      2.77777780e-002 0. 0. 0. 0. 0. 0. 0. 0. 0. 0. 0. 0. 0. 0. 0. 0. 0.
      0. 2.77777780e-002 0. 0. 0. 0. 0. 0. 0. 0. 0. 0. 0. 0. 0. 0. 0. 0.
      0. 0. 0. 0. 0. 0. 0. 0. 0. 0. 0. 0. 0. 0. 0. 0. 0. 0. 0. 0. 0. 0.
      0. 0. 0. 0. 2.77777780e-002 0. 0. 0. 0. 0. 0. 0. 0. 0. 0.
      2.77777780e-002 2.77777780e-002 0. 0. 0. 0. 0. 0. 0. 0. 0. 0. 0.
      0. 0. 0. 0. 0. 0. 0. 0. 0. 0. 0. 0. 0. 0. 0. 0. 0. 0. 0. 0. 0. 0.
      0. 0. 0. 0. 0. 0. 0. 0. 0. 0. 0. 0. 0. 0. 0. 0. 0. 0. 0. 0. 0. 0.
      0. 0. 0. 0. 0. 0. 0. 0. 0. 0. 0. 0. 0. 0. 0. 0. 0. 0. 0. 0. 0. 0.
      0. 0. 0. 0. 0. 0. 0. 0. 0. 0. 0. 0. 0. 0. 0. 0. 0. 0. 0. 0. 0. 0.
      0. 0. 0. 0. 0. 0. 0. 0. 0. 0. 0. 0. 0. 0. 0. 0. 0. 0. 0. 0. 0. 0.
      0. 0. 0. 0. 0. 0. 0. 0. 0. 0. 0. 0. 0. 0. 0. 0. 0. 0. 0. 0. 0. 0.
      0. 0. 0. 0. 0. 0. 0. 0. 0. 0. 2.77777780e-002 0. 2.77777780e-002
      0. 0. 0. 0. 0. 0. 0. 0. 0. 0. 0. 0. 0. 0. 0. 0. 0. 0. 0. 0. 0. 0.
      0. 0. 0. 0. 0. 0. 0. 0. 2.77777780e-002 0. 0. 0. 0. 0. 0. 0. 0. 0.
      0. 0. 0. 0. 0. 0. 0. 0. 0. 0. 0. 0. 0. 0. 0. 0. 0. 0. 0. 0. 0. 0.
      0. 0. 0. 0. 0. 0. 0. 0. 0. 0. 0. 0. 0. 0. 0. 0. 0. 0. 0. 0.
      2.77777780e-002 0. 0. 0. 0. 0. 0. 0. 0. 0. 0. 0. 0. 0. 0. 0. 0. 0.
      0. 0. 0. 0. 0. 0. 0. 0. 0. 0. 2.77777780e-002 0. 0. 0. 0. 0. 0. 0.
      0. 0. 0. 0. 0. 0. 0. 0. 0. 0. 0. 0. 0. 0. 0. 0. 0. 0. 0. 0. 0. 0.
      0. 0. 0. 0. 0. 0. 0. 0. 0. 0. 0. 0. 0. 0. 0. 0. 0. 0. 0. 0. 0. 0.
      0. 0. 0. 0. 2.77777780e-002 0. 0. 0. 0. 0. 0. 0. 0. 0. 0. 0. 0. 0.
      0. 0. 0. 0. 0. 0. 0. 0. 0. 0. 0. 0. 2.77777780e-002 0. 0. 0. 0. 0.
      0. 0. 0. 0. 0. 0. 0. 0. 0. 0. 0. 0. 0. 0. 0. 0. 0. 0. 0. 0. 0. 0.
      0. 0. 0. 0. 0. 0. 0. 0. 0. 0. 0. 0. 0. 0. 0. 0. 0. 0. 0. 0.
      2.77777780e-002 0. 0. 0. 0. 0. 0. 0. 0. 0. 0. 0. 0. 0. 0. 0. 0. 0.
      0. 0. 2.77777780e-002 0. 0. 0. 0. 0. 0. 0. 0. 0. 0. 0. 0. 0. 0. 0.
      0. 0. 0. 0. 0. 0. 0. 0. 0. 0. 0. 0. 0. 0. 0. 0. 0. 0. 0. 0. 0. 0.
      0. 0. 0. 0. 0. 0. 0. 0. 0. 0. 0. 0. 0. 0. 0. 0. 0. 2.77777780e-002
      0. 0. 0. 0. 0. 0. 0. 0. 0. 0. 0. 0. 0. 0. 0. 0. 0. 0. 0. 0. 0. 0.
      0. 0. 0. 0. 0. 0. 0. 0. 0. 0. 0. 0. 0. 0. 0. 0. 0. 0. 0. 0. 0. 0.
      0. 0. 0. 0. 0. 0. 0. 0. 0. 0. 0. 0. 0. 0. 0. 0. 0. 0. 0. 0. 0. 0.
      0. 0. 0. 0. 0. 0. 0. 0. 0. 0. 0. 0. 0. 0. 2.77777780e-002 0. 0. 0.
      0. 0. 0. 0. 0. 0. 0. 0. 0. 0. 0. 0. 0. 0. 0. 0. 0. 0. 0. 0. 0.</_>
    <_>
      0. 0. 2.70270277e-003 0. 0. 0. 0. 0. 0. 0. 0. 0. 0. 0. 0.
      8.10810830e-003 0. 0. 0. 0. 0. 0. 0. 0. 0. 5.40540554e-003 0. 0.
      0. 2.70270277e-003 0. 5.40540554e-003 2.70270277e-003
      2.70270277e-003 0. 0. 2.70270277e-003 0. 0. 0. 0. 2.70270277e-003
      0. 0. 0. 0. 0. 0. 0. 2.70270277e-003 2.70270277e-003 0. 0. 0. 0.
      2.70270277e-003 0. 5.40540554e-003 0. 0. 0. 0. 2.70270277e-003
      2.70270277e-003 0. 2.70270277e-003 5.40540554e-003 2.70270277e-003
      0. 2.70270277e-003 2.70270277e-003 0. 0. 0. 0. 0. 0. 0.
      2.70270277e-003 0. 0. 0. 0. 5.40540554e-003 0. 5.40540554e-003 0.
      2.70270277e-003 0. 0. 0. 5.40540554e-003 0. 0. 0. 0. 0.
      2.70270277e-003 0. 0. 2.70270277e-003 0. 2.70270277e-003 0. 0.
      5.40540554e-003 0. 0. 0. 2.70270277e-003 0. 0. 5.40540554e-003
      2.70270277e-003 0. 0. 0. 0. 2.70270277e-003 0. 2.70270277e-003
      2.70270277e-003 5.40540554e-003 0. 0. 0. 2.70270277e-003 0. 0. 0.
      0. 0. 0. 2.70270277e-003 0. 5.40540554e-003 0. 0. 0.
      2.70270277e-003 0. 5.40540554e-003 0. 0. 0. 0. 0. 0. 0. 0. 0. 0.
      0. 0. 0. 2.70270277e-003 0. 2.70270277e-003 0. 2.70270277e-003
      2.70270277e-003 2.70270277e-003 0. 0. 0. 0. 0. 0. 0.
      2.70270277e-003 0. 2.70270277e-003 2.70270277e-003 0. 0.
      5.40540554e-003 0. 2.70270277e-003 0. 0. 2.70270277e-003
      8.10810830e-003 0. 0. 5.40540554e-003 5.40540554e-003
      5.40540554e-003 2.70270277e-003 0. 2.70270277e-003 0. 0. 0. 0. 0.
      0. 0. 0. 0. 0. 0. 5.40540554e-003 0. 0. 0. 0. 2.70270277e-003
      2.70270277e-003 0. 0. 0. 0. 2.70270277e-003 0. 2.70270277e-003
      5.40540554e-003 0. 0. 0. 0. 2.70270277e-003 2.70270277e-003 0.
      2.70270277e-003 0. 0. 0. 0. 2.70270277e-003 2.70270277e-003 0. 0.
